{"learner":{"attributes":{"best_iteration":"26","best_score":"0.8586782830604235","scikit_learn":"{\"_estimator_type\": \"regressor\"}"},"feature_names":[],"feature_types":[],"gradient_booster":{"model":{"gbtree_model_param":{"num_parallel_tree":"1","num_trees":"57"},"iteration_indptr":[0,1,2,3,4,5,6,7,8,9,10,11,12,13,14,15,16,17,18,19,20,21,22,23,24,25,26,27,28,29,30,31,32,33,34,35,36,37,38,39,40,41,42,43,44,45,46,47,48,49,50,51,52,53,54,55,56,57],"tree_info":[0,0,0,0,0,0,0,0,0,0,0,0,0,0,0,0,0,0,0,0,0,0,0,0,0,0,0,0,0,0,0,0,0,0,0,0,0,0,0,0,0,0,0,0,0,0,0,0,0,0,0,0,0,0,0,0,0],"trees":[{"base_weights":[1.6569847E-2,-1.763795E-1,3.3689648E-2,1.3160396E-1,-2.728025E-1,-1.4243507E0,1.6513954E-1,3.82775E-1,-7.1982044E-1,-1.1412001E-1,-5.057285E-1,-1.8456918E-1,2.2202802E-1,4.7808468E-1,-1.0345621E0,-6.132494E-1,-2.4602032E0,-1.8232042E-3,-4.370191E-2,-2.3192573E-2,9.548987E-3,6.7138234E-3,1.8155046E-2,1.0665177E-2,4.1066486E-2,-7.2828636E-2,-1.1170417E-2,-5.1763833E-2,-8.645046E-3,-6.1888266E-3,-1.7147803E-1],"categories":[],"categories_nodes":[],"categories_segments":[],"categories_sizes":[],"default_left":[0,0,1,0,0,1,0,0,0,0,0,0,0,0,0,1,0,0,0,0,0,0,0,0,0,0,0,0,0,0,0],"id":0,"left_children":[1,-1,3,5,7,9,11,13,15,-1,17,19,21,23,25,27,29,-1,-1,-1,-1,-1,-1,-1,-1,-1,-1,-1,-1,-1,-1],"loss_changes":[7.573493E1,0E0,3.744421E1,4.9471428E1,8.881182E1,1.4331375E1,1.8486828E1,1.7054533E1,3.156932E1,0E0,1.7782602E0,1.3750812E1,9.780235E0,1.0263983E1,2.2451153E0,3.1478668E1,2.1868492E1,0E0,0E0,0E0,0E0,0E0,0E0,0E0,0E0,0E0,0E0,0E0,0E0,0E0,0E0],"parents":[2147483647,0,0,2,2,3,3,4,4,5,5,6,6,7,7,8,8,10,10,11,11,12,12,13,13,14,14,15,15,16,16],"right_children":[2,-1,4,6,8,10,12,14,16,-1,18,20,22,24,26,28,30,-1,-1,-1,-1,-1,-1,-1,-1,-1,-1,-1,-1,-1,-1],"split_conditions":[-2.062058E0,-1.763795E-1,5.866459E-1,-1.2008852E1,-1.2715808E-1,-5.3963847E-3,-5.751294E-1,4.658808E-1,3.0649474E0,-1.1412001E-1,9.639998E-3,-1.712775E-2,2.572608E-1,1.2505357E0,1.1795979E0,4.589184E-1,-4.522271E-1,-1.8232042E-3,-4.370191E-2,-2.3192573E-2,9.548987E-3,6.7138234E-3,1.8155046E-2,1.0665177E-2,4.1066486E-2,-7.2828636E-2,-1.1170417E-2,-5.1763833E-2,-8.645046E-3,-6.1888266E-3,-1.7147803E-1],"split_indices":[1,0,116,179,195,237,71,37,116,0,30,116,97,116,0,114,68,0,0,0,0,0,0,0,0,0,0,0,0,0,0],"split_type":[0,0,0,0,0,0,0,0,0,0,0,0,0,0,0,0,0,0,0,0,0,0,0,0,0,0,0,0,0,0,0],"sum_hessian":[1.251E3,5E0,1.246E3,9.45E2,3.01E2,1.9E1,9.26E2,1.22E2,1.79E2,9E0,1E1,1.29E2,7.97E2,1.15E2,7E0,1.7E2,9E0,5E0,5E0,7.4E1,5.5E1,4.93E2,3.04E2,6.6E1,4.9E1,4E0,3E0,8.6E1,8.4E1,3E0,6E0],"tree_param":{"num_deleted":"0","num_feature":"244","num_nodes":"31","size_leaf_vector":"1"}},{"base_weights":[-3.5051154E-3,-4.3783293E0,2.125342E-2,-3.1207642E-1,-6.977739E-2,1.05205886E-1,-3.17319E-1,2.838782E-1,3.7918758E-2,-1.7321403E-1,-9.8792344E-1,3.0228725E-1,-3.6612898E-2,-3.0255321E-2,2.3292966E-1,-1.1936714E-1,-1.2756538E-1,-2.9515383E0,-5.213444E-1,1.7485928E-2,-8.947051E-4,-7.170111E-3,6.4478717E-3,1.3809492E-2,-4.523223E-2,-3.74971E-3,-8.991007E-2,-1.9955622E-1,-4.445856E-2,1.2694785E-2,-4.8745524E-2],"categories":[],"categories_nodes":[],"categories_segments":[],"categories_sizes":[],"default_left":[0,0,0,0,0,0,1,0,1,0,0,0,0,1,0,0,1,0,0,0,0,0,0,0,0,0,0,0,0,0,0],"id":1,"left_children":[1,3,5,-1,-1,7,9,11,13,15,17,19,-1,21,23,-1,25,27,29,-1,-1,-1,-1,-1,-1,-1,-1,-1,-1,-1,-1],"loss_changes":[1.347301E2,2.9428543E1,3.505895E1,0E0,0E0,1.1847157E1,2.3388935E1,5.228998E0,9.59949E0,1.9961576E1,3.7509747E1,4.0790806E0,0E0,9.639643E0,9.389587E0,0E0,1.7243288E1,1.3115242E1,1.2978039E1,0E0,0E0,0E0,0E0,0E0,0E0,0E0,0E0,0E0,0E0,0E0,0E0],"parents":[2147483647,0,0,1,1,2,2,5,5,6,6,7,7,8,8,9,9,10,10,11,11,13,13,14,14,16,16,17,17,18,18],"right_children":[2,4,6,-1,-1,8,10,12,14,16,18,20,-1,22,24,-1,26,28,30,-1,-1,-1,-1,-1,-1,-1,-1,-1,-1,-1,-1],"split_conditions":[-2.6967435E0,-1.7401494E0,7.1737057E-1,-3.1207642E-1,-6.977739E-2,-4.501309E-1,1.2462789E0,1.1620066E0,5.7329905E-1,-1.6512194E0,-1.2083647E0,4.8305103E-1,-3.6612898E-2,1.1970978E-1,1.4937661E0,-1.1936714E-1,2.9652E0,1.1623113E0,-8.4295154E-1,1.7485928E-2,-8.947051E-4,-7.170111E-3,6.4478717E-3,1.3809492E-2,-4.523223E-2,-3.74971E-3,-8.991007E-2,-1.9955622E-1,-4.445856E-2,1.2694785E-2,-4.8745524E-2],"split_indices":[33,19,60,0,0,60,127,6,194,127,73,222,0,124,187,0,114,12,69,0,0,0,0,0,0,0,0,0,0,0,0],"split_type":[0,0,0,0,0,0,0,0,0,0,0,0,0,0,0,0,0,0,0,0,0,0,0,0,0,0,0,0,0,0,0],"sum_hessian":[1.238E3,6E0,1.232E3,3E0,3E0,9.88E2,2.44E2,2.69E2,7.19E2,2.02E2,4.2E1,2.65E2,4E0,5.33E2,1.86E2,3E0,1.99E2,7E0,3.5E1,2.31E2,3.4E1,3.12E2,2.21E2,1.8E2,6E0,1.94E2,5E0,4E0,3E0,1.3E1,2.2E1],"tree_param":{"num_deleted":"0","num_feature":"244","num_nodes":"31","size_leaf_vector":"1"}},{"base_weights":[1.715947E-3,1.05322614E-1,-3.0945888E-1,-1.7885835E-1,2.1540274E-1,3.7786153E-1,-7.066781E-1,-2.1006808E-2,-7.8713304E-1,2.3560767E-1,-3.5535264E-1,-7.6956725E-1,5.489077E-1,-5.8178204E-1,-2.733868E0,1.0830245E-1,-4.3957528E-1,-1.2865263E0,-1.7235152E-1,1.754085E-1,3.846088E-1,-4.282323E-2,2.0823894E-2,-1.4371918E0,7.003492E-2,1.8849534E-1,8.963419E-1,-9.313457E-1,-1.9313645E-1,-1.7085797E-1,-3.2940913E-2,-5.6600906E-3,1.6625274E-2,-9.362646E-3,-6.425603E-2,-4.2096462E-2,-1.1679262E-1,2.5344933E-3,-6.904956E-2,9.357064E-3,-3.644251E-2,2.21602E-2,3.8945172E-3,-2.008788E-2,2.0023985E-2,-1.226472E-1,-3.0509887E-2,-6.4746E-2,1.5643029E-2,5.1576883E-2,2.122563E-2,-7.3604845E-2,-1.957989E-2,-1.2837145E-2,5.98843E-2],"categories":[],"categories_nodes":[],"categories_segments":[],"categories_sizes":[],"default_left":[1,0,0,0,1,0,0,0,0,1,0,0,0,0,0,0,0,0,0,1,0,0,0,0,0,0,0,0,0,0,0,0,0,0,0,0,0,0,0,0,0,0,0,0,0,0,0,0,0,0,0,0,0,0,0],"id":2,"left_children":[1,3,5,7,9,11,13,15,17,19,21,23,25,27,29,31,33,35,37,39,41,-1,43,45,-1,47,49,51,53,-1,-1,-1,-1,-1,-1,-1,-1,-1,-1,-1,-1,-1,-1,-1,-1,-1,-1,-1,-1,-1,-1,-1,-1,-1,-1],"loss_changes":[3.9634876E1,2.8916088E1,8.411609E1,2.4675064E1,7.7521057E0,2.2578108E1,4.7449577E1,1.1230439E1,1.590432E1,5.6530495E0,4.43705E0,2.3750565E1,1.2119297E1,2.4841103E1,1.2937614E1,7.9061546E0,1.0066269E1,1.1244892E1,6.942449E0,4.9731884E0,3.2202606E0,0E0,2.4068651E0,8.277159E0,0E0,9.531188E0,2.6059647E0,2.7548485E1,8.086811E0,0E0,0E0,0E0,0E0,0E0,0E0,0E0,0E0,0E0,0E0,0E0,0E0,0E0,0E0,0E0,0E0,0E0,0E0,0E0,0E0,0E0,0E0,0E0,0E0,0E0,0E0],"parents":[2147483647,0,0,1,1,2,2,3,3,4,4,5,5,6,6,7,7,8,8,9,9,10,10,11,11,12,12,13,13,14,14,15,15,16,16,17,17,18,18,19,19,20,20,22,22,23,23,25,25,26,26,27,27,28,28],"right_children":[2,4,6,8,10,12,14,16,18,20,22,24,26,28,30,32,34,36,38,40,42,-1,44,46,-1,48,50,52,54,-1,-1,-1,-1,-1,-1,-1,-1,-1,-1,-1,-1,-1,-1,-1,-1,-1,-1,-1,-1,-1,-1,-1,-1,-1,-1],"split_conditions":[6.144271E-1,-2.6311588E-1,-5.4479706E-1,7.3720104E-1,1.2365994E0,-1.5062871E0,3.0649474E0,4.82071E-1,-1.2947871E-1,1.2350355E-1,1.183059E-1,4.9056287E0,-9.160195E-1,4.5363447E-1,1.7683376E0,-9.928647E-2,4.7058824E-1,1.3511738E0,2.9325515E-1,1.62037E0,3.3231512E-1,-4.282323E-2,2.148338E-2,-2.2449255E-1,7.003492E-2,-4.6731535E-1,2.4884795E-1,6.5037176E-2,1.9383105E0,-1.7085797E-1,-3.2940913E-2,-5.6600906E-3,1.6625274E-2,-9.362646E-3,-6.425603E-2,-4.2096462E-2,-1.1679262E-1,2.5344933E-3,-6.904956E-2,9.357064E-3,-3.644251E-2,2.21602E-2,3.8945172E-3,-2.008788E-2,2.0023985E-2,-1.226472E-1,-3.0509887E-2,-6.4746E-2,1.5643029E-2,5.1576883E-2,2.122563E-2,-7.3604845E-2,-1.957989E-2,-1.2837145E-2,5.98843E-2],"split_indices":[116,71,71,60,13,119,116,128,116,213,71,116,5,213,0,116,84,94,8,118,116,0,8,30,0,57,69,30,65,0,0,0,0,0,0,0,0,0,0,0,0,0,0,0,0,0,0,0,0,0,0,0,0,0,0],"split_type":[0,0,0,0,0,0,0,0,0,0,0,0,0,0,0,0,0,0,0,0,0,0,0,0,0,0,0,0,0,0,0,0,0,0,0,0,0,0,0,0,0,0,0,0,0,0,0,0,0,0,0,0,0,0,0],"sum_hessian":[1.228E3,9.22E2,3.06E2,2.57E2,6.65E2,1.12E2,1.94E2,2.05E2,5.2E1,6.43E2,2.2E1,1.4E1,9.8E1,1.84E2,1E1,1.57E2,4.8E1,2.8E1,2.4E1,4.6E2,1.83E2,9E0,1.3E1,1.1E1,3E0,4.9E1,4.9E1,9.6E1,8.8E1,7E0,3E0,7.9E1,7.8E1,3.8E1,1E1,2.1E1,7E0,2.1E1,3E0,4.55E2,5E0,1.53E2,3E1,6E0,7E0,4E0,7E0,3E0,4.6E1,3.7E1,1.2E1,4.7E1,4.9E1,8.5E1,3E0],"tree_param":{"num_deleted":"0","num_feature":"244","num_nodes":"55","size_leaf_vector":"1"}},{"base_weights":[3.4927945E-3,-2.274768E0,2.545888E-2,-1.7830265E-1,-2.162425E-1,8.5704856E-2,-4.4039956E-1,-2.297162E-2,6.1201397E-3,-8.1229106E-2,1.9903927E-1,5.735847E-1,-1.1008214E0,-1.3648278E-2,-1.019067E0,2.8159094E-1,-4.9716294E-2,8.108519E-1,-3.7540504E-1,-1.6005265E0,-4.4219655E-1,-7.998422E-2,2.626257E-4,-2.8932933E-2,-1.0726788E-1,1.0214425E-2,2.1020597E-2,-4.713203E-3,6.8733245E-2,-4.307218E-3,5.490417E-2,-7.595535E-2,8.175379E-3,-1.3818966E-1,-4.4652376E-2,3.3994887E-2,-3.7846364E-2],"categories":[],"categories_nodes":[],"categories_segments":[],"categories_sizes":[],"default_left":[0,0,1,0,0,0,0,0,0,0,1,0,0,0,0,0,1,0,1,0,0,0,0,0,0,0,0,0,0,0,0,0,0,0,0,0,0],"id":3,"left_children":[1,3,5,7,-1,9,11,-1,-1,13,15,17,19,21,23,25,27,29,31,33,35,-1,-1,-1,-1,-1,-1,-1,-1,-1,-1,-1,-1,-1,-1,-1,-1],"loss_changes":[6.2889015E1,5.0353657E1,3.505683E1,6.816996E-1,0E0,2.0971684E1,9.644514E1,0E0,0E0,2.8276997E1,1.3590412E1,1.3182299E1,2.7721252E1,1.2728351E1,1.3367004E1,5.17432E0,1.0471285E1,1.2047483E1,7.78021E0,3.7492485E1,1.4295481E1,0E0,0E0,0E0,0E0,0E0,0E0,0E0,0E0,0E0,0E0,0E0,0E0,0E0,0E0,0E0,0E0],"parents":[2147483647,0,0,1,1,2,2,3,3,5,5,6,6,9,9,10,10,11,11,12,12,13,13,14,14,15,15,16,16,17,17,18,18,19,19,20,20],"right_children":[2,4,6,8,-1,10,12,-1,-1,14,16,18,20,22,24,26,28,30,32,34,36,-1,-1,-1,-1,-1,-1,-1,-1,-1,-1,-1,-1,-1,-1,-1,-1],"split_conditions":[-2.8762238E0,1.7726694E0,1.2149323E0,0E0,-2.162425E-1,-1.3572614E-1,-3.2017112E-1,-2.297162E-2,6.1201397E-3,1.3897849E0,3.3231512E-1,5.894946E-1,4.2279604E-1,-1.3584385E0,1.8994726E-1,4.1184276E-1,1.6372565E0,-7.567387E-1,-1.4750967E0,-3.7806075E-2,-1.6382411E-1,-7.998422E-2,2.626257E-4,-2.8932933E-2,-1.0726788E-1,1.0214425E-2,2.1020597E-2,-4.713203E-3,6.8733245E-2,-4.307218E-3,5.490417E-2,-7.595535E-2,8.175379E-3,-1.3818966E-1,-4.4652376E-2,3.3994887E-2,-3.7846364E-2],"split_indices":[26,209,116,31,0,23,195,0,0,59,116,127,130,80,127,71,122,19,130,98,23,0,0,0,0,0,0,0,0,0,0,0,0,0,0,0,0],"split_type":[0,0,0,0,0,0,0,0,0,0,0,0,0,0,0,0,0,0,0,0,0,0,0,0,0,0,0,0,0,0,0,0,0,0,0,0,0],"sum_hessian":[1.259E3,1.1E1,1.248E3,6E0,5E0,1.106E3,1.42E2,3E0,3E0,4.47E2,6.59E2,5.6E1,8.6E1,4.18E2,2.9E1,4.95E2,1.64E2,4.5E1,1.1E1,4.8E1,3.8E1,4E0,4.14E2,2.2E1,7E0,3.2E2,1.75E2,1.6E2,4E0,1.1E1,3.4E1,3E0,8E0,1.7E1,3.1E1,8E0,3E1],"tree_param":{"num_deleted":"0","num_feature":"244","num_nodes":"37","size_leaf_vector":"1"}},{"base_weights":[2.6562602E-5,-2.2353326E-1,2.1722069E-2,7.462943E-2,-4.4626474E-1,3.3693385E-1,6.416756E-3,-1.8777035E-1,-3.3420917E-1,4.3358096E-1,2.710924E-2,1.65358E-2,-8.809448E-2,-1.7084251E-1,-1.1148072E0,2.0372905E-2,7.11734E-2,1.2860946E-2,-3.3722486E-2,-9.474009E-3,3.4480896E-3,-1.3609232E-2,2.7200088E-2,-1.2508188E-1,-2.5941024E-2],"categories":[],"categories_nodes":[],"categories_segments":[],"categories_sizes":[],"default_left":[0,0,1,0,0,0,1,0,0,0,0,0,0,0,0,0,0,0,0,0,0,0,0,0,0],"id":4,"left_children":[1,-1,3,5,7,9,11,-1,13,15,17,19,-1,21,23,-1,-1,-1,-1,-1,-1,-1,-1,-1,-1],"loss_changes":[1.20506645E2,0E0,3.0723236E1,1.9931517E1,4.505773E1,6.82922E0,1.5726192E1,0E0,1.5366396E1,3.762169E0,9.172148E0,9.537939E0,0E0,7.5826025E0,1.5757235E1,0E0,0E0,0E0,0E0,0E0,0E0,0E0,0E0,0E0,0E0],"parents":[2147483647,0,0,2,2,3,3,4,4,5,5,6,6,8,8,9,9,10,10,11,11,13,13,14,14],"right_children":[2,-1,4,6,8,10,12,-1,14,16,18,20,-1,22,24,-1,-1,-1,-1,-1,-1,-1,-1,-1,-1],"split_conditions":[-2.6967435E0,-2.2353326E-1,9.9990344E-1,-6.509408E-1,-1.3850517E0,6.767854E-1,1.2692035E1,-1.8777035E-1,1.166077E0,2.3082163E0,2.825024E-1,-2.8909473E0,-8.809448E-2,6.8189716E-1,-6.8781316E-1,2.0372905E-2,7.11734E-2,1.2860946E-2,-3.3722486E-2,-9.474009E-3,3.4480896E-3,-1.3609232E-2,2.7200088E-2,-1.2508188E-1,-2.5941024E-2],"split_indices":[33,0,234,69,124,224,205,0,113,116,116,179,0,139,185,0,0,0,0,0,0,0,0,0,0],"split_type":[0,0,0,0,0,0,0,0,0,0,0,0,0,0,0,0,0,0,0,0,0,0,0,0,0],"sum_hessian":[1.245E3,5E0,1.24E3,1.115E3,1.25E2,2.29E2,8.86E2,3E0,1.22E2,1.74E2,5.5E1,8.82E2,4E0,1.02E2,2E1,1.71E2,3E0,4.2E1,1.3E1,1.78E2,7.04E2,9E1,1.2E1,5E0,1.5E1],"tree_param":{"num_deleted":"0","num_feature":"244","num_nodes":"25","size_leaf_vector":"1"}},{"base_weights":[1.1457461E-2,-2.9452977E0,3.721801E-2,-3.1528717E-1,-8.844128E-1,9.395975E-2,-2.9641527E-1,-7.4777654E-3,-7.7844076E-2,-6.181398E-1,1.2409285E-1,4.1376427E-1,-8.476473E-1,-1.296831E0,-1.3908125E-1,-1.9642372E-1,1.5551051E-1,6.926264E-1,-4.6639663E-1,-1.5065732E0,-3.376588E-1,-7.4376546E-2,-1.1624946E-2,-4.072527E-2,9.145669E-3,-6.0153863E-4,-3.932089E-2,8.363222E-3,-3.1672418E-2,-7.7604414E-3,4.1147888E-2,-5.8264206E-3,-9.058686E-2,-4.6019565E-2,-1.1645788E-1,7.492598E-2,-2.3117198E-2],"categories":[],"categories_nodes":[],"categories_segments":[],"categories_sizes":[],"default_left":[0,0,1,0,0,0,0,0,0,0,0,0,0,0,0,0,1,0,0,0,0,0,0,0,0,0,0,0,0,0,0,0,0,0,0,0,0],"id":5,"left_children":[1,3,5,-1,7,9,11,-1,-1,13,15,17,19,21,23,25,27,29,31,33,35,-1,-1,-1,-1,-1,-1,-1,-1,-1,-1,-1,-1,-1,-1,-1,-1],"loss_changes":[9.700871E1,6.988452E1,2.3974169E1,0E0,3.5498648E0,2.326606E1,7.242528E1,0E0,0E0,1.398189E1,1.0499134E1,2.022659E1,3.425551E1,3.1355724E0,6.084182E0,1.0028233E1,8.850477E0,7.045473E0,9.009893E0,1.9229591E1,1.4325869E1,0E0,0E0,0E0,0E0,0E0,0E0,0E0,0E0,0E0,0E0,0E0,0E0,0E0,0E0,0E0,0E0],"parents":[2147483647,0,0,1,1,2,2,4,4,5,5,6,6,9,9,10,10,11,11,12,12,13,13,14,14,15,15,16,16,17,17,18,18,19,19,20,20],"right_children":[2,4,6,-1,8,10,12,-1,-1,14,16,18,20,22,24,26,28,30,32,34,36,-1,-1,-1,-1,-1,-1,-1,-1,-1,-1,-1,-1,-1,-1,-1,-1],"split_conditions":[-2.8762238E0,-1.3850517E0,1.0340602E0,-3.1528717E-1,5.9492626E0,-1.0419775E1,-1.2715808E-1,-7.4777654E-3,-7.7844076E-2,1.2955731E-1,-1.0197465E0,1.4824072E0,4.5363447E-1,-9.551691E-2,-9.05596E-1,3.3231512E-1,1.9447911E0,-1.3440253E0,-1.5371288E0,1.5863053E0,-1.7366258E0,-7.4376546E-2,-1.1624946E-2,-4.072527E-2,9.145669E-3,-6.0153863E-4,-3.932089E-2,8.363222E-3,-3.1672418E-2,-7.7604414E-3,4.1147888E-2,-5.8264206E-3,-9.058686E-2,-4.6019565E-2,-1.1645788E-1,7.492598E-2,-2.3117198E-2],"split_indices":[26,124,116,0,176,179,195,0,0,116,3,211,114,0,188,116,222,175,71,116,123,0,0,0,0,0,0,0,0,0,0,0,0,0,0,0,0],"split_type":[0,0,0,0,0,0,0,0,0,0,0,0,0,0,0,0,0,0,0,0,0,0,0,0,0,0,0,0,0,0,0,0,0,0,0,0,0],"sum_hessian":[1.275E3,1E1,1.265E3,3E0,7E0,1.082E3,1.83E2,4E0,3E0,4.3E1,1.039E3,8E1,1.03E2,1.7E1,2.6E1,9.2E1,9.47E2,6.1E1,1.9E1,4.4E1,5.9E1,1.4E1,3E0,8E0,1.8E1,7.1E1,2.1E1,9.34E2,1.3E1,8E0,5.3E1,1.6E1,3E0,2.7E1,1.7E1,3E0,5.6E1],"tree_param":{"num_deleted":"0","num_feature":"244","num_nodes":"37","size_leaf_vector":"1"}},{"base_weights":[9.8784175E-3,-1.7938387E-1,2.7316436E-2,6.6299915E-2,-7.1471244E-1,2.9097012E-1,1.763903E-2,-2.828433E0,-4.3594894E-1,4.4883376E-1,-1.0073063E-2,2.9011767E-2,-8.1673324E-1,-6.461251E-2,-1.816254E-1,4.5853253E-2,-8.8955283E-1,2.6761537E-2,5.9901044E-4,4.154679E-3,-4.5732882E-2,1.8048724E-3,-5.440712E-2,-8.842579E-3,-6.628265E-2,-2.3932716E-2,2.096395E-2,-1.8378142E-2,-7.480179E-2],"categories":[],"categories_nodes":[],"categories_segments":[],"categories_sizes":[],"default_left":[0,0,1,0,0,0,0,0,0,0,0,1,0,0,0,0,0,0,0,0,0,0,0,0,0,0,0,0,0],"id":6,"left_children":[1,-1,3,5,7,9,11,13,15,17,19,21,23,-1,-1,25,27,-1,-1,-1,-1,-1,-1,-1,-1,-1,-1,-1,-1],"loss_changes":[7.803431E1,0E0,3.5938644E1,1.2886402E1,3.4972656E1,1.0028389E1,9.177814E0,3.459858E0,1.236381E1,5.147377E0,6.311387E0,7.5411587E0,3.8487349E0,0E0,0E0,5.678962E0,8.444517E0,0E0,0E0,0E0,0E0,0E0,0E0,0E0,0E0,0E0,0E0,0E0,0E0],"parents":[2147483647,0,0,2,2,3,3,4,4,5,5,6,6,7,7,8,8,9,9,10,10,11,11,12,12,15,15,16,16],"right_children":[2,-1,4,6,8,10,12,14,16,18,20,22,24,-1,-1,26,28,-1,-1,-1,-1,-1,-1,-1,-1,-1,-1,-1,-1],"split_conditions":[-2.6967435E0,-1.7938387E-1,1.2587595E0,-7.813041E-1,-1.2083647E0,5.6607974E-1,1.9351535E0,-4.6673405E-1,6.5807515E-1,7.887045E-1,1.3287809E0,2.5960557E0,-1.9478884E-1,-6.461251E-2,-1.816254E-1,-2.3023878E-1,1.5401486E0,2.6761537E-2,5.9901044E-4,4.154679E-3,-4.5732882E-2,1.8048724E-3,-5.440712E-2,-8.842579E-3,-6.628265E-2,-2.3932716E-2,2.096395E-2,-1.8378142E-2,-7.480179E-2],"split_indices":[33,0,127,69,73,73,191,5,32,224,174,32,123,0,0,223,116,0,0,0,0,0,0,0,0,0,0,0,0],"split_type":[0,0,0,0,0,0,0,0,0,0,0,0,0,0,0,0,0,0,0,0,0,0,0,0,0,0,0,0,0],"sum_hessian":[1.247E3,5E0,1.242E3,1.181E3,6.1E1,2.09E2,9.72E2,6E0,5.5E1,1.37E2,7.2E1,9.6E2,1.2E1,3E0,3E0,2.7E1,2.8E1,1.14E2,2.3E1,6.6E1,6E0,9.55E2,5E0,6E0,6E0,1.1E1,1.6E1,1.6E1,1.2E1],"tree_param":{"num_deleted":"0","num_feature":"244","num_nodes":"29","size_leaf_vector":"1"}},{"base_weights":[-1.6037801E-2,-2.9852817E0,1.0129043E-2,-2.7956128E-1,-6.831386E-1,4.8157584E-2,-6.086992E-1,-6.811832E-2,7.093683E-3,3.1059974E-1,-1.1571308E-2,-2.217563E0,-2.8058344E-1,2.6203984E-1,1.7226143E0,4.3757778E-1,-3.5359863E-2,-2.7655227E0,-2.0263113E-2,7.748275E-2,-1.0814394E0,1.8824345E-2,-5.2012456E-5,3.9838236E-2,1.0964052E-1,1.3812536E-2,8.748702E-2,7.747786E-4,-2.0904634E-2,-6.010687E-2,-1.6650963E-1,2.7060522E-2,-5.812866E-3,-8.368381E-2,-2.2702147E-3],"categories":[],"categories_nodes":[],"categories_segments":[],"categories_sizes":[],"default_left":[0,0,1,0,0,0,0,0,0,0,1,0,0,0,0,1,0,0,0,0,0,0,0,0,0,0,0,0,0,0,0,0,0,0,0],"id":7,"left_children":[1,3,5,-1,7,9,11,-1,-1,13,15,17,19,21,23,25,27,29,-1,31,33,-1,-1,-1,-1,-1,-1,-1,-1,-1,-1,-1,-1,-1,-1],"loss_changes":[9.783591E1,6.15448E1,2.9272013E1,0E0,4.2379313E0,1.8436392E1,3.7136307E1,0E0,0E0,1.42978115E1,1.0200422E1,1.0478977E1,1.7676514E1,6.420991E0,1.0012035E0,9.475026E0,1.775902E1,3.4885864E0,0E0,3.968648E0,1.1410084E1,0E0,0E0,0E0,0E0,0E0,0E0,0E0,0E0,0E0,0E0,0E0,0E0,0E0,0E0],"parents":[2147483647,0,0,1,1,2,2,4,4,5,5,6,6,9,9,10,10,11,11,12,12,13,13,14,14,15,15,16,16,17,17,19,19,20,20],"right_children":[2,4,6,-1,8,10,12,-1,-1,14,16,18,20,22,24,26,28,30,-1,32,34,-1,-1,-1,-1,-1,-1,-1,-1,-1,-1,-1,-1,-1,-1],"split_conditions":[-2.8762238E0,-1.3684642E0,1.2462789E0,-2.7956128E-1,-2.3110037E0,-7.518871E-1,2.913645E-1,-6.811832E-2,7.093683E-3,2.3082163E0,-1.2920713E0,1.3378439E0,1.5401486E0,6.657896E-1,1.0099261E-1,2.072635E0,1.0966614E0,-8.2937443E-1,-2.0263113E-2,-4.6316725E-1,1.2445724E0,1.8824345E-2,-5.2012456E-5,3.9838236E-2,1.0964052E-1,1.3812536E-2,8.748702E-2,7.747786E-4,-2.0904634E-2,-6.010687E-2,-1.6650963E-1,2.7060522E-2,-5.812866E-3,-8.368381E-2,-2.2702147E-3],"split_indices":[26,124,127,0,0,69,34,0,0,116,65,46,116,58,1,116,116,0,0,117,57,0,0,0,0,0,0,0,0,0,0,0,0,0,0],"split_type":[0,0,0,0,0,0,0,0,0,0,0,0,0,0,0,0,0,0,0,0,0,0,0,0,0,0,0,0,0,0,0,0,0,0,0],"sum_hessian":[1.254E3,1E1,1.244E3,4E0,6E0,1.173E3,7.1E1,3E0,3E0,2.17E2,9.56E2,1.1E1,6E1,2.11E2,6E0,4.7E1,9.09E2,8E0,3E0,4.2E1,1.8E1,1.47E2,6.4E1,3E0,3E0,4.3E1,4E0,8.03E2,1.06E2,3E0,5E0,1.2E1,3E1,1.1E1,7E0],"tree_param":{"num_deleted":"0","num_feature":"244","num_nodes":"35","size_leaf_vector":"1"}},{"base_weights":[-6.5616597E-3,9.1738235E-3,-1.9732659E-1,4.54398E-2,-5.814053E-1,2.5113276E-1,-2.0903638E-2,-1.4029135E-1,-4.0782422E-1,2.0209405E-1,1.0122123E0,4.5489546E-2,-2.5639325E-1,-1.2261485E0,-1.3052928E-1,1.5620842E-2,-3.9505688E-4,8.917102E-2,2.1016667E-2,-1.8171152E-2,6.3753733E-3,-3.2940496E-2,2.0730091E-2,-1.0624849E-1,-8.998866E-3,-8.0525905E-2,-2.5045974E-4],"categories":[],"categories_nodes":[],"categories_segments":[],"categories_sizes":[],"default_left":[1,1,0,0,0,0,1,0,0,0,0,0,0,0,0,0,0,0,0,0,0,0,0,0,0,0,0],"id":8,"left_children":[1,3,-1,5,7,9,11,-1,13,15,17,19,21,23,25,-1,-1,-1,-1,-1,-1,-1,-1,-1,-1,-1,-1],"loss_changes":[7.7926605E1,2.665956E1,0E0,1.6062767E1,2.6334808E1,1.0385521E1,1.3932185E1,0E0,1.5134652E1,6.311247E0,6.7898445E0,2.3298225E1,5.3221397E1,1.5372515E1,9.490334E0,0E0,0E0,0E0,0E0,0E0,0E0,0E0,0E0,0E0,0E0,0E0,0E0],"parents":[2147483647,0,0,1,1,3,3,4,4,5,5,6,6,8,8,9,9,10,10,11,11,12,12,13,13,14,14],"right_children":[2,4,-1,6,8,10,12,-1,14,16,18,20,22,24,26,-1,-1,-1,-1,-1,-1,-1,-1,-1,-1,-1,-1],"split_conditions":[1.7054571E1,1.2462789E0,-1.9732659E-1,-5.9556824E-1,-1.3263602E0,1.4991212E0,6.3688403E-1,-1.4029135E-1,-1.5542477E0,9.753776E-1,4.2733258E-1,-6.1326486E-1,3.376737E-1,1.7164311E0,-1.1861178E0,1.5620842E-2,-3.9505688E-4,8.917102E-2,2.1016667E-2,-1.8171152E-2,6.3753733E-3,-3.2940496E-2,2.0730091E-2,-1.0624849E-1,-8.998866E-3,-8.0525905E-2,-2.5045974E-4],"split_indices":[205,127,0,68,124,116,116,0,121,125,12,23,196,123,192,0,0,0,0,0,0,0,0,0,0,0,0],"split_type":[0,0,0,0,0,0,0,0,0,0,0,0,0,0,0,0,0,0,0,0,0,0,0,0,0,0,0],"sum_hessian":[1.249E3,1.245E3,4E0,1.174E3,7.1E1,2.86E2,8.88E2,4E0,6.7E1,2.7E2,1.6E1,6.93E2,1.95E2,1.6E1,5.1E1,1.77E2,9.3E1,6E0,1E1,1.15E2,5.78E2,1.22E2,7.3E1,8E0,8E0,3E0,4.8E1],"tree_param":{"num_deleted":"0","num_feature":"244","num_nodes":"27","size_leaf_vector":"1"}},{"base_weights":[-4.634753E-4,2.2542289E-2,-2.5924323E0,6.2325157E-2,-2.9087028E-1,-2.2043979E-1,-1.6366487E-2,2.6849997E-1,1.4813217E-2,-3.3640775E-1,6.525606E-2,3.6504018E-1,-2.8210511E-2,5.6334898E-2,-2.3075964E-1,-1.6759506E0,-2.2749566E-1,2.2246378E-2,7.005968E-4,8.5139135E-3,-2.860468E-2,1.5357891E-2,7.0189306E-4,9.575248E-3,-2.0848995E-2,-1.0256871E-1,-2.874859E-2,-3.8961034E-2,-2.7629216E-3],"categories":[],"categories_nodes":[],"categories_segments":[],"categories_sizes":[],"default_left":[1,0,0,0,0,0,0,0,0,0,0,0,0,0,0,0,0,0,0,0,0,0,0,0,0,0,0,0,0],"id":9,"left_children":[1,3,5,7,9,-1,-1,11,13,15,-1,17,19,21,23,25,27,-1,-1,-1,-1,-1,-1,-1,-1,-1,-1,-1,-1],"loss_changes":[7.455505E1,1.539381E1,4.3340004E1,1.0713646E1,1.044434E1,0E0,0E0,5.9161034E0,9.101119E0,1.9269753E1,0E0,4.2944927E0,5.6432853E0,8.079504E0,1.0246216E1,2.6912193E0,1.1941998E1,0E0,0E0,0E0,0E0,0E0,0E0,0E0,0E0,0E0,0E0,0E0,0E0],"parents":[2147483647,0,0,1,1,2,2,3,3,4,4,7,7,8,8,9,9,11,11,12,12,13,13,14,14,15,15,16,16],"right_children":[2,4,6,8,10,-1,-1,12,14,16,-1,18,20,22,24,26,28,-1,-1,-1,-1,-1,-1,-1,-1,-1,-1,-1,-1],"split_conditions":[2.3079052E0,9.9990344E-1,-5.257363E-1,-7.518871E-1,4.9056287E0,-2.2043979E-1,-1.6366487E-2,6.767854E-1,9.850711E-1,-2.1854982E0,6.525606E-2,7.904581E-1,2.825024E-1,-5.689599E-1,-4.1270688E-1,-5.249274E-1,-3.2813424E-1,2.2246378E-2,7.005968E-4,8.5139135E-3,-2.860468E-2,1.5357891E-2,7.0189306E-4,9.575248E-3,-2.0848995E-2,-1.0256871E-1,-2.874859E-2,-3.8961034E-2,-2.7629216E-3],"split_indices":[62,234,38,69,116,0,0,224,81,73,0,33,116,140,185,185,123,0,0,0,0,0,0,0,0,0,0,0,0],"split_type":[0,0,0,0,0,0,0,0,0,0,0,0,0,0,0,0,0,0,0,0,0,0,0,0,0,0,0,0,0],"sum_hessian":[1.244E3,1.234E3,1E1,1.096E3,1.38E2,5E0,5E0,2.04E2,8.92E2,1.35E2,3E0,1.54E2,5E1,7.64E2,1.28E2,9E0,1.26E2,1.25E2,2.9E1,3.7E1,1.3E1,1.09E2,6.55E2,3.9E1,8.9E1,6E0,3E0,2.9E1,9.7E1],"tree_param":{"num_deleted":"0","num_feature":"244","num_nodes":"29","size_leaf_vector":"1"}},{"base_weights":[-2.5016848E-2,-2.780017E0,-7.2136205E-3,1.1170114E-3,-2.2429498E-1,5.1395953E-2,-3.8384402E-1,-6.139246E-1,8.513039E-2,2.8173047E-1,-7.868242E-1,-1.235207E0,-3.3710912E-2,9.7818114E-2,-7.707224E-1,-6.481441E-1,5.570582E-1,-1.7558665E0,-5.076098E-1,-3.5096675E-2,-9.205078E-2,6.9942283E-3,-4.401135E-2,7.372337E-3,-3.2889422E-3,-6.212307E-2,-1.9905937E-3,-7.594789E-2,2.7488982E-2,-5.046626E-3,4.0926248E-2,-1.2689362E-1,-1.231581E-2,-3.207829E-2,4.079613E-2],"categories":[],"categories_nodes":[],"categories_segments":[],"categories_sizes":[],"default_left":[0,0,1,0,0,0,0,0,1,0,0,0,0,1,0,0,0,0,0,0,0,0,0,0,0,0,0,0,0,0,0,0,0,0,0],"id":10,"left_children":[1,3,5,-1,-1,7,9,11,13,15,17,19,21,23,25,27,29,31,33,-1,-1,-1,-1,-1,-1,-1,-1,-1,-1,-1,-1,-1,-1,-1,-1],"loss_changes":[6.1109184E1,3.879051E1,2.7535284E1,0E0,0E0,2.4194254E1,4.5332024E1,1.8576244E1,1.116011E1,1.6737244E1,2.7292267E1,6.5299797E0,4.3118024E0,8.242503E0,4.994293E0,1.6579536E1,8.75651E0,2.6247429E1,1.5221518E1,0E0,0E0,0E0,0E0,0E0,0E0,0E0,0E0,0E0,0E0,0E0,0E0,0E0,0E0,0E0,0E0],"parents":[2147483647,0,0,1,1,2,2,5,5,6,6,7,7,8,8,9,9,10,10,11,11,12,12,13,13,14,14,15,15,16,16,17,17,18,18],"right_children":[2,4,6,-1,-1,8,10,12,14,16,18,20,22,24,26,28,30,32,34,-1,-1,-1,-1,-1,-1,-1,-1,-1,-1,-1,-1,-1,-1,-1,-1],"split_conditions":[-2.6967435E0,-1.3498362E0,1.0802333E0,1.1170114E-3,-2.2429498E-1,-1.0419775E1,-4.1434294E-1,3.3231512E-1,1.9447911E0,1.2505357E0,-2.1480036E-1,1.0451635E-1,4.299694E-1,2.9897058E-1,2.513618E-2,-1.206402E-1,-7.893583E-1,5.773242E-1,2.3450494E0,-3.5096675E-2,-9.205078E-2,6.9942283E-3,-4.401135E-2,7.372337E-3,-3.2889422E-3,-6.212307E-2,-1.9905937E-3,-7.594789E-2,2.7488982E-2,-5.046626E-3,4.0926248E-2,-1.2689362E-1,-1.231581E-2,-3.207829E-2,4.079613E-2],"split_indices":[33,174,116,0,0,179,97,116,222,116,47,234,9,116,192,16,56,97,121,0,0,0,0,0,0,0,0,0,0,0,0,0,0,0,0],"split_type":[0,0,0,0,0,0,0,0,0,0,0,0,0,0,0,0,0,0,0,0,0,0,0,0,0,0,0,0,0,0,0,0,0,0,0],"sum_hessian":[1.251E3,7E0,1.244E3,3E0,4E0,1.077E3,1.67E2,5.1E1,1.026E3,6.3E1,1.04E2,2.4E1,2.7E1,1.012E3,1.4E1,1.4E1,4.9E1,2.2E1,8.2E1,1.4E1,1E1,2.3E1,4E0,7.77E2,2.35E2,8E0,6E0,8E0,6E0,1.4E1,3.5E1,1.4E1,8E0,7.5E1,7E0],"tree_param":{"num_deleted":"0","num_feature":"244","num_nodes":"35","size_leaf_vector":"1"}},{"base_weights":[1.3933935E-3,-2.086324E0,2.3395764E-2,-2.4990217E-1,-2.2577713E-1,6.122573E-2,-2.466343E-1,2.1052656E-3,-2.9807825E-2,6.760777E-2,-8.293067E-2,-1.2759709E0,-8.025018E-2,4.1233978E-1,4.3304436E-2,-1.9406302E0,-4.862235E-1,-1.1854985E0,3.932046E-2,9.3823224E-2,1.3573741E-2,-4.5608968E-2,2.7878757E-3,-4.238609E-2,-1.2148803E-1,-0E0,-3.8672E-2,-1.202375E-2,-8.667894E-2,-2.910499E-2,6.059744E-3],"categories":[],"categories_nodes":[],"categories_segments":[],"categories_sizes":[],"default_left":[0,0,1,0,0,0,0,0,0,1,0,0,0,0,0,0,0,0,0,0,0,0,0,0,0,0,0,0,0,0,0],"id":11,"left_children":[1,3,5,-1,7,9,11,-1,-1,13,-1,15,17,19,21,23,25,27,29,-1,-1,-1,-1,-1,-1,-1,-1,-1,-1,-1,-1],"loss_changes":[5.7260937E1,6.877525E1,1.2643012E1,0E0,9.7346973E-1,1.1884033E1,2.5794308E1,0E0,0E0,9.018481E0,0E0,9.836906E0,1.7605724E1,1.39191065E1,1.2030515E1,3.4928093E0,1.5869205E0,6.1190453E0,6.1298676E0,0E0,0E0,0E0,0E0,0E0,0E0,0E0,0E0,0E0,0E0,0E0,0E0],"parents":[2147483647,0,0,1,1,2,2,4,4,5,5,6,6,9,9,11,11,12,12,13,13,14,14,15,15,16,16,17,17,18,18],"right_children":[2,4,6,-1,8,10,12,-1,-1,14,-1,16,18,20,22,24,26,28,30,-1,-1,-1,-1,-1,-1,-1,-1,-1,-1,-1,-1],"split_conditions":[-2.8762238E0,-1.3684642E0,9.37406E-1,-2.4990217E-1,-8.1105866E-2,1.25E0,1.246494E-1,2.1052656E-3,-2.9807825E-2,-1.5981836E0,-8.293067E-2,-2.8915623E-1,-1.5362495E0,-9.169201E-1,-1.2674565E0,-4.3074027E-1,5.923351E-1,4.7682282E-1,-8.773558E-1,9.3823224E-2,1.3573741E-2,-4.5608968E-2,2.7878757E-3,-4.238609E-2,-1.2148803E-1,-0E0,-3.8672E-2,-1.202375E-2,-8.667894E-2,-2.910499E-2,6.059744E-3],"split_indices":[26,124,127,0,198,240,34,0,0,67,0,73,121,10,6,39,233,11,30,0,0,0,0,0,0,0,0,0,0,0,0],"split_type":[0,0,0,0,0,0,0,0,0,0,0,0,0,0,0,0,0,0,0,0,0,0,0,0,0,0,0,0,0,0,0],"sum_hessian":[1.249E3,1.2E1,1.237E3,4E0,8E0,1.086E3,1.51E2,5E0,3E0,1.083E3,3E0,2E1,1.31E2,7E1,1.013E3,1E1,1E1,1.2E1,1.19E2,5E0,6.5E1,1.2E1,1.001E3,4E0,6E0,4E0,6E0,5E0,7E0,1.3E1,1.06E2],"tree_param":{"num_deleted":"0","num_feature":"244","num_nodes":"31","size_leaf_vector":"1"}},{"base_weights":[1.0127233E-3,-2.7651217E0,2.3454381E-2,-2.399061E-1,-2.9671732E-2,5.302528E-2,-4.9223185E-1,-1.0896441E0,6.1908342E-2,-1.4686228E-1,-1.1874485E0,-8.024844E-3,-8.904313E-2,5.1180083E-2,9.993172E-1,-3.16004E-2,-5.3284477E-2,-1.8837887E0,-3.1076393E-1,-1.0126144E-2,4.217067E-3,1.1226633E-2,9.245719E-2,-1.8475324E-2,9.335372E-3,-2.718539E-2,-1.1294796E-1,-3.5036854E-2,2.6093667E-2],"categories":[],"categories_nodes":[],"categories_segments":[],"categories_sizes":[],"default_left":[0,0,1,0,0,0,0,0,1,0,0,0,0,0,0,0,0,0,0,0,0,0,0,0,0,0,0,0,0],"id":12,"left_children":[1,3,5,-1,-1,7,9,11,13,15,17,-1,-1,19,21,23,-1,25,27,-1,-1,-1,-1,-1,-1,-1,-1,-1,-1],"loss_changes":[7.713818E1,4.0763878E1,1.8845573E1,0E0,0E0,1.1850804E1,1.5779324E1,5.300234E0,1.1539821E1,4.72826E0,1.2625486E1,0E0,0E0,9.688749E0,7.9370604E0,3.1855066E0,0E0,4.5246277E0,3.9553504E0,0E0,0E0,0E0,0E0,0E0,0E0,0E0,0E0,0E0,0E0],"parents":[2147483647,0,0,1,1,2,2,5,5,6,6,7,7,8,8,9,9,10,10,13,13,14,14,15,15,17,17,18,18],"right_children":[2,4,6,-1,-1,8,10,12,14,16,18,-1,-1,20,22,24,-1,26,28,-1,-1,-1,-1,-1,-1,-1,-1,-1,-1],"split_conditions":[-2.8762238E0,-1.3684642E0,1.2324548E0,-2.399061E-1,-2.9671732E-2,-2.261171E0,1.3897849E0,1.4328289E-1,4.8084307E0,6.7347634E-1,1.1629978E0,-8.024844E-3,-8.904313E-2,-9.53959E-1,-4.417108E-1,5.9033785E-2,-5.3284477E-2,-1.7506307E-1,5.614233E-1,-1.0126144E-2,4.217067E-3,1.1226633E-2,9.245719E-2,-1.8475324E-2,9.335372E-3,-2.718539E-2,-1.1294796E-1,-3.5036854E-2,2.6093667E-2],"split_indices":[26,124,234,0,0,30,59,63,221,37,67,0,0,26,113,209,0,38,39,0,0,0,0,0,0,0,0,0,0],"split_type":[0,0,0,0,0,0,0,0,0,0,0,0,0,0,0,0,0,0,0,0,0,0,0,0,0,0,0,0,0],"sum_hessian":[1.245E3,9E0,1.236E3,4E0,5E0,1.17E3,6.6E1,8E0,1.162E3,4.5E1,2.1E1,4E0,4E0,1.15E3,1.2E1,4.1E1,4E0,1.1E1,1E1,1.32E2,1.018E3,7E0,5E0,1.6E1,2.5E1,3E0,8E0,7E0,3E0],"tree_param":{"num_deleted":"0","num_feature":"244","num_nodes":"29","size_leaf_vector":"1"}},{"base_weights":[1.5505569E-2,3.5976E-2,-2.3048594E0,4.529507E-2,-1.4051365E0,-1.9215028E-1,-1.8295154E-2,-1.1314361E-1,1.2036037E-1,-1.4905228E-2,-9.948673E-2,-9.113884E-2,-7.631335E-2,1.3493474E-1,-5.511916E-1,9.192496E-3,-9.203519E-3,5.7516177E-3,5.3587314E-2,-5.3652503E-2,3.939171E-3],"categories":[],"categories_nodes":[],"categories_segments":[],"categories_sizes":[],"default_left":[1,1,0,0,0,0,0,0,0,0,0,0,0,1,0,0,0,0,0,0,0],"id":13,"left_children":[1,3,5,7,9,-1,-1,11,13,-1,-1,15,-1,17,19,-1,-1,-1,-1,-1,-1],"loss_changes":[5.97521E1,1.6728376E1,3.0979324E1,1.4809538E1,4.3554173E0,0E0,0E0,1.2137339E1,8.303142E0,0E0,0E0,1.0128138E1,0E0,1.51959095E1,6.1016054E0,0E0,0E0,0E0,0E0,0E0,0E0],"parents":[2147483647,0,0,1,1,2,2,3,3,4,4,7,7,8,8,11,11,13,13,14,14],"right_children":[2,4,6,8,10,-1,-1,12,14,-1,-1,16,-1,18,20,-1,-1,-1,-1,-1,-1],"split_conditions":[2.3079052E0,4.313874E0,-5.257363E-1,-3.8907874E-1,-5.5257756E-1,-1.9215028E-1,-1.8295154E-2,1.3541484E0,1.9748513E0,-1.4905228E-2,-9.948673E-2,-6.1808324E-1,-7.631335E-2,2.3082163E0,9.868933E-1,9.192496E-3,-9.203519E-3,5.7516177E-3,5.3587314E-2,-5.3652503E-2,3.939171E-3],"split_indices":[62,57,38,119,8,0,0,0,5,0,0,198,0,116,47,0,0,0,0,0,0],"split_type":[0,0,0,0,0,0,0,0,0,0,0,0,0,0,0,0,0,0,0,0,0],"sum_hessian":[1.26E3,1.25E3,1E1,1.243E3,7E0,5E0,5E0,3.99E2,8.44E2,3E0,4E0,3.94E2,5E0,8.27E2,1.7E1,9.9E1,2.95E2,8.11E2,1.6E1,9E0,8E0],"tree_param":{"num_deleted":"0","num_feature":"244","num_nodes":"21","size_leaf_vector":"1"}},{"base_weights":[-2.7942343E-2,-2.1767464E0,-6.8228706E-3,-4.4695345E-1,-2.2445332E-1,4.137025E-2,-3.178681E-1,-4.8468247E-2,2.018323E-3,-7.7187014E-1,6.583209E-2,5.501323E-1,-7.11887E-1,-1.5788503E0,-1.7383792E-1,-4.359316E-2,1.5087399E-1,2.7962152E-3,7.4907726E-1,8.369306E-1,-8.863911E-1,-9.01437E-2,-2.9953936E-2,-3.4235384E-2,5.3462833E-3,-7.042393E-2,-1.2475656E-3,1.2475335E-2,-8.079574E-3,-1.4958225E-2,2.6113236E-2,4.1666325E-2,-7.518649E-3,2.0089699E-2,6.728815E-2,-8.7650545E-2,-2.0654334E-2],"categories":[],"categories_nodes":[],"categories_segments":[],"categories_sizes":[],"default_left":[0,0,1,0,0,0,0,0,0,0,0,0,0,1,0,0,1,0,0,0,0,0,0,0,0,0,0,0,0,0,0,0,0,0,0,0,0],"id":14,"left_children":[1,3,5,7,-1,9,11,-1,-1,13,15,17,19,21,23,25,27,29,31,33,35,-1,-1,-1,-1,-1,-1,-1,-1,-1,-1,-1,-1,-1,-1,-1,-1],"loss_changes":[5.5949223E1,4.5498E1,1.8433826E1,2.1686819E0,0E0,2.1126848E1,5.683922E1,0E0,0E0,1.4510874E1,9.630125E0,5.584985E0,3.1558147E1,1.5331383E0,2.8562303E0,1.1322195E1,1.798595E1,2.5314393E0,3.0731697E0,1.9414644E0,4.1307274E1,0E0,0E0,0E0,0E0,0E0,0E0,0E0,0E0,0E0,0E0,0E0,0E0,0E0,0E0,0E0,0E0],"parents":[2147483647,0,0,1,1,2,2,3,3,5,5,6,6,9,9,10,10,11,11,12,12,13,13,14,14,15,15,16,16,17,17,18,18,19,19,20,20],"right_children":[2,4,6,8,-1,10,12,-1,-1,14,16,18,20,22,24,26,28,30,32,34,36,-1,-1,-1,-1,-1,-1,-1,-1,-1,-1,-1,-1,-1,-1,-1,-1],"split_conditions":[-2.868173E0,9.778656E-1,1.0340602E0,-2.3110037E0,-2.2445332E-1,-1.2008852E1,-5.1595694E-1,-4.8468247E-2,2.018323E-3,3.3231512E-1,-7.208084E-2,-1.8051946E0,-4.2271525E-1,6.6273624E-1,-1.3880713E0,-1.9325571E0,3.3231512E-1,9.373203E-1,1.1336086E0,2.4685735E-1,1.3276844E-1,-9.01437E-2,-2.9953936E-2,-3.4235384E-2,5.3462833E-3,-7.042393E-2,-1.2475656E-3,1.2475335E-2,-8.079574E-3,-1.4958225E-2,2.6113236E-2,4.1666325E-2,-7.518649E-3,2.0089699E-2,6.728815E-2,-8.7650545E-2,-2.0654334E-2],"split_indices":[119,61,116,0,0,179,195,0,0,116,23,23,178,120,23,233,116,125,123,128,34,0,0,0,0,0,0,0,0,0,0,0,0,0,0,0,0],"split_type":[0,0,0,0,0,0,0,0,0,0,0,0,0,0,0,0,0,0,0,0,0,0,0,0,0,0,0,0,0,0,0,0,0,0,0,0,0],"sum_hessian":[1.237E3,1.1E1,1.226E3,7E0,4E0,1.062E3,1.64E2,3E0,4E0,3E1,1.032E3,5.1E1,1.13E2,1.2E1,1.8E1,4.51E2,5.81E2,1.4E1,3.7E1,1.1E1,1.02E2,9E0,3E0,6E0,1.2E1,5E0,4.46E2,4.42E2,1.39E2,9E0,5E0,3.4E1,3E0,7E0,4E0,3.5E1,6.7E1],"tree_param":{"num_deleted":"0","num_feature":"244","num_nodes":"37","size_leaf_vector":"1"}},{"base_weights":[-6.7573343E-3,-2.2110004E0,1.084426E-2,-2.1547519E-1,-3.8540605E-3,2.2195695E-1,-4.1686174E-2,2.667521E-1,-2.7233085E-1,-6.2849717E-3,-3.7743777E-1,1.3345362E-2,3.3156952E-1,-9.3290025E-1,4.7423568E-2,-2.8294018E-1,2.4113623E-2,5.1985383E-2,-4.688315E-1,1.0209734E-2,-2.0673472E-2,2.6993249E-2,1.1063647E-2,-2.0256005E-2,-6.0122766E-2,1.893677E-2,-7.3052943E-3,-2.61502E-2,3.618378E-3,-6.596232E-2,1.5408181E-3,-4.019294E-2,-1.0894531E-2],"categories":[],"categories_nodes":[],"categories_segments":[],"categories_sizes":[],"default_left":[0,0,0,0,0,0,1,0,0,0,0,0,0,0,0,0,0,0,0,0,0,0,0,0,0,0,0,0,0,0,0,0,0],"id":15,"left_children":[1,3,5,-1,-1,7,9,11,13,15,17,19,21,23,25,27,29,-1,31,-1,-1,-1,-1,-1,-1,-1,-1,-1,-1,-1,-1,-1,-1],"loss_changes":[4.8974525E1,4.400953E1,1.3856312E1,0E0,0E0,5.585368E0,1.1833381E1,3.7224464E0,4.568409E0,7.643691E0,1.273459E1,3.9734514E0,3.9857464E0,3.479643E-1,1.0403774E0,7.7595987E0,7.2592316E0,0E0,7.289156E0,0E0,0E0,0E0,0E0,0E0,0E0,0E0,0E0,0E0,0E0,0E0,0E0,0E0,0E0],"parents":[2147483647,0,0,1,1,2,2,5,5,6,6,7,7,8,8,9,9,10,10,11,11,12,12,13,13,14,14,15,15,16,16,18,18],"right_children":[2,4,6,-1,-1,8,10,12,14,16,18,20,22,24,26,28,30,-1,32,-1,-1,-1,-1,-1,-1,-1,-1,-1,-1,-1,-1,-1,-1],"split_conditions":[-2.8762238E0,-1.3684642E0,-7.518871E-1,-2.1547519E-1,-3.8540605E-3,5.79013E-1,1.0813614E0,-6.0498095E-1,5.0089814E-2,-1.0197465E0,-1.2445177E0,1.4759029E0,-5.6024566E-3,-4.0454018E-1,-3.3333334E-1,2E-1,-1.1417744E0,5.1985383E-2,0E0,1.0209734E-2,-2.0673472E-2,2.6993249E-2,1.1063647E-2,-2.0256005E-2,-6.0122766E-2,1.893677E-2,-7.3052943E-3,-2.61502E-2,3.618378E-3,-6.596232E-2,1.5408181E-3,-4.019294E-2,-1.0894531E-2],"split_indices":[26,124,69,0,0,225,13,108,26,215,16,50,20,12,131,134,186,0,189,0,0,0,0,0,0,0,0,0,0,0,0,0,0],"split_type":[0,0,0,0,0,0,0,0,0,0,0,0,0,0,0,0,0,0,0,0,0,0,0,0,0,0,0,0,0,0,0,0,0],"sum_hessian":[1.255E3,9E0,1.246E3,4E0,5E0,2.48E2,9.98E2,2.28E2,2E1,9.04E2,9.4E1,4.7E1,1.81E2,6E0,1.4E1,8.9E1,8.15E2,5E0,8.9E1,3.3E1,1.4E1,6.1E1,1.2E2,3E0,3E0,5E0,9E0,5.3E1,3.6E1,3E0,8.12E2,3.7E1,5.2E1],"tree_param":{"num_deleted":"0","num_feature":"244","num_nodes":"33","size_leaf_vector":"1"}},{"base_weights":[-7.8023653E-3,-2.2177298E0,1.1854293E-2,-2.3065193E-1,-7.303591E-1,9.154397E-2,-1.4557977E-1,-7.050869E-2,-1.0217758E-3,-1.1682842E0,1.15029536E-1,-3.6149588E-1,4.3187374E-1,-5.674971E-3,-1.4141889E0,-4.4711484E-3,2.5722048E-1,4.457513E-1,-4.5919093E-1,-5.6346303E-1,5.038626E-1,-3.2944083E-2,-7.9081886E-2,-2.1922473E-2,1.6444762E-3,-2.7518053E-2,1.3506792E-2,3.326599E-2,-4.4844802E-2,-4.08605E-2,-1.3754288E-2,-5.042237E-2,5.431661E-3,-4.104529E-2,2.7569447E-2],"categories":[],"categories_nodes":[],"categories_segments":[],"categories_sizes":[],"default_left":[0,0,1,0,0,0,0,0,0,0,0,0,0,0,0,1,0,0,0,0,0,0,0,0,0,0,0,0,0,0,0,0,0,0,0],"id":16,"left_children":[1,3,5,-1,7,9,11,-1,-1,13,15,17,19,-1,21,23,25,27,29,31,33,-1,-1,-1,-1,-1,-1,-1,-1,-1,-1,-1,-1,-1,-1],"loss_changes":[5.4199097E1,3.5286316E1,1.5464436E1,0E0,3.6890526E0,2.426145E1,5.176723E1,0E0,0E0,3.5773697E0,1.3704916E1,2.4022968E1,8.374756E0,0E0,2.5153732E-1,7.1565857E0,3.9589596E0,1.0302065E1,1.746252E1,2.5921106E0,7.0995903E0,0E0,0E0,0E0,0E0,0E0,0E0,0E0,0E0,0E0,0E0,0E0,0E0,0E0,0E0],"parents":[2147483647,0,0,1,1,2,2,4,4,5,5,6,6,9,9,10,10,11,11,12,12,14,14,15,15,16,16,17,17,18,18,19,19,20,20],"right_children":[2,4,6,-1,8,10,12,-1,-1,14,16,18,20,-1,22,24,26,28,30,32,34,-1,-1,-1,-1,-1,-1,-1,-1,-1,-1,-1,-1,-1,-1],"split_conditions":[-2.8762238E0,-1.3850517E0,3.4896752E-1,-2.3065193E-1,-2.6967435E0,-1.1487328E1,5.1595694E-1,-7.050869E-2,-1.0217758E-3,-7.996988E-1,7.3562056E-2,-3.8251457E-1,3.7975752E-1,-5.674971E-3,8.1914864E-2,-9.7863096E-1,-6.257419E-1,6.667594E-1,-1.3881579E-1,4.9220198E-1,-8.9430183E-1,-3.2944083E-2,-7.9081886E-2,-2.1922473E-2,1.6444762E-3,-2.7518053E-2,1.3506792E-2,3.326599E-2,-4.4844802E-2,-4.08605E-2,-1.3754288E-2,-5.042237E-2,5.431661E-3,-4.104529E-2,2.7569447E-2],"split_indices":[26,124,116,0,33,179,196,0,0,70,23,178,116,0,128,241,52,47,67,206,79,0,0,0,0,0,0,0,0,0,0,0,0,0,0],"split_type":[0,0,0,0,0,0,0,0,0,0,0,0,0,0,0,0,0,0,0,0,0,0,0,0,0,0,0,0,0,0,0,0,0,0,0],"sum_hessian":[1.241E3,1E1,1.231E3,3E0,7E0,8.18E2,4.13E2,3E0,4E0,1.4E1,8.04E2,3.01E2,1.12E2,3E0,1.1E1,4.37E2,3.67E2,3.2E1,2.69E2,7E0,1.05E2,3E0,8E0,3.4E1,4.03E2,5E0,3.62E2,2.8E1,4E0,9E1,1.79E2,4E0,3E0,3E0,1.02E2],"tree_param":{"num_deleted":"0","num_feature":"244","num_nodes":"35","size_leaf_vector":"1"}},{"base_weights":[-1.28708035E-2,-2.629641E0,1.8073461E-3,-1.9111857E-1,-3.7725024E-2,4.022411E-2,-3.1807548E-1,2.5512734E-1,7.1018224E-4,-1.17654085E-1,-2.1941835E-1,3.88139E-1,6.360917E-2,-1.9228554E-1,4.3448575E-2,-6.602647E-1,-4.5333553E-2,2.1327449E-2,-2.073212E-2,-4.0062357E-2,9.289909E-3,-2.8977215E-3,-5.014425E-2,2.6716588E-3,-4.5088198E-2,-2.1704067E-3,-5.013438E-2,-7.5223455E-3,7.43609E-2],"categories":[],"categories_nodes":[],"categories_segments":[],"categories_sizes":[],"default_left":[0,0,1,0,0,0,0,0,0,0,0,0,0,0,1,0,0,0,0,0,0,0,0,0,0,0,0,0,0],"id":17,"left_children":[1,3,5,-1,-1,7,9,11,13,-1,15,17,19,21,23,25,27,-1,-1,-1,-1,-1,-1,-1,-1,-1,-1,-1,-1],"loss_changes":[4.82024E1,1.2314091E1,1.5247777E1,0E0,0E0,9.399989E0,2.5928564E1,4.3116913E0,7.7386494E0,0E0,9.722822E0,3.2923727E0,7.695993E0,1.8346876E1,7.230281E0,7.4559956E0,1.507159E1,0E0,0E0,0E0,0E0,0E0,0E0,0E0,0E0,0E0,0E0,0E0,0E0],"parents":[2147483647,0,0,1,1,2,2,5,5,6,6,7,7,8,8,10,10,11,11,12,12,13,13,14,14,15,15,16,16],"right_children":[2,4,6,-1,-1,8,10,12,14,-1,16,18,20,22,24,26,28,-1,-1,-1,-1,-1,-1,-1,-1,-1,-1,-1,-1],"split_conditions":[-2.7627723E0,-1.7401494E0,9.9990344E-1,-1.9111857E-1,-3.7725024E-2,-8.544065E-1,-1.3263602E0,4.658337E0,-6.4999783E-1,-1.17654085E-1,-1.4290135E-1,1.3216414E0,2.6986048E0,6.193526E-1,2.2464776E0,4.5847964E-1,2.5384164E0,2.1327449E-2,-2.073212E-2,-4.0062357E-2,9.289909E-3,-2.8977215E-3,-5.014425E-2,2.6716588E-3,-4.5088198E-2,-2.1704067E-3,-5.013438E-2,-7.5223455E-3,7.43609E-2],"split_indices":[20,19,234,0,0,68,124,66,74,0,221,7,63,139,32,176,116,0,0,0,0,0,0,0,0,0,0,0,0],"split_type":[0,0,0,0,0,0,0,0,0,0,0,0,0,0,0,0,0,0,0,0,0,0,0,0,0,0,0,0,0],"sum_hessian":[1.247E3,6E0,1.241E3,3E0,3E0,1.109E3,1.32E2,1.71E2,9.38E2,5E0,1.27E2,1E2,7.1E1,1.69E2,7.69E2,3.5E1,9.2E1,9.6E1,4E0,8E0,6.3E1,1.46E2,2.3E1,7.62E2,7E0,1.3E1,2.2E1,8.7E1,5E0],"tree_param":{"num_deleted":"0","num_feature":"244","num_nodes":"29","size_leaf_vector":"1"}},{"base_weights":[5.1495503E-3,7.484126E-2,-2.0810238E-1,1.24435574E-1,-1.7297208E-1,-1.6451788E-1,-1.4935441E0,7.5576286E-4,2.1475293E-1,5.905186E-1,-4.8040718E-1,-5.1255405E-1,-2.9816706E-2,-4.542947E-3,-1.0337146E-1,4.0324423E-2,-4.337814E-1,2.9992685E-1,1.3257617E-1,-7.756652E-2,7.149843E-1,-5.5664754E-1,6.364815E-2,3.3667946E-1,-8.209382E-1,-2.5742713E-1,1.4260574E-1,2.2084715E-2,2.3744996E-4,-8.709675E-3,-4.3681014E-2,1.726257E-2,-1.9928953E-3,3.1136456E-3,1.804937E-2,1.1239125E-2,-1.6196622E-2,2.0887394E-2,4.857358E-2,-1.8866062E-2,-6.69875E-2,5.9990413E-2,-1.6324423E-3,-2.5661094E-2,-7.182407E-2,-7.197723E-3,-4.7720604E-2,9.388193E-3,-6.2268406E-2],"categories":[],"categories_nodes":[],"categories_segments":[],"categories_sizes":[],"default_left":[0,1,1,0,0,0,0,0,1,0,0,0,0,0,0,0,0,1,0,0,0,0,0,0,0,0,0,0,0,0,0,0,0,0,0,0,0,0,0,0,0,0,0,0,0,0,0,0,0],"id":18,"left_children":[1,3,5,7,9,11,13,15,17,19,21,23,25,-1,-1,27,29,31,33,35,37,39,-1,41,43,45,47,-1,-1,-1,-1,-1,-1,-1,-1,-1,-1,-1,-1,-1,-1,-1,-1,-1,-1,-1,-1,-1,-1],"loss_changes":[1.8772818E1,1.1729166E1,1.7012356E1,8.858781E0,3.759377E1,1.4088506E1,7.6461296E0,5.772542E0,3.129673E0,3.944271E0,1.5876209E1,2.2323593E1,8.6428795E0,0E0,0E0,4.379718E0,2.9399915E0,3.4940338E0,3.724895E0,6.7863727E-1,2.428505E0,1.4770172E1,0E0,7.4877806E0,1.08113785E1,7.2662005E0,7.9628596E0,0E0,0E0,0E0,0E0,0E0,0E0,0E0,0E0,0E0,0E0,0E0,0E0,0E0,0E0,0E0,0E0,0E0,0E0,0E0,0E0,0E0,0E0],"parents":[2147483647,0,0,1,1,2,2,3,3,4,4,5,5,6,6,7,7,8,8,9,9,10,10,11,11,12,12,15,15,16,16,17,17,18,18,19,19,20,20,21,21,23,23,24,24,25,25,26,26],"right_children":[2,4,6,8,10,12,14,16,18,20,22,24,26,-1,-1,28,30,32,34,36,38,40,-1,42,44,46,48,-1,-1,-1,-1,-1,-1,-1,-1,-1,-1,-1,-1,-1,-1,-1,-1,-1,-1,-1,-1,-1,-1],"split_conditions":[6.1785996E-1,5.866459E-1,2.9652E0,-8.025024E-2,-6.8207073E-1,-8.5179174E-1,-3.281812E-1,1.0660583E0,-3.7068732E-2,-1.623762E0,2.3450494E0,-4.0556413E-1,-3.200247E-1,-4.542947E-3,-1.0337146E-1,-7.396877E-1,4.2780265E-1,3.3231512E-1,3.5727763E-1,-7.882526E-1,-7.111771E-1,1.4398984E0,6.364815E-2,-1.2485108E0,4.982708E-1,9.5195365E-1,1E0,2.2084715E-2,2.3744996E-4,-8.709675E-3,-4.3681014E-2,1.726257E-2,-1.9928953E-3,3.1136456E-3,1.804937E-2,1.1239125E-2,-1.6196622E-2,2.0887394E-2,4.857358E-2,-1.8866062E-2,-6.69875E-2,5.9990413E-2,-1.6324423E-3,-2.5661094E-2,-7.182407E-2,-7.197723E-3,-4.7720604E-2,9.388193E-3,-6.2268406E-2],"split_indices":[60,116,114,71,97,26,37,114,118,20,121,198,30,0,0,126,63,116,193,34,195,116,0,241,52,198,143,0,0,0,0,0,0,0,0,0,0,0,0,0,0,0,0,0,0,0,0,0,0],"split_type":[0,0,0,0,0,0,0,0,0,0,0,0,0,0,0,0,0,0,0,0,0,0,0,0,0,0,0,0,0,0,0,0,0,0,0,0,0,0,0,0,0,0,0,0,0,0,0,0,0],"sum_hessian":[1.262E3,9.52E2,3.1E2,7.94E2,1.58E2,3.01E2,9E0,3.36E2,4.58E2,4.5E1,1.13E2,8.3E1,2.18E2,3E0,6E0,3.09E2,2.7E1,2.23E2,2.35E2,7E0,3.8E1,1.09E2,4E0,2.2E1,6.1E1,9.4E1,1.24E2,2.4E1,2.85E2,1.8E1,9E0,1.97E2,2.6E1,1.81E2,5.4E1,3E0,4E0,1.9E1,1.9E1,9E1,1.9E1,6E0,1.6E1,4.2E1,1.9E1,8.2E1,1.2E1,1.21E2,3E0],"tree_param":{"num_deleted":"0","num_feature":"244","num_nodes":"49","size_leaf_vector":"1"}},{"base_weights":[-8.782418E-3,-1.6921207E0,8.623475E-3,-2.1324316E-1,-4.8381168E-1,1.8498804E-1,-4.2268567E-2,-5.1687937E-2,1.9223102E-3,2.3050143E-1,-2.4800844E-1,-8.14868E-3,-4.2135343E-1,1.869216E-1,9.602028E-1,-5.0191617E-1,2.2382627E-1,-1.1362983E0,6.5086415E-4,1.8185394E-1,-7.006632E-1,1.0429858E-2,-4.3110993E-2,1.9253818E-2,8.2309596E-2,-8.246205E-3,-4.047361E-2,2.8023382E-3,2.1824194E-2,-1.6564408E-2,-8.16117E-2,-4.092445E-3,4.7673546E-3,2.2147195E-2,-2.2423325E-2,-9.25288E-3,-4.8243508E-2],"categories":[],"categories_nodes":[],"categories_segments":[],"categories_sizes":[],"default_left":[0,0,0,0,0,0,1,0,0,0,0,0,0,0,0,0,0,0,0,0,0,0,0,0,0,0,0,0,0,0,0,0,0,0,0,0,0],"id":19,"left_children":[1,3,5,-1,7,9,11,-1,-1,13,15,17,19,21,23,25,27,29,31,33,35,-1,-1,-1,-1,-1,-1,-1,-1,-1,-1,-1,-1,-1,-1,-1,-1],"loss_changes":[3.721815E1,3.7874416E1,1.1259482E1,0E0,3.0114176E0,5.5931215E0,1.2525787E1,0E0,0E0,7.8148727E0,3.3748176E0,8.979298E0,1.3657838E1,5.617753E0,4.686392E0,1.6346498E0,2.8307927E-1,2.057541E0,6.938767E0,4.4769216E0,7.198908E0,0E0,0E0,0E0,0E0,0E0,0E0,0E0,0E0,0E0,0E0,0E0,0E0,0E0,0E0,0E0,0E0],"parents":[2147483647,0,0,1,1,2,2,4,4,5,5,6,6,9,9,10,10,11,11,12,12,13,13,14,14,15,15,16,16,17,17,18,18,19,19,20,20],"right_children":[2,4,6,-1,8,10,12,-1,-1,14,16,18,20,22,24,26,28,30,32,34,36,-1,-1,-1,-1,-1,-1,-1,-1,-1,-1,-1,-1,-1,-1,-1,-1],"split_conditions":[-2.5809581E0,-1.3850517E0,-6.509408E-1,-2.1324316E-1,4.048165E-1,1.6521865E0,9.9990344E-1,-5.1687937E-2,1.9223102E-3,1.4000913E0,6.352871E-1,-2.261171E0,2.61872E-1,1.6689744E0,1.3641732E0,0E0,2.962304E-1,-7.148229E-1,1E0,7.188954E-1,1.8330762E-1,1.0429858E-2,-4.3110993E-2,1.9253818E-2,8.2309596E-2,-8.246205E-3,-4.047361E-2,2.8023382E-3,2.1824194E-2,-1.6564408E-2,-8.16117E-2,-4.092445E-3,4.7673546E-3,2.2147195E-2,-2.2423325E-2,-9.25288E-3,-4.8243508E-2],"split_indices":[26,124,69,0,30,211,234,0,0,16,195,30,51,65,178,131,185,2,243,32,60,0,0,0,0,0,0,0,0,0,0,0,0,0,0,0,0],"split_type":[0,0,0,0,0,0,0,0,0,0,0,0,0,0,0,0,0,0,0,0,0,0,0,0,0,0,0,0,0,0,0,0,0,0,0,0,0],"sum_hessian":[1.263E3,1.2E1,1.251E3,3E0,9E0,2.8E2,9.71E2,4E0,5E0,2.54E2,2.6E1,8.92E2,7.9E1,2.41E2,1.3E1,1.7E1,9E0,6E0,8.86E2,2.5E1,5.4E1,2.37E2,4E0,8E0,5E0,9E0,8E0,6E0,3E0,3E0,3E0,4.73E2,4.13E2,1.8E1,7E0,1.9E1,3.5E1],"tree_param":{"num_deleted":"0","num_feature":"244","num_nodes":"37","size_leaf_vector":"1"}},{"base_weights":[1.07515305E-2,-1.6731662E0,2.8099736E-2,-2.0524652E-1,-5.231437E-1,-4.1242057E-1,4.6619404E-2,-6.114797E-2,-3.422845E-2,2.0465154E-2,-9.8851836E-1,-6.657379E-2,1.05399646E-1,3.975501E-3,-8.22049E-3,-3.7118312E-2,2.0672609E-1,-1.261093E-1,-3.831934E-1,-7.769379E-2,-5.1765602E-2,1.1848835E-1,-9.330749E-1,1.612087E-2,-1.5026127E-2,-4.1049045E-2,9.972004E-3,-1.8380511E-3,-7.758968E-2,5.1631047E-3,5.0821394E-2,-6.960103E-2,-1.8922051E-2],"categories":[],"categories_nodes":[],"categories_segments":[],"categories_sizes":[],"default_left":[0,0,0,0,0,0,1,0,0,0,0,0,0,0,0,0,0,0,0,0,0,0,0,0,0,0,0,0,0,0,0,0,0],"id":20,"left_children":[1,3,5,-1,7,9,11,-1,13,15,17,19,21,-1,-1,-1,23,-1,25,-1,27,29,31,-1,-1,-1,-1,-1,-1,-1,-1,-1,-1],"loss_changes":[3.7245872E1,3.3745316E1,1.03192005E1,0E0,3.2539272E0,1.2835648E1,8.108237E0,0E0,1.252086E-1,4.3624725E0,1.9167059E1,8.921085E0,1.0930118E1,0E0,0E0,0E0,1.5661893E0,0E0,4.562074E0,0E0,9.079612E0,1.0625169E1,1.8416233E0,0E0,0E0,0E0,0E0,0E0,0E0,0E0,0E0,0E0,0E0],"parents":[2147483647,0,0,1,1,2,2,4,4,5,5,6,6,8,8,9,9,10,10,11,11,12,12,16,16,18,18,20,20,21,21,22,22],"right_children":[2,4,6,-1,8,10,12,-1,14,16,18,20,22,-1,-1,-1,24,-1,26,-1,28,30,32,-1,-1,-1,-1,-1,-1,-1,-1,-1,-1],"split_conditions":[-2.8762238E0,-1.3850517E0,-1.2949542E0,-2.0524652E-1,-2.7627723E0,-2.7687478E-1,-2.895911E-1,-6.114797E-2,1E0,-3.3333334E-1,-6.784264E-1,-1.6512194E0,1.9748513E0,3.975501E-3,-8.22049E-3,-3.7118312E-2,8.994951E-1,-1.261093E-1,4.2809635E-1,-7.769379E-2,1.25E0,2.8081412E0,2.8327963E-1,1.612087E-2,-1.5026127E-2,-4.1049045E-2,9.972004E-3,-1.8380511E-3,-7.758968E-2,5.1631047E-3,5.0821394E-2,-6.960103E-2,-1.8922051E-2],"split_indices":[26,124,124,0,20,70,223,0,235,199,9,127,5,0,0,0,5,0,61,0,240,116,29,0,0,0,0,0,0,0,0,0,0],"split_type":[0,0,0,0,0,0,0,0,0,0,0,0,0,0,0,0,0,0,0,0,0,0,0,0,0,0,0,0,0,0,0,0,0],"sum_hessian":[1.278E3,1.2E1,1.266E3,3E0,9E0,5E1,1.216E3,3E0,6E0,2.9E1,2.1E1,4.15E2,8.01E2,3E0,3E0,5E0,2.4E1,5E0,1.6E1,3E0,4.12E2,7.92E2,9E0,2E1,4E0,9E0,7E0,4.09E2,3E0,7.8E2,1.2E1,4E0,5E0],"tree_param":{"num_deleted":"0","num_feature":"244","num_nodes":"33","size_leaf_vector":"1"}},{"base_weights":[-9.212712E-3,3.0222014E-3,-1.1054788E0,5.6296106E-2,-1.6799057E-1,-1.0273329E-1,-1.2425515E-1,-8.3379275E-1,7.835605E-2,-7.819467E-1,2.1634629E-2,1.1769912E-2,-2.8387904E-2,-1.2049327E0,-2.2081761E-1,-6.521616E-2,1.6932309E-1,5.2552605E-1,-1.036315E0,3.155976E-1,-2.3313347E-1,-2.2865757E-2,-7.791759E-2,-2.8371874E-2,4.408426E-3,-7.9112284E-2,-2.175323E-3,9.791422E-3,-4.827692E-3,5.8387186E-2,-2.9356366E-2,-3.9402347E-2,-1.2540089E-1,-3.8197376E-2,2.0032791E-2,-2.205894E-2,1.0094443E-2],"categories":[],"categories_nodes":[],"categories_segments":[],"categories_sizes":[],"default_left":[1,1,0,0,0,0,0,0,0,1,0,0,0,0,0,0,0,0,0,0,0,0,0,0,0,0,0,0,0,0,0,0,0,0,0,0,0],"id":21,"left_children":[1,3,5,7,9,-1,11,13,15,17,19,-1,-1,21,23,25,27,29,31,33,35,-1,-1,-1,-1,-1,-1,-1,-1,-1,-1,-1,-1,-1,-1,-1,-1],"loss_changes":[1.7013613E1,1.1359103E1,1.2565912E1,1.8682604E1,3.4553726E1,0E0,1.4429439E0,4.823845E0,1.2167568E1,2.3876259E1,1.7082394E1,0E0,0E0,2.7848873E0,1.1689644E0,1.1657855E1,4.0457172E0,9.318462E0,1.9251179E1,1.0003113E1,1.115453E1,0E0,0E0,0E0,0E0,0E0,0E0,0E0,0E0,0E0,0E0,0E0,0E0,0E0,0E0,0E0,0E0],"parents":[2147483647,0,0,1,1,2,2,3,3,4,4,6,6,7,7,8,8,9,9,10,10,13,13,14,14,15,15,16,16,17,17,18,18,19,19,20,20],"right_children":[2,4,6,8,10,-1,12,14,16,18,20,-1,-1,22,24,26,28,30,32,34,36,-1,-1,-1,-1,-1,-1,-1,-1,-1,-1,-1,-1,-1,-1,-1,-1],"split_conditions":[3.2124257E0,5.866459E-1,-1.8462987E-1,-1.2008852E1,4.758382E-2,-1.0273329E-1,2.3418657E-1,5E-1,-1.3572614E-1,-7.564892E-1,2.1373153E-1,1.1769912E-2,-2.8387904E-2,0E0,-9.552085E-1,-1.9325571E0,2.2222223E0,-5.7864647E-2,1.5863053E0,-1.7294693E0,1.3918768E0,-2.2865757E-2,-7.791759E-2,-2.8371874E-2,4.408426E-3,-7.9112284E-2,-2.175323E-3,9.791422E-3,-4.827692E-3,5.8387186E-2,-2.9356366E-2,-3.9402347E-2,-1.2540089E-1,-3.8197376E-2,2.0032791E-2,-2.205894E-2,1.0094443E-2],"split_indices":[116,116,30,179,205,0,194,139,23,192,181,0,0,189,20,233,228,200,116,119,23,0,0,0,0,0,0,0,0,0,0,0,0,0,0,0,0],"split_type":[0,0,0,0,0,0,0,0,0,0,0,0,0,0,0,0,0,0,0,0,0,0,0,0,0,0,0,0,0,0,0,0,0,0,0,0,0],"sum_hessian":[1.259E3,1.246E3,1.3E1,9.51E2,2.95E2,6E0,7E0,2.2E1,9.29E2,6.9E1,2.26E2,4E0,3E0,1.3E1,9E0,3.6E2,5.69E2,1.1E1,5.8E1,1.05E2,1.21E2,5E0,8E0,4E0,5E0,4E0,3.56E2,5.18E2,5.1E1,7E0,4E0,5.1E1,7E0,7E0,9.8E1,8.2E1,3.9E1],"tree_param":{"num_deleted":"0","num_feature":"244","num_nodes":"37","size_leaf_vector":"1"}},{"base_weights":[-1.0939613E-2,4.1749626E-3,-1.7049983E0,5.3685587E-2,-1.5070236E-1,-6.3163203E-1,-1.7002405E-1,-1.2554213E-1,1.6862433E-1,2.2516361E-1,-4.8342726E-1,-4.6241578E-2,-4.111228E-3,-7.155219E-1,-7.395E-2,1.13260224E-1,3.084699E-1,-7.477013E-2,2.874994E-1,-8.6745715E-1,-1.5890338E-1,-5.9583277E-2,-9.250506E-3,2.4073286E-2,-5.735814E-3,7.7008056E-3,-1.1302798E-2,-7.5995326E-3,1.704236E-2,2.0051723E-2,-2.1374067E-2,-3.2234192E-2,-8.0031045E-2,-2.904044E-3,-7.468302E-2],"categories":[],"categories_nodes":[],"categories_segments":[],"categories_sizes":[],"default_left":[1,1,0,0,0,0,0,0,0,0,1,0,0,0,0,1,0,0,1,0,0,0,0,0,0,0,0,0,0,0,0,0,0,0,0],"id":22,"left_children":[1,3,5,7,9,11,-1,13,15,17,19,-1,-1,21,23,25,27,-1,29,31,33,-1,-1,-1,-1,-1,-1,-1,-1,-1,-1,-1,-1,-1,-1],"loss_changes":[3.1850557E1,9.407114E0,1.746755E1,1.920427E1,3.727749E1,1.1119387E0,0E0,1.0947685E1,4.3205853E0,1.5324537E1,1.9450565E1,0E0,0E0,6.9672565E0,7.6263485E0,5.683726E0,2.456047E0,0E0,1.1208639E1,1.0503281E1,1.146597E1,0E0,0E0,0E0,0E0,0E0,0E0,0E0,0E0,0E0,0E0,0E0,0E0,0E0,0E0],"parents":[2147483647,0,0,1,1,2,2,3,3,4,4,5,5,7,7,8,8,9,9,10,10,13,13,14,14,15,15,16,16,18,18,19,19,20,20],"right_children":[2,4,6,8,10,12,-1,14,16,18,20,-1,-1,22,24,26,28,-1,30,32,34,-1,-1,-1,-1,-1,-1,-1,-1,-1,-1,-1,-1,-1,-1],"split_conditions":[2.3079052E0,5.866459E-1,3.0773375E0,-1.3572614E-1,-2.245549E-2,2.1914203E0,-1.7002405E-1,-1.1124779E1,2.443921E-1,-1.7401494E0,4.2858467E-1,-4.6241578E-2,-4.111228E-3,-9.2112195E-1,-1.0451152E0,2.9897058E-1,-5.5062115E-1,-7.477013E-2,7.554159E-1,1.5401486E0,3.0649474E0,-5.9583277E-2,-9.250506E-3,2.4073286E-2,-5.735814E-3,7.7008056E-3,-1.1302798E-2,-7.5995326E-3,1.704236E-2,2.0051723E-2,-2.1374067E-2,-3.2234192E-2,-8.0031045E-2,-2.904044E-3,-7.468302E-2],"split_indices":[62,116,113,23,71,58,0,179,98,19,114,0,0,73,13,116,63,0,236,116,116,0,0,0,0,0,0,0,0,0,0,0,0,0,0],"split_type":[0,0,0,0,0,0,0,0,0,0,0,0,0,0,0,0,0,0,0,0,0,0,0,0,0,0,0,0,0,0,0,0,0,0,0],"sum_hessian":[1.236E3,1.226E3,1E1,9.3E2,2.96E2,7E0,3E0,3.63E2,5.67E2,1.39E2,1.57E2,4E0,3E0,2.8E1,3.35E2,4.08E2,1.59E2,4E0,1.35E2,7.1E1,8.6E1,1.4E1,1.4E1,2.2E1,3.13E2,3.65E2,4.3E1,1E1,1.49E2,1.17E2,1.8E1,5.6E1,1.5E1,8.1E1,5E0],"tree_param":{"num_deleted":"0","num_feature":"244","num_nodes":"35","size_leaf_vector":"1"}},{"base_weights":[-1.6734162E-2,-5.58785E-3,-1.1736464E-1,2.6952323E-2,-2.6179084E-1,7.8675024E-2,-1.0565282E-1,4.038764E-2,-5.534741E-1,1.7207296E-1,-1.4670256E-2,-4.0835395E-2,-5.353879E-1,7.1928453E-1,-1.3722362E-1,-1.2052813E0,-3.1642303E-1,6.371268E-3,2.4226122E-2,-1.953054E-2,2.5137567E-3,-9.841804E-3,5.5142767E-3,-6.384071E-2,-1.0881891E-2,4.7031093E-2,1.5883371E-2,-1.1854998E-3,-6.465116E-2,-7.9550005E-2,-4.386197E-3,-5.6180097E-2,-7.6498403E-3],"categories":[],"categories_nodes":[],"categories_segments":[],"categories_sizes":[],"default_left":[0,0,0,0,1,0,0,0,0,0,0,0,0,1,1,0,1,0,0,0,0,0,0,0,0,0,0,0,0,0,0,0,0],"id":23,"left_children":[1,3,-1,5,7,9,11,13,15,17,19,21,23,25,27,29,31,-1,-1,-1,-1,-1,-1,-1,-1,-1,-1,-1,-1,-1,-1,-1,-1],"loss_changes":[3.2742554E1,1.0576705E1,0E0,7.70793E0,1.267774E1,7.0713344E0,8.694625E0,8.71807E0,1.0745798E1,5.526864E0,9.941991E0,6.51348E0,9.23179E0,9.087591E-1,7.3160114E0,7.8827515E0,6.955713E0,0E0,0E0,0E0,0E0,0E0,0E0,0E0,0E0,0E0,0E0,0E0,0E0,0E0,0E0,0E0,0E0],"parents":[2147483647,0,0,1,1,3,3,4,4,5,5,6,6,7,7,8,8,9,9,10,10,11,11,12,12,13,13,14,14,15,15,16,16],"right_children":[2,4,-1,6,8,10,12,14,16,18,20,22,24,26,28,30,32,-1,-1,-1,-1,-1,-1,-1,-1,-1,-1,-1,-1,-1,-1,-1,-1],"split_conditions":[5.194262E0,9.9990344E-1,-1.1736464E-1,5.584551E-1,2.9944617E-1,2.421018E-2,1.1462438E0,-4.729195E-1,-9.2112195E-1,8.955043E-1,-5.446066E-1,2.0146456E-1,-9.0673286E-1,3.6677724E-1,6.0473454E-1,9.4829E-1,-1.02339E0,6.371268E-3,2.4226122E-2,-1.953054E-2,2.5137567E-3,-9.841804E-3,5.5142767E-3,-6.384071E-2,-1.0881891E-2,4.7031093E-2,1.5883371E-2,-1.1854998E-3,-6.465116E-2,-7.9550005E-2,-4.386197E-3,-5.6180097E-2,-7.6498403E-3],"split_indices":[59,234,0,81,113,4,4,195,73,209,52,51,124,130,39,123,120,0,0,0,0,0,0,0,0,0,0,0,0,0,0,0,0],"split_type":[0,0,0,0,0,0,0,0,0,0,0,0,0,0,0,0,0,0,0,0,0,0,0,0,0,0,0,0,0,0,0,0,0],"sum_hessian":[1.269E3,1.264E3,5E0,1.122E3,1.42E2,8.08E2,3.14E2,7E1,7.2E1,4.04E2,4.04E2,2.74E2,4E1,1.4E1,5.6E1,1.8E1,5.4E1,3.55E2,4.9E1,5.9E1,3.45E2,1.35E2,1.39E2,1.1E1,2.9E1,8E0,6E0,5.2E1,4E0,1.3E1,5E0,8E0,4.6E1],"tree_param":{"num_deleted":"0","num_feature":"244","num_nodes":"33","size_leaf_vector":"1"}},{"base_weights":[3.4680835E-3,-1.7395777E0,1.4638249E-2,-6.8658055E-3,-1.6412552E-1,-1.0975882E-1,6.6964515E-2,-8.4560764E-1,-6.0803726E-2,1.007603E-1,-1.7649737E-1,-4.430552E-1,-1.0930927E-1,-8.4062153E-1,-2.0630954E-2,3.9262712E-2,2.4694689E-1,3.784594E-1,-6.8143165E-1,1.2635275E-2,-3.9565336E-2,-8.732361E-2,-8.932999E-3,-5.1070624E-3,8.371442E-3,-2.4756035E-2,3.345682E-3,1.4323081E-2,-2.4322128E-2,3.8421266E-3,4.261021E-2,-7.091471E-2,-1.0471023E-2],"categories":[],"categories_nodes":[],"categories_segments":[],"categories_sizes":[],"default_left":[0,0,1,0,0,0,0,0,0,0,0,0,0,0,1,0,0,0,0,0,0,0,0,0,0,0,0,0,0,0,0,0,0],"id":24,"left_children":[1,3,5,-1,-1,7,9,11,13,15,17,19,-1,21,23,25,27,29,31,-1,-1,-1,-1,-1,-1,-1,-1,-1,-1,-1,-1,-1,-1],"loss_changes":[2.4463188E1,1.8984728E1,8.185177E0,0E0,0E0,1.3258701E1,7.3002057E0,1.1180489E1,1.0861136E1,6.9649887E0,3.0551592E1,4.8575225E0,0E0,9.689312E0,5.130395E0,8.117219E0,6.7846756E0,7.2718606E0,1.9365229E1,0E0,0E0,0E0,0E0,0E0,0E0,0E0,0E0,0E0,0E0,0E0,0E0,0E0,0E0],"parents":[2147483647,0,0,1,1,2,2,5,5,6,6,7,7,8,8,9,9,10,10,11,11,13,13,14,14,15,15,16,16,17,17,18,18],"right_children":[2,4,6,-1,-1,8,10,12,14,16,18,20,-1,22,24,26,28,30,32,-1,-1,-1,-1,-1,-1,-1,-1,-1,-1,-1,-1,-1,-1],"split_conditions":[-2.7627723E0,4.9679142E-1,-3.3098254E-1,-6.8658055E-3,-1.6412552E-1,-8.6657035E-1,1.2149323E0,2.3916532E-1,-1.445853E0,3.5727763E-1,2.444159E-2,2.2894628E-2,-1.0930927E-1,-1.4497669E-1,5.9204924E-1,-6.144756E-1,1.2492741E0,2.3082163E0,4.2858467E-1,1.2635275E-2,-3.9565336E-2,-8.732361E-2,-8.932999E-3,-5.1070624E-3,8.371442E-3,-2.4756035E-2,3.345682E-3,1.4323081E-2,-2.4322128E-2,3.8421266E-3,4.261021E-2,-7.091471E-2,-1.0471023E-2],"split_indices":[20,125,223,0,0,7,116,18,192,193,195,19,0,71,194,54,26,116,114,0,0,0,0,0,0,0,0,0,0,0,0,0,0],"split_type":[0,0,0,0,0,0,0,0,0,0,0,0,0,0,0,0,0,0,0,0,0,0,0,0,0,0,0,0,0,0,0,0,0],"sum_hessian":[1.263E3,7E0,1.256E3,4E0,3E0,3.71E2,8.85E2,2.2E1,3.49E2,7.78E2,1.07E2,1.8E1,4E0,1.6E1,3.33E2,5.49E2,2.29E2,5.1E1,5.6E1,6E0,1.2E1,6E0,1E1,2.33E2,1E2,2.6E1,5.23E2,2.18E2,1.1E1,3.2E1,1.9E1,2.1E1,3.5E1],"tree_param":{"num_deleted":"0","num_feature":"244","num_nodes":"33","size_leaf_vector":"1"}},{"base_weights":[-1.0573928E-2,-1.5148621E0,3.469881E-3,-1.8240456E-1,-3.8733122E-1,3.561818E-2,-2.209649E-1,-4.911006E-2,2.8568623E-3,-7.342838E-2,1.1560651E-1,4.4597188E-1,-6.712766E-1,-2.467587E-2,-6.2951833E-1,1.7935947E-1,-8.900106E-2,-1.7890146E-1,6.075537E-1,-1.220806E0,-2.551698E-1,-8.446964E-3,6.1623077E-3,2.2753577E-3,-4.9317595E-2,6.7333686E-3,1.9286947E-2,-6.4256648E-3,6.999179E-2,-2.2353657E-2,6.9426033E-3,2.1477211E-2,6.511196E-2,-1.002993E-1,-2.884437E-2,3.832418E-2,-2.9209629E-2],"categories":[],"categories_nodes":[],"categories_segments":[],"categories_sizes":[],"default_left":[0,0,1,0,0,0,0,0,0,0,1,0,0,0,0,0,1,0,1,0,0,0,0,0,0,0,0,0,0,0,0,0,0,0,0,0,0],"id":25,"left_children":[1,3,5,-1,7,9,11,-1,-1,13,15,17,19,21,23,25,27,29,31,33,35,-1,-1,-1,-1,-1,-1,-1,-1,-1,-1,-1,-1,-1,-1,-1,-1],"loss_changes":[2.7408855E1,2.7046816E1,9.217572E0,0E0,2.528235E0,9.781853E0,4.837461E1,0E0,0E0,1.2769558E1,8.464685E0,6.71449E0,2.1492535E1,9.350856E0,9.292094E0,4.4524374E0,9.112162E0,1.2858739E0,5.6978035E0,1.9313759E1,1.9253788E1,0E0,0E0,0E0,0E0,0E0,0E0,0E0,0E0,0E0,0E0,0E0,0E0,0E0,0E0,0E0,0E0],"parents":[2147483647,0,0,1,1,2,2,4,4,5,5,6,6,9,9,10,10,11,11,12,12,13,13,14,14,15,15,16,16,17,17,18,18,19,19,20,20],"right_children":[2,4,6,-1,8,10,12,-1,-1,14,16,18,20,22,24,26,28,30,32,34,36,-1,-1,-1,-1,-1,-1,-1,-1,-1,-1,-1,-1,-1,-1,-1,-1],"split_conditions":[-2.8762238E0,-1.3850517E0,1.2149323E0,-1.8240456E-1,-2.7627723E0,-1.0684042E-1,-2.9740477E-1,-4.911006E-2,2.8568623E-3,1.3922414E0,3.3231512E-1,-7.567387E-1,3.4048375E-1,-9.267902E-2,3.9936987E-1,5.13168E-1,1.6372565E0,-1.9953823E-1,1.151509E0,1.7383528E-1,5.866517E-1,-8.446964E-3,6.1623077E-3,2.2753577E-3,-4.9317595E-2,6.7333686E-3,1.9286947E-2,-6.4256648E-3,6.999179E-2,-2.2353657E-2,6.9426033E-3,2.1477211E-2,6.511196E-2,-1.002993E-1,-2.884437E-2,3.832418E-2,-2.9209629E-2],"split_indices":[26,124,116,0,20,23,195,0,0,94,116,19,41,116,176,205,122,180,122,115,32,0,0,0,0,0,0,0,0,0,0,0,0,0,0,0,0],"split_type":[0,0,0,0,0,0,0,0,0,0,0,0,0,0,0,0,0,0,0,0,0,0,0,0,0,0,0,0,0,0,0,0,0,0,0,0,0],"sum_hessian":[1.289E3,1.1E1,1.278E3,3E0,8E0,1.119E3,1.59E2,3E0,5E0,4.73E2,6.46E2,6.4E1,9.5E1,4.36E2,3.7E1,4.93E2,1.53E2,1.3E1,5.1E1,4E1,5.5E1,2.21E2,2.15E2,1.3E1,2.4E1,4.07E2,8.6E1,1.5E2,3E0,7E0,6E0,4.2E1,9E0,1.7E1,2.3E1,1.3E1,4.2E1],"tree_param":{"num_deleted":"0","num_feature":"244","num_nodes":"37","size_leaf_vector":"1"}},{"base_weights":[-1.873127E-2,2.0777043E-2,-2.9030266E-1,-3.4570366E-1,4.6903238E-2,3.6057696E-1,-6.724186E-1,-1.1503683E0,-7.425517E-2,6.4061796E-3,2.1623753E-1,5.0482446E-1,-8.620159E-2,-1.16101004E-1,-5.413587E-1,-7.09339E-2,-1.8031795E-2,3.3727044E-1,-4.5828745E-1,4.3063283E-2,-3.6741933E-1,2.736137E-1,-1.9980161E-1,4.407425E-2,6.549775E-1,-9.513933E-1,-1.7502773E-1,-0E0,2.1871747E-2,-1.3425431E-2,-7.7613905E-2,-1.4500594E-3,6.065422E-3,-2.3853004E-2,5.9955336E-2,6.6816355E-3,1.7720107E-2,1.189529E-2,-2.9808108E-2,1.9925129E-2,-3.6224145E-2,5.7945937E-2,2.5911007E-2,-8.736419E-2,-2.5920084E-2,-1.0257418E-3,-6.568944E-2],"categories":[],"categories_nodes":[],"categories_segments":[],"categories_sizes":[],"default_left":[1,0,0,0,0,0,0,0,0,0,0,0,0,0,0,0,0,0,0,0,0,0,1,0,0,0,0,0,0,0,0,0,0,0,0,0,0,0,0,0,0,0,0,0,0,0,0],"id":26,"left_children":[1,3,5,7,9,11,13,15,17,19,21,23,-1,-1,25,-1,-1,27,29,31,33,35,37,39,41,43,45,-1,-1,-1,-1,-1,-1,-1,-1,-1,-1,-1,-1,-1,-1,-1,-1,-1,-1,-1,-1],"loss_changes":[1.3348079E1,1.0365359E1,3.9570053E1,1.5518719E1,6.9230394E0,1.8489685E1,2.0076279E1,3.1245155E0,8.85882E0,1.1206438E1,4.7168417E0,3.7754803E0,0E0,0E0,1.3840427E1,0E0,0E0,9.470494E-1,5.421993E0,4.2248545E0,1.3037962E1,1.848959E0,4.3414145E0,4.342087E0,2.1262531E0,1.4030647E1,8.813233E0,0E0,0E0,0E0,0E0,0E0,0E0,0E0,0E0,0E0,0E0,0E0,0E0,0E0,0E0,0E0,0E0,0E0,0E0,0E0,0E0],"parents":[2147483647,0,0,1,1,2,2,3,3,4,4,5,5,6,6,7,7,8,8,9,9,10,10,11,11,14,14,17,17,18,18,19,19,20,20,21,21,22,22,23,23,24,24,25,25,26,26],"right_children":[2,4,6,8,10,12,14,16,18,20,22,24,-1,-1,26,-1,-1,28,30,32,34,36,38,40,42,44,46,-1,-1,-1,-1,-1,-1,-1,-1,-1,-1,-1,-1,-1,-1,-1,-1,-1,-1,-1,-1],"split_conditions":[1.0966614E0,-1.5371288E0,-4.1434294E-1,-2.3530729E-1,5.13168E-1,8.900954E-1,-1.3684642E0,4.8611453E-1,1.2583785E0,5.866459E-1,9.623799E-1,-1.134245E0,-8.620159E-2,-1.16101004E-1,7.3720104E-1,-7.09339E-2,-1.8031795E-2,1.3007033E-2,8.50391E-1,6.285238E-4,2.3450494E0,-1.2459006E-1,-1.09976105E-1,1.2630023E-1,-1.349155E-1,-2.3718554E-1,8.09017E-1,-0E0,2.1871747E-2,-1.3425431E-2,-7.7613905E-2,-1.4500594E-3,6.065422E-3,-2.3853004E-2,5.9955336E-2,6.6816355E-3,1.7720107E-2,1.189529E-2,-2.9808108E-2,1.9925129E-2,-3.6224145E-2,5.7945937E-2,2.5911007E-2,-8.736419E-2,-2.5920084E-2,-1.0257418E-3,-6.568944E-2],"split_indices":[116,71,97,116,205,224,124,50,205,116,14,26,0,0,60,0,0,116,234,97,121,187,72,45,12,18,135,0,0,0,0,0,0,0,0,0,0,0,0,0,0,0,0,0,0,0,0],"split_type":[0,0,0,0,0,0,0,0,0,0,0,0,0,0,0,0,0,0,0,0,0,0,0,0,0,0,0,0,0,0,0,0,0,0,0,0,0,0,0,0,0,0,0,0,0,0,0],"sum_hessian":[1.24E3,1.083E3,1.57E2,7.1E1,1.012E3,5.8E1,9.9E1,1.7E1,5.4E1,8.18E2,1.94E2,5.5E1,3E0,6E0,9.3E1,1.2E1,5E0,2.6E1,2.8E1,7.46E2,7.2E1,1.71E2,2.3E1,1.4E1,4.1E1,4.3E1,5E1,6E0,2E1,2.5E1,3E0,3.88E2,3.58E2,6.8E1,4E0,6.4E1,1.07E2,1.1E1,1.2E1,1E1,4E0,7E0,3.4E1,1.4E1,2.9E1,4.5E1,5E0],"tree_param":{"num_deleted":"0","num_feature":"244","num_nodes":"47","size_leaf_vector":"1"}},{"base_weights":[8.8972633E-4,-1.9910702E0,1.1860686E-2,-1.515765E-1,-2.139214E-2,-3.3299285E-1,3.277331E-2,-2.068944E-1,-9.932765E-2,3.9572597E-2,-7.0161927E-1,-9.7903186E-1,-5.7734966E-2,5.84547E-1,2.832242E-2,-6.768197E-3,-4.9578518E-2,-6.500501E-2,-3.3568584E-3,-5.835864E-2,3.237661E-3,3.772454E-2,-9.606892E-3,-1.4006266E-3,5.3807213E-3],"categories":[],"categories_nodes":[],"categories_segments":[],"categories_sizes":[],"default_left":[0,0,1,0,0,1,0,0,0,0,0,0,0,0,0,0,0,0,0,0,0,0,0,0,0],"id":27,"left_children":[1,3,5,-1,-1,7,9,11,-1,13,15,17,19,21,23,-1,-1,-1,-1,-1,-1,-1,-1,-1,-1],"loss_changes":[2.7929567E1,9.742369E0,9.211986E0,0E0,0E0,1.45909815E1,5.9935217E0,7.7866387E0,0E0,7.267164E0,1.5591335E0,2.9965763E0,8.203509E0,3.369028E0,5.2595954E0,0E0,0E0,0E0,0E0,0E0,0E0,0E0,0E0,0E0,0E0],"parents":[2147483647,0,0,1,1,2,2,5,5,6,6,7,7,9,9,10,10,11,11,12,12,13,13,14,14],"right_children":[2,4,6,-1,-1,8,10,12,-1,14,16,18,20,22,24,-1,-1,-1,-1,-1,-1,-1,-1,-1,-1],"split_conditions":[-2.7627723E0,-4.6362862E-1,-1.2949542E0,-1.515765E-1,-2.139214E-2,3.0649474E0,1.9351535E0,-5.794431E-1,-9.932765E-2,-1.3673279E0,3.2737488E-1,3.9779788E-1,-3.1007805E-1,6.102947E-1,2.2153042E-1,-6.768197E-3,-4.9578518E-2,-6.500501E-2,-3.3568584E-3,-5.835864E-2,3.237661E-3,3.772454E-2,-9.606892E-3,-1.4006266E-3,5.3807213E-3],"split_indices":[20,47,124,0,0,116,191,209,0,1,125,32,126,110,39,0,0,0,0,0,0,0,0,0,0],"split_type":[0,0,0,0,0,0,0,0,0,0,0,0,0,0,0,0,0,0,0,0,0,0,0,0,0],"sum_hessian":[1.285E3,6E0,1.279E3,3E0,3E0,7.2E1,1.207E3,6.8E1,4E0,1.197E3,1E1,1E1,5.8E1,2.3E1,1.174E3,4E0,6E0,7E0,3E0,5E0,5.3E1,1.9E1,4E0,6.86E2,4.88E2],"tree_param":{"num_deleted":"0","num_feature":"244","num_nodes":"25","size_leaf_vector":"1"}},{"base_weights":[-1.1000084E-2,-5.235824E-1,5.4612155E-3,-1.9539703E-1,-1.13968454E-1,1.5582927E-1,-3.845578E-2,-5.1483955E-2,-1.26008475E-2,1.24960035E-1,1.0397612E0,1.4468692E-1,-8.6669214E-2,1.5617481E-1,-4.369795E-2,-2.733444E-1,1.8297459E-1,8.6286E-2,6.2925057E-3,7.692174E-2,1.1633625E0,-7.029863E-2,-7.748091E-1,1.2484741E-2,-1.861145E-2,1.2611671E-2,-2.5350576E-2,1.1593E-2,-2.8097022E-3,-2.586987E-2,6.4748707E-3,2.1905504E-2,8.0226354E-2,5.8908197E-3,-5.5655725E-3,-1.3282405E-2,-8.236649E-2],"categories":[],"categories_nodes":[],"categories_segments":[],"categories_sizes":[],"default_left":[0,0,0,0,0,0,0,0,0,0,0,0,1,0,0,0,0,0,0,0,0,1,0,0,0,0,0,0,0,0,0,0,0,0,0,0,0],"id":28,"left_children":[1,3,5,7,-1,9,11,-1,13,15,17,19,21,23,-1,25,27,-1,-1,29,31,33,35,-1,-1,-1,-1,-1,-1,-1,-1,-1,-1,-1,-1,-1,-1],"loss_changes":[1.0576571E1,2.1779858E1,8.001619E0,5.0679193E0,0E0,7.2300453E0,8.271561E0,0E0,4.4241805E0,6.187561E0,5.239809E0,1.3247477E1,8.219841E0,1.3160985E0,0E0,4.3289123E0,2.7547984E0,0E0,0E0,5.7776103E0,2.9322453E0,5.6136465E0,6.923402E0,0E0,0E0,0E0,0E0,0E0,0E0,0E0,0E0,0E0,0E0,0E0,0E0,0E0,0E0],"parents":[2147483647,0,0,1,1,2,2,3,3,5,5,6,6,8,8,9,9,10,10,11,11,12,12,13,13,15,15,16,16,19,19,20,20,21,21,22,22],"right_children":[2,4,6,8,-1,10,12,-1,14,16,18,20,22,24,-1,26,28,-1,-1,30,32,34,36,-1,-1,-1,-1,-1,-1,-1,-1,-1,-1,-1,-1,-1,-1],"split_conditions":[-1.3850517E0,1.9377762E0,-6.509408E-1,1.863229E-1,-1.13968454E-1,2.3082163E0,-6.102139E-1,-5.1483955E-2,4.631879E-1,-6.948898E-1,-1.8459043E-1,1.7828166E0,2.8081412E0,5.123336E-1,-4.369795E-2,-6.447926E-1,6.0714287E-1,8.6286E-2,6.2925057E-3,-1.889213E0,-2.3343066E-2,-9.367811E-1,1.6584725E0,1.2484741E-2,-1.861145E-2,1.2611671E-2,-2.5350576E-2,1.1593E-2,-2.8097022E-3,-2.586987E-2,6.4748707E-3,2.1905504E-2,8.0226354E-2,5.8908197E-3,-5.5655725E-3,-1.3282405E-2,-8.236649E-2],"split_indices":[124,116,69,221,0,116,70,0,41,188,124,116,116,234,0,16,240,0,0,74,39,58,180,0,0,0,0,0,0,0,0,0,0,0,0,0,0],"split_type":[0,0,0,0,0,0,0,0,0,0,0,0,0,0,0,0,0,0,0,0,0,0,0,0,0,0,0,0,0,0,0,0,0,0,0,0,0],"sum_hessian":[1.246E3,3.8E1,1.208E3,3.3E1,5E0,2.73E2,9.35E2,5E0,2.8E1,2.65E2,8E0,1.94E2,7.41E2,2.4E1,4E0,3.3E1,2.32E2,4E0,4E0,1.83E2,1.1E1,7.25E2,1.6E1,2.1E1,3E0,1E1,2.3E1,1.93E2,3.9E1,1.4E1,1.69E2,5E0,6E0,1.29E2,5.96E2,1.1E1,5E0],"tree_param":{"num_deleted":"0","num_feature":"244","num_nodes":"37","size_leaf_vector":"1"}},{"base_weights":[-2.460866E-3,-1.9943054E-1,3.2293975E-2,-9.076495E-3,-5.472585E-1,4.9827024E-2,-3.2577938E-1,-7.2631344E-2,7.999723E-1,2.5265256E-1,-7.6520956E-1,-5.057216E-2,1.0370888E-1,-6.166885E-1,7.525974E-1,1.8779612E-1,-2.7428544E-1,7.3084594E-3,5.4292288E-2,1.2971225E-2,3.547105E-2,-2.2335199E-1,-1.1393229E0,-1.2879871E0,-2.5536714E-2,8.814753E-2,5.741874E-1,-1.2749368E0,-3.5144117E-1,-9.476124E-3,1.1420827E0,1.7297188E-2,-8.676166E-3,-4.1029554E-2,-5.474973E-3,-1.6683964E-2,1.3650569E-2,1.11430995E-2,-1.999156E-2,-1.9687625E-2,-8.251799E-2,-2.1178534E-2,-9.027034E-2,-3.0880228E-2,3.0268033E-4,6.3007264E-3,-6.905634E-3,1.4776933E-2,6.02443E-2,-7.634657E-2,-2.136067E-2,-4.391045E-3,-5.2645963E-2,7.55261E-2,2.9945731E-2],"categories":[],"categories_nodes":[],"categories_segments":[],"categories_sizes":[],"default_left":[0,1,0,0,0,0,0,1,0,0,0,0,0,0,1,0,0,0,0,0,0,0,0,0,0,0,0,1,1,0,0,0,0,0,0,0,0,0,0,0,0,0,0,0,0,0,0,0,0,0,0,0,0,0,0],"id":29,"left_children":[1,3,5,7,9,11,13,15,17,19,21,23,25,27,29,31,33,-1,-1,35,-1,37,39,41,43,45,47,49,51,-1,53,-1,-1,-1,-1,-1,-1,-1,-1,-1,-1,-1,-1,-1,-1,-1,-1,-1,-1,-1,-1,-1,-1,-1,-1],"loss_changes":[8.66921E0,1.2519386E1,6.7313347E0,6.361322E0,1.1925468E1,5.5554957E0,1.613601E1,6.1520452E0,1.4002256E0,1.5607415E0,1.0353216E1,1.0926322E1,4.7737703E0,6.3732395E0,4.348067E0,2.9915037E0,5.7586875E0,0E0,0E0,1.076605E0,0E0,1.9179959E0,1.0957191E1,2.1432476E0,6.6485653E0,5.5681257E0,3.1844769E0,1.5021E0,5.341174E0,0E0,4.8537827E-1,0E0,0E0,0E0,0E0,0E0,0E0,0E0,0E0,0E0,0E0,0E0,0E0,0E0,0E0,0E0,0E0,0E0,0E0,0E0,0E0,0E0,0E0,0E0,0E0],"parents":[2147483647,0,0,1,1,2,2,3,3,4,4,5,5,6,6,7,7,8,8,9,9,10,10,11,11,12,12,13,13,14,14,15,15,16,16,19,19,21,21,22,22,23,23,24,24,25,25,26,26,27,27,28,28,30,30],"right_children":[2,4,6,8,10,12,14,16,18,20,22,24,26,28,30,32,34,-1,-1,36,-1,38,40,42,44,46,48,50,52,-1,54,-1,-1,-1,-1,-1,-1,-1,-1,-1,-1,-1,-1,-1,-1,-1,-1,-1,-1,-1,-1,-1,-1,-1,-1],"split_conditions":[-8.587591E-1,4.30055E-1,3.0372727E0,8.779518E-1,-6.2230706E-1,-2.895911E-1,7.6976645E-1,-2.63104E-1,1.14678904E-1,7.251589E-1,3.6655512E-1,-9.608235E-1,1.4947983E0,-1.342111E-1,-3.7852165E-1,1.3321863E-1,-6E-1,7.3084594E-3,5.4292288E-2,2.6354617E-1,3.547105E-2,-8.1007826E-1,-1.2838957E0,2.858941E-1,-5.861086E-1,8.9006925E-1,1.6488479E0,3.3333334E-1,2.7260175E-1,-9.476124E-3,-2.0361555E-1,1.7297188E-2,-8.676166E-3,-4.1029554E-2,-5.474973E-3,-1.6683964E-2,1.3650569E-2,1.11430995E-2,-1.999156E-2,-1.9687625E-2,-8.251799E-2,-2.1178534E-2,-9.027034E-2,-3.0880228E-2,3.0268033E-4,6.3007264E-3,-6.905634E-3,1.4776933E-2,6.02443E-2,-7.634657E-2,-2.136067E-2,-4.391045E-3,-5.2645963E-2,7.55261E-2,2.9945731E-2],"split_indices":[26,54,115,98,198,223,30,80,28,29,112,46,57,15,113,98,132,0,0,223,0,188,0,4,210,10,119,85,56,0,113,0,0,0,0,0,0,0,0,0,0,0,0,0,0,0,0,0,0,0,0,0,0,0,0],"split_type":[0,0,0,0,0,0,0,0,0,0,0,0,0,0,0,0,0,0,0,0,0,0,0,0,0,0,0,0,0,0,0,0,0,0,0,0,0,0,0,0,0,0,0,0,0,0,0,0,0,0,0,0,0,0,0],"sum_hessian":[1.262E3,1.89E2,1.073E3,1.23E2,6.6E1,1.024E3,4.9E1,1.15E2,8E0,1.4E1,5.2E1,3.57E2,6.67E2,3.9E1,1E1,5E1,6.5E1,3E0,5E0,1E1,4E0,2.2E1,3E1,6E0,3.51E2,6.47E2,2E1,1E1,2.9E1,3E0,7E0,3.5E1,1.5E1,1.4E1,5.1E1,4E0,6E0,6E0,1.6E1,1.3E1,1.7E1,3E0,3E0,1.7E1,3.34E2,5.55E2,9.2E1,1.5E1,5E0,7E0,3E0,2.2E1,7E0,3E0,4E0],"tree_param":{"num_deleted":"0","num_feature":"244","num_nodes":"55","size_leaf_vector":"1"}},{"base_weights":[-1.778564E-2,-1.4710442E0,-8.435438E-3,-1.2024417E-1,-2.0488193E-2,-1.2073206E-1,4.3297347E-2,-8.5347965E-2,-8.554667E-1,4.6409062E-1,2.6881564E-2,-6.3836806E-2,-8.648771E-1,9.475301E-3,-1.1747094E0,1.0243729E0,1.9596395E-1,8.1977986E-2,-1.6751334E-1,-5.7563907E-3,1.8659113E-2,-6.6517636E-2,-5.66655E-3,-8.582679E-2,-3.3592872E-2,6.343695E-2,1.5781958E-2,1.8800471E-2,-1.2749924E-2,-1.7501596E-2,5.7509323E-3,-5.0611384E-2,-2.5573864E-3],"categories":[],"categories_nodes":[],"categories_segments":[],"categories_sizes":[],"default_left":[0,0,0,0,0,0,1,1,0,0,0,0,0,0,0,0,0,0,0,0,0,0,0,0,0,0,0,0,0,0,0,0,0],"id":30,"left_children":[1,3,5,-1,-1,7,9,11,13,15,17,19,21,-1,23,25,27,29,31,-1,-1,-1,-1,-1,-1,-1,-1,-1,-1,-1,-1,-1,-1],"loss_changes":[1.7001617E1,6.661623E0,7.309599E0,0E0,0E0,1.0154081E1,5.879007E0,6.223976E0,6.3259325E0,4.4844775E0,8.884153E0,8.3331785E0,3.203125E0,0E0,2.4223156E0,1.1730032E0,1.9754393E0,9.251966E0,1.7830002E1,0E0,0E0,0E0,0E0,0E0,0E0,0E0,0E0,0E0,0E0,0E0,0E0,0E0,0E0],"parents":[2147483647,0,0,1,1,2,2,5,5,6,6,7,7,8,8,9,9,10,10,11,11,12,12,14,14,15,15,16,16,17,17,18,18],"right_children":[2,4,6,-1,-1,8,10,12,14,16,18,20,22,-1,24,26,28,30,32,-1,-1,-1,-1,-1,-1,-1,-1,-1,-1,-1,-1,-1,-1],"split_conditions":[-2.3110037E0,1.2379426E-1,-3.8907874E-1,-1.2024417E-1,-2.0488193E-2,1.0510098E0,-2.008454E0,1.552059E0,-9.901094E-1,-1.4024206E-1,5.993082E-1,1.4019315E0,4.76994E-1,9.475301E-3,4.2698435E-2,0E0,1.25E-1,-8.314195E-1,-4.6790448E-1,-5.7563907E-3,1.8659113E-2,-6.6517636E-2,-5.66655E-3,-8.582679E-2,-3.3592872E-2,6.343695E-2,1.5781958E-2,1.8800471E-2,-1.2749924E-2,-1.7501596E-2,5.7509323E-3,-5.0611384E-2,-2.5573864E-3],"split_indices":[0,118,119,0,0,65,73,234,69,225,116,60,61,0,3,135,240,181,113,0,0,0,0,0,0,0,0,0,0,0,0,0,0],"split_type":[0,0,0,0,0,0,0,0,0,0,0,0,0,0,0,0,0,0,0,0,0,0,0,0,0,0,0,0,0,0,0,0,0],"sum_hessian":[1.262E3,7E0,1.255E3,3E0,4E0,3.96E2,8.59E2,3.79E2,1.7E1,3.1E1,8.28E2,3.7E2,9E0,4E0,1.3E1,9E0,2.2E1,6.46E2,1.82E2,3.32E2,3.8E1,5E0,4E0,5E0,8E0,6E0,3E0,1.6E1,6E0,4.5E1,6.01E2,2.1E1,1.61E2],"tree_param":{"num_deleted":"0","num_feature":"244","num_nodes":"33","size_leaf_vector":"1"}},{"base_weights":[-6.822895E-3,-7.74964E-2,3.8265073E-4,-3.694529E-1,1.6530931E-2,-2.2009407E-1,-8.6963944E-2,4.086679E-1,3.4938133E-3,-7.774183E-1,4.570835E-2,1.9651225E-1,7.2834945E-1,-1.3472052E-1,4.3109983E-2,-2.664425E-3,-6.617992E-2,7.595633E-3,-3.8190108E-2,1.5259089E-2,-3.0029097E-3,-2.434881E-4,4.601967E-2,5.378464E-3,-1.1624139E-2,4.4661066E-3,-5.60605E-3],"categories":[],"categories_nodes":[],"categories_segments":[],"categories_sizes":[],"default_left":[0,0,0,0,1,0,0,1,1,0,0,0,0,0,0,0,0,0,0,0,0,0,0,0,0,0,0],"id":31,"left_children":[1,-1,3,5,7,9,-1,11,13,15,17,19,21,23,25,-1,-1,-1,-1,-1,-1,-1,-1,-1,-1,-1,-1],"loss_changes":[1.4354403E1,0E0,7.5674634E0,1.0264822E1,6.1944046E0,7.3674736E0,0E0,2.409452E0,6.468714E0,6.1198635E0,2.9779415E0,7.3987573E-1,2.2081885E0,6.2671266E0,6.6074085E0,0E0,0E0,0E0,0E0,0E0,0E0,0E0,0E0,0E0,0E0,0E0,0E0],"parents":[2147483647,0,0,2,2,3,3,4,4,5,5,7,7,8,8,9,9,10,10,11,11,12,12,13,13,14,14],"right_children":[2,-1,4,6,8,10,-1,12,14,16,18,20,22,24,26,-1,-1,-1,-1,-1,-1,-1,-1,-1,-1,-1,-1],"split_conditions":[-2.3110037E0,-7.74964E-2,-1.2949542E0,2.90356E0,-1.2029241E0,-2.588586E-1,-8.6963944E-2,3.4896752E-1,-5.7397485E-1,-8.2302946E-1,1.1654516E0,-2.0653339E-1,-1.7188752E0,-3.0192074E-1,5.866459E-1,-2.664425E-3,-6.617992E-2,7.595633E-3,-3.8190108E-2,1.5259089E-2,-3.0029097E-3,-2.434881E-4,4.601967E-2,5.378464E-3,-1.1624139E-2,4.4661066E-3,-5.60605E-3],"split_indices":[0,0,124,116,34,48,0,116,188,35,11,5,181,194,116,0,0,0,0,0,0,0,0,0,0,0,0],"split_type":[0,0,0,0,0,0,0,0,0,0,0,0,0,0,0,0,0,0,0,0,0,0,0,0,0,0,0],"sum_hessian":[1.276E3,5E0,1.271E3,5.2E1,1.219E3,4.8E1,4E0,3.8E1,1.181E3,1.5E1,3.3E1,2.4E1,1.4E1,2.62E2,9.19E2,7E0,8E0,3E1,3E0,1.7E1,7E0,3E0,1.1E1,7.5E1,1.87E2,7.09E2,2.1E2],"tree_param":{"num_deleted":"0","num_feature":"244","num_nodes":"27","size_leaf_vector":"1"}},{"base_weights":[-5.6497804E-3,-9.490173E-2,3.3581874E-3,-3.6462688E-1,1.780332E-2,-8.419787E-2,-2.0041108E-1,5.4270256E-1,7.9423E-3,-5.1054925E-1,2.5314468E-1,7.6484494E-2,1.5654807E-1,1.7191891E-1,-2.3702309E-2,-8.390635E-3,-5.1607322E-2,-2.5998289E-3,2.5622869E-2,1.3833769E-2,-1.3901725E-2,9.600031E-3,-3.974609E-2,2.9885017E-3,-4.078307E-3],"categories":[],"categories_nodes":[],"categories_segments":[],"categories_sizes":[],"default_left":[0,0,0,0,1,0,0,0,0,0,0,0,1,0,0,0,0,0,0,0,0,0,0,0,0],"id":32,"left_children":[1,-1,3,5,7,-1,9,11,13,15,17,-1,19,21,23,-1,-1,-1,-1,-1,-1,-1,-1,-1,-1],"loss_changes":[2.158925E1,0E0,6.6163006E0,9.65686E0,6.1725793E0,0E0,6.203576E0,7.976757E0,6.157455E0,4.354828E0,1.4969779E0,0E0,9.6427846E-1,3.82017E0,4.798444E0,0E0,0E0,0E0,0E0,0E0,0E0,0E0,0E0,0E0,0E0],"parents":[2147483647,0,0,2,2,3,3,4,4,6,6,7,7,8,8,9,9,10,10,12,12,13,13,14,14],"right_children":[2,-1,4,6,8,-1,10,12,14,16,18,-1,20,22,24,-1,-1,-1,-1,-1,-1,-1,-1,-1,-1],"split_conditions":[-5.5246954E0,-9.490173E-2,-1.2949542E0,-9.833461E-1,-1.7366258E0,-8.419787E-2,1.0461968E-1,-4.115983E-1,-8.544065E-1,-2.884397E-1,9.878871E-2,7.6484494E-2,6.944444E-1,1.2797832E0,-1.9890824E-1,-8.390635E-3,-5.1607322E-2,-2.5998289E-3,2.5622869E-2,1.3833769E-2,-1.3901725E-2,9.600031E-3,-3.974609E-2,2.9885017E-3,-4.078307E-3],"split_indices":[121,0,124,192,123,0,194,68,68,191,30,0,199,125,224,0,0,0,0,0,0,0,0,0,0],"split_type":[0,0,0,0,0,0,0,0,0,0,0,0,0,0,0,0,0,0,0,0,0,0,0,0,0],"sum_hessian":[1.254E3,5E0,1.249E3,4.6E1,1.203E3,4E0,4.2E1,2.1E1,1.182E3,2.5E1,1.7E1,5E0,1.6E1,1.91E2,9.91E2,1.6E1,9E0,8E0,9E0,1.3E1,3E0,1.88E2,3E0,4.05E2,5.86E2],"tree_param":{"num_deleted":"0","num_feature":"244","num_nodes":"25","size_leaf_vector":"1"}},{"base_weights":[-1.739578E-3,-1.5329456E0,6.655823E-3,-0E0,-1.3363521E-1,-1.996502E-1,3.961424E-2,-1.4404228E-1,-1.1920128E0,1.7627826E-1,2.0202294E-3,-1.7733367E-1,6.1179608E-2,-2.883198E-2,-7.744917E-2,1.512874E-1,8.53983E-1,1.1680596E-2,-7.337989E-1,1.700738E-2,-1.2433452E-2,-6.501057E-3,9.753582E-3,7.473799E-2,-6.7741773E-3,-3.100169E-4,1.8311E-2,-6.106577E-2,-1.929079E-2],"categories":[],"categories_nodes":[],"categories_segments":[],"categories_sizes":[],"default_left":[0,0,0,0,0,0,0,0,0,0,0,1,0,0,0,0,0,0,0,0,0,0,0,0,0,0,0,0,0],"id":33,"left_children":[1,3,5,-1,-1,7,9,11,13,15,17,19,-1,-1,-1,21,23,25,27,-1,-1,-1,-1,-1,-1,-1,-1,-1,-1],"loss_changes":[1.650165E1,1.2123936E1,8.593297E0,0E0,0E0,9.296574E0,5.592236E0,7.670411E0,8.712635E-1,3.7503357E0,6.0352654E0,6.092535E0,0E0,0E0,0E0,2.840117E0,5.4106593E0,5.4141645E0,1.2342062E0,0E0,0E0,0E0,0E0,0E0,0E0,0E0,0E0,0E0,0E0],"parents":[2147483647,0,0,1,1,2,2,5,5,6,6,7,7,8,8,9,9,10,10,11,11,15,15,16,16,17,17,18,18],"right_children":[2,4,6,-1,-1,8,10,12,14,16,18,20,-1,-1,-1,22,24,26,28,-1,-1,-1,-1,-1,-1,-1,-1,-1,-1],"split_conditions":[-5.5246954E0,0E0,-9.321328E-1,-0E0,-1.3363521E-1,1.2410014E0,-7.385961E-1,2.862838E0,1.2120969E0,1.3261498E0,2.1392405E0,-7.125081E-1,6.1179608E-2,-2.883198E-2,-7.744917E-2,-6.9665533E-1,8.5714287E-1,4E0,-7.5197674E-2,1.700738E-2,-1.2433452E-2,-6.501057E-3,9.753582E-3,7.473799E-2,-6.7741773E-3,-3.100169E-4,1.8311E-2,-6.106577E-2,-1.929079E-2],"split_indices":[121,31,26,0,0,9,69,215,60,62,20,185,0,0,0,39,129,202,61,0,0,0,0,0,0,0,0,0,0],"split_type":[0,0,0,0,0,0,0,0,0,0,0,0,0,0,0,0,0,0,0,0,0,0,0,0,0,0,0,0,0],"sum_hessian":[1.27E3,6E0,1.264E3,3E0,3E0,1.73E2,1.091E3,1.65E2,8E0,2.34E2,8.57E2,1.62E2,3E0,4E0,4E0,2.27E2,7E0,8.47E2,1E1,1.9E1,1.43E2,3E1,1.97E2,4E0,3E0,8.07E2,4E1,3E0,7E0],"tree_param":{"num_deleted":"0","num_feature":"244","num_nodes":"29","size_leaf_vector":"1"}},{"base_weights":[7.6097217E-3,1.464459E-2,-8.6250985E-1,-2.0659924E-1,3.949977E-2,3.531431E-3,-7.565201E-2,-1.255744E0,-3.0533142E-2,3.4916412E-2,6.451283E-2,-2.0045285E0,-5.8792394E-1,3.477126E-1,-1.8660149E-1,-8.739218E-2,7.465692E-2,-4.2308856E-2,-1.2551521E-1,-6.45059E-2,-7.5418204E-3,3.5944262E-3,4.686684E-2,-1.7581984E-2,8.667255E-3,6.3464134E-3,-8.594256E-3,5.9090875E-4,8.433893E-3],"categories":[],"categories_nodes":[],"categories_segments":[],"categories_sizes":[],"default_left":[1,0,0,1,0,0,0,0,0,0,0,0,0,0,0,0,0,0,0,0,0,0,0,0,0,0,0,0,0],"id":34,"left_children":[1,3,5,7,9,-1,-1,11,13,15,-1,17,19,21,23,25,27,-1,-1,-1,-1,-1,-1,-1,-1,-1,-1,-1,-1],"loss_changes":[7.634406E0,6.865269E0,6.321455E0,2.3107601E1,6.2716794E0,0E0,0E0,7.5632057E0,6.483281E0,5.45885E0,0E0,2.2271156E0,3.0374305E0,5.0359354E0,4.71237E0,5.006168E0,4.990075E0,0E0,0E0,0E0,0E0,0E0,0E0,0E0,0E0,0E0,0E0,0E0,0E0],"parents":[2147483647,0,0,1,1,2,2,3,3,4,4,7,7,8,8,9,9,11,11,12,12,13,13,14,14,15,15,16,16],"right_children":[2,4,6,8,10,-1,-1,12,14,16,-1,18,20,22,24,26,28,-1,-1,-1,-1,-1,-1,-1,-1,-1,-1,-1,-1],"split_conditions":[5.266894E0,-1.0974823E0,2.072635E0,-1.1392171E0,3.9652224E0,3.531431E-3,-7.565201E-2,-1.188885E-1,-3.6723E-1,-4.322496E-1,6.451283E-2,-1.491725E0,0E0,2.6012892E-1,4.4444445E-1,-8.0227613E-1,2.6724944E-1,-4.2308856E-2,-1.2551521E-1,-6.45059E-2,-7.5418204E-3,3.5944262E-3,4.686684E-2,-1.7581984E-2,8.667255E-3,6.3464134E-3,-8.594256E-3,5.9090875E-4,8.433893E-3],"split_indices":[180,3,116,192,116,0,0,30,225,188,0,23,136,64,228,16,121,0,0,0,0,0,0,0,0,0,0,0,0],"split_type":[0,0,0,0,0,0,0,0,0,0,0,0,0,0,0,0,0,0,0,0,0,0,0,0,0,0,0,0,0],"sum_hessian":[1.258E3,1.249E3,9E0,1.25E2,1.124E3,4E0,5E0,1.7E1,1.08E2,1.121E3,3E0,7E0,1E1,3.1E1,7.7E1,2.74E2,8.47E2,3E0,4E0,3E0,7E0,2.2E1,9E0,5.3E1,2.4E1,7.7E1,1.97E2,5.09E2,3.38E2],"tree_param":{"num_deleted":"0","num_feature":"244","num_nodes":"29","size_leaf_vector":"1"}},{"base_weights":[5.1712426E-3,1.29755E-2,-8.304207E-2,-3.0224922E-1,3.2716144E-2,-1.287498E-1,-1.208517E0,-1.25268E-2,1.5084134E-1,5.85858E-2,-6.2671417E-1,-8.81676E-2,-2.7300647E-2,-7.2448426E-1,3.0464546E-3,1.2910517E-1,9.199632E-1,-3.886735E-2,8.809536E-3,-8.367094E-2,-1.0049148E-2,-1.7948661E-2,-6.4275354E-2,2.6279062E-3,-1.1411938E-2,9.9220285E-3,-4.62172E-3,1.821782E-2,6.357887E-2],"categories":[],"categories_nodes":[],"categories_segments":[],"categories_sizes":[],"default_left":[1,0,0,0,0,1,0,0,1,0,0,0,0,0,1,0,0,0,0,0,0,0,0,0,0,0,0,0,0],"id":35,"left_children":[1,3,-1,5,7,9,11,13,15,17,19,-1,-1,21,23,25,27,-1,-1,-1,-1,-1,-1,-1,-1,-1,-1,-1,-1],"loss_changes":[1.6733347E1,8.028935E0,0E0,1.1660682E1,6.5251164E0,6.157149E0,3.2172165E0,9.842434E0,5.4269266E0,4.7957163E0,7.497299E0,0E0,0E0,3.2702284E0,9.876914E0,5.0979185E0,1.1313324E0,0E0,0E0,0E0,0E0,0E0,0E0,0E0,0E0,0E0,0E0,0E0,0E0],"parents":[2147483647,0,0,1,1,3,3,4,4,5,5,6,6,7,7,8,8,9,9,10,10,13,13,14,14,15,15,16,16],"right_children":[2,4,-1,6,8,10,12,14,16,18,20,-1,-1,22,24,26,28,-1,-1,-1,-1,-1,-1,-1,-1,-1,-1,-1,-1],"split_conditions":[4.9056287E0,-1.5362495E0,-8.304207E-2,1.7726694E0,4.514615E-1,1.0968949E0,1.1548685E0,-1.8494508E0,5.1429987E0,-5.794431E-1,-1.953523E-2,-8.81676E-2,-2.7300647E-2,3.5503596E-2,5.866459E-1,1.0298814E0,-3.5093468E-1,-3.886735E-2,8.809536E-3,-8.367094E-2,-1.0049148E-2,-1.7948661E-2,-6.4275354E-2,2.6279062E-3,-1.1411938E-2,9.9220285E-3,-4.62172E-3,1.821782E-2,6.357887E-2],"split_indices":[116,121,0,209,209,127,112,71,115,209,214,0,0,127,116,4,30,0,0,0,0,0,0,0,0,0,0,0,0],"split_type":[0,0,0,0,0,0,0,0,0,0,0,0,0,0,0,0,0,0,0,0,0,0,0,0,0,0,0,0,0],"sum_hessian":[1.297E3,1.292E3,5E0,7.5E1,1.217E3,6.4E1,1.1E1,8.8E2,3.37E2,4.7E1,1.7E1,5E0,6E0,1.8E1,8.62E2,3.29E2,8E0,5E0,4.2E1,4E0,1.3E1,1.2E1,6E0,7.11E2,1.51E2,2.51E2,7.8E1,4E0,4E0],"tree_param":{"num_deleted":"0","num_feature":"244","num_nodes":"29","size_leaf_vector":"1"}},{"base_weights":[-1.5272143E-2,-4.501491E-3,-9.6101046E-1,-3.891554E-2,1.22494824E-1,-3.0512333E-1,-1.2497238E-1,3.253989E-2,-1.1984463E-1,9.6317244E-1,9.546013E-2,-3.7329383E-2,3.9511666E-2,9.148258E-3,4.903926E-1,-3.844867E-1,-5.0362874E-2,1.9783441E-2,6.0227044E-2,5.165508E-2,7.23597E-2,9.380097E-3,-4.672826E-3,1.4135741E-3,-2.4681613E-2,3.5306256E-2,4.3090694E-3,-5.368916E-2,-1.0405426E-2,3.3231523E-2,-3.5293195E-3,5.4411427E-3,-2.5217313E-2],"categories":[],"categories_nodes":[],"categories_segments":[],"categories_sizes":[],"default_left":[1,0,0,0,0,0,0,0,0,0,0,0,0,0,0,0,0,0,0,0,1,0,0,0,0,0,0,0,0,0,0,0,0],"id":36,"left_children":[1,3,5,7,9,11,-1,13,15,17,19,-1,21,23,25,27,29,-1,-1,-1,31,-1,-1,-1,-1,-1,-1,-1,-1,-1,-1,-1,-1],"loss_changes":[1.2662455E1,5.4157763E0,1.308348E1,5.662448E0,5.8022423E0,1.7737908E0,0E0,5.504009E0,8.37715E0,4.5919943E-1,5.381299E0,0E0,1.647862E-1,4.726738E0,2.0399513E0,1.1198149E1,5.265291E0,0E0,0E0,0E0,5.314518E0,0E0,0E0,0E0,0E0,0E0,0E0,0E0,0E0,0E0,0E0,0E0,0E0],"parents":[2147483647,0,0,1,1,2,2,3,3,4,4,5,5,7,7,8,8,9,9,10,10,12,12,13,13,14,14,15,15,16,16,20,20],"right_children":[2,4,6,8,10,12,-1,14,16,18,20,-1,22,24,26,28,30,-1,-1,-1,32,-1,-1,-1,-1,-1,-1,-1,-1,-1,-1,-1,-1],"split_conditions":[2.3079052E0,6E-1,3.0773375E0,6.464386E-2,-2.3249114E0,-3.4547976E-1,-1.2497238E-1,1.7426814E0,-5.6E-1,-9.306214E-1,-1.6666666E0,-3.7329383E-2,0E0,1.7614024E0,4.4325575E-1,-5.0172186E-1,-1.7123972E0,1.9783441E-2,6.0227044E-2,5.165508E-2,1.3438008E0,9.380097E-3,-4.672826E-3,1.4135741E-3,-2.4681613E-2,3.5306256E-2,4.3090694E-3,-5.368916E-2,-1.0405426E-2,3.3231523E-2,-3.5293195E-3,5.4411427E-3,-2.5217313E-2],"split_indices":[62,149,113,4,74,195,0,209,134,15,219,0,21,13,79,233,130,0,0,0,173,0,0,0,0,0,0,0,0,0,0,0,0],"split_type":[0,0,0,0,0,0,0,0,0,0,0,0,0,0,0,0,0,0,0,0,0,0,0,0,0,0,0,0,0,0,0,0,0],"sum_hessian":[1.252E3,1.239E3,1.3E1,9.76E2,2.63E2,1E1,3E0,5.18E2,4.58E2,7E0,2.56E2,4E0,6E0,4.94E2,2.4E1,9.4E1,3.64E2,3E0,4E0,5E0,2.51E2,3E0,3E0,4.77E2,1.7E1,1.5E1,9E0,1.8E1,7.6E1,9E0,3.55E2,2.37E2,1.4E1],"tree_param":{"num_deleted":"0","num_feature":"244","num_nodes":"33","size_leaf_vector":"1"}},{"base_weights":[-1.433643E-2,1.7236605E-2,-1.9215596E-1,-5.9751958E-2,1.2458764E-1,2.773832E-1,-5.2671826E-1,-7.943901E-2,6.029967E-1,7.807169E-2,2.983652E-1,4.9134764E-1,-2.0899248E-1,2.6819286E-1,-6.728412E-1,-4.8874862E-2,-5.755641E-1,3.578651E-2,7.33718E-3,1.4257464E-1,-1.6416702E-1,4.4994867E-1,7.0492424E-2,-1.5881896E-2,5.7884896E-1,1.5909265E-1,-7.088888E-2,1.0925993E0,-3.4666568E-1,-1.2219496E0,-4.115368E-1,-5.1767207E-3,7.897493E-3,-5.976033E-2,-1.3794944E-2,-1.8614493E-2,7.773927E-3,-5.9287574E-2,-5.1871673E-3,1.6559271E-2,3.5995387E-2,1.5161963E-2,-9.260052E-3,-4.3684645E-3,3.197675E-2,2.9577708E-2,-3.0679498E-3,6.902749E-2,2.1725567E-2,-3.5393026E-2,2.7820044E-3,-8.127215E-2,3.9168736E-3,8.796853E-3,-3.0252358E-2],"categories":[],"categories_nodes":[],"categories_segments":[],"categories_sizes":[],"default_left":[1,0,0,0,1,0,0,0,0,0,0,0,0,0,0,0,0,0,0,0,1,0,0,0,0,0,0,0,0,0,0,0,0,0,0,0,0,0,0,0,0,0,0,0,0,0,0,0,0,0,0,0,0,0,0],"id":37,"left_children":[1,3,5,7,9,11,13,15,17,19,21,23,25,27,29,31,33,-1,-1,35,37,39,41,-1,43,45,-1,47,49,51,53,-1,-1,-1,-1,-1,-1,-1,-1,-1,-1,-1,-1,-1,-1,-1,-1,-1,-1,-1,-1,-1,-1,-1,-1],"loss_changes":[7.111668E0,8.882061E0,3.0175243E1,8.150272E0,3.5685215E0,8.456291E0,1.3230249E1,9.128916E0,7.345543E-1,5.5837865E0,3.1631622E0,4.174075E0,1.1474821E1,9.57744E0,1.2964794E1,6.49995E0,6.0221186E0,0E0,0E0,1.9097424E0,4.3776274E0,1.4518957E0,2.388926E0,0E0,2.173027E0,1.9960536E0,0E0,7.346039E-1,1.7030259E0,1.6021763E1,7.6523905E0,0E0,0E0,0E0,0E0,0E0,0E0,0E0,0E0,0E0,0E0,0E0,0E0,0E0,0E0,0E0,0E0,0E0,0E0,0E0,0E0,0E0,0E0,0E0,0E0],"parents":[2147483647,0,0,1,1,2,2,3,3,4,4,5,5,6,6,7,7,8,8,9,9,10,10,11,11,12,12,13,13,14,14,15,15,16,16,19,19,20,20,21,21,22,22,24,24,25,25,27,27,28,28,29,29,30,30],"right_children":[2,4,6,8,10,12,14,16,18,20,22,24,26,28,30,32,34,-1,-1,36,38,40,42,-1,44,46,-1,48,50,52,54,-1,-1,-1,-1,-1,-1,-1,-1,-1,-1,-1,-1,-1,-1,-1,-1,-1,-1,-1,-1,-1,-1,-1,-1],"split_conditions":[1.0340602E0,1.351274E-1,-4.1434294E-1,8.7816197E-1,4.8792562E-1,1.3276445E0,-9.835016E-1,1.8374003E0,8.902824E-1,3.2028094E-1,4.0261388E-1,-1.7177994E0,2.1113083E-1,3.4615386E-1,2.1133456E-1,6E-1,-1.2947871E-1,3.578651E-2,7.33718E-3,-6.1425483E-1,-1.7921182E0,1.14652915E-2,-1.7581403E-1,-1.5881896E-2,1.0802333E0,-9.233247E-2,-7.088888E-2,1.0411958E0,5.885704E-1,4.4822496E-1,7.335174E-2,-5.1767207E-3,7.897493E-3,-5.976033E-2,-1.3794944E-2,-1.8614493E-2,7.773927E-3,-5.9287574E-2,-5.1871673E-3,1.6559271E-2,3.5995387E-2,1.5161963E-2,-9.260052E-3,-4.3684645E-3,3.197675E-2,2.9577708E-2,-3.0679498E-3,6.902749E-2,2.1725567E-2,-3.5393026E-2,2.7820044E-3,-8.127215E-2,3.9168736E-3,8.796853E-3,-3.0252358E-2],"split_indices":[116,195,97,116,193,211,69,205,113,116,79,5,19,86,205,149,116,0,0,117,192,79,211,0,116,225,0,5,195,8,98,0,0,0,0,0,0,0,0,0,0,0,0,0,0,0,0,0,0,0,0,0,0,0,0],"split_type":[0,0,0,0,0,0,0,0,0,0,0,0,0,0,0,0,0,0,0,0,0,0,0,0,0,0,0,0,0,0,0,0,0,0,0,0,0,0,0,0,0,0,0,0,0,0,0,0,0,0,0,0,0,0,0],"sum_hessian":[1.262E3,1.072E3,1.9E2,6.24E2,4.48E2,7.9E1,1.11E2,6.07E2,1.7E1,3.55E2,9.3E1,5.5E1,2.4E1,1.7E1,9.4E1,5.73E2,3.4E1,1.3E1,4E0,2.81E2,7.4E1,5.5E1,3.8E1,5E0,5E1,1.9E1,5E0,7E0,1E1,2.9E1,6.5E1,4.54E2,1.19E2,1E1,2.4E1,6E0,2.75E2,3E0,7.1E1,4E1,1.5E1,2E1,1.8E1,4E0,4.6E1,6E0,1.3E1,4E0,3E0,5E0,5E0,2.2E1,7E0,1.6E1,4.9E1],"tree_param":{"num_deleted":"0","num_feature":"244","num_nodes":"55","size_leaf_vector":"1"}},{"base_weights":[-2.8326374E-3,1.8620002E-1,-3.3090774E-2,5.266292E-1,1.3504449E-1,-5.388169E-3,-1.935909E-1,-0E0,3.044009E-2,-2.6987752E-1,1.887745E-1,5.613882E-1,-1.54463835E-2,-9.166452E-1,-1.0558031E-1,1.5637052E-1,-7.2461116E-1,3.017893E-1,2.707372E-2,8.3073777E-1,-8.866422E-3,2.8077062E-2,-1.6044396E-1,8.006508E-3,-1.2679707E0,4.843963E-1,-1.7413898E-1,1.5380854E-2,-1.8199709E-3,-4.55818E-2,-1.1896059E-2,7.569309E-3,2.9107202E-2,1.6735002E-2,-4.4190465E-3,2.1508878E-2,5.2055627E-2,-8.851697E-3,3.8744379E-3,1.517349E-2,-1.848722E-2,-7.61424E-2,-1.4439248E-2,3.5477534E-2,-1.4358294E-2,-4.210274E-3,-2.7996138E-2],"categories":[],"categories_nodes":[],"categories_segments":[],"categories_sizes":[],"default_left":[0,0,1,0,0,0,0,0,0,0,0,0,1,0,0,0,0,0,0,0,0,0,0,0,0,0,0,0,0,0,0,0,0,0,0,0,0,0,0,0,0,0,0,0,0,0,0],"id":38,"left_children":[1,3,5,7,9,11,13,-1,-1,15,17,19,21,23,25,27,29,31,33,35,-1,37,39,-1,41,43,45,-1,-1,-1,-1,-1,-1,-1,-1,-1,-1,-1,-1,-1,-1,-1,-1,-1,-1,-1,-1],"loss_changes":[7.174889E0,2.8754807E0,4.798817E0,9.4071054E-1,3.3498182E0,5.2329793E0,9.919189E0,0E0,0E0,3.6590595E0,2.4260116E0,3.396222E0,5.7668753E0,6.7449026E0,5.8373923E0,3.298767E-1,4.8735476E-1,3.1696515E0,2.0786755E0,4.1622162E-1,0E0,7.1083155E0,2.0606377E1,0E0,2.623499E0,2.8518062E0,4.364079E0,0E0,0E0,0E0,0E0,0E0,0E0,0E0,0E0,0E0,0E0,0E0,0E0,0E0,0E0,0E0,0E0,0E0,0E0,0E0,0E0],"parents":[2147483647,0,0,1,1,2,2,3,3,4,4,5,5,6,6,9,9,10,10,11,11,12,12,13,13,14,14,15,15,16,16,17,17,18,18,19,19,21,21,22,22,24,24,25,25,26,26],"right_children":[2,4,6,8,10,12,14,-1,-1,16,18,20,22,24,26,28,30,32,34,36,-1,38,40,-1,42,44,46,-1,-1,-1,-1,-1,-1,-1,-1,-1,-1,-1,-1,-1,-1,-1,-1,-1,-1,-1,-1],"split_conditions":[-9.32037E-1,-4.6810403E-1,7.1428573E-1,-3.0206633E-1,-9.950514E-1,-1.34533E0,-1.1861178E0,-0E0,3.044009E-2,-7.0082253E-1,-6.53815E-2,4.8817655E-1,5.866459E-1,-6.073608E-1,-4.784462E-1,-1.9188516E-1,2.4319065E-1,-7.482409E-2,-5.3333336E-1,-8.074585E-1,-8.866422E-3,-5.5211365E-1,-6.8207073E-1,8.006508E-3,2.4451594E0,1.7799096E0,8.318308E-1,1.5380854E-2,-1.8199709E-3,-4.55818E-2,-1.1896059E-2,7.569309E-3,2.9107202E-2,1.6735002E-2,-4.4190465E-3,2.1508878E-2,5.2055627E-2,-8.851697E-3,3.8744379E-3,1.517349E-2,-1.848722E-2,-7.61424E-2,-1.4439248E-2,3.5477534E-2,-1.4358294E-2,-4.210274E-3,-2.7996138E-2],"split_indices":[58,97,129,114,26,1,192,0,0,38,3,191,116,127,117,5,180,116,131,65,0,195,97,0,59,3,180,0,0,0,0,0,0,0,0,0,0,0,0,0,0,0,0,0,0,0,0],"split_type":[0,0,0,0,0,0,0,0,0,0,0,0,0,0,0,0,0,0,0,0,0,0,0,0,0,0,0,0,0,0,0,0,0,0,0,0,0,0,0,0,0,0,0,0,0,0,0],"sum_hessian":[1.255E3,1.72E2,1.083E3,2.1E1,1.51E2,9.25E2,1.58E2,3E0,1.8E1,1.7E1,1.34E2,1.5E1,9.1E2,1.6E1,1.42E2,9E0,8E0,7.8E1,5.6E1,1.1E1,4E0,7E2,2.1E2,4E0,1.2E1,1.4E1,1.28E2,5E0,4E0,5E0,3E0,5.2E1,2.6E1,1.5E1,4.1E1,5E0,6E0,1.35E2,5.65E2,6.5E1,1.45E2,9E0,3E0,1.1E1,3E0,1.05E2,2.3E1],"tree_param":{"num_deleted":"0","num_feature":"244","num_nodes":"47","size_leaf_vector":"1"}},{"base_weights":[-4.4006445E-3,3.0208921E-2,-2.1715929E-1,-3.7650502E-1,4.7551464E-2,2.5171226E-1,-5.090775E-1,-8.813301E-1,-2.8099988E-2,-7.169413E-1,5.3832922E-2,-4.735114E-2,3.4748214E-1,-8.5804397E-1,-9.782849E-2,-1.0763905E0,-0E0,-4.1543984E-1,1.615755E-1,-0E0,-5.71894E-2,9.850441E-2,-3.646761E-2,5.0997514E-1,-6.347194E-2,-1.5033919E0,-3.9330733E-1,7.431416E-2,-3.1389308E-1,-5.9597086E-2,-2.3226352E-2,-3.5652895E-2,-6.556061E-3,1.5132886E-2,-7.718261E-3,1.0296849E-2,1.5318413E-3,-7.043898E-3,7.4750087E-3,2.0061081E-2,6.2900424E-2,-3.257232E-2,7.195489E-3,-2.908158E-4,-8.613687E-2,2.5286872E-2,-3.0379662E-2,3.1677787E-3,-3.3271994E-2],"categories":[],"categories_nodes":[],"categories_segments":[],"categories_sizes":[],"default_left":[1,0,0,0,0,0,0,1,0,0,1,0,0,0,0,0,0,1,0,0,0,0,0,0,0,0,0,0,0,0,0,0,0,0,0,0,0,0,0,0,0,0,0,0,0,0,0,0,0],"id":39,"left_children":[1,3,5,7,9,11,13,15,17,19,21,-1,23,25,27,29,-1,31,33,-1,-1,35,37,39,41,43,45,-1,47,-1,-1,-1,-1,-1,-1,-1,-1,-1,-1,-1,-1,-1,-1,-1,-1,-1,-1,-1,-1],"loss_changes":[8.839346E0,7.250067E0,2.3148396E1,7.2714024E0,4.7215886E0,7.7312965E0,1.4745729E1,3.0160046E0,2.0027022E0,2.4292164E0,3.9710462E0,0E0,4.1504264E0,1.6014378E1,1.7120546E1,2.7048683E-1,0E0,5.836501E-1,8.638742E-1,0E0,0E0,4.767635E0,6.330712E0,2.9087925E0,2.3393362E0,7.3723145E0,6.8676586E0,0E0,5.9376726E0,0E0,0E0,0E0,0E0,0E0,0E0,0E0,0E0,0E0,0E0,0E0,0E0,0E0,0E0,0E0,0E0,0E0,0E0,0E0,0E0],"parents":[2147483647,0,0,1,1,2,2,3,3,4,4,5,5,6,6,7,7,8,8,9,9,10,10,12,12,13,13,14,14,15,15,17,17,18,18,21,21,22,22,23,23,24,24,25,25,26,26,28,28],"right_children":[2,4,6,8,10,12,14,16,18,20,22,-1,24,26,28,30,-1,32,34,-1,-1,36,38,40,42,44,46,-1,48,-1,-1,-1,-1,-1,-1,-1,-1,-1,-1,-1,-1,-1,-1,-1,-1,-1,-1,-1,-1],"split_conditions":[1.0966614E0,-1.1487328E1,-1.2715808E-1,3.3231512E-1,-1.6141565E0,-1.2315483E0,3.4656608E-1,1.2617708E0,0E0,1.769152E-1,2.1147867E-1,-4.735114E-2,1.4514608E0,-3.7806075E-2,-3.772122E-1,4.2499852E-1,-0E0,-8.571429E-2,2.4652554E-4,-0E0,-5.71894E-2,-2.1856724E-1,2.9750416E-1,3.9652224E0,-1.8724833E-1,0E0,1.00594066E-1,7.431416E-2,2.9106992E-1,-5.9597086E-2,-2.3226352E-2,-3.5652895E-2,-6.556061E-3,1.5132886E-2,-7.718261E-3,1.0296849E-2,1.5318413E-3,-7.043898E-3,7.4750087E-3,2.0061081E-2,6.2900424E-2,-3.257232E-2,7.195489E-3,-2.908158E-4,-8.613687E-2,2.5286872E-2,-3.0379662E-2,3.1677787E-3,-3.3271994E-2],"split_indices":[116,179,195,116,97,80,45,237,204,13,192,0,211,98,98,50,0,129,121,0,0,234,39,116,222,138,98,0,51,0,0,0,0,0,0,0,0,0,0,0,0,0,0,0,0,0,0,0,0],"split_type":[0,0,0,0,0,0,0,0,0,0,0,0,0,0,0,0,0,0,0,0,0,0,0,0,0,0,0,0,0,0,0,0,0,0,0,0,0,0,0,0,0,0,0,0,0,0,0,0,0],"sum_hessian":[1.196E3,1.029E3,1.67E2,4.1E1,9.88E2,6.4E1,1.03E2,1.6E1,2.5E1,7E0,9.81E2,4E0,6E1,5.5E1,4.8E1,1.3E1,3E0,8E0,1.7E1,3E0,4E0,6.57E2,3.24E2,4.3E1,1.7E1,2.2E1,3.3E1,5E0,4.3E1,1E1,3E0,3E0,5E0,1.2E1,5E0,2.53E2,4.04E2,2.08E2,1.16E2,3.9E1,4E0,4E0,1.3E1,3E0,1.9E1,6E0,2.7E1,2.1E1,2.2E1],"tree_param":{"num_deleted":"0","num_feature":"244","num_nodes":"49","size_leaf_vector":"1"}},{"base_weights":[-1.7454045E-2,-1.3224919E-2,-6.490312E-2,6.2879536E-4,-3.9176622E-1,2.1488972E-1,-2.0097407E-2,3.545899E-1,-6.2465304E-1,-3.8366858E-2,2.51919E-1,3.52308E-1,-3.214059E-2,-1.8408578E-2,8.344781E-1,-8.2950616E-1,1.3230793E-1,1.0170373E-2,4.3693826E-2,4.788499E-3,2.9866507E-2,-1.7236121E-2,-7.93405E-4,5.3097244E-2,1.8669588E-2,-1.41112525E-2,-5.4095604E-2,1.5091113E-2,-4.3830974E-3],"categories":[],"categories_nodes":[],"categories_segments":[],"categories_sizes":[],"default_left":[0,0,0,0,0,0,0,0,0,0,0,1,0,0,0,0,0,0,0,0,0,0,0,0,0,0,0,0,0],"id":40,"left_children":[1,3,-1,5,7,9,11,13,15,-1,17,19,21,-1,23,25,27,-1,-1,-1,-1,-1,-1,-1,-1,-1,-1,-1,-1],"loss_changes":[6.5781946E0,6.536928E0,0E0,5.3350134E0,7.8964267E0,3.9971085E0,4.872383E0,4.1691537E0,5.451709E0,0E0,2.8222475E0,2.0106382E0,5.3399715E0,0E0,1.9411755E-1,3.287939E0,3.4617865E-1,0E0,0E0,0E0,0E0,0E0,0E0,0E0,0E0,0E0,0E0,0E0,0E0],"parents":[2147483647,0,0,1,1,3,3,4,4,5,5,6,6,7,7,8,8,10,10,11,11,12,12,14,14,15,15,16,16],"right_children":[2,4,-1,6,8,10,12,14,16,-1,18,20,22,-1,24,26,28,-1,-1,-1,-1,-1,-1,-1,-1,-1,-1,-1,-1],"split_conditions":[1.25E0,1.9241288E0,-6.490312E-2,-7.844197E-1,-6.102139E-1,-5.7960683E-1,-1.3483572E0,-4.891184E-1,1.0341637E0,-3.8366858E-2,7.166564E-1,3.952267E-1,-9.8758554E-1,-1.8408578E-2,-1.1061738E0,-3.4488723E-1,-9.6712455E-2,1.0170373E-2,4.3693826E-2,4.788499E-3,2.9866507E-2,-1.7236121E-2,-7.93405E-4,5.3097244E-2,1.8669588E-2,-1.41112525E-2,-5.4095604E-2,1.5091113E-2,-4.3830974E-3],"split_indices":[240,14,0,51,70,188,187,140,236,0,116,122,15,0,0,194,205,0,0,0,0,0,0,0,0,0,0,0,0],"split_type":[0,0,0,0,0,0,0,0,0,0,0,0,0,0,0,0,0,0,0,0,0,0,0,0,0,0,0,0,0],"sum_hessian":[1.241E3,1.238E3,3E0,1.195E3,4.3E1,1.05E2,1.09E3,1E1,3.3E1,3E0,1.02E2,3.3E1,1.057E3,4E0,6E0,2.6E1,7E0,9.6E1,6E0,1.7E1,1.6E1,5.1E1,1.006E3,3E0,3E0,9E0,1.7E1,4E0,3E0],"tree_param":{"num_deleted":"0","num_feature":"244","num_nodes":"29","size_leaf_vector":"1"}},{"base_weights":[-6.737929E-3,-1.1988415E0,8.411771E-4,2.6068315E-5,-1.2116673E-1,3.3049602E-2,-1.24685615E-1,1.0641263E-1,-3.7287366E-2,-8.20713E-3,-4.4816726E-1,6.2430966E-1,8.841948E-2,-1.6824942E-2,-6.579265E-1,3.689022E-2,-1.0400088E0,-6.171535E-1,-4.3856747E-2,4.1628428E-2,6.089168E-3,5.192136E-3,-2.7915195E-2,-3.268533E-3,9.69335E-3,-8.27393E-2,4.783391E-3,3.0794341E-2,-7.3687796E-4,-7.5301476E-2,-8.624037E-3,-8.08078E-4,-3.782184E-2,1.614912E-2,-1.2874468E-2],"categories":[],"categories_nodes":[],"categories_segments":[],"categories_sizes":[],"default_left":[0,0,0,0,0,0,0,0,1,0,0,0,0,1,0,0,0,0,0,0,0,0,0,0,0,0,0,0,0,0,0,0,0,0,0],"id":41,"left_children":[1,3,5,-1,-1,7,9,11,13,15,17,19,21,23,25,27,29,31,33,-1,-1,-1,-1,-1,-1,-1,-1,-1,-1,-1,-1,-1,-1,-1,-1],"loss_changes":[1.1441761E1,1.1992436E1,5.0325603E0,0E0,0E0,5.1348925E0,9.521062E0,4.411682E0,6.3602443E0,8.886604E0,4.4844685E0,1.4776611E0,4.7205276E0,5.032093E0,1.2333864E1,5.4796996E0,2.806676E0,3.8447971E0,1.7223599E0,0E0,0E0,0E0,0E0,0E0,0E0,0E0,0E0,0E0,0E0,0E0,0E0,0E0,0E0,0E0,0E0],"parents":[2147483647,0,0,1,1,2,2,5,5,6,6,7,7,8,8,9,9,10,10,11,11,12,12,13,13,14,14,15,15,16,16,17,17,18,18],"right_children":[2,4,6,-1,-1,8,10,12,14,16,18,20,22,24,26,28,30,32,34,-1,-1,-1,-1,-1,-1,-1,-1,-1,-1,-1,-1,-1,-1,-1,-1],"split_conditions":[-5.5246954E0,0E0,6.7729336E-1,2.6068315E-5,-1.2116673E-1,-3.1239765E-3,6.857143E-1,-1.3003892E0,2.072635E0,9.584729E-1,3.6789617E-1,-8.1971484E-1,1E0,6.147407E-1,-8.655842E-2,-9.3438864E-1,7.1587786E-2,-1.7940294E0,-3.916224E-1,4.1628428E-2,6.089168E-3,5.192136E-3,-2.7915195E-2,-3.268533E-3,9.69335E-3,-8.27393E-2,4.783391E-3,3.0794341E-2,-7.3687796E-4,-7.5301476E-2,-8.624037E-3,-8.08078E-4,-3.782184E-2,1.614912E-2,-1.2874468E-2],"split_indices":[121,31,29,0,0,192,129,174,116,26,186,0,131,181,98,1,45,26,125,0,0,0,0,0,0,0,0,0,0,0,0,0,0,0,0],"split_type":[0,0,0,0,0,0,0,0,0,0,0,0,0,0,0,0,0,0,0,0,0,0,0,0,0,0,0,0,0,0,0,0,0,0,0],"sum_hessian":[1.252E3,7E0,1.245E3,4E0,3E0,9.92E2,2.53E2,4.86E2,5.06E2,1.87E2,6.6E1,1.5E1,4.71E2,4.91E2,1.5E1,1.8E2,7E0,4.6E1,2E1,1E1,5E0,4.61E2,1E1,4E2,9.1E1,6E0,9E0,1.4E1,1.66E2,4E0,3E0,9E0,3.7E1,7E0,1.3E1],"tree_param":{"num_deleted":"0","num_feature":"244","num_nodes":"35","size_leaf_vector":"1"}},{"base_weights":[-4.5975028E-3,-1.3157948E0,2.594088E-3,2.4092449E-4,-1.1662298E-1,1.3726605E-1,-2.8874531E-2,2.9895727E-2,3.0558372E-1,2.6776868E-1,-4.6740543E-2,2.4148692E-1,-1.24291964E-1,2.626156E-1,5.8548536E-2,6.56963E-2,1.8499783E-1,-3.514705E-1,-2.572509E-2,-7.404297E-3,1.6900778E-2,-6.719318E-2,-3.1407557E-3,4.065983E-2,1.062085E-2,1.4448369E-2,-1.50880935E-2,-2.8814698E-2,7.223669E-3,-2.8993905E-4,-1.476368E-2],"categories":[],"categories_nodes":[],"categories_segments":[],"categories_sizes":[],"default_left":[0,0,0,0,0,0,1,0,0,0,0,0,0,0,0,0,1,0,1,0,0,0,0,0,0,0,0,0,0,0,0],"id":42,"left_children":[1,3,5,-1,-1,7,9,11,13,15,17,19,21,23,-1,-1,25,27,29,-1,-1,-1,-1,-1,-1,-1,-1,-1,-1,-1,-1],"loss_changes":[1.2100888E1,9.64235E0,5.367322E0,0E0,0E0,4.294674E0,5.4174395E0,4.8701987E0,3.0072432E0,4.629332E0,6.1459427E0,2.438159E0,6.2228036E0,2.2121577E0,0E0,0E0,2.86937E0,7.039429E0,4.834403E0,0E0,0E0,0E0,0E0,0E0,0E0,0E0,0E0,0E0,0E0,0E0,0E0],"parents":[2147483647,0,0,1,1,2,2,5,5,6,6,7,7,8,8,9,9,10,10,11,11,12,12,13,13,16,16,17,17,18,18],"right_children":[2,4,6,-1,-1,8,10,12,14,16,18,20,22,24,-1,-1,26,28,30,-1,-1,-1,-1,-1,-1,-1,-1,-1,-1,-1,-1],"split_conditions":[-5.5246954E0,0E0,-7.518871E-1,2.4092449E-4,-1.1662298E-1,-9.748236E-2,-1.2534436E0,-1.4923975E-1,1.5406464E0,-2.3401313E0,-1.4481895E0,0E0,-1.3897959E0,-7.417923E-1,5.8548536E-2,6.56963E-2,1.0099291E0,1.8651149E-1,1.6065373E0,-7.404297E-3,1.6900778E-2,-6.719318E-2,-3.1407557E-3,4.065983E-2,1.062085E-2,1.4448369E-2,-1.50880935E-2,-2.8814698E-2,7.223669E-3,-2.8993905E-4,-1.476368E-2],"split_indices":[121,31,69,0,0,122,65,57,26,10,3,218,121,188,0,0,12,19,206,0,0,0,0,0,0,0,0,0,0,0,0],"split_type":[0,0,0,0,0,0,0,0,0,0,0,0,0,0,0,0,0,0,0,0,0,0,0,0,0,0,0,0,0,0,0],"sum_hessian":[1.268E3,6E0,1.262E3,3E0,3E0,2.39E2,1.023E3,1.47E2,9.2E1,5.7E1,9.66E2,6.2E1,8.5E1,8.9E1,3E0,3E0,5.4E1,6.1E1,9.05E2,1.2E1,5E1,3E0,8.2E1,6E0,8.3E1,4.5E1,9E0,4.2E1,1.9E1,8.44E2,6.1E1],"tree_param":{"num_deleted":"0","num_feature":"244","num_nodes":"31","size_leaf_vector":"1"}},{"base_weights":[-2.2876612E-3,2.018197E-2,-1.6959693E-1,-4.48896E-2,1.4139879E-1,3.6448154E-1,-5.572268E-1,-1.994973E-2,-4.9524486E-1,2.47848E-1,-4.4167065E-3,-5.714103E-1,4.72874E-1,4.3484116E-1,-6.912719E-1,-4.172848E-2,4.1319957E-1,-7.4626976E-1,3.7208386E-2,2.9024988E-1,4.596998E-2,-1.5170835E-1,2.3721421E-1,4.1101454E-3,-5.5358548E-2,-1.13827E-1,6.147365E-1,9.3293494E-1,-1.6472919E-2,-1.7591445E0,-5.2504003E-1,-1.6227597E-3,-3.9047237E-2,3.2354575E-2,-3.652479E-2,-4.4421524E-2,4.245713E-4,-1.7605234E-2,1.6852107E-2,1.081467E-2,2.0751119E-2,-4.5182854E-3,1.9565586E-2,4.2263787E-2,-1.0052024E-2,2.4562746E-3,1.966284E-2,-1.5162033E-2,9.600014E-3,1.3534866E-3,3.752884E-2,1.8903216E-2,6.1478592E-2,-4.28433E-2,-1.0045701E-1,-4.383624E-2,-6.7142206E-3],"categories":[],"categories_nodes":[],"categories_segments":[],"categories_sizes":[],"default_left":[1,0,0,0,0,0,0,0,0,1,0,0,0,0,0,0,0,0,0,0,0,0,0,0,0,0,0,0,0,0,0,0,0,0,0,0,0,0,0,0,0,0,0,0,0,0,0,0,0,0,0,0,0,0,0,0,0],"id":43,"left_children":[1,3,5,7,9,11,13,15,17,19,21,23,25,27,29,31,33,35,37,39,41,43,45,-1,-1,47,49,51,-1,53,55,-1,-1,-1,-1,-1,-1,-1,-1,-1,-1,-1,-1,-1,-1,-1,-1,-1,-1,-1,-1,-1,-1,-1,-1,-1,-1],"loss_changes":[4.7927732E0,8.850299E0,3.1483109E1,8.126584E0,6.1100416E0,6.752742E0,1.2028645E1,6.508044E0,5.177717E0,1.8961563E0,5.935413E0,2.644771E0,4.9474554E0,4.555332E0,1.2694092E1,4.417592E0,9.291893E0,2.8852692E0,1.6346474E0,1.5726881E0,1.9958342E0,5.220578E0,1.7854834E0,0E0,0E0,7.6448077E-1,3.6538734E0,5.265446E-1,0E0,2.4749184E-1,9.26334E0,0E0,0E0,0E0,0E0,0E0,0E0,0E0,0E0,0E0,0E0,0E0,0E0,0E0,0E0,0E0,0E0,0E0,0E0,0E0,0E0,0E0,0E0,0E0,0E0,0E0,0E0],"parents":[2147483647,0,0,1,1,2,2,3,3,4,4,5,5,6,6,7,7,8,8,9,9,10,10,11,11,12,12,13,13,14,14,15,15,16,16,17,17,18,18,19,19,20,20,21,21,22,22,25,25,26,26,27,27,29,29,30,30],"right_children":[2,4,6,8,10,12,14,16,18,20,22,24,26,28,30,32,34,36,38,40,42,44,46,-1,-1,48,50,52,-1,54,56,-1,-1,-1,-1,-1,-1,-1,-1,-1,-1,-1,-1,-1,-1,-1,-1,-1,-1,-1,-1,-1,-1,-1,-1,-1,-1],"split_conditions":[1.2149323E0,2.572608E-1,-1.726903E-1,1.3897849E0,1.08206905E-1,-8.5945106E-1,-1.120039E0,8.7816197E-1,5.352097E-1,6.227202E-1,1.0323724E0,-1.2901392E0,-7.567387E-1,4.6130848E-1,-7.3872143E-1,7.961464E-1,-5.994519E-2,2.862838E0,1.7746813E0,6.6249484E-1,5.5865884E-1,-2.2457732E-1,9.624122E-2,4.1101454E-3,-5.5358548E-2,-1.366238E-1,-1E0,-4E-1,-1.6472919E-2,-4.931471E-1,9.560951E-1,-1.6227597E-3,-3.9047237E-2,3.2354575E-2,-3.652479E-2,-4.4421524E-2,4.245713E-4,-1.7605234E-2,1.6852107E-2,1.081467E-2,