{"learner":{"attributes":{"best_iteration":"150","best_score":"1.5865925731080952"},"feature_names":[],"feature_types":[],"gradient_booster":{"model":{"gbtree_model_param":{"num_parallel_tree":"1","num_trees":"1005"},"iteration_indptr":[0,5,10,15,20,25,30,35,40,45,50,55,60,65,70,75,80,85,90,95,100,105,110,115,120,125,130,135,140,145,150,155,160,165,170,175,180,185,190,195,200,205,210,215,220,225,230,235,240,245,250,255,260,265,270,275,280,285,290,295,300,305,310,315,320,325,330,335,340,345,350,355,360,365,370,375,380,385,390,395,400,405,410,415,420,425,430,435,440,445,450,455,460,465,470,475,480,485,490,495,500,505,510,515,520,525,530,535,540,545,550,555,560,565,570,575,580,585,590,595,600,605,610,615,620,625,630,635,640,645,650,655,660,665,670,675,680,685,690,695,700,705,710,715,720,725,730,735,740,745,750,755,760,765,770,775,780,785,790,795,800,805,810,815,820,825,830,835,840,845,850,855,860,865,870,875,880,885,890,895,900,905,910,915,920,925,930,935,940,945,950,955,960,965,970,975,980,985,990,995,1000,1005],"tree_info":[0,1,2,3,4,0,1,2,3,4,0,1,2,3,4,0,1,2,3,4,0,1,2,3,4,0,1,2,3,4,0,1,2,3,4,0,1,2,3,4,0,1,2,3,4,0,1,2,3,4,0,1,2,3,4,0,1,2,3,4,0,1,2,3,4,0,1,2,3,4,0,1,2,3,4,0,1,2,3,4,0,1,2,3,4,0,1,2,3,4,0,1,2,3,4,0,1,2,3,4,0,1,2,3,4,0,1,2,3,4,0,1,2,3,4,0,1,2,3,4,0,1,2,3,4,0,1,2,3,4,0,1,2,3,4,0,1,2,3,4,0,1,2,3,4,0,1,2,3,4,0,1,2,3,4,0,1,2,3,4,0,1,2,3,4,0,1,2,3,4,0,1,2,3,4,0,1,2,3,4,0,1,2,3,4,0,1,2,3,4,0,1,2,3,4,0,1,2,3,4,0,1,2,3,4,0,1,2,3,4,0,1,2,3,4,0,1,2,3,4,0,1,2,3,4,0,1,2,3,4,0,1,2,3,4,0,1,2,3,4,0,1,2,3,4,0,1,2,3,4,0,1,2,3,4,0,1,2,3,4,0,1,2,3,4,0,1,2,3,4,0,1,2,3,4,0,1,2,3,4,0,1,2,3,4,0,1,2,3,4,0,1,2,3,4,0,1,2,3,4,0,1,2,3,4,0,1,2,3,4,0,1,2,3,4,0,1,2,3,4,0,1,2,3,4,0,1,2,3,4,0,1,2,3,4,0,1,2,3,4,0,1,2,3,4,0,1,2,3,4,0,1,2,3,4,0,1,2,3,4,0,1,2,3,4,0,1,2,3,4,0,1,2,3,4,0,1,2,3,4,0,1,2,3,4,0,1,2,3,4,0,1,2,3,4,0,1,2,3,4,0,1,2,3,4,0,1,2,3,4,0,1,2,3,4,0,1,2,3,4,0,1,2,3,4,0,1,2,3,4,0,1,2,3,4,0,1,2,3,4,0,1,2,3,4,0,1,2,3,4,0,1,2,3,4,0,1,2,3,4,0,1,2,3,4,0,1,2,3,4,0,1,2,3,4,0,1,2,3,4,0,1,2,3,4,0,1,2,3,4,0,1,2,3,4,0,1,2,3,4,0,1,2,3,4,0,1,2,3,4,0,1,2,3,4,0,1,2,3,4,0,1,2,3,4,0,1,2,3,4,0,1,2,3,4,0,1,2,3,4,0,1,2,3,4,0,1,2,3,4,0,1,2,3,4,0,1,2,3,4,0,1,2,3,4,0,1,2,3,4,0,1,2,3,4,0,1,2,3,4,0,1,2,3,4,0,1,2,3,4,0,1,2,3,4,0,1,2,3,4,0,1,2,3,4,0,1,2,3,4,0,1,2,3,4,0,1,2,3,4,0,1,2,3,4,0,1,2,3,4,0,1,2,3,4,0,1,2,3,4,0,1,2,3,4,0,1,2,3,4,0,1,2,3,4,0,1,2,3,4,0,1,2,3,4,0,1,2,3,4,0,1,2,3,4,0,1,2,3,4,0,1,2,3,4,0,1,2,3,4,0,1,2,3,4,0,1,2,3,4,0,1,2,3,4,0,1,2,3,4,0,1,2,3,4,0,1,2,3,4,0,1,2,3,4,0,1,2,3,4,0,1,2,3,4,0,1,2,3,4,0,1,2,3,4,0,1,2,3,4,0,1,2,3,4,0,1,2,3,4,0,1,2,3,4,0,1,2,3,4,0,1,2,3,4,0,1,2,3,4,0,1,2,3,4,0,1,2,3,4,0,1,2,3,4,0,1,2,3,4,0,1,2,3,4,0,1,2,3,4,0,1,2,3,4,0,1,2,3,4,0,1,2,3,4,0,1,2,3,4,0,1,2,3,4,0,1,2,3,4,0,1,2,3,4,0,1,2,3,4,0,1,2,3,4,0,1,2,3,4,0,1,2,3,4,0,1,2,3,4,0,1,2,3,4,0,1,2,3,4,0,1,2,3,4,0,1,2,3,4,0,1,2,3,4,0,1,2,3,4,0,1,2,3,4,0,1,2,3,4,0,1,2,3,4,0,1,2,3,4,0,1,2,3,4,0,1,2,3,4,0,1,2,3,4,0,1,2,3,4,0,1,2,3,4,0,1,2,3,4,0,1,2,3,4,0,1,2,3,4,0,1,2,3,4,0,1,2,3,4,0,1,2,3,4,0,1,2,3,4,0,1,2,3,4,0,1,2,3,4,0,1,2,3,4,0,1,2,3,4,0,1,2,3,4],"trees":[{"base_weights":[-1.4211799E-1,-2.982053E-1,1.0441836E-1,6.0457513E-3,-3.2819182E-1,8.234421E-1,8.704062E-3,1.0814249E-1,-3.688927E-1,1.2162161E-3,1.4265535E-2,-6.559766E-2,8.732057E-3,-3.222222E-3,6.0880827E-3,1.267281E-3,-3.9487243E-1,5.7246375E-1,-1.717924E-1,-4.1677956E-3,1.1520737E-4,1.2320573E-2,-3.5714284E-3,6.0457513E-3,-2.316948E-3],"categories":[],"categories_nodes":[],"categories_segments":[],"categories_sizes":[],"default_left":[0,0,0,0,0,0,0,0,0,0,0,0,0,0,0,0,0,0,0,0,0,0,0,0,0],"id":0,"left_children":[1,3,5,-1,7,9,11,13,15,-1,-1,17,-1,-1,-1,-1,19,21,23,-1,-1,-1,-1,-1,-1],"loss_changes":[1.1504059E1,5.1183224E0,7.8845797E0,0E0,3.2207088E0,5.3774433E0,6.7798333E0,3.612001E0,2.174633E0,0E0,0E0,6.56583E0,0E0,0E0,0E0,0E0,1.427414E0,8.989156E0,3.973973E0,0E0,0E0,0E0,0E0,0E0,0E0],"parents":[2147483647,0,0,1,1,2,2,4,4,5,5,6,6,7,7,8,8,11,11,16,16,17,17,18,18],"right_children":[2,4,6,-1,8,10,12,14,16,-1,-1,18,-1,-1,-1,-1,20,22,24,-1,-1,-1,-1,-1,-1],"split_conditions":[2.4885426E1,-1.2693032E0,-1.1189167E-2,6.0457513E-3,1.3679547E-6,1.0080338E0,3.9549977E-1,1.2300295E5,1.7415756E-1,1.2162161E-3,1.4265535E-2,2.6268342E-6,8.732057E-3,-3.222222E-3,6.0880827E-3,1.267281E-3,1.2642775E-1,1.035187E-2,1.660433E6,-4.1677956E-3,1.1520737E-4,1.2320573E-2,-3.5714284E-3,6.0457513E-3,-2.316948E-3],"split_indices":[45,138,167,0,182,216,105,189,108,0,0,182,0,0,0,0,10,121,4,0,0,0,0,0,0],"split_type":[0,0,0,0,0,0,0,0,0,0,0,0,0,0,0,0,0,0,0,0,0,0,0,0,0],"sum_hessian":[2.9664E2,1.8176001E2,1.14880005E2,5.1200004E0,1.7664001E2,1.24800005E1,1.0240001E2,1.4720001E1,1.6192001E2,6.4000006E0,6.0800004E0,9.504001E1,7.3600006E0,8.000001E0,6.7200003E0,7.6800003E0,1.5424E2,1.2800001E1,8.2240005E1,1.4656001E2,7.6800003E0,7.3600006E0,5.4400005E0,5.1200004E0,7.712E1],"tree_param":{"num_deleted":"0","num_feature":"220","num_nodes":"25","size_leaf_vector":"1"}},{"base_weights":[4.4344384E-3,6.788947E-2,-3.7133396E-1,-2.4851316E-1,1.4042759E-1,-4.6685082E-1,1.5536722E-3,7.685352E-2,-5.200308E-1,-9.854457E-2,2.5205907E-1,-5.664857E-3,-1.2953367E-4,4.5252222E-1,-4.4605806E-3,-1.7973855E-3,-5.9021106E-3,-1.8839103E-1,5.5970144E-3,1.7390619E-1,9.0108395E-1,-2.5675674E-3,1.1440678E-2,-5.7365433E-3,-6.331877E-4,5.33557E-3,6.2067556E-4,1.2162161E-3,1.4712918E-2],"categories":[],"categories_nodes":[],"categories_segments":[],"categories_sizes":[],"default_left":[0,0,0,0,0,0,0,0,0,0,0,0,0,0,0,0,0,0,0,0,0,0,0,0,0,0,0,0,0],"id":1,"left_children":[1,3,5,7,9,11,-1,13,15,17,19,-1,-1,21,-1,-1,-1,23,-1,25,27,-1,-1,-1,-1,-1,-1,-1,-1],"loss_changes":[6.9850883E0,5.805052E0,2.23074E0,4.2434626E0,5.530279E0,1.5718279E0,0E0,4.5477843E0,4.3689346E-1,3.9692574E0,6.8796463E0,0E0,0E0,6.994401E0,0E0,0E0,0E0,2.739084E0,0E0,5.0188427E0,6.2219324E0,0E0,0E0,0E0,0E0,0E0,0E0,0E0,0E0],"parents":[2147483647,0,0,1,1,2,2,3,3,4,4,5,5,7,7,8,8,9,9,10,10,13,13,17,17,19,19,20,20],"right_children":[2,4,6,8,10,12,-1,14,16,18,20,-1,-1,22,-1,-1,-1,24,-1,26,28,-1,-1,-1,-1,-1,-1,-1,-1],"split_conditions":[4.7991347E-2,1.4058682E8,1.2272516E0,1.439388E-1,-1.5117875E-1,7.048018E-1,1.5536722E-3,2.3E1,1.8962364E-1,6.0284084E-9,6.2579603E0,-5.664857E-3,-1.2953367E-4,4.7207567E-1,-4.4605806E-3,-1.7973855E-3,-5.9021106E-3,6.568665E-1,5.5970144E-3,1.21479414E-1,5.618029E4,-2.5675674E-3,1.1440678E-2,-5.7365433E-3,-6.331877E-4,5.33557E-3,6.2067556E-4,1.2162161E-3,1.4712918E-2],"split_indices":[109,178,216,80,145,78,0,88,102,173,129,0,0,217,0,0,0,60,0,163,190,0,0,0,0,0,0,0,0],"split_type":[0,0,0,0,0,0,0,0,0,0,0,0,0,0,0,0,0,0,0,0,0,0,0,0,0,0,0,0,0],"sum_hessian":[2.9216003E2,2.5088002E2,4.1280003E1,4.608E1,2.0480002E2,3.52E1,6.0800004E0,2.112E1,2.4960001E1,6.496001E1,1.3984001E2,2.8480001E1,6.7200003E0,1.24800005E1,8.64E0,5.1200004E0,1.9840002E1,5.7920006E1,7.0400004E0,1.2608001E2,1.3760001E1,6.4000006E0,6.0800004E0,1.3120001E1,4.4800003E1,2.8800001E1,9.728001E1,6.4000006E0,7.3600006E0],"tree_param":{"num_deleted":"0","num_feature":"220","num_nodes":"29","size_leaf_vector":"1"}},{"base_weights":[1.8610844E-1,3.0631024E-1,-2.3308957E-1,-3.9562288E-1,3.437327E-1,-4.2390403E-1,2.7899343E-1,-5.1775146E-3,-1.7973855E-3,2.2874492E-1,5.804335E-1,1.1437908E-3,-4.9259943E-1,-1.012461E-1,1.00931665E-2,6.329479E-1,1.03839435E-1,7.6661325E-1,1.0869565E-1,-9.999999E-4,-5.7604993E-3,-5.1775146E-3,2.9661015E-3,1.0746102E-2,1.4172335E-3,1.0028248E-2,4.3309986E-4,-2.2189347E-3,9.027149E-3,7.840237E-3,-1.8831168E-3],"categories":[],"categories_nodes":[],"categories_segments":[],"categories_sizes":[],"default_left":[0,0,0,0,0,0,0,0,0,0,0,0,0,0,0,0,0,0,0,0,0,0,0,0,0,0,0,0,0,0,0],"id":2,"left_children":[1,3,5,7,9,11,13,-1,-1,15,17,-1,19,21,-1,23,25,27,29,-1,-1,-1,-1,-1,-1,-1,-1,-1,-1,-1,-1],"loss_changes":[1.4834448E1,6.1251755E0,6.5466285E0,1.5041494E-1,5.7012634E0,1.8824015E0,5.269312E0,0E0,0E0,7.342796E0,5.987644E0,0E0,1.2914467E0,2.3033915E0,0E0,7.232726E0,6.087924E0,6.989874E0,4.4514294E0,0E0,0E0,0E0,0E0,0E0,0E0,0E0,0E0,0E0,0E0,0E0,0E0],"parents":[2147483647,0,0,1,1,2,2,3,3,4,4,5,5,6,6,9,9,10,10,12,12,13,13,15,15,16,16,17,17,18,18],"right_children":[2,4,6,8,10,12,14,-1,-1,16,18,-1,20,22,-1,24,26,28,30,-1,-1,-1,-1,-1,-1,-1,-1,-1,-1,-1,-1],"split_conditions":[3.09827E-1,4.5720133E-1,2.6554316E1,1.7314363E-2,-1.9520685E1,2.0825197E4,2.192929E1,-5.1775146E-3,-1.7973855E-3,2.3507841E-1,7.56749E1,1.1437908E-3,8.3675504E-1,1.1199771E0,1.00931665E-2,2.1439966E1,1.1323199E1,5.2419945E1,4.047154E-2,-9.999999E-4,-5.7604993E-3,-5.1775146E-3,2.9661015E-3,1.0746102E-2,1.4172335E-3,1.0028248E-2,4.3309986E-4,-2.2189347E-3,9.027149E-3,7.840237E-3,-1.8831168E-3],"split_indices":[107,110,31,9,39,189,45,0,0,196,68,0,111,19,0,30,73,68,201,0,0,0,0,0,0,0,0,0,0,0,0],"split_type":[0,0,0,0,0,0,0,0,0,0,0,0,0,0,0,0,0,0,0,0,0,0,0,0,0,0,0,0,0,0,0],"sum_hessian":[2.9184003E2,2.2720001E2,6.464001E1,1.0880001E1,2.1632002E2,4.7360004E1,1.728E1,5.76E0,5.1200004E0,1.4720001E2,6.912E1,5.1200004E0,4.224E1,1.1840001E1,5.4400005E0,3.3600002E1,1.13600006E2,4.8960003E1,2.0160002E1,8.000001E0,3.424E1,5.76E0,6.0800004E0,1.6960001E1,1.6640001E1,6.0800004E0,1.07520004E2,5.76E0,4.3200005E1,5.76E0,1.4400001E1],"tree_param":{"num_deleted":"0","num_feature":"220","num_nodes":"31","size_leaf_vector":"1"}},{"base_weights":[-1.0315453E-2,4.3190414E-1,-6.263899E-2,-6.7567565E-2,1.120178E0,2.753686E-1,-1.3218799E-1,5.79096E-3,-4.179331E-1,1.1437908E-3,1.7105263E-2,4.478827E-1,-3.5992216E-3,-1.7790991E-1,3.265107E-1,-1.7973855E-3,-5.3482587E-3,8.056133E-1,4.8387095E-2,-2.0812336E-1,6.0880827E-3,8.114754E-1,-3.32618E-3,2.5933608E-3,1.216981E-2,6.1158794E-3,-4.571984E-3,-4.159049E-3,-1.0388639E-3,1.1437908E-3,1.2853106E-2],"categories":[],"categories_nodes":[],"categories_segments":[],"categories_sizes":[],"default_left":[0,0,0,0,0,0,0,0,0,0,0,0,0,0,0,0,0,0,0,0,0,0,0,0,0,0,0,0,0,0,0],"id":3,"left_children":[1,3,5,7,9,11,13,-1,15,-1,-1,17,-1,19,21,-1,-1,23,25,27,-1,29,-1,-1,-1,-1,-1,-1,-1,-1,-1],"loss_changes":[6.943708E0,1.1085438E1,6.3645654E0,4.5850883E0,7.625902E0,5.224595E0,4.75535E0,0E0,1.9883132E-1,0E0,0E0,5.1404896E0,0E0,4.9631815E0,6.8771E0,0E0,0E0,3.8603916E0,5.5913353E0,4.202731E0,0E0,3.7427874E0,0E0,0E0,0E0,0E0,0E0,0E0,0E0,0E0,0E0],"parents":[2147483647,0,0,1,1,2,2,3,3,4,4,5,5,6,6,8,8,11,11,13,13,14,14,17,17,18,18,19,19,21,21],"right_children":[2,4,6,8,10,12,14,-1,16,-1,-1,18,-1,20,22,-1,-1,24,26,28,-1,30,-1,-1,-1,-1,-1,-1,-1,-1,-1],"split_conditions":[4.8269704E-2,5.5792953E1,4.3917108E-1,2.6399213E-1,-7.139356E-4,-9.4956085E-2,1.847575E0,5.79096E-3,6.9357947E2,1.1437908E-3,1.7105263E-2,5.407704E1,-3.5992216E-3,3.5582035E-4,1E0,-1.7973855E-3,-5.3482587E-3,2.2913519E-1,2.3415947E-1,1.341917E-1,6.0880827E-3,-4.669171E-3,-3.32618E-3,2.5933608E-3,1.216981E-2,6.1158794E-3,-4.571984E-3,-4.159049E-3,-1.0388639E-3,1.1437908E-3,1.2853106E-2],"split_indices":[163,68,170,139,12,67,60,0,1,0,0,33,0,192,156,0,0,105,79,79,0,12,0,0,0,0,0,0,0,0,0],"split_type":[0,0,0,0,0,0,0,0,0,0,0,0,0,0,0,0,0,0,0,0,0,0,0,0,0,0,0,0,0,0,0],"sum_hessian":[2.9952002E2,3.0720001E1,2.6880002E2,1.8240002E1,1.24800005E1,4.5120003E1,2.2368002E2,6.0800004E0,1.2160001E1,5.1200004E0,7.3600006E0,3.5840004E1,9.280001E0,2.0416002E2,1.952E1,5.1200004E0,7.0400004E0,1.8240002E1,1.76E1,1.9744002E2,6.7200003E0,1.1200001E1,8.320001E0,8.64E0,9.6E0,8.320001E0,9.280001E0,6.464001E1,1.328E2,5.1200004E0,6.0800004E0],"tree_param":{"num_deleted":"0","num_feature":"220","num_nodes":"31","size_leaf_vector":"1"}},{"base_weights":[-2.8994404E-2,-1.8136969E-1,3.306636E-1,-2.566361E-1,1.6275346E-1,7.3045266E-1,1.2660363E-1,-7.51186E-2,-3.972746E-1,1.2581699E-2,-4.635352E-2,1.307588E0,1.23376615E-1,9.324324E-3,9.462528E-3,3.4360188E-1,-2.8122574E-1,-1.4381884E-1,-5.194601E-1,2.2477064E-1,-5.6228368E-3,5.27027E-3,1.8301435E-2,-3.1105988E-3,6.0880827E-3,4.7082224E-1,-1.6769865E-1,3.6997884E-4,1.0675674E-2,4.8816563E-3,-3.9082966E-3,-4.9999994E-3,1.056338E-3,-1.1802574E-3,-5.758122E-3,-3.0276813E-3,7.5622774E-3,1.0798816E-2,-1.07296124E-4,-3.2447462E-3,5.27027E-3],"categories":[],"categories_nodes":[],"categories_segments":[],"categories_sizes":[],"default_left":[0,0,0,0,0,0,0,0,0,0,0,0,0,0,0,0,0,0,0,0,0,0,0,0,0,0,0,0,0,0,0,0,0,0,0,0,0,0,0,0,0],"id":4,"left_children":[1,3,5,7,9,11,13,15,17,-1,19,21,23,-1,25,27,29,31,33,35,-1,-1,-1,-1,-1,37,39,-1,-1,-1,-1,-1,-1,-1,-1,-1,-1,-1,-1,-1,-1],"loss_changes":[1.611109E1,5.4064307E0,6.951991E0,4.269885E0,8.764643E0,9.912224E0,5.4889874E0,6.6389337E0,2.8133698E0,0E0,4.6866894E0,4.8201504E0,3.466845E0,0E0,4.4281483E0,5.470346E0,4.529025E0,2.9958825E0,1.3041096E0,6.386248E0,0E0,0E0,0E0,0E0,0E0,4.5413704E0,4.372348E0,0E0,0E0,0E0,0E0,0E0,0E0,0E0,0E0,0E0,0E0,0E0,0E0,0E0,0E0],"parents":[2147483647,0,0,1,1,2,2,3,3,4,4,5,5,6,6,7,7,8,8,10,10,11,11,12,12,14,14,15,15,16,16,17,17,18,18,19,19,25,25,26,26],"right_children":[2,4,6,8,10,12,14,16,18,-1,20,22,24,-1,26,28,30,32,34,36,-1,-1,-1,-1,-1,38,40,-1,-1,-1,-1,-1,-1,-1,-1,-1,-1,-1,-1,-1,-1],"split_conditions":[2.9533908E-1,1.6080225E-1,6.690405E2,1.0006778E0,3.2049388E-2,1.9865861E-2,5.5528886E-4,8.281493E-2,7.213205E-1,1.2581699E-2,1.1835605E3,-7.095173E-1,4.2354874E8,9.324324E-3,-6.7410497E-6,9.934007E-1,-1.687001E-2,-1.3650363E-8,-9.735611E0,4.668528E-1,-5.6228368E-3,5.27027E-3,1.8301435E-2,-3.1105988E-3,6.0880827E-3,-1.0731181E-1,7.192966E-1,3.6997884E-4,1.0675674E-2,4.8816563E-3,-3.9082966E-3,-4.9999994E-3,1.056338E-3,-1.1802574E-3,-5.758122E-3,-3.0276813E-3,7.5622774E-3,1.0798816E-2,-1.07296124E-4,-3.2447462E-3,5.27027E-3],"split_indices":[107,120,40,63,10,9,85,43,111,0,3,136,178,0,192,63,84,167,195,217,0,0,0,0,0,136,78,0,0,0,0,0,0,0,0,0,0,0,0,0,0],"split_type":[0,0,0,0,0,0,0,0,0,0,0,0,0,0,0,0,0,0,0,0,0,0,0,0,0,0,0,0,0,0,0,0,0,0,0,0,0,0,0,0,0],"sum_hessian":[2.9216003E2,2.0576001E2,8.640001E1,1.6928001E2,3.6480003E1,2.8160002E1,5.8240005E1,7.4880005E1,9.440001E1,5.1200004E0,3.1360003E1,1.3760001E1,1.4400001E1,6.4000006E0,5.1840004E1,2.4320002E1,5.0560005E1,3.1680002E1,6.2720005E1,2.0800001E1,1.056E1,6.4000006E0,7.3600006E0,7.6800003E0,6.7200003E0,1.4080001E1,3.7760002E1,1.7920002E1,6.4000006E0,5.76E0,4.4800003E1,1.2800001E1,1.8880001E1,8.320001E0,5.4400005E1,1.056E1,1.0240001E1,5.76E0,8.320001E0,3.1360003E1,6.4000006E0],"tree_param":{"num_deleted":"0","num_feature":"220","num_nodes":"41","size_leaf_vector":"1"}},{"base_weights":[-1.3023853E-1,-2.9619908E-1,1.5120612E-1,4.3392875E-3,-3.2318017E-1,8.540684E-1,5.110067E-2,-3.523132E-1,1.8020163E-3,1.4621534E-2,1.1742964E-3,-3.1079251E-2,9.253721E-3,-3.9123595E-1,-3.99228E-3,-3.3819726E-1,1.4369988E-1,1.1550292E-3,-4.096601E-3,-3.5882848E-3,3.6379073E-3,-4.955518E-3,4.422973E-3,1.1305721E-2,-5.3184235E-4],"categories":[],"categories_nodes":[],"categories_segments":[],"categories_sizes":[],"default_left":[0,0,0,0,0,0,0,0,0,0,0,0,0,0,0,0,0,0,0,0,0,0,0,0,0],"id":5,"left_children":[1,3,5,-1,7,9,11,13,-1,-1,-1,15,-1,17,19,21,23,-1,-1,-1,-1,-1,-1,-1,-1],"loss_changes":[1.4200577E1,3.8920383E0,7.7984376E0,0E0,2.7924194E0,5.8820705E0,7.293973E0,2.3358421E0,0E0,0E0,0E0,5.014816E0,0E0,1.5465393E0,2.5952933E0,4.3915954E0,1.1675577E1,0E0,0E0,0E0,0E0,0E0,0E0,0E0,0E0],"parents":[2147483647,0,0,1,1,2,2,4,4,5,5,6,6,7,7,11,11,13,13,14,14,15,15,16,16],"right_children":[2,4,6,-1,8,10,12,14,-1,-1,-1,16,-1,18,20,22,24,-1,-1,-1,-1,-1,-1,-1,-1],"split_conditions":[2.5506742E1,-1.2369395E0,-1.1189167E-2,4.3392875E-3,7.075645E1,4.9984594E4,3.9549977E-1,9.487745E0,1.8020163E-3,1.4621534E-2,1.1742964E-3,-1.3530622E-2,9.253721E-3,-7.109963E-1,2.4403226E-2,-3.5713534E-3,3.0595076E1,1.1550292E-3,-4.096601E-3,-3.5882848E-3,3.6379073E-3,-4.955518E-3,4.422973E-3,1.1305721E-2,-5.3184235E-4],"split_indices":[45,138,167,0,33,189,105,76,0,0,0,116,0,65,112,84,35,0,0,0,0,0,0,0,0],"split_type":[0,0,0,0,0,0,0,0,0,0,0,0,0,0,0,0,0,0,0,0,0,0,0,0,0],"sum_hessian":[3.0175488E2,1.9001242E2,1.1174247E2,6.1018877E0,1.8391054E2,1.2867351E1,9.8875114E1,1.7432056E2,9.589975E0,6.4348335E0,6.4325166E0,9.115663E1,7.718487E0,1.5643015E2,1.7890419E1,3.292997E1,5.8226658E1,5.112735E0,1.5131741E2,9.256254E0,8.634165E0,2.7815353E1,5.1146164E0,8.980071E0,4.9246586E1],"tree_param":{"num_deleted":"0","num_feature":"220","num_nodes":"25","size_leaf_vector":"1"}},{"base_weights":[-2.6001462E-3,3.5100415E-1,-8.3876885E-2,6.8996197E-1,-7.64939E-2,-2.7565473E-1,1.5544922E-2,1.151035E0,6.1339564E-3,-4.181129E-1,2.7167103E-1,-4.003115E-1,7.665103E-2,-3.5262206E-1,1.6890661E-1,1.6585387E-2,4.3198015E-3,-3.817843E-3,3.8959298E-3,-5.350588E-3,-1.7967656E-3,7.827277E-3,-2.405496E-3,-1.02193E-1,-5.3529274E-1,-2.1383081E-1,7.821791E-3,5.5004805E-2,-4.9056524E-1,-6.0443725E-2,4.059896E-1,-4.22544E-3,4.343893E-3,-2.731815E-3,-6.0217613E-3,1.9241896E-3,-4.6219295E-3,-3.9210143E-3,6.0240356E-3,-1.676823E-4,-5.6737964E-3,4.041964E-3,-2.2106448E-3,1.2247466E-2,2.8504038E-3],"categories":[],"categories_nodes":[],"categories_segments":[],"categories_sizes":[],"default_left":[0,0,0,0,0,0,0,0,0,0,0,0,0,0,0,0,0,0,0,0,0,0,0,0,0,0,0,0,0,0,0,0,0,0,0,0,0,0,0,0,0,0,0,0,0],"id":6,"left_children":[1,3,5,7,9,11,13,15,17,19,21,23,25,27,29,-1,-1,-1,-1,-1,-1,-1,-1,31,33,35,-1,37,39,41,43,-1,-1,-1,-1,-1,-1,-1,-1,-1,-1,-1,-1,-1,-1],"loss_changes":[8.43943E0,8.058705E0,4.6011677E0,9.591551E0,3.1036613E0,3.6750312E0,8.989566E0,5.756132E0,2.1577444E0,1.9950175E-1,3.6064553E0,2.341052E0,4.758421E0,2.6984692E0,6.1897216E0,0E0,0E0,0E0,0E0,0E0,0E0,0E0,0E0,3.7089179E0,4.7732353E-1,1.7662995E0,0E0,3.3245547E0,1.2132721E0,4.396951E0,5.0239906E0,0E0,0E0,0E0,0E0,0E0,0E0,0E0,0E0,0E0,0E0,0E0,0E0,0E0,0E0],"parents":[2147483647,0,0,1,1,2,2,3,3,4,4,5,5,6,6,7,7,8,8,9,9,10,10,11,11,12,12,13,13,14,14,23,23,24,24,25,25,27,27,28,28,29,29,30,30],"right_children":[2,4,6,8,10,12,14,16,18,20,22,24,26,28,30,-1,-1,-1,-1,-1,-1,-1,-1,32,34,36,-1,38,40,42,44,-1,-1,-1,-1,-1,-1,-1,-1,-1,-1,-1,-1,-1,-1],"split_conditions":[2.2306119E-1,1.5362099E9,2.9800544E8,6.5E1,-8.536794E-4,2.2257017E-2,8.528575E4,6.0132855E-1,8.0757976E-2,2.3052853E-1,8.048747E-3,-2.589878E-1,8.662356E-1,-1.8369701E-16,9.403368E-3,1.6585387E-2,4.3198015E-3,-3.817843E-3,3.8959298E-3,-5.350588E-3,-1.7967656E-3,7.827277E-3,-2.405496E-3,3.7889166E0,3.029668E6,1.8754885E-2,7.821791E-3,1.0089216E0,-6.1022975E-2,1.2324973E-1,8.470842E-2,-4.22544E-3,4.343893E-3,-2.731815E-3,-6.0217613E-3,1.9241896E-3,-4.6219295E-3,-3.9210143E-3,6.0240356E-3,-1.676823E-4,-5.6737964E-3,4.041964E-3,-2.2106448E-3,1.2247466E-2,2.8504038E-3],"split_indices":[104,176,61,160,194,7,175,81,120,105,194,65,208,99,113,0,0,0,0,0,0,0,0,37,58,121,0,63,121,79,43,0,0,0,0,0,0,0,0,0,0,0,0,0,0],"split_type":[0,0,0,0,0,0,0,0,0,0,0,0,0,0,0,0,0,0,0,0,0,0,0,0,0,0,0,0,0,0,0,0,0,0,0,0,0,0,0,0,0,0,0,0,0],"sum_hessian":[2.9255463E2,5.3826576E1,2.3872804E2,2.9810316E1,2.401626E1,8.124508E1,1.5748296E2,1.7309725E1,1.250059E1,1.2165652E1,1.1850608E1,6.0120247E1,2.1124836E1,4.5735916E1,1.1174704E2,9.300132E0,8.009594E0,6.086696E0,6.4138947E0,7.046247E0,5.119405E0,5.765415E0,6.0851927E0,1.9515781E1,4.060446E1,1.5357138E1,5.7676973E0,1.15327015E1,3.4203217E1,5.696411E1,5.4782925E1,1.2469887E1,7.045895E0,9.59234E0,3.1012123E1,5.759252E0,9.597886E0,6.403471E0,5.1292305E0,5.123182E0,2.9080034E1,1.4083789E1,4.288032E1,5.7700534E0,4.9012875E1],"tree_param":{"num_deleted":"0","num_feature":"220","num_nodes":"45","size_leaf_vector":"1"}},{"base_weights":[1.8690498E-1,2.9468092E-1,-1.290249E-1,7.289343E-2,4.442748E-1,-4.007818E-1,1.4979286E-1,2.1210395E-1,-5.255171E-3,6.7130744E-1,2.2907524E-1,-5.1346993E-1,2.3332643E-3,-3.4102596E-2,9.29436E-3,4.7745083E-2,6.568028E-1,8.207818E-1,-2.392909E-3,-2.0282455E-2,5.080954E-1,-1.1995881E-3,-5.9780837E-3,6.5589044E-3,-2.9885626E-1,-4.734224E-3,2.9044636E-3,9.764104E-4,1.0175985E-2,1.143299E-2,4.6520056E-3,7.825989E-3,-1.9368117E-3,-2.1779202E-3,8.636638E-3,1.5582268E-3,-5.192126E-3],"categories":[],"categories_nodes":[],"categories_segments":[],"categories_sizes":[],"default_left":[0,0,0,0,0,0,0,0,0,0,0,0,0,0,0,0,0,0,0,0,0,0,0,0,0,0,0,0,0,0,0,0,0,0,0,0,0],"id":7,"left_children":[1,3,5,7,9,11,13,15,-1,17,19,21,-1,23,-1,25,27,29,-1,31,33,-1,-1,-1,35,-1,-1,-1,-1,-1,-1,-1,-1,-1,-1,-1,-1],"loss_changes":[1.0180263E1,7.2906303E0,5.85147E0,7.6608615E0,6.218912E0,2.9341183E0,5.585107E0,5.356085E0,0E0,8.914623E0,4.905227E0,9.701519E-1,0E0,5.9506683E0,0E0,7.1727915E0,3.8055449E0,5.6117287E0,0E0,5.320869E0,8.795589E0,0E0,0E0,0E0,2.4916866E0,0E0,0E0,0E0,0E0,0E0,0E0,0E0,0E0,0E0,0E0,0E0,0E0],"parents":[2147483647,0,0,1,1,2,2,3,3,4,4,5,5,6,6,7,7,9,9,10,10,11,11,13,13,15,15,16,16,17,17,19,19,20,20,24,24],"right_children":[2,4,6,8,10,12,14,16,-1,18,20,22,-1,24,-1,26,28,30,-1,32,34,-1,-1,-1,36,-1,-1,-1,-1,-1,-1,-1,-1,-1,-1,-1,-1],"split_conditions":[3.075713E-1,5.26787E1,4.3072343E-1,6.4801717E0,4.640523E-1,8.079691E-1,1.8624367E-2,5.903365E-1,-5.255171E-3,1.1398428E3,4.895109E-1,5.127027E-4,2.3332643E-3,1.4748276E0,9.29436E-3,9.759374E-1,1.4547384E9,1.0071145E0,-2.392909E-3,-5.3013816E-2,6.3944083E-1,-1.1995881E-3,-5.9780837E-3,6.5589044E-3,-1.2821121E-6,-4.734224E-3,2.9044636E-3,9.764104E-4,1.0175985E-2,1.143299E-2,4.6520056E-3,7.825989E-3,-1.9368117E-3,-2.1779202E-3,8.636638E-3,1.5582268E-3,-5.192126E-3],"split_indices":[108,68,66,130,81,13,169,66,0,26,177,210,0,114,0,63,176,59,0,121,81,0,0,0,192,0,0,0,0,0,0,0,0,0,0,0,0],"split_type":[0,0,0,0,0,0,0,0,0,0,0,0,0,0,0,0,0,0,0,0,0,0,0,0,0,0,0,0,0,0,0,0,0,0,0,0,0],"sum_hessian":[2.9637988E2,2.2127739E2,7.510251E1,8.9999756E1,1.3127763E2,3.799294E1,3.7109573E1,7.367348E1,1.6326277E1,6.2624977E1,6.865266E1,3.2555424E1,5.4375124E0,3.069702E1,6.412552E0,5.476485E1,1.8908628E1,5.397367E1,8.651306E0,3.6553787E1,3.2098866E1,6.3826995E0,2.6172726E1,7.9979453E0,2.2699074E1,1.6967283E1,3.7797565E1,8.02275E0,1.0885879E1,2.6993584E1,2.6980085E1,5.7659483E0,3.078784E1,1.0588613E1,2.1510252E1,7.357272E0,1.5341803E1],"tree_param":{"num_deleted":"0","num_feature":"220","num_nodes":"37","size_leaf_vector":"1"}},{"base_weights":[-3.5059534E-2,3.3160535E-1,-1.0250434E-1,-5.81187E-2,5.905861E-1,2.8495696E-1,-1.6500908E-1,-3.417184E-1,4.8707635E-3,1.5182612E-2,2.705955E-1,5.389981E-1,-3.5982667E-3,2.1812052E-1,-2.1342643E-1,-1.5596939E-4,-5.3480766E-3,6.368795E-3,9.289676E-3,8.257398E-1,-2.5612472E-3,-1.8934396E-1,6.475379E-1,5.779363E-3,-2.4308644E-1,-5.176425E-3,3.3937024E-3,1.1807521E-2,1.852573E-3,2.7857507E-3,-5.345142E-3,1.2556865E-2,1.4993246E-4,-3.6889475E-3,-9.1672636E-4],"categories":[],"categories_nodes":[],"categories_segments":[],"categories_sizes":[],"default_left":[0,0,0,0,0,0,0,0,0,0,0,0,0,0,0,0,0,0,0,0,0,0,0,0,0,0,0,0,0,0,0,0,0,0,0],"id":8,"left_children":[1,3,5,7,9,11,13,15,-1,-1,17,19,-1,21,23,-1,-1,25,-1,27,-1,29,31,-1,33,-1,-1,-1,-1,-1,-1,-1,-1,-1,-1],"loss_changes":[7.2518463E0,4.6795044E0,6.0484276E0,3.0771723E0,7.596245E0,5.885292E0,4.02815E0,7.6492345E-1,0E0,0E0,3.6930113E0,6.049983E0,0E0,4.428511E0,4.5975914E0,0E0,0E0,3.0671382E0,0E0,3.9572E0,0E0,2.2979214E0,4.547214E0,0E0,3.448637E0,0E0,0E0,0E0,0E0,0E0,0E0,0E0,0E0,0E0,0E0],"parents":[2147483647,0,0,1,1,2,2,3,3,4,4,5,5,6,6,7,7,10,10,11,11,13,13,14,14,17,17,19,19,21,21,22,22,24,24],"right_children":[2,4,6,8,10,12,14,16,-1,-1,18,20,-1,22,24,-1,-1,26,-1,28,-1,30,32,-1,34,-1,-1,-1,-1,-1,-1,-1,-1,-1,-1],"split_conditions":[1.4025425E1,-0E0,4.2171347E-1,2.1572507E-3,-1.2201263E-1,2.0117104E1,6.1512175E-3,8.307927E-1,4.8707635E-3,1.5182612E-2,7.376328E-1,1.0175358E0,-3.5982667E-3,4.3762155E0,5.1473414E4,-1.5596939E-4,-5.3480766E-3,7.080949E1,9.289676E-3,8.502448E-3,-2.5612472E-3,2.7119216E-2,1.2529011E-1,5.779363E-3,3.8E1,-5.176425E-3,3.3937024E-3,1.1807521E-2,1.852573E-3,2.7857507E-3,-5.345142E-3,1.2556865E-2,1.4993246E-4,-3.6889475E-3,-9.1672636E-4],"split_indices":[30,198,170,167,188,206,113,110,0,0,81,17,0,77,175,0,0,35,0,20,0,214,166,0,160,0,0,0,0,0,0,0,0,0,0],"split_type":[0,0,0,0,0,0,0,0,0,0,0,0,0,0,0,0,0,0,0,0,0,0,0,0,0,0,0,0,0,0,0,0,0,0,0],"sum_hessian":[2.9179706E2,4.449575E1,2.473013E2,1.7919407E1,2.6576342E1,3.3635983E1,2.1366531E2,1.2153852E1,5.7655554E0,5.7755127E0,2.0800829E1,2.4358156E1,9.277824E0,2.3347187E1,1.9031813E2,5.114425E0,7.0394273E0,1.5672497E1,5.1283317E0,1.7966307E1,6.391849E0,1.2147188E1,1.1199998E1,6.0857773E0,1.8423235E2,5.757584E0,9.914912E0,1.0916015E1,7.0502934E0,5.115605E0,7.031584E0,5.12726E0,6.0727377E0,9.9479225E1,8.475313E1],"tree_param":{"num_deleted":"0","num_feature":"220","num_nodes":"35","size_leaf_vector":"1"}},{"base_weights":[-1.6482873E-2,-1.717772E-1,2.4388157E-1,3.82141E-1,-2.2145572E-1,5.778106E-1,-5.2955613E-2,-2.859993E-3,9.898963E-3,-2.919715E-1,1.9667327E-1,7.0608914E-1,-3.6978812E-3,5.051202E-1,-2.639877E-1,-3.4982136E-1,2.81391E-1,9.874569E-3,-2.2857942E-1,3.5856977E-1,1.1289876E0,1.2812404E-2,-6.9095753E-4,4.383651E-3,-3.7183142E-1,-3.8861935E-3,2.4166247E-3,9.27831E-3,-1.9605667E-3,-5.518534E-3,1.8793276E-3,8.893906E-3,-7.0507906E-4,1.4587755E-2,1.1379492E-3,2.7766675E-3,-4.830328E-3],"categories":[],"categories_nodes":[],"categories_segments":[],"categories_sizes":[],"default_left":[0,0,0,0,0,0,0,0,0,0,0,0,0,0,0,0,0,0,0,0,0,0,0,0,0,0,0,0,0,0,0,0,0,0,0,0,0],"id":9,"left_children":[1,3,5,7,9,11,13,-1,-1,15,17,19,-1,21,23,25,27,-1,29,31,33,-1,-1,-1,35,-1,-1,-1,-1,-1,-1,-1,-1,-1,-1,-1,-1],"loss_changes":[1.1911013E1,5.154278E0,1.0977877E1,6.611906E0,5.091237E0,6.611664E0,7.051338E0,0E0,0E0,4.961858E0,8.703138E0,6.2373314E0,0E0,7.51277E0,3.4556463E0,3.1746216E0,4.51895E0,0E0,2.4259472E0,6.2849865E0,6.4557495E0,0E0,0E0,0E0,2.9298992E0,0E0,0E0,0E0,0E0,0E0,0E0,0E0,0E0,0E0,0E0,0E0,0E0],"parents":[2147483647,0,0,1,1,2,2,3,3,4,4,5,5,6,6,9,9,10,10,11,11,13,13,14,14,15,15,16,16,18,18,19,19,20,20,24,24],"right_children":[2,4,6,8,10,12,14,-1,-1,16,18,20,-1,22,24,26,28,-1,30,32,34,-1,-1,-1,36,-1,-1,-1,-1,-1,-1,-1,-1,-1,-1,-1,-1],"split_conditions":[3.0500475E-1,-7.322094E-2,6.38646E-1,9.5540285E-4,1.4236462E0,4.4833034E-1,-1.8923115E-2,-2.859993E-3,9.898963E-3,4.626854E1,8.6357933E-1,1.4452076E-2,-3.6978812E-3,-1.4146271E-2,1.1996554E1,1.19310105E-2,2.41E2,9.874569E-3,9.382977E2,-2.019289E0,2.1972168E-2,1.2812404E-2,-6.9095753E-4,4.383651E-3,9.617898E-1,-3.8861935E-3,2.4166247E-3,9.27831E-3,-1.9605667E-3,-5.518534E-3,1.8793276E-3,8.893906E-3,-7.0507906E-4,1.4587755E-2,1.1379492E-3,2.7766675E-3,-4.830328E-3],"split_indices":[104,115,208,167,59,188,199,0,0,30,65,121,0,7,71,85,100,0,42,132,162,0,0,0,63,0,0,0,0,0,0,0,0,0,0,0,0],"split_type":[0,0,0,0,0,0,0,0,0,0,0,0,0,0,0,0,0,0,0,0,0,0,0,0,0,0,0,0,0,0,0,0,0,0,0,0,0],"sum_hessian":[2.9272772E2,1.8381538E2,1.08912346E2,1.4412294E1,1.6940309E2,5.0966995E1,5.7945347E1,7.038903E0,7.3733916E0,1.4541954E2,2.3983547E1,4.5207546E1,5.75945E0,1.5386968E1,4.255838E1,1.326046E2,1.2814951E1,8.0070505E0,1.5976498E1,2.595951E1,1.9248037E1,6.093607E0,9.293361E0,5.1334867E0,3.7424892E1,1.2492243E2,7.682165E0,5.132261E0,7.6826906E0,8.947268E0,7.0292306E0,1.1228618E1,1.4730892E1,1.412428E1,5.1237574E0,5.1205955E0,3.23043E1],"tree_param":{"num_deleted":"0","num_feature":"220","num_nodes":"37","size_leaf_vector":"1"}},{"base_weights":[-1.18559204E-1,6.1916757E-1,-1.7469066E-1,2.3047301E-1,1.452336E-2,-2.6933137E-1,9.95546E-3,-3.717942E-3,6.2613613E-3,-3.046211E-1,4.714806E-3,-2.689386E-1,2.77573E-1,7.3261E-2,-3.4556654E-1,3.911319E-3,-3.8514003E-1,5.357382E-1,-7.819708E-2,-3.6715386E-3,6.3394215E-3,1.8527079E-3,-3.7634745E-3,-5.0802547E-3,5.205755E-4,9.649264E-3,7.2706706E-4,5.442105E-3,-3.2968768E-3],"categories":[],"categories_nodes":[],"categories_segments":[],"categories_sizes":[],"default_left":[0,0,0,0,0,0,0,0,0,0,0,0,0,0,0,0,0,0,0,0,0,0,0,0,0,0,0,0,0],"id":10,"left_children":[1,3,5,7,-1,9,11,-1,-1,13,-1,15,17,19,21,-1,23,25,27,-1,-1,-1,-1,-1,-1,-1,-1,-1,-1],"loss_changes":[1.2480658E1,6.3936796E0,4.9139395E0,4.021357E0,0E0,4.969164E0,7.1913657E0,0E0,0E0,2.7994614E0,0E0,3.755846E0,4.61834E0,4.690009E0,2.7128544E0,0E0,2.2536411E0,5.564472E0,3.5159667E0,0E0,0E0,0E0,0E0,0E0,0E0,0E0,0E0,0E0,0E0],"parents":[2147483647,0,0,1,1,2,2,3,3,5,5,6,6,9,9,11,11,12,12,13,13,14,14,16,16,17,17,18,18],"right_children":[2,4,6,8,-1,10,12,-1,-1,14,-1,16,18,20,22,-1,24,26,28,-1,-1,-1,-1,-1,-1,-1,-1,-1,-1],"split_conditions":[-1.4768908E1,4.94707E-2,2.3020931E1,9.565515E-1,1.452336E-2,6.782502E-2,-3.577082E-2,-3.717942E-3,6.2613613E-3,1.3679547E-6,4.714806E-3,-1.45394085E-2,2.5852097E-3,3.2258146E-2,1.7577969E-1,3.911319E-3,-6.9276243E-3,2.08E2,4.0568894E-1,-3.6715386E-3,6.3394215E-3,1.8527079E-3,-3.7634745E-3,-5.0802547E-3,5.205755E-4,9.649264E-3,7.2706706E-4,5.442105E-3,-3.2968768E-3],"split_indices":[38,148,73,63,0,109,67,0,0,182,0,5,167,207,108,0,147,100,217,0,0,0,0,0,0,0,0,0,0],"split_type":[0,0,0,0,0,0,0,0,0,0,0,0,0,0,0,0,0,0,0,0,0,0,0,0,0,0,0,0,0],"sum_hessian":[2.98856E2,2.0296053E1,2.7855994E2,1.4791898E1,5.504155E0,1.842204E2,9.4339554E1,5.788458E0,9.00344E0,1.7653468E2,7.685714E0,4.6011093E1,4.8328457E1,1.6942472E1,1.5959221E2,6.404489E0,3.9606606E1,2.7875658E1,2.0452799E1,9.58235E0,7.3601217E0,8.293717E0,1.512985E2,3.0968775E1,8.63783E0,1.3791908E1,1.408375E1,5.436522E0,1.5016276E1],"tree_param":{"num_deleted":"0","num_feature":"220","num_nodes":"29","size_leaf_vector":"1"}},{"base_weights":[1.1164811E-2,1.5505275E-1,-1.3984907E-1,9.82219E-2,9.274455E-3,-1.9406322E-1,7.004587E-3,-1.6839905E-1,2.07209E-1,-2.3798802E-1,6.953711E-3,6.008223E-3,-2.9807577E-1,-1.0888939E-1,3.6753333E-1,-1.2105941E-1,-5.2353776E-1,3.3850588E-3,-4.3467144E-3,1.318944E-3,-4.9752262E-3,8.709805E-3,1.8984368E-3,-2.0958253E-3,4.5468975E-3,-4.686184E-4,-6.015886E-3],"categories":[],"categories_nodes":[],"categories_segments":[],"categories_sizes":[],"default_left":[0,0,0,0,0,0,0,0,0,0,0,0,0,0,0,0,0,0,0,0,0,0,0,0,0,0,0],"id":11,"left_children":[1,3,5,7,-1,9,-1,11,13,15,-1,-1,17,19,21,23,25,-1,-1,-1,-1,-1,-1,-1,-1,-1,-1],"loss_changes":[6.325298E0,6.3614044E0,6.54056E0,4.1167274E0,0E0,5.3550797E0,0E0,4.2391605E0,5.150499E0,4.1643276E0,0E0,0E0,3.2758048E0,3.3141735E0,5.7227974E0,4.7981415E0,1.2760115E0,0E0,0E0,0E0,0E0,0E0,0E0,0E0,0E0,0E0,0E0],"parents":[2147483647,0,0,1,1,2,2,3,3,5,5,7,7,8,8,9,9,12,12,13,13,14,14,15,15,16,16],"right_children":[2,4,6,8,-1,10,-1,12,14,16,-1,-1,18,20,22,24,26,-1,-1,-1,-1,-1,-1,-1,-1,-1,-1],"split_conditions":[7.4141176E-4,4.7041755E-2,8.0114914E1,2.2115166E-6,9.274455E-3,1.33E2,7.004587E-3,1.8256164E-1,1.0038077E0,2.3795309E-2,6.953711E-3,6.008223E-3,3.3696327E-1,1.0416756E0,1.1176865E0,2E-1,7.462141E-4,3.3850588E-3,-4.3467144E-3,1.318944E-3,-4.9752262E-3,8.709805E-3,1.8984368E-3,-2.0958253E-3,4.5468975E-3,-4.686184E-4,-6.015886E-3],"split_indices":[210,207,34,182,0,160,0,196,114,134,0,0,66,216,114,213,85,0,0,0,0,0,0,0,0,0,0],"split_type":[0,0,0,0,0,0,0,0,0,0,0,0,0,0,0,0,0,0,0,0,0,0,0,0,0,0,0],"sum_hessian":[2.8903046E2,1.4833267E2,1.4069778E2,1.3933719E2,8.995471E0,1.3300478E2,7.6930103E0,4.0005924E1,9.9331276E1,1.27550545E2,5.4542365E0,5.135945E0,3.486998E1,3.3324722E1,6.600655E1,9.17531E1,3.5797447E1,5.7699294E0,2.9100048E1,2.0825354E1,1.2499367E1,1.6054615E1,4.9951935E1,8.022755E1,1.1525551E1,5.4422E0,3.0355247E1],"tree_param":{"num_deleted":"0","num_feature":"220","num_nodes":"27","size_leaf_vector":"1"}},{"base_weights":[2.1223108E-1,3.85827E-2,4.6735185E-1,-1.13942005E-1,3.239405E-1,1.7166461E-1,7.0085895E-1,4.0496048E-1,-2.4506901E-1,7.586311E-1,4.6635624E-2,4.9215588E-1,-5.8131036E-3,5.4671717E-1,1.4234856E-2,7.111839E-1,-5.1301075E-3,-6.6691525E-2,-5.006809E-1,1.4566146E-2,4.172255E-1,8.585665E-3,-1.24294475E-1,7.652895E-1,-1.5787488E-1,3.0772585E-1,1.299783E0,1.3648528E-2,2.927404E-3,3.083232E-3,-2.801759E-3,-6.0114786E-3,-1.0261914E-4,-1.4387176E-4,9.874094E-3,-3.917651E-3,2.5989583E-3,4.932457E-4,1.0836704E-2,-5.238412E-3,2.7588569E-3,5.818174E-3,-1.333347E-3,1.8267957E-2,5.7336628E-3],"categories":[],"categories_nodes":[],"categories_segments":[],"categories_sizes":[],"default_left":[0,0,0,0,0,0,0,0,0,0,0,0,0,0,0,0,0,0,0,0,0,0,0,0,0,0,0,0,0,0,0,0,0,0,0,0,0,0,0,0,0,0,0,0,0],"id":12,"left_children":[1,3,5,7,9,11,13,15,17,19,21,23,-1,25,-1,27,-1,29,31,-1,33,-1,35,37,39,41,43,-1,-1,-1,-1,-1,-1,-1,-1,-1,-1,-1,-1,-1,-1,-1,-1,-1,-1],"loss_changes":[1.3125392E1,7.8283114E0,8.098108E0,8.034377E0,7.4390645E0,1.3451643E1,6.454323E0,7.0737896E0,4.198575E0,4.9726944E0,5.6580105E0,7.0931263E0,0E0,9.646053E0,0E0,4.45228E0,0E0,4.629663E0,1.8185978E0,0E0,4.480179E0,0E0,3.5449207E0,6.1452084E0,2.1120453E0,5.497321E0,3.7855148E0,0E0,0E0,0E0,0E0,0E0,0E0,0E0,0E0,0E0,0E0,0E0,0E0,0E0,0E0,0E0,0E0,0E0,0E0],"parents":[2147483647,0,0,1,1,2,2,3,3,4,4,5,5,6,6,7,7,8,8,9,9,10,10,11,11,13,13,15,15,17,17,18,18,20,20,22,22,23,23,24,24,25,25,26,26],"right_children":[2,4,6,8,10,12,14,16,18,20,22,24,-1,26,-1,28,-1,30,32,-1,34,-1,36,38,40,42,44,-1,-1,-1,-1,-1,-1,-1,-1,-1,-1,-1,-1,-1,-1,-1,-1,-1,-1],"split_conditions":[4.962434E-1,1.9040586E-1,2.8467438E0,1.7186483E-2,2.6506925E-1,2.5579843E-1,1.4108502E0,3.0866307E-1,1.0318018E-2,2.8827697E-1,-5.2290346E-2,8.377733E-3,-5.8131036E-3,5.195075E-2,1.4234856E-2,4.883333E-1,-5.1301075E-3,8.6161566E-1,1.0058241E0,1.4566146E-2,1.0420943E0,8.585665E-3,9.347033E-1,5.4751444E-1,2.1868525E-1,7.4708864E-6,4.3762155E0,1.3648528E-2,2.927404E-3,3.083232E-3,-2.801759E-3,-6.0114786E-3,-1.0261914E-4,-1.4387176E-4,9.874094E-3,-3.917651E-3,2.5989583E-3,4.932457E-4,1.0836704E-2,-5.238412E-3,2.7588569E-3,5.818174E-3,-1.333347E-3,1.8267957E-2,5.7336628E-3],"split_indices":[177,188,38,109,106,105,74,65,113,211,147,134,0,201,0,208,0,216,208,0,18,0,111,60,106,192,77,0,0,0,0,0,0,0,0,0,0,0,0,0,0,0,0,0,0],"split_type":[0,0,0,0,0,0,0,0,0,0,0,0,0,0,0,0,0,0,0,0,0,0,0,0,0,0,0,0,0,0,0,0,0,0,0,0,0,0,0,0,0,0,0,0,0],"sum_hessian":[2.9682452E2,1.7753096E2,1.1929355E2,1.1585587E2,6.167509E1,5.35929E1,6.570065E1,2.2795889E1,9.305998E1,2.3204468E1,3.8470623E1,3.7928467E1,1.5664431E1,5.5711845E1,9.988805E0,1.7344267E1,5.4516234E0,5.5783722E1,3.727626E1,6.452758E0,1.6751709E1,6.0925717E0,3.237805E1,2.6690168E1,1.12383E1,4.3460682E1,1.2251166E1,5.79341E0,1.1550857E1,1.9905066E1,3.5878654E1,3.0581633E1,6.694629E0,9.989405E0,6.7623043E0,1.9230492E1,1.3147562E1,8.667646E0,1.8022522E1,6.1078987E0,5.130401E0,2.6746803E1,1.6713877E1,6.142406E0,6.10876E0],"tree_param":{"num_deleted":"0","num_feature":"220","num_nodes":"45","size_leaf_vector":"1"}},{"base_weights":[-1.2857724E-2,2.3098876E-1,-1.07884E-1,5.2256256E-1,9.952433E-3,2.853567E-1,-1.7832643E-1,7.2726417E-1,-3.815542E-3,-1.3128439E-1,8.583285E-3,1.1570013E-2,6.2007945E-2,-2.0932198E-1,6.3617495E-3,9.760304E-1,-3.7181025E-4,2.1449167E-1,-4.5632488E-1,-1.3378024E-1,7.6511637E-3,-4.034003E-1,-1.1255437E-1,5.602884E-3,1.579573E-2,7.2549297E-3,-4.459482E-3,-1.692848E-4,-5.8204834E-3,3.295407E-3,-4.90877E-3,-4.9297404E-3,2.558689E-3,-2.4133031E-3,1.7738238E-3],"categories":[],"categories_nodes":[],"categories_segments":[],"categories_sizes":[],"default_left":[0,0,0,0,0,0,0,0,0,0,0,0,0,0,0,0,0,0,0,0,0,0,0,0,0,0,0,0,0,0,0,0,0,0,0],"id":13,"left_children":[1,3,5,7,9,11,13,15,-1,17,-1,-1,19,21,-1,23,-1,25,27,29,-1,31,33,-1,-1,-1,-1,-1,-1,-1,-1,-1,-1,-1,-1],"loss_changes":[6.8169518E0,5.2499995E0,5.9205103E0,6.845578E0,5.9446673E0,6.1175814E0,4.656493E0,5.6867447E0,0E0,4.839316E0,0E0,0E0,3.875964E0,3.1915007E0,0E0,4.466524E0,0E0,7.3942585E0,1.1512947E0,3.7885141E0,0E0,3.5470304E0,4.4764E0,0E0,0E0,0E0,0E0,0E0,0E0,0E0,0E0,0E0,0E0,0E0,0E0],"parents":[2147483647,0,0,1,1,2,2,3,3,4,4,5,5,6,6,7,7,9,9,12,12,13,13,15,15,17,17,18,18,19,19,21,21,22,22],"right_children":[2,4,6,8,10,12,14,16,-1,18,-1,-1,20,22,-1,24,-1,26,28,30,-1,32,34,-1,-1,-1,-1,-1,-1,-1,-1,-1,-1,-1,-1],"split_conditions":[1.7075813E1,3.066658E0,4.2171347E-1,1.1442623E-2,9.1806956E-2,1.4525324E-1,1.2848087E-8,9.3880444E2,-3.815542E-3,-1.9590794E-4,8.583285E-3,1.1570013E-2,2.5309587E-1,3.988851E4,6.3617495E-3,3.8723575E-9,-3.7181025E-4,8.5453445E-1,-9.992007E-17,3.2163578E-1,7.6511637E-3,3.25E2,1.0945783E0,5.602884E-3,1.579573E-2,7.2549297E-3,-4.459482E-3,-1.692848E-4,-5.8204834E-3,3.295407E-3,-4.90877E-3,-4.9297404E-3,2.558689E-3,-2.4133031E-3,1.7738238E-3],"split_indices":[30,28,170,113,207,78,172,1,0,11,0,0,196,189,0,173,0,170,186,137,0,100,110,0,0,0,0,0,0,0,0,0,0,0,0],"split_type":[0,0,0,0,0,0,0,0,0,0,0,0,0,0,0,0,0,0,0,0,0,0,0,0,0,0,0,0,0,0,0,0,0,0,0],"sum_hessian":[2.9264728E2,8.136746E1,2.112798E2,3.4302166E1,4.70653E1,3.141833E1,1.7986148E2,2.8219246E1,6.082921E0,4.097174E1,6.0935555E0,5.4645004E0,2.5953829E1,1.7410188E2,5.7596006E0,2.1180655E1,7.0385914E0,1.9868359E1,2.1103384E1,2.0822956E1,5.130873E0,5.652748E1,1.17574394E2,1.3781487E1,7.399166E0,1.1231297E1,8.637063E0,5.124298E0,1.5979085E1,8.975143E0,1.1847813E1,5.0121487E1,6.405994E0,8.1769066E1,3.5805332E1],"tree_param":{"num_deleted":"0","num_feature":"220","num_nodes":"35","size_leaf_vector":"1"}},{"base_weights":[-1.2395083E-2,-2.3075928E-1,2.190653E-1,2.753416E-1,-3.1854978E-1,7.932436E-1,9.109759E-2,-2.736935E-3,7.034195E-1,-1.37976E-1,-4.7050318E-1,1.1149023E0,-3.8853992E-4,3.132634E-1,-1.8107426E-1,1.3116821E-2,9.02659E-4,-2.8924972E-1,4.8339117E-1,1.1697914E-3,-5.201822E-1,1.639394E-2,5.5336715E-3,5.6393784E-1,-3.3678986E-2,4.2848093E-3,-3.3239943E-1,-4.022205E-3,4.330026E-3,1.1633558E-2,-2.2171666E-3,-5.5976193E-3,-1.4252121E-3,1.0544529E-2,2.2703432E-3,4.300632E-3,-2.4371105E-3,-4.474748E-3,-0E0],"categories":[],"categories_nodes":[],"categories_segments":[],"categories_sizes":[],"default_left":[0,0,0,0,0,0,0,0,0,0,0,0,0,0,0,0,0,0,0,0,0,0,0,0,0,0,0,0,0,0,0,0,0,0,0,0,0,0,0],"id":14,"left_children":[1,3,5,7,9,11,13,-1,15,17,19,21,-1,23,25,-1,-1,27,29,-1,31,-1,-1,33,35,-1,37,-1,-1,-1,-1,-1,-1,-1,-1,-1,-1,-1,-1],"loss_changes":[1.4880864E1,6.8312817E0,1.0325761E1,5.59174E0,3.4382572E0,7.039921E0,7.203888E0,0E0,4.6599207E0,5.860854E0,2.1388779E0,4.37615E0,0E0,5.7707915E0,5.0634933E0,0E0,0E0,4.2400646E0,6.2022667E0,0E0,8.173504E-1,0E0,0E0,5.95588E0,2.8388813E0,0E0,1.6609092E0,0E0,0E0,0E0,0E0,0E0,0E0,0E0,0E0,0E0,0E0,0E0,0E0],"parents":[2147483647,0,0,1,1,2,2,3,3,4,4,5,5,6,6,8,8,9,9,10,10,11,11,13,13,14,14,17,17,18,18,20,20,23,23,24,24,26,26],"right_children":[2,4,6,8,10,12,14,-1,16,18,20,22,-1,24,26,-1,-1,28,30,-1,32,-1,-1,34,36,-1,38,-1,-1,-1,-1,-1,-1,-1,-1,-1,-1,-1,-1],"split_conditions":[2.6096278E-1,-5.693307E-2,9.8168445E-1,-3.2957634E-3,1.0016268E0,1.8097184E0,1.0350773E0,-2.736935E-3,1.9155636E-1,-3.8966E1,1.6993148E-6,-1.4560101E1,-3.8853992E-4,2.622233E-1,2.4077436E1,1.3116821E-2,9.02659E-4,1.4236462E0,5.847086E4,1.1697914E-3,1.5552703E0,1.639394E-2,5.5336715E-3,1.8863665E-1,2.8301933E-1,4.2848093E-3,1.126857E0,-4.022205E-3,4.330026E-3,1.1633558E-2,-2.2171666E-3,-5.5976193E-3,-1.4252121E-3,1.0544529E-2,2.2703432E-3,4.300632E-3,-2.4371105E-3,-4.474748E-3,-0E0],"split_indices":[106,115,16,20,63,170,216,0,103,39,182,195,0,80,36,0,0,59,190,0,59,0,0,211,106,0,59,0,0,0,0,0,0,0,0,0,0,0,0],"split_type":[0,0,0,0,0,0,0,0,0,0,0,0,0,0,0,0,0,0,0,0,0,0,0,0,0,0,0,0,0,0,0,0,0,0,0,0,0,0,0],"sum_hessian":[2.9239856E2,1.5067958E2,1.4171896E2,2.1789646E1,1.2888994E2,2.4738693E1,1.1698027E2,9.601807E0,1.21878395E1,6.0070858E1,6.881908E1,1.7683287E1,7.0554066E0,6.452603E1,5.2454243E1,5.4645495E0,6.7232895E0,4.8868988E1,1.1201872E1,5.1032023E0,6.3715874E1,8.058664E0,9.624622E0,3.7264378E1,2.7261652E1,9.936504E0,4.251774E1,4.276195E1,6.1070333E0,5.44396E0,5.7579117E0,5.6995625E1,6.72025E0,1.4185021E1,2.3079355E1,8.023147E0,1.9238504E1,3.130803E1,1.1209707E1],"tree_param":{"num_deleted":"0","num_feature":"220","num_nodes":"39","size_leaf_vector":"1"}},{"base_weights":[-1.2717578E-1,6.04183E-1,-1.7752291E-1,1.4875722E-1,1.2296644E-2,5.765648E-2,-2.5578165E-1,6.241012E-3,-3.594408E-3,9.90275E-3,-4.6323244E-2,5.291545E-3,-2.8372654E-1,-1.4175314E-1,7.2062854E-3,1.4396738E-1,-3.1689876E-1,-2.283625E-3,6.071577E-3,7.7096596E-3,-2.4740621E-3,-4.327636E-3,-1.7264939E-3],"categories":[],"categories_nodes":[],"categories_segments":[],"categories_sizes":[],"default_left":[0,0,0,0,0,0,0,0,0,0,0,0,0,0,0,0,0,0,0,0,0,0,0],"id":15,"left_children":[1,3,5,7,-1,9,11,-1,-1,-1,13,-1,15,17,-1,19,21,-1,-1,-1,-1,-1,-1],"loss_changes":[1.0930998E1,5.121809E0,5.1327324E0,3.218743E0,0E0,6.895276E0,4.6955967E0,0E0,0E0,0E0,4.6940227E0,0E0,2.9281654E0,3.8272195E0,0E0,3.9256635E0,3.0059986E0,0E0,0E0,0E0,0E0,0E0,0E0],"parents":[2147483647,0,0,1,1,2,2,3,3,5,5,6,6,10,10,12,12,13,13,15,15,16,16],"right_children":[2,4,6,8,-1,10,12,-1,-1,-1,14,-1,16,18,-1,20,22,-1,-1,-1,-1,-1,-1],"split_conditions":[-1.4768908E1,-6.8300944E-3,1.7E1,2.4910429E1,1.2296644E-2,-1.2824829E-1,4.2244157E-1,6.241012E-3,-3.594408E-3,9.90275E-3,1.02E2,5.291545E-3,3.693301E-2,8.122815E-2,7.2062854E-3,4.9356043E-1,4.4031642E-2,-2.283625E-3,6.071577E-3,7.7096596E-3,-2.4740621E-3,-4.327636E-3,-1.7264939E-3],"split_indices":[38,6,91,34,0,122,110,0,0,0,100,0,163,10,0,177,10,0,0,0,0,0,0],"split_type":[0,0,0,0,0,0,0,0,0,0,0,0,0,0,0,0,0,0,0,0,0,0,0],"sum_hessian":[2.941078E2,1.8106108E1,2.760017E2,1.1286142E1,6.819966E0,6.865835E1,2.0734335E2,5.8154016E0,5.4707403E0,6.1284885E0,6.2529858E1,6.3883657E0,2.0095499E2,5.645132E1,6.078537E0,1.4006949E1,1.8694803E2,5.134233E1,5.1089897E0,5.1085033E0,8.898446E0,1.0218058E2,8.4767456E1],"tree_param":{"num_deleted":"0","num_feature":"220","num_nodes":"23","size_leaf_vector":"1"}},{"base_weights":[-1.1614885E-2,5.078851E-1,-7.627913E-2,9.8894954E-1,9.9693105E-2,-1.2956801E-1,4.6263713E-1,7.289523E-4,1.5217228E-2,-4.570124E-3,7.099237E-3,-3.332972E-1,-2.2546787E-2,1.1574746E-2,1.8180229E-1,-4.336145E-1,1.0649577E-1,6.7731935E-1,-8.0078065E-2,-4.1049444E-3,6.0913363E-3,-5.8051855E-3,-2.0833062E-3,6.7970264E-3,-4.2647542E-3,4.2788783E-4,1.2502962E-2,4.750802E-3,-1.3485887E-3],"categories":[],"categories_nodes":[],"categories_segments":[],"categories_sizes":[],"default_left":[0,0,0,0,0,0,0,0,0,0,0,0,0,0,0,0,0,0,0,0,0,0,0,0,0,0,0,0,0],"id":16,"left_children":[1,3,5,7,9,11,13,-1,-1,-1,-1,15,17,-1,19,21,23,25,27,-1,-1,-1,-1,-1,-1,-1,-1,-1,-1],"loss_changes":[9.7823925E0,6.1172647E0,7.496982E0,6.8356543E0,6.685027E0,5.1388683E0,4.2329144E0,0E0,0E0,0E0,0E0,3.6727104E0,6.3244777E0,0E0,4.8243265E0,2.007967E0,5.1260176E0,4.149251E0,4.4791865E0,0E0,0E0,0E0,0E0,0E0,0E0,0E0,0E0,0E0,0E0],"parents":[2147483647,0,0,1,1,2,2,3,3,4,4,5,5,6,6,11,11,12,12,14,14,15,15,16,16,17,17,18,18],"right_children":[2,4,6,8,10,12,14,-1,-1,-1,-1,16,18,-1,20,22,24,26,28,-1,-1,-1,-1,-1,-1,-1,-1,-1,-1],"split_conditions":[2.086708E-1,1.899104E1,7.7097664E1,3.591272E-1,8.716295E-2,2.9800544E8,1.0193678E0,7.289523E-4,1.5217228E-2,-4.570124E-3,7.099237E-3,2.525706E-2,-1.5716484E1,1.1574746E-2,5.0332564E-1,5.922887E1,4.0574457E-2,-1.6986412E-14,3E0,-4.1049444E-3,6.0913363E-3,-5.8051855E-3,-2.0833062E-3,6.7970264E-3,-4.2647542E-3,4.2788783E-4,1.2502962E-2,4.750802E-3,-1.3485887E-3],"split_indices":[104,31,34,13,120,61,14,0,0,0,0,7,130,0,133,36,118,187,160,0,0,0,0,0,0,0,0,0,0],"split_type":[0,0,0,0,0,0,0,0,0,0,0,0,0,0,0,0,0,0,0,0,0,0,0,0,0,0,0,0,0],"sum_hessian":[2.903342E2,3.1208727E1,2.591255E2,1.3560088E1,1.7648638E1,2.3666847E2,2.245701E1,5.4734755E0,8.086613E0,9.274678E0,8.37396E0,8.045773E1,1.5621074E2,5.4629726E0,1.6994038E1,6.571051E1,1.4747217E1,1.0915293E1,1.4529544E2,7.0407257E0,9.953311E0,3.8551178E1,2.7159336E1,7.063158E0,7.684059E0,5.772201E0,5.1430917E0,1.2196467E1,1.3309897E2],"tree_param":{"num_deleted":"0","num_feature":"220","num_nodes":"29","size_leaf_vector":"1"}},{"base_weights":[1.600509E-1,1.2170401E-2,4.055326E-1,2.0602086E-1,-2.9351094E-1,1.2079166E-1,6.326627E-1,3.5417497E-3,4.9026754E-1,-4.697721E-1,-1.5751662E-2,6.1160403E-1,-1.3208096E-1,3.6510244E-1,9.985127E-1,1.4139575E-1,-4.071723E-1,8.6067945E-1,9.951674E-2,1.5768761E-4,-5.5124426E-1,-2.4755089E-1,4.6883137E-3,9.6408516E-1,-1.794445E-3,-4.660989E-1,1.9029348E-1,2.5241556E-2,8.225106E-1,1.2831681E0,3.7965592E-4,-9.6071616E-4,5.5639967E-3,-5.6491857E-3,-1.7635692E-4,1.2357622E-2,2.6872172E-3,5.8913324E-3,-3.4359929E-3,-1.7902615E-3,-6.012828E-3,-4.3879445E-3,1.885474E-3,4.339933E-3,1.272759E-2,-1.825565E-3,-5.6483303E-3,-9.293548E-4,7.539284E-3,-3.0804724E-3,6.207435E-3,1.31337475E-2,-5.132628E-4,5.337781E-3,1.5382014E-2],"categories":[],"categories_nodes":[],"categories_segments":[],"categories_sizes":[],"default_left":[0,0,0,0,0,0,0,0,0,0,0,0,0,0,0,0,0,0,0,0,0,0,0,0,0,0,0,0,0,0,0,0,0,0,0,0,0,0,0,0,0,0,0,0,0,0,0,0,0,0,0,0,0,0,0],"id":17,"left_children":[1,3,5,7,9,11,13,15,17,19,21,23,25,27,29,31,33,35,37,-1,39,41,-1,43,-1,45,47,49,51,53,-1,-1,-1,-1,-1,-1,-1,-1,-1,-1,-1,-1,-1,-1,-1,-1,-1,-1,-1,-1,-1,-1,-1,-1,-1],"loss_changes":[1.0601736E1,1.0975091E1,6.961588E0,6.486578E0,3.4567108E0,6.3637133E0,5.4459896E0,3.8556008E0,6.627122E0,1.7885113E0,3.3636577E0,5.1013575E0,3.7604046E0,5.6190023E0,6.635235E0,5.1747713E0,9.795146E-1,4.8212605E0,5.4674864E0,0E0,5.141287E-1,1.8161801E0,0E0,1.2857332E0,0E0,2.998414E-1,2.9743953E0,4.64527E0,6.8594646E0,2.6257496E0,0E0,0E0,0E0,0E0,0E0,0E0,0E0,0E0,0E0,0E0,0E0,0E0,0E0,0E0,0E0,0E0,0E0,0E0,0E0,0E0,0E0,0E0,0E0,0E0,0E0],"parents":[2147483647,0,0,1,1,2,2,3,3,4,4,5,5,6,6,7,7,8,8,9,9,10,10,11,11,12,12,13,13,14,14,15,15,16,16,17,17,18,18,20,20,21,21,23,23,25,25,26,26,27,27,28,28,29,29],"right_children":[2,4,6,8,10,12,14,16,18,20,22,24,26,28,30,32,34,36,38,-1,40,42,-1,44,-1,46,48,50,52,54,-1,-1,-1,-1,-1,-1,-1,-1,-1,-1,-1,-1,-1,-1,-1,-1,-1,-1,-1,-1,-1,-1,-1,-1,-1],"split_conditions":[1.8413879E-1,2.988964E-1,-5.7141352E-2,7.818315E-1,1.2870859E-2,2.3138165E1,6.7794657E0,4.1796377E-1,4.04019E0,-3.2708064E-2,1.8486765E1,3.561331E0,7.428484E2,6.605047E-3,3.9122033E-1,-3.3158604E-2,2.8747344E-2,2.4625055E-1,9.0323335E-1,1.5768761E-4,2.8441617E-1,6E-1,4.6883137E-3,1.8422962E9,-1.794445E-3,7.4069923E-1,1.0577107E-2,4E-1,5.21116E-3,9.9967265E-1,3.7965592E-4,-9.6071616E-4,5.5639967E-3,-5.6491857E-3,-1.7635692E-4,1.2357622E-2,2.6872172E-3,5.8913324E-3,-3.4359929E-3,-1.7902615E-3,-6.012828E-3,-4.3879445E-3,1.885474E-3,4.339933E-3,1.272759E-2,-1.825565E-3,-5.6483303E-3,-9.293548E-4,7.539284E-3,-3.0804724E-3,6.207435E-3,1.31337475E-2,-5.132628E-4,5.337781E-3,1.5382014E-2],"split_indices":[188,104,144,96,136,31,132,65,77,168,75,130,41,194,212,67,72,132,59,0,102,202,0,176,0,59,194,186,12,16,0,0,0,0,0,0,0,0,0,0,0,0,0,0,0,0,0,0,0,0,0,0,0,0,0],"split_type":[0,0,0,0,0,0,0,0,0,0,0,0,0,0,0,0,0,0,0,0,0,0,0,0,0,0,0,0,0,0,0,0,0,0,0,0,0,0,0,0,0,0,0,0,0,0,0,0,0,0,0,0,0,0,0],"sum_hessian":[2.923297E2,1.8334058E2,1.0898915E2,1.1259234E2,7.074824E1,4.923631E1,5.9752842E1,6.655038E1,4.6041958E1,4.2638973E1,2.810926E1,1.6393747E1,3.2842564E1,3.5824375E1,2.3928465E1,5.049965E1,1.6050732E1,2.2887358E1,2.3154598E1,6.06616E0,3.6572815E1,1.9484434E1,8.624826E0,1.1276675E1,5.117071E0,1.6063377E1,1.6779186E1,2.1283922E1,1.4540453E1,1.8118979E1,5.8094864E0,3.245581E1,1.8043839E1,1.0921162E1,5.1295695E0,1.3240959E1,9.6463995E0,1.09507885E1,1.220381E1,5.1132803E0,3.1459534E1,1.36997595E1,5.7846746E0,5.1545773E0,6.122098E0,5.1462603E0,1.0917118E1,1.1605212E1,5.173974E0,1.384819E1,7.435731E0,9.061652E0,5.478801E0,5.4854918E0,1.2633488E1],"tree_param":{"num_deleted":"0","num_feature":"220","num_nodes":"55","size_leaf_vector":"1"}},{"base_weights":[3.4095873E-3,3.149816E-1,-7.4398614E-2,6.649175E-1,-4.3603472E-2,-2.799614E-1,3.4589738E-2,1.0496475E0,-0E0,-2.669535E-1,7.1393945E-3,-3.9308295E-1,2.0067155E-1,1.4117408E-1,-2.206966E-1,3.5582238E-3,1.5709447E-2,6.0130795E-3,-5.225027E-3,1.1054083E-1,-5.721225E-3,4.407109E-3,-4.6961835E-1,-2.567848E-3,5.299191E-3,3.4860092E-1,-8.005408E-2,2.059343E-3,-3.3549175E-1,-5.1278383E-3,7.6372637E-3,-5.3764908E-3,-9.613326E-5,1.4278495E-3,7.4942783E-3,-3.9703883E-3,1.0852739E-3,-4.144171E-3,1.1651359E-3],"categories":[],"categories_nodes":[],"categories_segments":[],"categories_sizes":[],"default_left":[0,0,0,0,0,0,0,0,0,0,0,0,0,0,0,0,0,0,0,0,0,0,0,0,0,0,0,0,0,0,0,0,0,0,0,0,0,0,0],"id":18,"left_children":[1,3,5,7,9,11,13,15,17,19,-1,21,23,25,27,-1,-1,-1,-1,29,-1,-1,31,-1,-1,33,35,-1,37,-1,-1,-1,-1,-1,-1,-1,-1,-1,-1],"loss_changes":[7.2828193E0,7.630857E0,5.3969564E0,7.8412333E0,5.3019557E0,4.63069E0,4.2951083E0,6.265566E0,4.150036E0,2.9161944E0,0E0,4.5485563E0,2.6299255E0,5.1779604E0,2.3523467E0,0E0,0E0,0E0,0E0,5.132796E0,0E0,0E0,1.9074917E0,0E0,0E0,4.591823E0,3.3360717E0,0E0,1.4013433E0,0E0,0E0,0E0,0E0,0E0,0E0,0E0,0E0,0E0,0E0],"parents":[2147483647,0,0,1,1,2,2,3,3,4,4,5,5,6,6,7,7,8,8,9,9,11,11,12,12,13,13,14,14,19,19,22,22,25,25,26,26,28,28],"right_children":[2,4,6,8,10,12,14,16,18,20,-1,22,24,26,28,-1,-1,-1,-1,30,-1,-1,32,-1,-1,34,36,-1,38,-1,-1,-1,-1,-1,-1,-1,-1,-1,-1],"split_conditions":[6.2568176E-1,7.703138E-1,-7.6529463E-3,1.2412786E0,3.419041E-2,9.5001055E4,8.844602E4,2.8006864E-1,4.883962E0,3.479354E-1,7.1393945E-3,2.7353617E1,1.4556539E-1,3.700714E8,8E0,3.5582238E-3,1.5709447E-2,6.0130795E-3,-5.225027E-3,5.1390758E0,-5.721225E-3,4.407109E-3,1.2770791E-2,-2.567848E-3,5.299191E-3,2.6E1,3.3529484E-1,2.059343E-3,6.454879E6,-5.1278383E-3,7.6372637E-3,-5.3764908E-3,-9.613326E-5,1.4278495E-3,7.4942783E-3,-3.9703883E-3,1.0852739E-3,-4.144171E-3,1.1651359E-3],"split_indices":[60,56,199,195,121,190,190,104,77,163,0,34,211,61,88,0,0,0,0,38,0,0,85,0,0,91,78,0,58,0,0,0,0,0,0,0,0,0,0],"split_type":[0,0,0,0,0,0,0,0,0,0,0,0,0,0,0,0,0,0,0,0,0,0,0,0,0,0,0,0,0,0,0,0,0,0,0,0,0,0,0],"sum_hessian":[2.9745187E2,5.9086258E1,2.3836562E2,2.9612556E1,2.9473703E1,8.23653E1,1.560003E2,1.8401249E1,1.12113085E1,2.3364614E1,6.1090894E0,6.698901E1,1.5376287E1,1.1064411E2,4.5356197E1,8.698418E0,9.702831E0,5.133862E0,6.0774465E0,1.0583232E1,1.2781382E1,5.1221633E0,6.1866856E1,6.4002066E0,8.976081E0,5.703939E1,5.360472E1,9.263558E0,3.609264E1,5.447051E0,5.136181E0,5.3559666E1,8.307189E0,3.8748558E1,1.8290836E1,1.9780594E1,3.3824127E1,3.0986444E1,5.1061945E0],"tree_param":{"num_deleted":"0","num_feature":"220","num_nodes":"39","size_leaf_vector":"1"}},{"base_weights":[-2.9297162E-2,-2.4790224E-1,2.3541059E-1,2.5724968E-1,-2.9525152E-1,3.6394244E-1,-3.7938902E-1,7.990377E-3,-3.8235672E-3,-3.3175772E-1,5.454418E-3,6.2162423E-1,1.3276286E-3,-1.13786586E-1,-5.6951144E-3,-1.5627816E-2,-4.027464E-1,7.493814E-1,-4.017771E-3,4.5763838E-1,-2.9173607E-1,-3.4201178E-3,1.1674217E-3,4.6359817E-3,-3.0406483E-3,-4.4227494E-3,1.2655553E-3,9.702986E-3,2.1789982E-3,9.77535E-3,-6.733708E-4,-5.733906E-3,-2.0088797E-4],"categories":[],"categories_nodes":[],"categories_segments":[],"categories_sizes":[],"default_left":[0,0,0,0,0,0,0,0,0,0,0,0,0,0,0,0,0,0,0,0,0,0,0,0,0,0,0,0,0,0,0,0,0],"id":19,"left_children":[1,3,5,7,9,11,13,-1,-1,15,-1,17,19,21,-1,23,25,27,-1,29,31,-1,-1,-1,-1,-1,-1,-1,-1,-1,-1,-1,-1],"loss_changes":[1.7034292E1,3.9391613E0,1.0645294E1,5.261545E0,4.707135E0,1.0274643E1,1.0459814E0,0E0,0E0,3.1552687E0,0E0,8.770679E0,6.4518404E0,6.522666E-1,0E0,3.9227295E0,2.5201874E0,6.454941E0,0E0,5.329391E0,2.1610892E0,0E0,0E0,0E0,0E0,0E0,0E0,0E0,0E0,0E0,0E0,0E0,0E0],"parents":[2147483647,0,0,1,1,2,2,3,3,4,4,5,5,6,6,9,9,11,11,12,12,13,13,15,15,16,16,17,17,19,19,20,20],"right_children":[2,4,6,8,10,12,14,-1,-1,16,-1,18,20,22,-1,24,26,28,-1,30,32,-1,-1,-1,-1,-1,-1,-1,-1,-1,-1,-1,-1],"split_conditions":[2.7005178E-1,-7.474386E-2,4.1455984E-1,9.451703E-2,8E-1,1.0519872E0,-2.3408813E-2,7.990377E-3,-3.8235672E-3,-3.326467E-2,5.454418E-3,2.3873623E1,-1.3242461E-1,2.8840655E-1,-5.6951144E-3,3.8314063E-2,1.8986E1,7.2134775E-1,-4.017771E-3,2.1992409E-1,-1.418008E0,-3.4201178E-3,1.1674217E-3,4.6359817E-3,-3.0406483E-3,-4.4227494E-3,1.2655553E-3,9.702986E-3,2.1789982E-3,9.77535E-3,-6.733708E-4,-5.733906E-3,-2.0088797E-4],"split_indices":[108,115,188,67,202,216,193,0,0,120,0,27,145,105,0,145,195,82,0,79,38,0,0,0,0,0,0,0,0,0,0,0,0],"split_type":[0,0,0,0,0,0,0,0,0,0,0,0,0,0,0,0,0,0,0,0,0,0,0,0,0,0,0,0,0,0,0,0,0],"sum_hessian":[2.923424E2,1.6035599E2,1.3198642E2,1.3181583E1,1.471744E2,1.0963622E2,2.2350191E1,7.086198E0,6.095386E0,1.4174365E2,5.430741E0,6.351269E1,4.612353E1,1.0210506E1,1.2139685E1,2.6474602E1,1.1526906E2,5.678887E1,6.7238197E0,1.7951715E1,2.8171816E1,5.1058574E0,5.104649E0,9.588965E0,1.6885637E1,1.075877E2,7.6813602E0,3.9398552E1,1.7390322E1,8.682069E0,9.269648E0,1.310506E1,1.5066755E1],"tree_param":{"num_deleted":"0","num_feature":"220","num_nodes":"33","size_leaf_vector":"1"}},{"base_weights":[-1.3931446E-1,1.4939435E-1,-2.4698739E-1,8.7218344E-1,1.952533E-2,3.910038E-3,-2.684644E-1,2.2373511E-3,1.3447406E-2,-1.1707607E-1,5.376745E-1,-3.561553E-1,-1.1855092E-1,2.1405992E-1,-3.8248745E-1,9.889232E-3,-1.0419733E-4,4.7668695E-2,-3.907406E-1,1.7771646E-1,-2.7377555E-1,6.1263107E-3,-2.4650986E-3,7.3804543E-4,-5.5093043E-3,-5.048603E-3,6.0674655E-3,3.8880637E-4,-4.4422527E-3,-3.644831E-3,4.807775E-3,1.5560573E-3,-4.289546E-3],"categories":[],"categories_nodes":[],"categories_segments":[],"categories_sizes":[],"default_left":[0,0,0,0,0,0,0,0,0,0,0,0,0,0,0,0,0,0,0,0,0,0,0,0,0,0,0,0,0,0,0,0,0],"id":20,"left_children":[1,3,5,7,9,-1,11,-1,-1,13,15,17,19,21,23,-1,-1,25,27,29,31,-1,-1,-1,-1,-1,-1,-1,-1,-1,-1,-1,-1],"loss_changes":[9.389666E0,7.59216E0,3.1008806E0,3.3270636E0,5.10642E0,0E0,2.712183E0,0E0,0E0,5.072059E0,3.83629E0,1.9182053E0,3.763962E0,4.896221E0,2.5430722E0,0E0,0E0,3.7759728E0,2.892292E0,4.8023562E0,3.658257E0,0E0,0E0,0E0,0E0,0E0,0E0,0E0,0E0,0E0,0E0,0E0,0E0],"parents":[2147483647,0,0,1,1,2,2,3,3,4,4,6,6,9,9,10,10,11,11,12,12,13,13,14,14,17,17,18,18,19,19,20,20],"right_children":[2,4,6,8,10,-1,12,-1,-1,14,16,18,20,22,24,-1,-1,26,28,30,32,-1,-1,-1,-1,-1,-1,-1,-1,-1,-1,-1,-1],"split_conditions":[1.7E1,-1.2824829E-1,1.0375697E-6,9.0248483E-1,2.2932384E-2,3.910038E-3,1.5014473E-10,2.2373511E-3,1.3447406E-2,6E-1,5.9891613E-3,-1.6850956E1,3.938806E-10,6.795617E-1,-2.55869E-1,9.889232E-3,-1.0419733E-4,6E-1,2.0172873E-1,4.112812E0,1.8E2,6.1263107E-3,-2.4650986E-3,7.3804543E-4,-5.5093043E-3,-5.048603E-3,6.0674655E-3,3.8880637E-4,-4.4422527E-3,-3.644831E-3,4.807775E-3,1.5560573E-3,-4.289546E-3],"split_indices":[91,122,182,19,193,0,215,0,0,124,194,195,215,137,144,0,0,124,217,77,100,0,0,0,0,0,0,0,0,0,0,0,0],"split_type":[0,0,0,0,0,0,0,0,0,0,0,0,0,0,0,0,0,0,0,0,0,0,0,0,0,0,0,0,0,0,0,0,0],"sum_hessian":[2.9955234E2,8.10127E1,2.1853963E2,1.1351239E1,6.966146E1,6.405237E0,2.1213438E2,5.4954257E0,5.855814E0,5.5587734E1,1.4073727E1,1.3255464E2,7.957975E1,2.4650127E1,3.0937609E1,7.377747E0,6.6959796E0,1.019905E1,1.2235559E2,2.708851E1,5.249124E1,1.3153887E1,1.1496241E1,8.332912E0,2.2604696E1,5.0883822E0,5.1106677E0,1.3369232E1,1.0898636E2,9.521383E0,1.7567127E1,1.3762677E1,3.8728565E1],"tree_param":{"num_deleted":"0","num_feature":"220","num_nodes":"33","size_leaf_vector":"1"}},{"base_weights":[4.8413505E-3,6.681004E-2,-3.8509998E-1,9.880078E-3,4.0037546E-2,-4.833317E-1,6.228868E-4,-2.4358962E-1,1.0437396E-1,-5.6324997E-3,-1.1187336E-4,5.209785E-3,-3.815951E-1,5.914618E-1,6.919359E-2,-0E0,-5.0179893E-3,1.1607035E-2,-2.0235102E-3,-3.8391224E-3,1.2003826E-3],"categories":[],"categories_nodes":[],"categories_segments":[],"categories_sizes":[],"default_left":[0,0,0,0,0,0,0,0,0,0,0,0,0,0,0,0,0,0,0,0,0],"id":21,"left_children":[1,3,5,-1,7,9,-1,11,13,-1,-1,-1,15,17,19,-1,-1,-1,-1,-1,-1],"loss_changes":[7.187564E0,6.219419E0,1.8630385E0,0E0,4.606485E0,1.2082381E0,0E0,5.0988283E0,3.4271603E0,0E0,0E0,0E0,1.8508692E0,6.461997E0,4.4815497E0,0E0,0E0,0E0,0E0,0E0,0E0],"parents":[2147483647,0,0,1,1,2,2,4,4,5,5,7,7,8,8,12,12,13,13,14,14],"right_children":[2,4,6,-1,8,10,-1,12,14,-1,-1,-1,16,18,20,-1,-1,-1,-1,-1,-1],"split_conditions":[4.7991347E-2,1.5064334E-3,3.759595E-2,9.880078E-3,1.4250347E8,3.82264E6,6.228868E-4,1.262702E6,5E-1,-5.6324997E-3,-1.1187336E-4,5.209785E-3,1.4693047E-1,4.3708656E1,9.6596646E-1,-0E0,-5.0179893E-3,1.1607035E-2,-2.0235102E-3,-3.8391224E-3,1.2003826E-3],"split_indices":[109,83,7,0,178,184,0,4,218,0,0,0,13,33,63,0,0,0,0,0,0],"split_type":[0,0,0,0,0,0,0,0,0,0,0,0,0,0,0,0,0,0,0,0,0],"sum_hessian":[2.9669983E2,2.5695084E2,3.9748997E1,6.1373024E0,2.5081354E2,3.2710117E1,7.0388794E0,4.5571407E1,2.0524213E2,2.762873E1,5.0813847E0,6.4328613E0,3.9138546E1,1.25686655E1,1.9267346E2,9.576309E0,2.9562239E1,7.1239095E0,5.4447565E0,1.8579905E1,1.7409355E2],"tree_param":{"num_deleted":"0","num_feature":"220","num_nodes":"21","size_leaf_vector":"1"}},{"base_weights":[1.7134851E-1,3.281269E-2,4.6567643E-1,2.5097156E-1,-2.0406038E-1,1.8621878E-1,7.9629576E-1,-4.4143766E-1,3.6113662E-1,3.3274475E-2,-4.4388616E-1,3.1784397E-2,9.709586E-3,5.6718004E-1,1.4375987E-2,-5.509185E-3,-1.798861E-3,-1.2364048E-1,4.695986E-1,7.221832E-1,-2.4284382E-1,-5.5828816E-1,2.1529025E-3,3.8156214E-1,-2.9751858E-1,9.111824E-1,1.461764E-1,-4.572021E-3,3.0269627E-3,7.2876266E-3,8.5759483E-4,1.4092099E-2,1.8105297E-3,1.2208913E-3,-4.981702E-3,-1.7870662E-3,-6.0370355E-3,7.6483176E-3,-1.5516644E-3,7.9457974E-4,-5.7345573E-3,1.4007654E-2,3.4914548E-3,-2.6692657E-3,7.6488284E-3],"categories":[],"categories_nodes":[],"categories_segments":[],"categories_sizes":[],"default_left":[0,0,0,0,0,0,0,0,0,0,0,0,0,0,0,0,0,0,0,0,0,0,0,0,0,0,0,0,0,0,0,0,0,0,0,0,0,0,0,0,0,0,0,0,0],"id":22,"left_children":[1,3,5,7,9,11,13,15,17,19,21,23,-1,25,-1,-1,-1,27,29,31,33,35,-1,37,39,41,43,-1,-1,-1,-1,-1,-1,-1,-1,-1,-1,-1,-1,-1,-1,-1,-1,-1,-1],"loss_changes":[1.1925639E1,1.0456337E1,8.420897E0,8.194138E0,5.566977E0,6.20803E0,5.22908E0,2.5156474E-1,4.91107E0,9.6174555E0,3.8073149E0,5.287463E0,0E0,4.552065E0,0E0,0E0,0E0,2.625097E0,7.3429413E0,4.9712014E0,3.4434721E0,5.324364E-1,0E0,4.7737026E0,2.5409253E0,4.2568436E0,4.3938503E0,0E0,0E0,0E0,0E0,0E0,0E0,0E0,0E0,0E0,0E0,0E0,0E0,0E0,0E0,0E0,0E0,0E0,0E0],"parents":[2147483647,0,0,1,1,2,2,3,3,4,4,5,5,6,6,7,7,8,8,9,9,10,10,11,11,13,13,17,17,18,18,19,19,20,20,21,21,23,23,24,24,25,25,26,26],"right_children":[2,4,6,8,10,12,14,16,18,20,22,24,-1,26,-1,-1,-1,28,30,32,34,36,-1,38,40,42,44,-1,-1,-1,-1,-1,-1,-1,-1,-1,-1,-1,-1,-1,-1,-1,-1,-1,-1],"split_conditions":[7.873289E-1,2.719781E6,4.384113E-9,3.212533E-1,7.27103E-3,1.6277115E1,1.8986611E5,2.4065392E1,1.5E-1,-5.919951E0,2.5533015E-1,4.08451E-3,9.709586E-3,5.3844415E-2,1.4375987E-2,-5.509185E-3,-1.798861E-3,9.6972185E-1,1.0011145E0,-2.9142618E-3,3.6457985E1,2.0813486E-1,2.1529025E-3,-1.0243114E-2,4.4171536E-1,3.4E1,3.2E1,-4.572021E-3,3.0269627E-3,7.2876266E-3,8.5759483E-4,1.4092099E-2,1.8105297E-3,1.2208913E-3,-4.981702E-3,-1.7870662E-3,-6.0370355E-3,7.6483176E-3,-1.5516644E-3,7.9457974E-4,-5.7345573E-3,1.4007654E-2,3.4914548E-3,-2.6692657E-3,7.6488284E-3],"split_indices":[44,4,173,170,115,75,181,45,140,130,188,85,0,214,0,0,0,74,17,168,36,219,0,115,211,160,160,0,0,0,0,0,0,0,0,0,0,0,0,0,0,0,0,0,0],"split_type":[0,0,0,0,0,0,0,0,0,0,0,0,0,0,0,0,0,0,0,0,0,0,0,0,0,0,0,0,0,0,0,0,0,0,0,0,0,0,0,0,0,0,0,0,0],"sum_hessian":[2.9307187E2,2.002625E2,9.280937E1,1.0443815E2,9.582435E1,5.1307312E1,4.1502056E1,1.3798303E1,9.063985E1,4.8385593E1,4.7438755E1,4.384641E1,7.4609036E0,3.208097E1,9.421086E0,8.677411E0,5.1208916E0,1.6377542E1,7.426231E1,1.3485719E1,3.4899876E1,4.0682877E1,6.7558765E0,2.1332506E1,2.2513903E1,1.6883562E1,1.519741E1,9.279508E0,7.098035E0,4.363875E1,3.0623556E1,5.153617E0,8.332102E0,1.4419931E1,2.0479946E1,5.110041E0,3.5572838E1,1.2306179E1,9.026327E0,9.662688E0,1.2851214E1,8.130749E0,8.752813E0,9.356878E0,5.8405313E0],"tree_param":{"num_deleted":"0","num_feature":"220","num_nodes":"45","size_leaf_vector":"1"}},{"base_weights":[-6.5629967E-3,3.5200518E-1,-6.536646E-2,7.400763E-1,-1.6422302E-1,4.0028775E-1,-1.12318285E-1,1.0477654E0,-3.4245087E-3,-4.2686772E-1,4.3424233E-3,8.116677E-2,1.1187807E-2,3.069371E-1,-1.6421309E-1,1.3690864E0,1.122192E-3,-5.4091215E-3,-1.7908473E-3,-3.5238096E-3,5.78703E-3,-1.618577E-1,1.0230513E-2,3.430846E-1,-1.9386783E-1,5.3346185E-3,1.8181331E-2,2.0908073E-3,-5.4087644E-3,7.7803866E-3,-1.7925088E-3,1.0931012E-3,-2.4751197E-3],"categories":[],"categories_nodes":[],"categories_segments":[],"categories_sizes":[],"default_left":[0,0,0,0,0,0,0,0,0,0,0,0,0,0,0,0,0,0,0,0,0,0,0,0,0,0,0,0,0,0,0,0,0],"id":23,"left_children":[1,3,5,7,9,11,13,15,-1,17,-1,19,-1,21,23,25,-1,-1,-1,-1,-1,27,-1,29,31,-1,-1,-1,-1,-1,-1,-1,-1],"loss_changes":[6.3613434E0,8.685511E0,5.7116914E0,8.600359E0,3.1600537E0,5.265683E0,5.2060986E0,5.536207E0,0E0,2.2042727E-1,0E0,4.047493E0,0E0,9.083944E0,3.2455702E0,4.155792E0,0E0,0E0,0E0,0E0,0E0,2.491241E0,0E0,2.9030104E0,3.3165808E0,0E0,0E0,0E0,0E0,0E0,0E0,0E0,0E0],"parents":[2147483647,0,0,1,1,2,2,3,3,4,4,5,5,6,6,7,7,9,9,11,11,13,13,14,14,15,15,21,21,23,23,24,24],"right_children":[2,4,6,8,10,12,14,16,-1,18,-1,20,-1,22,24,26,-1,-1,-1,-1,-1,28,-1,30,32,-1,-1,-1,-1,-1,-1,-1,-1],"split_conditions":[6.088977E-2,1.7489219E0,3.363889E-1,3.304988E6,6.411981E-2,1.4586524E-2,2.182406E6,5.6E1,-3.4245087E-3,-4.4111833E-3,4.3424233E-3,2.4314273E-2,1.1187807E-2,-3.8998094E-3,1.6921996E-1,5.1713932E1,1.122192E-3,-5.4091215E-3,-1.7908473E-3,-3.5238096E-3,5.78703E-3,4.6629365E-16,1.0230513E-2,5E-1,1.9236194E0,5.3346185E-3,1.8181331E-2,2.0908073E-3,-5.4087644E-3,7.7803866E-3,-1.7925088E-3,1.0931012E-3,-2.4751197E-3],"split_indices":[163,195,170,184,207,193,58,160,0,136,0,112,0,115,103,68,0,0,0,0,0,186,0,202,77,0,0,0,0,0,0,0,0],"split_type":[0,0,0,0,0,0,0,0,0,0,0,0,0,0,0,0,0,0,0,0,0,0,0,0,0,0,0,0,0,0,0,0,0],"sum_hessian":[3.009674E2,4.1461185E1,2.595062E2,2.3531572E1,1.7929611E1,2.2884933E1,2.3662128E2,1.8420393E1,5.1111794E0,1.2776357E1,5.153255E0,1.6713655E1,6.171276E0,2.530907E1,2.1131221E2,1.3286675E1,5.1337175E0,7.6628656E0,5.1134906E0,8.979647E0,7.7340097E0,1.56792145E1,9.629855E0,1.0900367E1,2.0041183E2,5.486888E0,7.7997875E0,8.01733E0,7.6618843E0,5.785026E0,5.1153407E0,2.9693384E1,1.7071846E2],"tree_param":{"num_deleted":"0","num_feature":"220","num_nodes":"33","size_leaf_vector":"1"}},{"base_weights":[4.271321E-3,-2.7968147E-1,2.529643E-1,-3.7611476E-1,5.4951124E-2,5.0793594E-1,3.1015163E-2,2.0969402E-2,-4.3529767E-1,4.0445527E-1,-4.2497495E-1,4.0868375E-1,1.4548868E-2,1.7237632E-1,-4.7893086E-1,3.922781E-3,-2.984877E-3,-6.373023E-2,-5.012735E-1,-1.2905474E-1,1.1008558E-2,-1.7483605E-3,-5.4008844E-3,7.478525E-1,1.8500903E-1,7.576699E-3,7.9994485E-2,-1.7608412E-3,-5.710427E-3,4.454711E-3,-4.426143E-3,-4.1996056E-4,-5.327598E-3,2.7877942E-3,-5.1212576E-3,3.211884E-3,1.3990843E-2,7.4186926E-3,-8.906062E-4,8.475313E-3,-1.0145796E-4],"categories":[],"categories_nodes":[],"categories_segments":[],"categories_sizes":[],"default_left":[0,0,0,0,0,0,0,0,0,0,0,0,0,0,0,0,0,0,0,0,0,0,0,0,0,0,0,0,0,0,0,0,0,0,0,0,0,0,0,0,0],"id":24,"left_children":[1,3,5,7,9,11,13,15,17,19,21,23,-1,25,27,-1,-1,29,31,33,-1,-1,-1,35,37,-1,39,-1,-1,-1,-1,-1,-1,-1,-1,-1,-1,-1,-1,-1,-1],"loss_changes":[2.100344E1,4.5287952E0,8.914531E0,2.58947E0,5.4820967E0,6.1372013E0,6.2621217E0,1.8758749E0,2.2229633E0,7.2828746E0,2.2891688E-1,4.935467E0,0E0,3.5508175E0,3.4943342E-1,0E0,0E0,3.204935E0,1.0726337E0,1.9702766E0,0E0,0E0,0E0,6.7587414E0,6.6252365E0,0E0,4.263535E0,0E0,0E0,0E0,0E0,0E0,0E0,0E0,0E0,0E0,0E0,0E0,0E0,0E0,0E0],"parents":[2147483647,0,0,1,1,2,2,3,3,4,4,5,5,6,6,7,7,8,8,9,9,10,10,11,11,13,13,14,14,17,17,18,18,19,19,23,23,24,24,26,26],"right_children":[2,4,6,8,10,12,14,16,18,20,22,24,-1,26,28,-1,-1,30,32,34,-1,-1,-1,36,38,-1,40,-1,-1,-1,-1,-1,-1,-1,-1,-1,-1,-1,-1,-1,-1],"split_conditions":[2.5885782E-1,1.2665608E0,-4.225497E-2,-5.71665E-2,1.0126573E0,1.5513402E1,7.9670258E0,6.1714154E-4,1.7998302E-1,2.368591E6,3.5300267E-1,-1.8369701E-16,1.4548868E-2,9.611331E-1,2.1658357E-2,3.922781E-3,-2.984877E-3,-4.6877344E-3,-7.892718E-3,3.0324423E-1,1.1008558E-2,-1.7483605E-3,-5.4008844E-3,1.3885511E1,9.463878E-2,7.576699E-3,1.6766176E-6,-1.7608412E-3,-5.710427E-3,4.454711E-3,-4.426143E-3,-4.1996056E-4,-5.327598E-3,2.7877942E-3,-5.1212576E-3,3.211884E-3,1.3990843E-2,7.4186926E-3,-8.906062E-4,8.475313E-3,-1.0145796E-4],"split_indices":[108,59,144,115,63,76,132,6,106,183,196,99,0,63,121,0,0,193,167,211,0,0,0,206,43,0,182,0,0,0,0,0,0,0,0,0,0,0,0,0,0],"split_type":[0,0,0,0,0,0,0,0,0,0,0,0,0,0,0,0,0,0,0,0,0,0,0,0,0,0,0,0,0,0,0,0,0,0,0,0,0,0,0,0,0],"sum_hessian":[2.954633E2,1.3770625E2,1.5775703E2,1.0703588E2,3.0670364E1,7.260754E1,8.514949E1,1.374833E1,9.328755E1,1.7958084E1,1.2712279E1,6.711069E1,5.496853E0,6.734029E1,1.78092E1,6.397509E0,7.3508205E0,1.4591539E1,7.8696014E1,1.0548219E1,7.4098654E0,5.074039E0,7.638241E0,2.5560902E1,4.1549786E1,8.050655E0,5.9289635E1,5.0856843E0,1.2723516E1,6.037612E0,8.553927E0,5.402462E0,7.329355E1,5.114404E0,5.433815E0,1.6438038E1,9.122864E0,1.3261932E1,2.8287853E1,5.464752E0,5.3824883E1],"tree_param":{"num_deleted":"0","num_feature":"220","num_nodes":"41","size_leaf_vector":"1"}},{"base_weights":[-1.1913057E-1,-1.5252337E-1,7.3070186E-1,-2.7368858E-1,-3.795112E-3,1.0219153E-3,1.2232709E-2,2.4083142E-1,-3.3720553E-1,1.5920952E-1,-2.9505956E-1,8.606408E-3,-1.4150095E-1,2.7928778E-3,-3.7342083E-1,2.6498666E-1,-2.8233415E-1,-3.8933858E-1,2.6186774E-3,-5.1610745E-3,2.7636841E-3,5.193772E-4,-4.0913434E-3,1.041461E-2,1.6614631E-3,-5.560451E-3,1.500479E-3,2.7756535E-3,-4.9377265E-3],"categories":[],"categories_nodes":[],"categories_segments":[],"categories_sizes":[],"default_left":[0,0,0,0,0,0,0,0,0,0,0,0,0,0,0,0,0,0,0,0,0,0,0,0,0,0,0,0,0],"id":25,"left_children":[1,3,5,7,9,-1,-1,11,13,15,17,-1,19,-1,21,23,25,27,-1,-1,-1,-1,-1,-1,-1,-1,-1,-1,-1],"loss_changes":[8.582601E0,5.1994324E0,3.278658E0,5.3031483E0,6.3100967E0,0E0,0E0,4.4440246E0,3.2964725E0,4.034985E0,2.6247134E0,0E0,2.0218966E0,0E0,2.1112099E0,5.0118995E0,2.099916E0,3.0447702E0,0E0,0E0,0E0,0E0,0E0,0E0,0E0,0E0,0E0,0E0,0E0],"parents":[2147483647,0,0,1,1,2,2,3,3,4,4,7,7,8,8,9,9,10,10,12,12,14,14,15,15,16,16,17,17],"right_children":[2,4,6,8,10,-1,-1,12,14,16,18,-1,20,-1,22,24,26,28,-1,-1,-1,-1,-1,-1,-1,-1,-1,-1,-1],"split_conditions":[1.9760182E-2,2.1558214E1,4.245545E2,1.3679547E-6,6.779898E-3,1.0219153E-3,1.2232709E-2,4.059182E-1,1.7577969E-1,3.6676458E-1,1.9220802E5,8.606408E-3,2.5639616E5,2.7928778E-3,3.7641164E7,-1.1855083E-2,3.149309E-1,-2.6726136E-1,2.6186774E-3,-5.1610745E-3,2.7636841E-3,5.193772E-4,-4.0913434E-3,1.041461E-2,1.6614631E-3,-5.560451E-3,1.500479E-3,2.7756535E-3,-4.9377265E-3],"split_indices":[113,73,0,182,20,0,0,13,108,102,175,0,175,0,62,167,104,144,0,0,0,0,0,0,0,0,0,0,0],"split_type":[0,0,0,0,0,0,0,0,0,0,0,0,0,0,0,0,0,0,0,0,0,0,0,0,0,0,0,0,0],"sum_hessian":[2.9954556E2,2.8912314E2,1.0422437E1,1.584915E2,1.3063164E2,5.199034E0,5.223402E0,1.6935907E1,1.4155559E2,8.3827866E1,4.6803772E1,6.083808E0,1.08521E1,7.328549E0,1.3422704E2,6.8132286E1,1.5695576E1,4.0438625E1,6.3651485E0,5.7244925E0,5.1276073E0,1.0144828E1,1.24082214E2,6.5023456E0,6.1629944E1,9.577806E0,6.1177692E0,5.121021E0,3.5317604E1],"tree_param":{"num_deleted":"0","num_feature":"220","num_nodes":"29","size_leaf_vector":"1"}},{"base_weights":[1.3117882E-2,1.9124123E-1,-1.7380278E-1,1.1888073E-1,1.295696E-2,-2.405485E-1,2.3973842E-1,4.2550176E-1,-1.000051E-3,-5.239921E-2,-3.767303E-1,-5.0664265E-3,5.324808E-1,6.480939E-1,-2.0349039E-1,-3.608902E-1,1.3703907E-1,-1.7125256E-1,7.8236675E-3,-5.297141E-1,-1.2207998E-2,6.0836703E-4,9.2425365E-3,1.2061316E-2,2.466736E-3,-5.0677555E-3,1.1820212E-3,-4.7035017E-3,1.0974263E-3,-1.1368624E-3,3.6637725E-3,4.3004337E-3,-3.233668E-3,-5.854928E-3,-1.269882E-4,-4.1160393E-3,4.61773E-3],"categories":[],"categories_nodes":[],"categories_segments":[],"categories_sizes":[],"default_left":[0,0,0,0,0,0,0,0,0,0,0,0,0,0,0,0,0,0,0,0,0,0,0,0,0,0,0,0,0,0,0,0,0,0,0,0,0],"id":26,"left_children":[1,3,5,7,-1,9,11,13,15,17,19,-1,21,23,25,27,29,31,-1,33,35,-1,-1,-1,-1,-1,-1,-1,-1,-1,-1,-1,-1,-1,-1,-1,-1],"loss_changes":[9.81839E0,1.1789135E1,4.0222297E0,5.3029165E0,0E0,3.1241899E0,4.697571E0,5.8409605E0,5.2205787E0,5.4000883E0,3.9368105E0,0E0,2.641139E0,6.331192E0,1.1933405E0,1.5923352E0,4.404352E0,4.51207E0,0E0,1.3826084E0,4.4269347E0,0E0,0E0,0E0,0E0,0E0,0E0,0E0,0E0,0E0,0E0,0E0,0E0,0E0,0E0,0E0,0E0],"parents":[2147483647,0,0,1,1,2,2,3,3,5,5,6,6,7,7,8,8,9,9,10,10,12,12,13,13,14,14,15,15,16,16,17,17,19,19,20,20],"right_children":[2,4,6,8,-1,10,12,14,16,18,20,-1,22,24,26,28,30,32,-1,34,36,-1,-1,-1,-1,-1,-1,-1,-1,-1,-1,-1,-1,-1,-1,-1,-1],"split_conditions":[7.209451E-4,4.7041755E-2,1.0516373E0,-3.176851E-4,1.295696E-2,-5.3197932E-3,4.2572972E-1,1.0777614E0,2.8453147E0,2.5658264E0,1.0651727E0,-5.0664265E-3,3.847636E-3,4.3980266E4,-8.555185E0,6.699992E-1,2.8542172E6,1.413219E0,7.8236675E-3,1.2257381E-9,-5.6275133E-2,6.0836703E-4,9.2425365E-3,1.2061316E-2,2.466736E-3,-5.0677555E-3,1.1820212E-3,-4.7035017E-3,1.0974263E-3,-1.1368624E-3,3.6637725E-3,4.3004337E-3,-3.233668E-3,-5.854928E-3,-1.269882E-4,-4.1160393E-3,4.61773E-3],"split_indices":[210,207,18,171,0,193,208,208,76,170,216,0,12,190,132,78,58,76,0,215,145,0,0,0,0,0,0,0,0,0,0,0,0,0,0,0,0],"split_type":[0,0,0,0,0,0,0,0,0,0,0,0,0,0,0,0,0,0,0,0,0,0,0,0,0,0,0,0,0,0,0,0,0,0,0,0,0],"sum_hessian":[2.928407E2,1.5021109E2,1.4262961E2,1.4209935E2,8.111736E0,1.233767E2,1.9252918E1,3.9459057E1,1.0264029E2,5.26938E1,7.068289E1,5.1218596E0,1.4131059E1,2.9240013E1,1.0219044E1,2.820787E1,7.443242E1,4.6927013E1,5.766789E0,4.9275356E1,2.140754E1,7.0519524E0,7.079106E0,1.12905655E1,1.7949448E1,5.1238737E0,5.09517E0,2.305809E1,5.1497793E0,3.5590813E1,3.884161E1,8.972983E0,3.795403E1,4.418279E1,5.092567E0,1.1803774E1,9.603765E0],"tree_param":{"num_deleted":"0","num_feature":"220","num_nodes":"37","size_leaf_vector":"1"}},{"base_weights":[1.5666856E-1,2.2631977E-2,4.2899942E-1,1.72583E-1,-3.3063233E-1,-3.0813256E-1,5.538213E-1,3.048532E-1,-1.9193563E-1,-2.9694157E-2,-5.450128E-1,1.0586781E-3,-5.50853E-3,7.801651E-1,2.0956518E-1,4.4690326E-2,4.9144644E-1,2.563874E-1,-4.3914306E-1,5.584607E-3,-2.7709597E-1,-2.6716727E-3,-5.9702042E-3,5.165224E-4,8.9579356E-1,-7.916323E-2,7.160276E-1,-8.338899E-4,8.440751E-3,1.2001784E-2,2.7415957E-3,7.9235975E-3,-3.8096386E-3,-5.8940207E-3,1.1061162E-3,-4.972733E-3,1.9707626E-3,1.01282345E-2,1.441541E-3,-4.8206244E-3,3.1101734E-3,1.21947285E-2,-2.4074344E-4],"categories":[],"categories_nodes":[],"categories_segments":[],"categories_sizes":[],"default_left":[0,0,0,0,0,0,0,0,0,0,0,0,0,0,0,0,0,0,0,0,0,0,0,0,0,0,0,0,0,0,0,0,0,0,0,0,0,0,0,0,0,0,0],"id":27,"left_children":[1,3,5,7,9,11,13,15,17,19,21,-1,-1,23,25,27,29,31,33,-1,35,-1,-1,-1,37,39,41,-1,-1,-1,-1,-1,-1,-1,-1,-1,-1,-1,-1,-1,-1,-1,-1],"loss_changes":[1.0924318E1,1.0787907E1,9.295774E0,6.977819E0,3.8358054E0,1.5950032E0,6.365299E0,5.056362E0,4.404365E0,3.9769886E0,2.6180077E-1,0E0,0E0,4.1361217E0,5.2798376E0,4.8026457E0,8.954136E0,5.191203E0,2.2085266E0,0E0,2.1549077E0,0E0,0E0,0E0,3.5771027E0,3.821513E0,5.0062737E0,0E0,0E0,0E0,0E0,0E0,0E0,0E0,0E0,0E0,0E0,0E0,0E0,0E0,0E0,0E0,0E0],"parents":[2147483647,0,0,1,1,2,2,3,3,4,4,5,5,6,6,7,7,8,8,9,9,10,10,13,13,14,14,15,15,16,16,17,17,18,18,20,20,24,24,25,25,26,26],"right_children":[2,4,6,8,10,12,14,16,18,20,22,-1,-1,24,26,28,30,32,34,-1,36,-1,-1,-1,38,40,42,-1,-1,-1,-1,-1,-1,-1,-1,-1,-1,-1,-1,-1,-1,-1,-1],"split_conditions":[7.873289E-1,3.028334E-1,-5.033547E-2,6.573975E-3,1E0,-1.7351598E-2,4.3041995E-3,-4.788204E-3,1.5E2,3.230711E6,3.7728813E-1,1.0586781E-3,-5.50853E-3,-5.148119E-1,4.4211816E-9,1.9280123E1,3.1756006E-2,1.686531E6,4.1900203E-2,5.584607E-3,1.1301978E-2,-2.6716727E-3,-5.9702042E-3,5.165224E-4,4.519608E9,2.7233644E0,3.3333334E-1,-8.338899E-4,8.440751E-3,1.2001784E-2,2.7415957E-3,7.9235975E-3,-3.8096386E-3,-5.8940207E-3,1.1061162E-3,-4.972733E-3,1.9707626E-3,1.01282345E-2,1.441541E-3,-4.8206244E-3,3.1101734E-3,1.21947285E-2,-2.4074344E-4],"split_indices":[44,107,193,21,135,84,85,120,100,4,208,0,0,65,173,75,143,183,198,0,194,0,0,0,176,129,81,0,0,0,0,0,0,0,0,0,0,0,0,0,0,0,0],"split_type":[0,0,0,0,0,0,0,0,0,0,0,0,0,0,0,0,0,0,0,0,0,0,0,0,0,0,0,0,0,0,0,0,0,0,0,0,0,0,0,0,0,0,0],"sum_hessian":[2.9978085E2,2.0187282E2,9.790804E1,1.4227536E2,5.9597458E1,1.3849649E1,8.405839E1,1.0471589E2,3.755947E1,2.5461151E1,3.413631E1,5.1748714E0,8.674779E0,4.9775173E1,3.4283215E1,4.4477425E1,6.023847E1,1.3192521E1,2.436695E1,7.04689E0,1.841426E1,6.6530347E0,2.7483274E1,7.134714E0,4.264046E1,2.224681E1,1.2036405E1,3.899943E1,5.477994E0,1.2965326E1,4.727314E1,7.119316E0,6.073205E0,1.9222761E1,5.144187E0,1.2685872E1,5.7283883E0,3.648001E1,6.16045E0,1.09552555E1,1.1291556E1,6.8584414E0,5.1779633E0],"tree_param":{"num_deleted":"0","num_feature":"220","num_nodes":"43","size_leaf_vector":"1"}},{"base_weights":[-4.45007E-2,3.4736595E-1,-1.1758347E-1,9.49684E-1,5.0892405E-2,2.4744377E-1,-1.7771819E-1,1.3708447E-2,1.098745E-3,4.2051458E-1,-2.8906E-1,9.722254E-3,-2.83891E-3,9.672871E-2,-2.2936754E-1,-1.1963726E-3,1.0547158E-2,-5.5221873E-3,5.93435E-4,2.9868266E-1,-4.0048796E-1,-2.6558453E-1,6.741607E-1,4.283485E-3,-2.6723343E-1,7.290965E-3,-3.6842935E-3,-5.2215084E-3,-1.7734466E-3,2.7701545E-3,-4.5853257E-3,1.5697372E-3,1.2511475E-2,-2.9953707E-3,3.5528843E-3],"categories":[],"categories_nodes":[],"categories_segments":[],"categories_sizes":[],"default_left":[0,0,0,0,0,0,0,0,0,0,0,0,0,0,0,0,0,0,0,0,0,0,0,0,0,0,0,0,0,0,0,0,0,0,0],"id":28,"left_children":[1,3,5,7,9,11,13,-1,-1,15,17,-1,19,21,23,-1,-1,-1,-1,25,27,29,31,-1,33,-1,-1,-1,-1,-1,-1,-1,-1,-1,-1],"loss_changes":[8.343402E0,8.018174E0,5.436387E0,4.977523E0,4.132422E0,6.4439216E0,3.0405931E0,0E0,0E0,5.629071E0,1.6429585E0,0E0,3.3540237E0,7.3278956E0,4.557045E0,0E0,0E0,0E0,0E0,4.8195496E0,1.6776633E-1,2.3947473E0,3.6877332E0,0E0,3.5203314E0,0E0,0E0,0E0,0E0,0E0,0E0,0E0,0E0,0E0,0E0],"parents":[2147483647,0,0,1,1,2,2,3,3,4,4,5,5,6,6,9,9,10,10,12,12,13,13,14,14,19,19,20,20,21,21,22,22,24,24],"right_children":[2,4,6,8,10,12,14,-1,-1,16,18,-1,20,22,24,-1,-1,-1,-1,26,28,30,32,-1,34,-1,-1,-1,-1,-1,-1,-1,-1,-1,-1],"split_conditions":[1.660433E6,-7.596491E-3,6.4882175E-3,1.3646428E1,4.8490644E0,2.7689478E0,1.9236194E0,1.3708447E-2,1.098745E-3,1.972587E-3,1.076032E3,9.722254E-3,3.8897616E-1,2.7811074E0,1.2945564E-1,-1.1963726E-3,1.0547158E-2,-5.5221873E-3,5.93435E-4,3.204488E-1,3.181925E8,-8.078817E-3,3.028334E-1,4.283485E-3,8.485213E-1,7.290965E-3,-3.6842935E-3,-5.2215084E-3,-1.7734466E-3,2.7701545E-3,-4.5853257E-3,1.5697372E-3,1.2511475E-2,-2.9953707E-3,3.5528843E-3],"split_indices":[4,20,113,206,75,28,77,0,0,194,24,0,67,129,101,0,0,0,0,129,61,5,107,0,219,0,0,0,0,0,0,0,0,0,0],"split_type":[0,0,0,0,0,0,0,0,0,0,0,0,0,0,0,0,0,0,0,0,0,0,0,0,0,0,0,0,0,0,0,0,0,0,0],"sum_hessian":[2.897093E2,4.473277E1,2.4497653E2,1.3917433E1,3.0815336E1,3.3973606E1,2.1100291E2,8.768611E0,5.148822E0,1.4790813E1,1.6024523E1,8.082607E0,2.5891E1,3.2975185E1,1.7802773E2,8.340692E0,6.450122E0,8.959325E0,7.065198E0,1.4723871E1,1.11671295E1,2.0487226E1,1.2487957E1,8.986282E0,1.6904144E2,8.984286E0,5.7395844E0,6.0696774E0,5.097452E0,5.123939E0,1.5363288E1,7.347413E0,5.140544E0,1.6134831E2,7.6931453E0],"tree_param":{"num_deleted":"0","num_feature":"220","num_nodes":"35","size_leaf_vector":"1"}},{"base_weights":[-3.676121E-2,-2.616374E-1,1.5734826E-1,-8.707341E-2,-4.7897956E-1,3.4287873E-1,-7.147936E-2,-2.1887271E-1,4.654324E-1,-8.950005E-5,-5.197693E-1,-1.9786055E-1,4.5541355E-1,7.772812E-3,-2.239653E-1,5.1863496E-3,-3.6719915E-1,1.0982837E-2,-2.72121E-3,-5.686998E-1,-9.514512E-5,-5.4120193E-3,1.8347901E-3,-3.5699927E-3,5.270882E-1,-3.4528616E-1,4.2960974E-3,1.6040546E-3,-4.5620278E-3,-6.057521E-3,-2.9406014E-3,9.918323E-3,3.2344505E-3,-4.8542884E-3,1.3513371E-3],"categories":[],"categories_nodes":[],"categories_segments":[],"categories_sizes":[],"default_left":[0,0,0,0,0,0,0,0,0,0,0,0,0,0,0,0,0,0,0,0,0,0,0,0,0,0,0,0,0,0,0,0,0,0,0],"id":29,"left_children":[1,3,5,7,9,11,13,15,17,-1,19,21,23,-1,25,-1,27,-1,-1,29,-1,-1,-1,-1,31,33,-1,-1,-1,-1,-1,-1,-1,-1,-1],"loss_changes":[1.2946264E1,5.1173687E0,6.7991567E0,5.7364717E0,1.1073046E0,5.4821033E0,9.4049225E0,7.129756E0,7.449198E0,0E0,1.3272018E0,2.1952572E0,4.482132E0,0E0,5.032154E0,0E0,2.6210227E0,0E0,0E0,2.4702072E-1,0E0,0E0,0E0,0E0,5.984478E0,3.6502948E0,0E0,0E0,0E0,0E0,0E0,0E0,0E0,0E0,0E0],"parents":[2147483647,0,0,1,1,2,2,3,3,4,4,5,5,6,6,7,7,8,8,10,10,11,11,12,12,14,14,16,16,19,19,24,24,25,25],"right_children":[2,4,6,8,10,12,14,16,18,-1,20,22,24,-1,26,-1,28,-1,-1,30,-1,-1,-1,-1,32,34,-1,-1,-1,-1,-1,-1,-1,-1,-1],"split_conditions":[2.5885782E-1,1.0066754E0,4.796101E-2,1.2698863E0,3.1836886E-9,2.9164162E-1,9.633766E-1,-5.71665E-2,6.9175465E-3,-8.950005E-5,2.434874E6,-1.5947662E-2,2.3383615E6,7.772812E-3,1.0266238E5,5.1863496E-3,1.8697688E-1,1.0982837E-2,-2.72121E-3,5.1329914E-2,-9.514512E-5,-5.4120193E-3,1.8347901E-3,-3.5699927E-3,4.04427E-1,4E1,4.2960974E-3,1.6040546E-3,-4.5620278E-3,-6.057521E-3,-2.9406014E-3,9.918323E-3,3.2344505E-3,-4.8542884E-3,1.3513371E-3],"split_indices":[108,63,144,59,173,196,63,115,113,0,184,199,57,0,189,0,108,0,0,168,0,0,0,0,196,91,0,0,0,0,0,0,0,0,0],"split_type":[0,0,0,0,0,0,0,0,0,0,0,0,0,0,0,0,0,0,0,0,0,0,0,0,0,0,0,0,0,0,0,0,0,0,0],"sum_hessian":[2.9440643E2,1.3647137E2,1.5793506E2,7.671582E1,5.9755558E1,8.7185104E1,7.074996E1,6.25738E1,1.4142023E1,5.064713E0,5.4690845E1,1.4735061E1,7.245004E1,1.0051051E1,6.069891E1,9.946603E0,5.2627197E1,7.420996E0,6.7210274E0,4.9621872E1,5.068973E0,7.671237E0,7.063823E0,5.4378195E0,6.701222E1,5.1722534E1,8.976373E0,7.318438E0,4.5308758E1,4.2339943E1,7.2819285E0,1.9088324E1,4.79239E1,4.0195023E1,1.1527514E1],"tree_param":{"num_deleted":"0","num_feature":"220","num_nodes":"35","size_leaf_vector":"1"}},{"base_weights":[-1.7880815E-1,5.767163E-1,-2.365219E-1,2.2295788E-1,1.3653476E-2,-3.8705495E-1,-1.2986714E-1,6.629736E-3,-2.0105578E-3,-1.06191196E-1,-4.9176484E-1,5.039167E-3,-1.6391501E-1,3.86652E-1,-4.3620977E-1,-6.421942E-5,-5.331633E-1,-4.226994E-1,-6.285916E-2,-2.523047E-3,1.0119443E-2,-5.7393196E-3,-9.864798E-5,-1.7236643E-3,-5.80905E-3,-5.4352605E-3,7.889301E-5,8.6559355E-3,-1.3661664E-3],"categories":[],"categories_nodes":[],"categories_segments":[],"categories_sizes":[],"default_left":[0,0,0,0,0,0,0,0,0,0,0,0,0,0,0,0,0,0,0,0,0,0,0,0,0,0,0,0,0],"id":30,"left_children":[1,3,5,7,-1,9,11,-1,-1,13,15,-1,17,19,21,-1,23,25,27,-1,-1,-1,-1,-1,-1,-1,-1,-1,-1],"loss_changes":[1.3011811E1,5.4452586E0,4.3273287E0,3.1465538E0,0E0,3.2263107E0,3.5739157E0,0E0,0E0,5.437113E0,1.5932465E0,0E0,4.0030527E0,5.6800556E0,1.1087685E0,0E0,1.1249123E0,2.3127785E0,7.824828E0,0E0,0E0,0E0,0E0,0E0,0E0,0E0,0E0,0E0,0E0],"parents":[2147483647,0,0,1,1,2,2,3,3,5,5,6,6,9,9,10,10,12,12,13,13,14,14,16,16,17,17,18,18],"right_children":[2,4,6,8,-1,10,12,-1,-1,14,16,-1,18,20,22,-1,24,26,28,-1,-1,-1,-1,-1,-1,-1,-1,-1,-1],"split_conditions":[-1.4768908E1,4.94707E-2,2.4457144E-2,6.2103434E0,1.3653476E-2,3.1085914E-1,5E0,6.629736E-3,-2.0105578E-3,4.2978777E-3,8.267091E-3,5.039167E-3,-1.5818248E-2,2.942911E-1,2.2979197E5,-6.421942E-5,-5.370541E0,4.81148E-2,9.9224555E-1,-2.523047E-3,1.0119443E-2,-5.7393196E-3,-9.864798E-5,-1.7236643E-3,-5.80905E-3,-5.4352605E-3,7.889301E-5,8.6559355E-3,-1.3661664E-3],"split_indices":[38,148,112,206,0,217,91,0,0,8,109,0,116,80,181,0,37,109,16,0,0,0,0,0,0,0,0,0,0],"split_type":[0,0,0,0,0,0,0,0,0,0,0,0,0,0,0,0,0,0,0,0,0,0,0,0,0,0,0,0,0],"sum_hessian":[2.950595E2,2.0178577E1,2.7488095E2,1.4903011E1,5.275567E0,1.1251297E2,1.6236798E2,7.1526737E0,7.750337E0,3.1361383E1,8.115158E1,7.424648E0,1.5494333E2,1.23875065E1,1.8973877E1,6.658624E0,7.449296E1,4.2341812E1,1.1260152E2,6.342738E0,6.044769E0,1.3902297E1,5.0715804E0,9.488771E0,6.500419E1,3.304037E1,9.301441E0,7.397021E0,1.052045E2],"tree_param":{"num_deleted":"0","num_feature":"220","num_nodes":"29","size_leaf_vector":"1"}},{"base_weights":[-2.4739413E-2,1.6115957E-1,-1.5016949E-1,7.232126E-1,6.0807597E-2,1.8770735E-1,-2.1712862E-1,-6.16701E-4,1.2755681E-2,-3.0138224E-1,1.8661371E-1,9.619808E-3,-1.6975576E-1,-2.566689E-1,6.9561815E-3,1.2884712E-3,-4.8300248E-1,7.589823E-3,7.04643E-1,-5.0095343E-3,3.9475663E-3,-1.2224705E-1,-4.5658854E-1,-1.7341344E-3,-5.73152E-3,-1.7881322E-3,3.71938E-3,-1.0161568E-4,1.0741818E-2,-2.7136116E-3,2.5203126E-3,2.9408596E-3,-5.522748E-3],"categories":[],"categories_nodes":[],"categories_segments":[],"categories_sizes":[],"default_left":[0,0,0,0,0,0,0,0,0,0,0,0,0,0,0,0,0,0,0,0,0,0,0,0,0,0,0,0,0,0,0,0,0],"id":31,"left_children":[1,3,5,7,9,11,13,-1,-1,15,17,-1,19,21,-1,-1,23,25,27,-1,-1,29,31,-1,-1,-1,-1,-1,-1,-1,-1,-1,-1],"loss_changes":[7.043448E0,6.728427E0,4.129968E0,8.072259E0,4.7974143E0,8.590879E0,5.6006646E0,0E0,0E0,2.2126215E0,7.1790247E0,0E0,4.208979E0,3.809867E0,0E0,0E0,3.6757421E-1,4.1130238E0,5.3841705E0,0E0,0E0,5.0355377E0,4.3568354E0,0E0,0E0,0E0,0E0,0E0,0E0,0E0,0E0,0E0,0E0],"parents":[2147483647,0,0,1,1,2,2,3,3,4,4,5,5,6,6,9,9,10,10,12,12,13,13,16,16,17,17,18,18,21,21,22,22],"right_children":[2,4,6,8,10,12,14,-1,-1,16,18,-1,20,22,-1,-1,24,26,28,-1,-1,30,32,-1,-1,-1,-1,-1,-1,-1,-1,-1,-1],"split_conditions":[1.1502415E-7,2.1107653E-1,-9.55122E-3,1.1023029E-2,7.051758E2,2.5278658E-1,7.012185E-1,-6.16701E-4,1.2755681E-2,1.3319899E1,4.6497784E-3,9.619808E-3,9.826888E-1,1.5030971E-1,6.9561815E-3,1.2884712E-3,4.5821127E-2,2.9231604E1,7.9670484E4,-5.0095343E-3,3.9475663E-3,9.432911E-1,-7.1891025E-2,-1.7341344E-3,-5.73152E-3,-1.7881322E-3,3.71938E-3,-1.0161568E-4,1.0741818E-2,-2.7136116E-3,2.5203126E-3,2.9408596E-3,-5.522748E-3],"split_indices":[12,104,169,109,0,108,79,0,0,73,194,0,17,67,0,0,148,30,175,0,0,60,122,0,0,0,0,0,0,0,0,0,0],"split_type":[0,0,0,0,0,0,0,0,0,0,0,0,0,0,0,0,0,0,0,0,0,0,0,0,0,0,0,0,0,0,0,0,0],"sum_hessian":[3.0007855E2,1.2046143E2,1.7961711E2,1.7158209E1,1.0330322E2,2.916306E1,1.5045406E2,7.3794756E0,9.778733E0,2.6067022E1,7.72362E1,8.765468E0,2.0397593E1,1.4500095E2,5.4530997E0,7.6604967E0,1.8406527E1,5.8297176E1,1.8939022E1,1.3037983E1,7.359609E0,8.796607E1,5.7034878E1,5.060564E0,1.3345962E1,3.8721664E1,1.9575512E1,6.6935263E0,1.2245496E1,6.3292297E1,2.4673775E1,6.0955734E0,5.0939304E1],"tree_param":{"num_deleted":"0","num_feature":"220","num_nodes":"33","size_leaf_vector":"1"}},{"base_weights":[1.4737596E-1,-2.0263465E-1,2.2420284E-1,5.333927E-3,-2.991394E-1,1.5344584E-1,4.9198526E-1,1.0623904E-1,-5.0747573E-1,3.9144155E-1,7.200839E-3,1.4581469E-1,8.3739084E-1,-4.2070504E-3,5.620155E-3,-5.9413337E-3,-1.3940613E-3,8.1155086E-1,1.6737936E-1,1.221818E-1,-2.565232E-1,-1.7709638E-1,6.7514977E-3,1.267082E0,2.9723507E-1,-5.111713E-4,1.0566682E-2,6.3803135E-3,-5.5586186E-4,6.0237315E-3,-0E0,-7.28655E-5,-5.795316E-3,4.222914E-3,-4.8206733E-3,5.515255E-3,1.7920902E-2,7.5286916E-3,-2.1243512E-3],"categories":[],"categories_nodes":[],"categories_segments":[],"categories_sizes":[],"default_left":[0,0,0,0,0,0,0,0,0,0,0,0,0,0,0,0,0,0,0,0,0,0,0,0,0,0,0,0,0,0,0,0,0,0,0,0,0,0,0],"id":32,"left_children":[1,3,5,-1,7,9,11,13,15,17,19,21,23,-1,-1,-1,-1,25,27,29,31,33,-1,35,37,-1,-1,-1,-1,-1,-1,-1,-1,-1,-1,-1,-1,-1,-1],"loss_changes":[8.056669E0,3.9646676E0,4.501026E0,0E0,4.1827602E0,6.761735E0,5.811389E0,4.3571224E0,8.745222E-1,6.7440624E0,3.728519E0,4.7076225E0,5.2452087E0,0E0,0E0,0E0,0E0,5.518997E0,5.315448E0,5.065258E0,2.9328372E0,3.347354E0,0E0,3.832304E0,3.102736E0,0E0,0E0,0E0,0E0,0E0,0E0,0E0,0E0,0E0,0E0,0E0,0E0,0E0,0E0],"parents":[2147483647,0,0,1,1,2,2,4,4,5,5,6,6,7,7,8,8,9,9,10,10,11,11,12,12,17,17,18,18,19,19,20,20,21,21,23,23,24,24],"right_children":[2,4,6,-1,8,10,12,14,16,18,20,22,24,-1,-1,-1,-1,26,28,30,32,34,-1,36,38,-1,-1,-1,-1,-1,-1,-1,-1,-1,-1,-1,-1,-1,-1],"split_conditions":[-8.2928786E-4,1.392005E1,9.75E-1,5.333927E-3,3.0071572E6,-2.7523201E-3,4.2439643E-9,-3.577082E-2,7.310708E-2,2.9631078E0,1.8481219E5,5.044667E6,4.5713957E-9,-4.2070504E-3,5.620155E-3,-5.9413337E-3,-1.3940613E-3,-3.351202E-2,-3.0405104E-2,9.464984E-1,2.167398E-6,1.0433565E0,6.7514977E-3,4.0773157E-2,3.862891E4,-5.111713E-4,1.0566682E-2,6.3803135E-3,-5.5586186E-4,6.0237315E-3,-0E0,-7.28655E-5,-5.795316E-3,4.222914E-3,-4.8206733E-3,5.515255E-3,1.7920902E-2,7.5286916E-3,-2.1243512E-3],"split_indices":[171,73,140,0,57,134,173,67,199,77,181,183,172,0,0,0,0,115,115,203,182,19,0,207,189,0,0,0,0,0,0,0,0,0,0,0,0,0,0],"split_type":[0,0,0,0,0,0,0,0,0,0,0,0,0,0,0,0,0,0,0,0,0,0,0,0,0,0,0,0,0,0,0,0,0,0,0,0,0,0,0],"sum_hessian":[2.9684366E2,5.2900146E1,2.4394353E2,5.4871483E0,4.7413E1,1.9449733E2,4.9446186E1,1.6098598E1,3.1314398E1,7.312881E1,1.2136852E2,2.5550634E1,2.3895554E1,7.400307E0,8.698292E0,2.4629742E1,6.6846566E0,2.436915E1,4.875966E1,8.515689E1,3.6211636E1,1.6165619E1,9.3850155E0,1.245598E1,1.1439572E1,5.476963E0,1.8892187E1,1.5219711E1,3.3539948E1,1.6504154E1,6.865273E1,2.1191895E1,1.501974E1,5.2111216E0,1.0954497E1,6.219769E0,6.2362113E0,5.891624E0,5.5479484E0],"tree_param":{"num_deleted":"0","num_feature":"220","num_nodes":"39","size_leaf_vector":"1"}},{"base_weights":[1.0122278E-2,3.780488E-1,-4.4856064E-2,5.8206874E-1,-3.320642E-3,3.215508E-1,-9.819485E-2,8.7029636E-1,-1.3602147E-3,1.0174598E-2,3.9874766E-2,-1.4127454E-1,4.9035177E-1,-0E0,1.2220334E0,-2.5292578E-1,7.2628246E-3,-1.3312774E-2,-3.164135E-1,9.289009E-3,-3.4018573E-3,1.6120264E-2,5.943665E-3,2.8455833E-3,-5.639057E-3,1.4751457E-3,-1.8003138E-3,-3.6752117E-3,3.9408174E-3],"categories":[],"categories_nodes":[],"categories_segments":[],"categories_sizes":[],"default_left":[0,0,0,0,0,0,0,0,0,0,0,0,0,0,0,0,0,0,0,0,0,0,0,0,0,0,0,0,0],"id":33,"left_children":[1,3,5,7,-1,9,11,13,-1,-1,15,17,19,-1,21,23,-1,25,27,-1,-1,-1,-1,-1,-1,-1,-1,-1,-1],"loss_changes":[6.118993E0,5.9184904E0,5.123252E0,6.6155443E0,0E0,6.3708525E0,5.851261E0,6.8773003E0,0E0,0E0,5.21749E0,4.7747087E0,6.09805E0,0E0,2.7272491E0,3.2022917E0,0E0,3.393186E0,3.4201012E0,0E0,0E0,0E0,0E0,0E0,0E0,0E0,0E0,0E0,0E0],"parents":[2147483647,0,0,1,1,2,2,3,3,5,5,6,6,7,7,10,10,11,11,12,12,14,14,15,15,17,17,18,18],"right_children":[2,4,6,8,-1,10,12,14,-1,-1,16,18,20,-1,22,24,-1,26,28,-1,-1,-1,-1,-1,-1,-1,-1,-1,-1],"split_conditions":[6.088977E-2,2.3697676E1,4.0671876E-1,1.0024166E0,-3.320642E-3,4.1353092E-1,2.974778E0,1.8498663E1,-1.3602147E-3,1.0174598E-2,1.0845963E3,2.2346815E1,1.3491812E-1,-0E0,5.9742775E-2,-1.0060532E-2,7.2628246E-3,5.4383826E-1,7.188065E-2,9.289009E-3,-3.4018573E-3,1.6120264E-2,5.943665E-3,2.8455833E-3,-5.639057E-3,1.4751457E-3,-1.8003138E-3,-3.6752117E-3,3.9408174E-3],"split_indices":[163,32,170,70,0,66,170,32,0,0,69,73,43,0,145,120,0,13,117,0,0,0,0,0,0,0,0,0,0],"split_type":[0,0,0,0,0,0,0,0,0,0,0,0,0,0,0,0,0,0,0,0,0,0,0,0,0,0,0,0,0],"sum_hessian":[2.9901578E2,3.834508E1,2.606707E2,3.0036533E1,8.308548E0,3.224726E1,2.2842343E2,2.1381649E1,8.654884E0,8.436604E0,2.3810656E1,2.137104E2,1.4713034E1,6.4247313E0,1.4956918E1,1.7031412E1,6.7792435E0,1.2443872E2,8.927168E1,9.630047E0,5.082987E0,8.159507E0,6.797411E0,6.1556525E0,1.0875761E1,6.3091778E1,6.1346947E1,8.38627E1,5.4089794E0],"tree_param":{"num_deleted":"0","num_feature":"220","num_nodes":"29","size_leaf_vector":"1"}},{"base_weights":[-3.9163046E-2,-2.5929105E-1,1.597059E-1,-3.658681E-1,7.281148E-2,3.962486E-1,-1.2649767E-1,-1.5151423E-1,-5.036041E-1,3.6021593E-1,-4.1801625E-1,9.2156464E-1,1.8752952E-1,-3.0702344E-1,2.607777E-1,1.8842834E-1,-4.6304527E-1,-7.932049E-5,-5.435645E-1,-3.8063708E-3,6.568538E-1,-5.3509506E-3,-1.7244174E-3,1.7755328E-2,5.1740676E-1,1.2360241E-2,7.093994E-2,3.8215742E-3,-4.03571E-1,9.206633E-3,-1.2394907E-1,4.5609027E-3,-5.085294E-3,-8.124556E-5,-5.8262083E-3,-2.5641026E-3,-5.8831414E-3,1.293106E-2,2.2098336E-3,1.0913083E-2,-1.9967167E-3,3.3690056E-3,-1.4426474E-3,-6.4568385E-4,-5.36966E-3,2.7260112E-3,-5.3459257E-3],"categories":[],"categories_nodes":[],"categories_segments":[],"categories_sizes":[],"default_left":[0,0,0,0,0,0,0,0,0,0,0,0,0,0,0,0,0,0,0,0,0,0,0,0,0,0,0,0,0,0,0,0,0,0,0,0,0,0,0,0,0,0,0,0,0,0,0],"id":34,"left_children":[1,3,5,7,9,11,13,15,17,19,21,23,25,27,29,31,33,-1,35,-1,37,-1,-1,-1,39,-1,41,-1,43,-1,45,-1,-1,-1,-1,-1,-1,-1,-1,-1,-1,-1,-1,-1,-1,-1,-1],"loss_changes":[1.31138525E1,5.0906267E0,1.0715699E1,3.0491762E0,5.105295E0,9.1971445E0,5.0956964E0,4.773891E0,1.229702E0,5.297881E0,2.1996522E-1,7.2028522E0,7.516511E0,3.451498E0,6.071705E0,4.255291E0,1.2090654E0,0E0,5.360451E-1,0E0,4.215076E0,0E0,0E0,0E0,7.6791706E0,0E0,3.3926644E0,0E0,1.8971958E0,0E0,2.6815164E0,0E0,0E0,0E0,0E0,0E0,0E0,0E0,0E0,0E0,0E0,0E0,0E0,0E0,0E0,0E0,0E0],"parents":[2147483647,0,0,1,1,2,2,3,3,4,4,5,5,6,6,7,7,8,8,9,9,10,10,11,11,12,12,13,13,14,14,15,15,16,16,18,18,20,20,24,24,26,26,28,28,30,30],"right_children":[2,4,6,8,10,12,14,16,18,20,22,24,26,28,30,32,34,-1,36,-1,38,-1,-1,-1,40,-1,42,-1,44,-1,46,-1,-1,-1,-1,-1,-1,-1,-1,-1,-1,-1,-1,-1,-1,-1,-1],"split_conditions":[2.5885782E-1,1.2665608E0,1.0350773E0,7.7302116E-3,1.6950397E-1,-7.413298E-3,5.206906E-2,5.551154E-4,-4.0790904E-2,-1.7540665E-2,9.134818E-1,4.319956E-2,9.2921406E-1,-1.7547749E1,1.6184913E-1,2.6578447E-1,7.991796E-1,-7.932049E-5,1.4338146E0,-3.8063708E-3,1.3728188E5,-5.3509506E-3,-1.7244174E-3,1.7755328E-2,3.93381E-1,1.2360241E-2,1.6052735E0,3.8215742E-3,2.6190657E-2,9.206633E-3,1E-1,4.5609027E-3,-5.085294E-3,-8.124556E-5,-5.8262083E-3,-2.5641026E-3,-5.8831414E-3,1.293106E-2,2.2098336E-3,1.0913083E-2,-1.9967167E-3,3.3690056E-3,-1.4426474E-3,-6.4568385E-4,-5.36966E-3,2.7260112E-3,-5.3459257E-3],"split_indices":[108,59,216,199,188,9,201,7,198,20,216,212,75,195,79,102,216,0,75,0,175,0,0,0,66,0,205,0,109,0,213,0,0,0,0,0,0,0,0,0,0,0,0,0,0,0,0],"split_type":[0,0,0,0,0,0,0,0,0,0,0,0,0,0,0,0,0,0,0,0,0,0,0,0,0,0,0,0,0,0,0,0,0,0,0,0,0,0,0,0,0,0,0,0,0,0,0],"sum_hessian":[2.9738947E2,1.4124472E2,1.5614474E2,1.0708036E2,3.4164368E1,8.547003E1,7.067471E1,4.299491E1,6.408544E1,2.1843649E1,1.2320718E1,2.3195593E1,6.2274437E1,4.8521965E1,2.2152744E1,2.0595388E1,2.2399523E1,5.0571465E0,5.9028297E1,6.0681543E0,1.5775495E1,7.269018E0,5.0516996E0,6.281808E0,1.6913786E1,5.185132E0,5.7089302E1,5.471443E0,4.305052E1,7.7414527E0,1.441129E1,1.5233966E1,5.361423E0,5.058581E0,1.7340942E1,9.167281E0,4.986102E1,5.520671E0,1.0254824E1,9.182389E0,7.731396E0,2.5488516E1,3.1600788E1,1.2787298E1,3.0263226E1,7.378582E0,7.032708E0],"tree_param":{"num_deleted":"0","num_feature":"220","num_nodes":"47","size_leaf_vector":"1"}},{"base_weights":[-1.454036E-1,6.495263E-1,-1.7787287E-1,3.1799424E-4,1.2046977E-2,-2.9311383E-1,1.21624805E-2,3.940435E-3,-3.1663176E-1,-2.789909E-1,1.8869264E-1,-3.4498757E-1,1.18280955E-1,2.0502221E-3,-3.800512E-1,1.224546E-2,-2.054093E-3,5.21447E-4,-3.7137228E-3,-3.5258438E-3,6.0678953E-3,-5.022335E-3,2.750737E-3,6.6395616E-3,-9.462267E-4],"categories":[],"categories_nodes":[],"categories_segments":[],"categories_sizes":[],"default_left":[0,0,0,0,0,0,0,0,0,0,0,0,0,0,0,0,0,0,0,0,0,0,0,0,0],"id":35,"left_children":[1,3,5,-1,-1,7,9,-1,11,13,15,17,19,-1,21,-1,23,-1,-1,-1,-1,-1,-1,-1,-1],"loss_changes":[7.9888835E0,4.0001583E0,6.5081453E0,0E0,0E0,3.0980148E0,5.814023E0,0E0,2.2716026E0,2.17756E0,1.4094794E1,1.8175373E0,2.8819203E0,0E0,3.0213122E0,0E0,3.7435489E0,0E0,0E0,0E0,0E0,0E0,0E0,0E0,0E0],"parents":[2147483647,0,0,1,1,2,2,5,5,6,6,8,8,9,9,10,10,11,11,12,12,14,14,16,16],"right_children":[2,4,6,-1,-1,8,10,-1,12,14,16,18,20,-1,22,-1,24,-1,-1,-1,-1,-1,-1,-1,-1],"split_conditions":[-1.29867E0,4.94707E-2,2.5086666E1,3.1799424E-4,1.2046977E-2,4.09509E-1,-1.36229955E-2,3.940435E-3,4.6042763E1,-1.1189167E-2,1.0490501E-1,3.7641164E7,2.4818905E-1,2.0502221E-3,-3.5713534E-3,1.224546E-2,1.655429E-2,5.21447E-4,-3.7137228E-3,-3.5258438E-3,6.0678953E-3,-5.022335E-3,2.750737E-3,6.6395616E-3,-9.462267E-4],"split_indices":[138,148,45,0,0,110,7,0,30,167,166,62,65,0,84,0,109,0,0,0,0,0,0,0,0],"split_type":[0,0,0,0,0,0,0,0,0,0,0,0,0,0,0,0,0,0,0,0,0,0,0,0,0],"sum_hessian":[3.058683E2,1.1136421E1,2.9473187E2,5.856939E0,5.2794824E0,1.8346132E2,1.1127055E2,5.409084E0,1.7805223E2,4.1566887E1,6.970367E1,1.6756395E2,1.0488284E1,6.8312798E0,3.4735607E1,1.0078221E1,5.9625446E1,1.0142138E1,1.5742181E2,5.3780293E0,5.110255E0,2.9600977E1,5.1346297E0,6.3909707E0,5.3234474E1],"tree_param":{"num_deleted":"0","num_feature":"220","num_nodes":"25","size_leaf_vector":"1"}},{"base_weights":[-2.2264817E-3,4.134667E-1,-9.746302E-2,-9.0201244E-2,7.2486216E-1,1.6770912E-2,-3.1609988E-1,4.729753E-3,-3.3076262E-1,1.162797E0,1.5045337E-1,-5.9385534E-2,6.253941E-1,-3.7218747E-1,4.315696E-3,-0E0,-5.4917913E-3,4.845361E-3,1.7457236E-2,5.196072E-3,-3.8109757E-3,-2.771689E-1,1.2196476E-1,1.2170342E-2,2.3673269E-1,-0E0,-4.8044384E-1,-3.8255148E-3,1.3773429E-3,8.3767595E-3,4.0457092E-8,-2.2013187E-3,6.9152433E-3,5.6132097E-3,-3.8677852E-3,-2.1297224E-3,-5.637259E-3],"categories":[],"categories_nodes":[],"categories_segments":[],"categories_sizes":[],"default_left":[0,0,0,0,0,0,0,0,0,0,0,0,0,0,0,0,0,0,0,0,0,0,0,0,0,0,0,0,0,0,0,0,0,0,0,0,0],"id":36,"left_children":[1,3,5,7,9,11,13,-1,15,17,19,21,23,25,-1,-1,-1,-1,-1,-1,-1,27,29,-1,31,33,35,-1,-1,-1,-1,-1,-1,-1,-1,-1,-1],"loss_changes":[1.1751059E1,8.799247E0,6.087446E0,3.1074533E0,8.345846E0,7.5011477E0,3.6567125E0,0E0,1.1449659E0,6.5493546E0,3.3762589E0,5.6894836E0,3.7069507E0,3.1862965E0,0E0,0E0,0E0,0E0,0E0,0E0,0E0,2.938517E0,6.756596E0,0E0,2.736471E0,4.2497E0,1.1570759E0,0E0,0E0,0E0,0E0,0E0,0E0,0E0,0E0,0E0,0E0],"parents":[2147483647,0,0,1,1,2,2,3,3,4,4,5,5,6,6,8,8,9,9,10,10,11,11,12,12,13,13,21,21,22,22,24,24,25,25,26,26],"right_children":[2,4,6,8,10,12,14,-1,16,18,20,22,24,26,-1,-1,-1,-1,-1,-1,-1,28,30,-1,32,34,36,-1,-1,-1,-1,-1,-1,-1,-1,-1,-1],"split_conditions":[2.2306119E-1,3.7856403E-1,2.0976951E-2,5.905493E8,5.878437E-1,2.4163328E1,1.34E2,4.729753E-3,-9.8046824E-2,3.7561793E-2,5.1372748E-2,-1.2658519E-2,-2.5071537E-1,-3.9768066E-2,4.315696E-3,-0E0,-5.4917913E-3,4.845361E-3,1.7457236E-2,5.196072E-3,-3.8109757E-3,4.5694604E0,-8.660254E-1,1.2170342E-2,1.54720675E-2,-9.143894E-1,-8.927025E-3,-3.8255148E-3,1.3773429E-3,8.3767595E-3,4.0457092E-8,-2.2013187E-3,6.9152433E-3,5.6132097E-3,-3.8677852E-3,-2.1297224E-3,-5.637259E-3],"split_indices":[104,217,198,179,66,27,160,0,137,214,201,115,65,115,0,0,0,0,0,0,0,29,98,0,174,129,193,0,0,0,0,0,0,0,0,0,0],"split_type":[0,0,0,0,0,0,0,0,0,0,0,0,0,0,0,0,0,0,0,0,0,0,0,0,0,0,0,0,0,0,0,0,0,0,0,0,0],"sum_hessian":[2.9560535E2,5.428183E1,2.4132352E2,2.0887098E1,3.3394733E1,1.5881262E2,8.2510895E1,5.8379917E0,1.5049108E1,1.8268341E1,1.5126391E1,1.4180663E2,1.7006008E1,7.734472E1,5.1661806E0,6.430994E0,8.6181135E0,9.369395E0,8.898945E0,9.051125E0,6.0752673E0,6.44417E1,7.7364914E1,5.795366E0,1.1210641E1,1.75246E1,5.9820118E1,5.164358E1,1.2798127E1,1.0290144E1,6.707477E1,5.740284E0,5.470357E0,7.030196E0,1.0494402E1,1.5333264E1,4.4486855E1],"tree_param":{"num_deleted":"0","num_feature":"220","num_nodes":"37","size_leaf_vector":"1"}},{"base_weights":[2.0780197E-1,-2.5330153E-1,2.9954633E-1,2.073988E-1,-4.1818684E-1,4.0551785E-1,4.366556E-2,7.5932597E-3,-1.9609907E-3,-0E0,-5.6024264E-3,5.778897E-1,1.9481465E-1,-3.519833E-1,2.7840564E-1,1.1701905E0,4.6543232E-1,-2.9633883E-1,3.8505638E-1,-4.6412447E-1,1.1752796E-3,-2.2806045E-1,4.8407125E-1,6.3002864E-3,1.7285002E-2,6.3928114E-3,-2.4148001E-4,1.3936E-3,-5.177043E-3,1.29523E-2,2.468038E-3,-5.842216E-3,-1.3091651E-4,-5.249424E-3,5.780673E-4,-2.7523746E-3,7.912155E-3],"categories":[],"categories_nodes":[],"categories_segments":[],"categories_sizes":[],"default_left":[0,0,0,0,0,0,0,0,0,0,0,0,0,0,0,0,0,0,0,0,0,0,0,0,0,0,0,0,0,0,0,0,0,0,0,0,0],"id":37,"left_children":[1,3,5,7,9,11,13,-1,-1,-1,-1,15,17,19,21,23,25,27,29,31,-1,33,35,-1,-1,-1,-1,-1,-1,-1,-1,-1,-1,-1,-1,-1,-1],"loss_changes":[1.2877713E1,3.948624E0,6.7962914E0,3.2863393E0,2.209332E0,6.2921314E0,7.1003137E0,0E0,0E0,0E0,0E0,5.779175E0,7.792028E0,1.5838656E0,5.1448536E0,3.1200867E0,7.197214E0,2.3604796E0,7.0437975E0,1.1941137E0,0E0,1.3014563E0,8.352664E0,0E0,0E0,0E0,0E0,0E0,0E0,0E0,0E0,0E0,0E0,0E0,0E0,0E0,0E0],"parents":[2147483647,0,0,1,1,2,2,3,3,4,4,5,5,6,6,11,11,12,12,13,13,14,14,15,15,16,16,17,17,18,18,19,19,21,21,22,22],"right_children":[2,4,6,8,10,12,14,-1,-1,-1,-1,16,18,20,22,24,26,28,30,32,-1,34,36,-1,-1,-1,-1,-1,-1,-1,-1,-1,-1,-1,-1,-1,-1],"split_conditions":[-8.2928786E-4,8.721588E-1,3.0966023E-1,-2.0311705E-3,2.5582865E-1,1.1245379E-3,2.4940172E-1,7.5932597E-3,-1.9609907E-3,-0E0,-5.6024264E-3,-2.5738445E-1,2.2864817E-1,1.9921146E-2,3.675059E-1,3.3088965E-9,8.7512624E-1,6.2829334E-1,2.0436963E-2,2.2455687E-2,1.1752796E-3,1.1760624E-2,1.3815435E1,6.3002864E-3,1.7285002E-2,6.3928114E-3,-2.4148001E-4,1.3936E-3,-5.177043E-3,1.29523E-2,2.468038E-3,-5.842216E-3,-1.3091651E-4,-5.249424E-3,5.780673E-4,-2.7523746E-3,7.912155E-3],"split_indices":[171,111,104,20,106,167,163,0,0,0,0,145,104,193,177,172,137,208,112,6,0,162,32,0,0,0,0,0,0,0,0,0,0,0,0,0,0],"split_type":[0,0,0,0,0,0,0,0,0,0,0,0,0,0,0,0,0,0,0,0,0,0,0,0,0,0,0,0,0,0,0,0,0,0,0,0,0],"sum_hessian":[3.0150845E2,4.9561817E1,2.5194662E2,1.2835176E1,3.672664E1,1.7747203E2,7.447461E1,5.1528254E0,7.682351E0,9.667489E0,2.705915E1,9.639558E1,8.107645E1,2.7387745E1,4.708686E1,1.3738982E1,8.26566E1,2.2333628E1,5.874282E1,2.2288641E1,5.0991044E0,1.3426945E1,3.3659916E1,8.155829E0,5.583153E0,6.0921867E1,2.173473E1,7.4968305E0,1.4836797E1,6.5473075E0,5.219551E1,1.7193495E1,5.0951457E0,6.3479247E0,7.0790195E0,9.630389E0,2.4029528E1],"tree_param":{"num_deleted":"0","num_feature":"220","num_nodes":"37","size_leaf_vector":"1"}},{"base_weights":[-3.9504718E-2,2.2761963E-1,-1.16070315E-1,3.998759E-1,-4.3087828E-1,4.145837E-2,-2.281958E-1,6.7718506E-1,-8.887802E-2,-1.7712369E-3,-5.4394933E-3,-3.332107E-1,1.5787174E-1,1.8802054E-1,-2.947324E-1,1.3023844E0,3.115824E-1,5.8639487E-3,-3.7298176E-1,1.5455869E-3,-5.230835E-3,3.3076775E-1,-2.1823928E-1,-1.210153E-1,7.884405E-3,3.9477292E-3,-3.4520373E-1,5.844197E-3,1.7407324E-2,5.6922142E-3,-3.7139459E-3,-5.500962E-3,-1.6472138E-4,-1.5451076E-3,5.432555E-3,-4.795566E-3,6.0710595E-3,2.2457081E-3,-5.1472867E-3,-3.911729E-3,1.8688228E-3],"categories":[],"categories_nodes":[],"categories_segments":[],"categories_sizes":[],"default_left":[0,0,0,0,0,0,0,0,0,0,0,0,0,0,0,0,0,0,0,0,0,0,0,0,0,0,0,0,0,0,0,0,0,0,0,0,0,0,0,0,0],"id":38,"left_children":[1,3,5,7,9,11,13,15,17,-1,-1,19,21,23,25,27,29,-1,31,-1,-1,33,35,37,-1,-1,39,-1,-1,-1,-1,-1,-1,-1,-1,-1,-1,-1,-1,-1,-1],"loss_changes":[6.0848165E0,7.673543E0,4.1189632E0,7.3131742E0,2.3549986E-1,4.25625E0,3.8275785E0,7.2298403E0,4.0281415E0,0E0,0E0,2.2533693E0,4.942311E0,3.7106054E0,4.227358E0,2.5808105E0,4.2677307E0,0E0,8.669107E-1,0E0,0E0,5.4609284E0,5.4441533E0,1.9654527E0,0E0,0E0,2.792447E0,0E0,0E0,0E0,0E0,0E0,0E0,0E0,0E0,0E0,0E0,0E0,0E0,0E0,0E0],"parents":[2147483647,0,0,1,1,2,2,3,3,4,4,5,5,6,6,7,7,8,8,11,11,12,12,13,13,14,14,15,15,16,16,18,18,21,21,22,22,23,23,26,26],"right_children":[2,4,6,8,10,12,14,16,18,-1,-1,20,22,24,26,28,30,-1,32,-1,-1,34,36,38,-1,-1,40,-1,-1,-1,-1,-1,-1,-1,-1,-1,-1,-1,-1,-1,-1],"split_conditions":[6.3431656E-1,6.173408E1,2.693055E-1,2.0117104E1,5.8238715E-1,7.7528274E-1,-3.6274633E-1,-7.596491E-3,-5.200743E-4,-1.7712369E-3,-5.4394933E-3,3.205829E-4,4.8296493E-1,-7.48346E-2,3E0,2.9570607E4,4.5081922E-1,5.8639487E-3,8.8884674E-2,1.5455869E-3,-5.230835E-3,1.4736842E-1,2.8134894E-1,2.011695E-2,7.884405E-3,3.9477292E-3,3.1344742E1,5.844197E-3,1.7407324E-2,5.6922142E-3,-3.7139459E-3,-5.500962E-3,-1.6472138E-4,-1.5451076E-3,5.432555E-3,-4.795566E-3,6.0710595E-3,2.2457081E-3,-5.1472867E-3,-3.911729E-3,1.8688228E-3],"split_indices":[60,33,104,206,59,59,188,20,168,0,0,210,211,9,88,189,80,0,120,0,0,80,102,115,0,0,27,0,0,0,0,0,0,0,0,0,0,0,0,0,0],"split_type":[0,0,0,0,0,0,0,0,0,0,0,0,0,0,0,0,0,0,0,0,0,0,0,0,0,0,0,0,0,0,0,0,0,0,0,0,0,0,0,0,0],"sum_hessian":[2.957628E2,6.515815E1,2.3060464E2,5.2079338E1,1.3078812E1,9.5779434E1,1.3482521E2,3.311157E1,1.8967772E1,5.095145E0,7.983667E0,2.205986E1,7.3719574E1,1.812382E1,1.1670139E2,1.1171653E1,2.1939915E1,5.19767E0,1.3770101E1,6.0856333E0,1.5974226E1,5.076818E1,2.2951395E1,1.2382468E1,5.7413507E0,7.359385E0,1.09342E2,5.206065E0,5.9655876E0,1.6157722E1,5.7821927E0,8.649509E0,5.120591E0,1.5399989E1,3.536819E1,1.7842348E1,5.1090465E0,6.687798E0,5.6946697E0,1.0106348E2,8.27853E0],"tree_param":{"num_deleted":"0","num_feature":"220","num_nodes":"41","size_leaf_vector":"1"}},{"base_weights":[-2.5034012E-2,-2.1430638E-1,2.6707911E-1,1.4059223E-2,-3.186657E-1,7.7279574E-1,1.5464516E-1,-2.961543E-1,3.080666E-1,-3.8555816E-1,1.8970636E-1,-5.1266584E-4,1.1024599E0,6.42301E-1,-2.3017593E-3,-5.7380483E-3,4.26375E-2,5.09329E-1,-5.0322274E-3,-1.0831898E-1,-4.7350273E-1,6.2805223E-3,-1.7814836E-3,4.0967027E-3,1.4565423E-2,1.8308818E-1,1.1411069E-2,-1.703723E-1,2.2496744E-1,-3.882451E-3,5.420111E-3,1.1768201E-3,1.3110941E-2,5.485721E-3,-3.0629258E-3,-1.1194332E-3,-5.242533E-3,6.742884E-3,-2.6002652E-3,5.2416055E-3,-2.9583185E-3,1.071105E-2,3.588506E-6],"categories":[],"categories_nodes":[],"categories_segments":[],"categories_sizes":[],"default_left":[0,0,0,0,0,0,0,0,0,0,0,0,0,0,0,0,0,0,0,0,0,0,0,0,0,0,0,0,0,0,0,0,0,0,0,0,0,0,0,0,0,0,0],"id":39,"left_children":[1,3,5,7,9,11,13,15,17,19,21,-1,23,25,27,-1,29,31,-1,33,35,-1,-1,-1,-1,37,-1,39,41,-1,-1,-1,-1,-1,-1,-1,-1,-1,-1,-1,-1,-1,-1],"loss_changes":[1.5512885E1,4.09717E0,6.052919E0,5.028407E0,4.0827694E0,5.494296E0,7.072882E0,2.587102E0,4.900858E0,2.4309187E0,2.4369125E0,0E0,2.6881752E0,4.801203E0,2.710727E0,0E0,2.9767246E0,7.045545E0,0E0,3.6111631E0,1.3186722E0,0E0,0E0,0E0,0E0,3.0430126E0,0E0,3.7155938E0,5.5905676E0,0E0,0E0,0E0,0E0,0E0,0E0,0E0,0E0,0E0,0E0,0E0,0E0,0E0,0E0],"parents":[2147483647,0,0,1,1,2,2,3,3,4,4,5,5,6,