{"learner":{"attributes":{"best_iteration":"52","best_score":"0.03207832036992765"},"feature_names":[],"feature_types":[],"gradient_booster":{"model":{"gbtree_model_param":{"num_parallel_tree":"1","num_trees":"103"},"iteration_indptr":[0,1,2,3,4,5,6,7,8,9,10,11,12,13,14,15,16,17,18,19,20,21,22,23,24,25,26,27,28,29,30,31,32,33,34,35,36,37,38,39,40,41,42,43,44,45,46,47,48,49,50,51,52,53,54,55,56,57,58,59,60,61,62,63,64,65,66,67,68,69,70,71,72,73,74,75,76,77,78,79,80,81,82,83,84,85,86,87,88,89,90,91,92,93,94,95,96,97,98,99,100,101,102,103],"tree_info":[0,0,0,0,0,0,0,0,0,0,0,0,0,0,0,0,0,0,0,0,0,0,0,0,0,0,0,0,0,0,0,0,0,0,0,0,0,0,0,0,0,0,0,0,0,0,0,0,0,0,0,0,0,0,0,0,0,0,0,0,0,0,0,0,0,0,0,0,0,0,0,0,0,0,0,0,0,0,0,0,0,0,0,0,0,0,0,0,0,0,0,0,0,0,0,0,0,0,0,0,0,0,0],"trees":[{"base_weights":[-3.1096063E-4,-4.181292E-3,1.5901975E-2,4.294552E-2,-4.892514E-3,1.3582305E-2,9.2054285E-2,1.0710992E-3,1.0990247E-2,-2.1031587E-3,-2.2049699E-2,1.658864E-2,-3.1654246E-2,-2.7413614E-4,2.438425E-3,-4.5725326E-5,3.235568E-4,-1.7023921E-2,-1.0775874E-3,-2.3383477E-3,-1.8952196E-2,1.7903112E-2,-7.8960357E-4,1.7596629E-2,-6.2311403E-2,3.511169E-3,-3.398496E-2,9.919719E-3,-2.7175043E-3,-6.4595845E-3,-3.3205435E-2,2.1390555E-2,2.9258186E-3,4.6554155E-4,-5.125176E-5,-5.6633976E-4,-1.6145592E-3,4.8783654E-4,-2.7784405E-4,-7.567186E-4,4.688554E-4,1.4901307E-3,1.4334568E-4,9.168904E-4,-6.1920466E-5,-3.9878508E-4,1.7647755E-4,-7.331015E-4,5.691561E-4,3.3764014E-4,1.1995052E-3,2.2413797E-4,-8.475435E-4],"categories":[],"categories_nodes":[],"categories_segments":[],"categories_sizes":[],"default_left":[0,0,0,0,0,0,0,0,0,0,0,0,0,0,0,0,0,0,0,0,0,0,0,0,0,0,0,0,0,0,0,0,0,0,0,0,0,0,0,0,0,0,0,0,0,0,0,0,0,0,0,0,0],"id":0,"left_children":[1,3,5,7,9,11,13,-1,15,17,19,21,23,-1,-1,-1,-1,25,27,-1,29,31,-1,33,35,37,39,41,43,45,47,49,51,-1,-1,-1,-1,-1,-1,-1,-1,-1,-1,-1,-1,-1,-1,-1,-1,-1,-1,-1,-1],"loss_changes":[5.698022E-2,2.4778536E-2,2.966313E-2,3.1407233E-3,3.4554586E-2,2.3780446E-2,1.746497E-2,0E0,3.1247947E-4,9.514993E-3,2.746331E-2,1.25726685E-2,1.770528E-2,0E0,0E0,0E0,0E0,1.4051183E-2,1.0559203E-2,0E0,1.7413463E-2,8.190144E-3,0E0,6.322168E-4,2.09645E-3,7.24334E-3,5.752342E-3,1.2976587E-2,9.498195E-3,1.1300808E-2,1.0828063E-2,2.1254506E-2,1.2104806E-2,0E0,0E0,0E0,0E0,0E0,0E0,0E0,0E0,0E0,0E0,0E0,0E0,0E0,0E0,0E0,0E0,0E0,0E0,0E0,0E0],"parents":[2147483647,0,0,1,1,2,2,3,3,4,4,5,5,6,6,8,8,9,9,10,10,11,11,12,12,17,17,18,18,20,20,21,21,23,23,24,24,25,25,26,26,27,27,28,28,29,29,30,30,31,31,32,32],"right_children":[2,4,6,8,10,12,14,-1,16,18,20,22,24,-1,-1,-1,-1,26,28,-1,30,32,-1,34,36,38,40,42,44,46,48,50,52,-1,-1,-1,-1,-1,-1,-1,-1,-1,-1,-1,-1,-1,-1,-1,-1,-1,-1,-1,-1],"split_conditions":[7.2355163E-1,-1.0351064E0,2.3314772E0,-6.2478435E-1,5.1668787E-1,2.3304846E0,2.3306084E0,1.0710992E-3,-1.0350367E0,-9.7910154E-1,-1.8421923E0,2.7731755E0,-1.4612582E0,-2.7413614E-4,2.438425E-3,-4.5725326E-5,3.235568E-4,-5.488547E-1,-6.4898115E-1,-2.3383477E-3,4.5533013E-1,1.4867043E0,-7.8960357E-4,2.6370044E0,-9.5734125E-1,-7.593608E-1,3.359518E-1,-1.005689E0,-1.3012142E0,-2.143508E-1,1.5495086E0,1.10677E0,1.0401905E0,4.6554155E-4,-5.125176E-5,-5.6633976E-4,-1.6145592E-3,4.8783654E-4,-2.7784405E-4,-7.567186E-4,4.688554E-4,1.4901307E-3,1.4334568E-4,9.168904E-4,-6.1920466E-5,-3.9878508E-4,1.7647755E-4,-7.331015E-4,5.691561E-4,3.3764014E-4,1.1995052E-3,2.2413797E-4,-8.475435E-4],"split_indices":[1,46,30,31,29,20,3,0,1,15,47,18,47,0,0,0,0,53,47,0,51,35,0,1,14,6,29,7,6,53,30,35,37,0,0,0,0,0,0,0,0,0,0,0,0,0,0,0,0,0,0,0,0],"split_type":[0,0,0,0,0,0,0,0,0,0,0,0,0,0,0,0,0,0,0,0,0,0,0,0,0,0,0,0,0,0,0,0,0,0,0,0,0,0,0,0,0,0,0,0,0,0,0,0,0,0,0,0,0],"sum_hessian":[9.06E2,7.32E2,1.74E2,1E1,7.22E2,1.7E2,4E0,7E0,3E0,6.22E2,1E2,1.6E2,1E1,1E0,3E0,1E0,2E0,3.9E1,5.83E2,2E0,9.8E1,1.57E2,3E0,4E0,6E0,1.8E1,2.1E1,7.5E1,5.08E2,5.3E1,4.5E1,1.27E2,3E1,3E0,1E0,3E0,3E0,8E0,1E1,2E1,1E0,2E0,7.3E1,3E0,5.05E2,2.8E1,2.5E1,4.3E1,2E0,1.15E2,1.2E1,2.6E1,4E0],"tree_param":{"num_deleted":"0","num_feature":"54","num_nodes":"53","size_leaf_vector":"1"}},{"base_weights":[3.698334E-4,-3.5231735E-3,2.3423225E-2,-3.4700617E-2,-2.3777615E-3,1.9312764E-3,2.151106E-2,-5.734134E-2,9.522751E-3,1.6511617E-3,-2.7207367E-3,2.4332058E-2,-1.8178934E-2,-4.1318487E-2,-2.4736556E-3,2.9364813E-2,-9.3127333E-4,-1.2847087E-3,-2.1585321E-2,2.8318115E-2,-1.2500559E-3,-1.2452838E-3,1.4241059E-2,-1.0095417E-3,-1.1074155E-2,8.570999E-4,5.160882E-3,2.9431066E-2,-1.829671E-3,-3.7404455E-2,-5.552627E-3,3.15441E-2,-8.880398E-3,9.671937E-3,-7.8329025E-4,4.585584E-4,-4.1768875E-5,4.6416686E-4,-5.089373E-4,1.8586041E-4,-7.235532E-5,1.1343025E-3,3.680579E-5,7.83023E-4,-4.388954E-5,2.1958788E-4,-8.8385504E-4,8.4656157E-4,-2.660277E-4,5.6226534E-4,1.5549851E-3,-2.9603177E-4,3.848913E-4,-4.211714E-4,3.9934798E-4],"categories":[],"categories_nodes":[],"categories_segments":[],"categories_sizes":[],"default_left":[0,0,0,0,0,0,0,0,0,0,0,0,0,0,0,0,0,0,0,0,0,0,0,0,0,0,0,0,0,0,0,0,0,0,0,0,0,0,0,0,0,0,0,0,0,0,0,0,0,0,0,0,0,0,0],"id":1,"left_children":[1,3,5,7,9,-1,11,13,15,-1,17,19,21,23,-1,25,-1,27,29,31,33,-1,35,-1,37,-1,39,41,43,45,47,49,51,53,-1,-1,-1,-1,-1,-1,-1,-1,-1,-1,-1,-1,-1,-1,-1,-1,-1,-1,-1,-1,-1],"loss_changes":[8.013686E-2,2.720071E-2,1.5964359E-2,2.7579777E-2,2.1723218E-2,0E0,1.4661942E-2,1.4023241E-2,1.2496035E-2,0E0,1.9910563E-2,1.2170039E-2,1.3749901E-2,3.8729385E-3,0E0,2.3909537E-3,0E0,1.15200225E-2,1.2980716E-2,1.2640305E-2,7.418521E-3,0E0,8.989967E-4,0E0,3.054242E-3,0E0,1.7871833E-4,8.929088E-3,1.0162252E-2,9.024758E-3,1.0580454E-2,1.2873821E-2,1.7836497E-3,4.849872E-3,0E0,0E0,0E0,0E0,0E0,0E0,0E0,0E0,0E0,0E0,0E0,0E0,0E0,0E0,0E0,0E0,0E0,0E0,0E0,0E0,0E0],"parents":[2147483647,0,0,1,1,2,2,3,3,4,4,6,6,7,7,8,8,10,10,11,11,12,12,13,13,15,15,17,17,18,18,19,19,20,20,22,22,24,24,26,26,27,27,28,28,29,29,30,30,31,31,32,32,33,33],"right_children":[2,4,6,8,10,-1,12,14,16,-1,18,20,22,24,-1,26,-1,28,30,32,34,-1,36,-1,38,-1,40,42,44,46,48,50,52,54,-1,-1,-1,-1,-1,-1,-1,-1,-1,-1,-1,-1,-1,-1,-1,-1,-1,-1,-1,-1,-1],"split_conditions":[1.0745094E0,-1.8914937E0,-1.0101619E0,7.19072E-1,-1.018066E0,1.9312764E-3,2.3304846E0,8.364443E-2,-1.3607486E0,1.6511617E-3,1.0198925E0,1.7091343E0,2.4775414E0,-1.028851E0,-2.4736556E-3,-8.61066E-1,-9.3127333E-4,-1.033302E0,-3.1159392E-1,3.246783E0,7.273756E-1,-1.2452838E-3,2.734958E0,-1.0095417E-3,-1.4006695E0,8.570999E-4,-9.3738204E-1,-1.4149107E-1,-2.064605E0,-4.0484864E-1,7.364634E-1,2.9560223E0,1.2460266E0,6.1401594E-1,-7.8329025E-4,4.585584E-4,-4.1768875E-5,4.6416686E-4,-5.089373E-4,1.8586041E-4,-7.235532E-5,1.1343025E-3,3.680579E-5,7.83023E-4,-4.388954E-5,2.1958788E-4,-8.8385504E-4,8.4656157E-4,-2.660277E-4,5.6226534E-4,1.5549851E-3,-2.9603177E-4,3.848913E-4,-4.211714E-4,3.9934798E-4],"split_indices":[0,22,17,2,14,0,20,53,31,0,43,32,20,18,0,53,0,46,4,35,33,0,0,0,6,0,4,34,6,53,36,40,19,37,0,0,0,0,0,0,0,0,0,0,0,0,0,0,0,0,0,0,0,0,0],"split_type":[0,0,0,0,0,0,0,0,0,0,0,0,0,0,0,0,0,0,0,0,0,0,0,0,0,0,0,0,0,0,0,0,0,0,0,0,0,0,0,0,0,0,0,0,0,0,0,0,0,0,0,0,0,0,0],"sum_hessian":[8.91E2,7.63E2,1.28E2,2.6E1,7.37E2,2E0,1.26E2,1.7E1,9E0,2E0,7.35E2,1.18E2,8E0,1.5E1,2E0,7E0,2E0,6.84E2,5.1E1,1.02E2,1.6E1,3E0,5E0,1.1E1,4E0,4E0,3E0,1.1E1,6.73E2,2.5E1,2.6E1,9.4E1,8E0,1.3E1,3E0,3E0,2E0,1E0,3E0,2E0,1E0,5E0,6E0,5E0,6.68E2,3E0,2.2E1,3E0,2.3E1,8.9E1,5E0,7E0,1E0,3E0,1E1],"tree_param":{"num_deleted":"0","num_feature":"54","num_nodes":"55","size_leaf_vector":"1"}},{"base_weights":[1.9798418E-4,-3.075038E-3,1.8882046E-2,3.609952E-2,-3.8002627E-3,-4.3014284E-2,2.3153353E-2,6.1591513E-2,1.8087418E-3,-3.875558E-2,-2.4450223E-3,-2.2100653E-3,-1.2609609E-3,3.2259103E-2,1.2266163E-2,1.3192025E-3,3.1011208E-4,2.1158084E-2,-1.7992785E-2,-2.2844702E-3,-2.8557144E-2,3.1038977E-2,-3.0999815E-3,-2.827779E-4,6.4791767E-3,1.9011762E-2,4.7457162E-2,1.7600615E-2,-2.3941044E-2,5.9801172E-5,5.243481E-4,-4.5636127E-5,-4.4938351E-4,6.5847335E-4,-3.5052367E-2,5.8591054E-6,9.655789E-4,-1.1585508E-3,-1.2764771E-2,1.6015632E-5,1.7835967E-4,1.9553138E-3,1.4240961E-2,5.400058E-2,2.6312645E-3,-1.9764496E-2,2.1126134E-2,6.023005E-4,-9.395781E-4,-8.490269E-4,3.108037E-5,3.5588245E-4,-4.7427556E-4,9.936035E-4,-3.0013533E-5,-8.7646105E-5,-5.390693E-4,3.8973067E-4,-2.204772E-4,8.563417E-4,1.7201325E-3,-5.17394E-4,3.2447863E-4,-4.7481674E-4,-3.859128E-5,-5.279122E-4,4.753223E-4],"categories":[],"categories_nodes":[],"categories_segments":[],"categories_sizes":[],"default_left":[0,0,0,0,0,0,0,0,0,0,0,0,0,0,0,0,0,0,0,0,0,0,0,0,0,0,0,0,0,0,0,0,0,0,0,0,0,0,0,0,0,0,0,0,0,0,0,0,0,0,0,0,0,0,0,0,0,0,0,0,0,0,0,0,0,0,0],"id":2,"left_children":[1,3,5,7,9,11,13,15,17,19,21,23,-1,25,27,-1,-1,29,31,-1,33,35,37,-1,39,41,43,45,47,-1,-1,-1,-1,-1,49,51,-1,53,55,-1,-1,-1,57,59,61,63,65,-1,-1,-1,-1,-1,-1,-1,-1,-1,-1,-1,-1,-1,-1,-1,-1,-1,-1,-1,-1],"loss_changes":[5.4973766E-2,2.1871105E-2,3.642263E-2,1.2126559E-2,3.5529636E-2,7.2178207E-3,1.2095444E-2,5.879011E-4,3.0627185E-3,1.8288441E-2,1.5995946E-2,5.0621835E-4,0E0,1.2788452E-2,1.1816967E-2,0E0,0E0,2.8928008E-4,2.3004366E-4,0E0,1.1536673E-2,7.4898573E-3,1.33448355E-2,0E0,3.4404162E-5,1.2885058E-2,8.950666E-3,7.267583E-3,1.1377459E-2,0E0,0E0,0E0,0E0,0E0,6.5663625E-3,2.9535529E-3,0E0,1.040614E-2,1.4035294E-2,0E0,0E0,0E0,5.11837E-3,5.9818104E-3,2.356729E-3,3.0877953E-4,6.6492315E-3,0E0,0E0,0E0,0E0,0E0,0E0,0E0,0E0,0E0,0E0,0E0,0E0,0E0,0E0,0E0,0E0,0E0,0E0,0E0,0E0],"parents":[2147483647,0,0,1,1,2,2,3,3,4,4,5,5,6,6,7,7,8,8,9,9,10,10,11,11,13,13,14,14,17,17,18,18,20,20,21,21,22,22,24,24,25,25,26,26,27,27,28,28,34,34,35,35,37,37,38,38,42,42,43,43,44,44,45,45,46,46],"right_children":[2,4,6,8,10,12,14,16,18,20,22,24,-1,26,28,-1,-1,30,32,-1,34,36,38,-1,40,42,44,46,48,-1,-1,-1,-1,-1,50,52,-1,54,56,-1,-1,-1,58,60,62,64,66,-1,-1,-1,-1,-1,-1,-1,-1,-1,-1,-1,-1,-1,-1,-1,-1,-1,-1,-1,-1],"split_conditions":[1.115315E0,-1.033302E0,-9.858029E-1,-1.4149107E-1,-1.7848623E0,-2.4862671E-1,2.3045413E-2,1.5083313E0,-8.8566613E-1,-1.8421923E0,-1.3282645E0,1.4626954E0,-1.2609609E-3,2.4761012E-1,2.025633E0,1.3192025E-3,3.1011208E-4,-4.0603656E-1,2.100417E-1,-2.2844702E-3,-1.8044513E0,3.7354086E-2,5.5976254E-1,-2.827779E-4,2.2946935E0,-4.218339E-1,2.0939734E0,8.882589E-2,-7.164184E-1,5.9801172E-5,5.243481E-4,-4.5636127E-5,-4.4938351E-4,6.5847335E-4,4.5759436E-1,-3.711281E-1,9.655789E-4,-1.01707E0,7.521534E-1,1.6015632E-5,1.7835967E-4,1.9553138E-3,2.9325156E0,7.7175105E-1,1.3110042E0,2.811975E-1,-1.4945749E0,6.023005E-4,-9.395781E-4,-8.490269E-4,3.108037E-5,3.5588245E-4,-4.7427556E-4,9.936035E-4,-3.0013533E-5,-8.7646105E-5,-5.390693E-4,3.8973067E-4,-2.204772E-4,8.563417E-4,1.7201325E-3,-5.17394E-4,3.2447863E-4,-4.7481674E-4,-3.859128E-5,-5.279122E-4,4.753223E-4],"split_indices":[0,46,27,34,22,35,26,53,53,47,40,0,0,25,40,0,0,2,2,0,18,53,37,0,0,19,44,33,2,0,0,0,0,0,35,25,0,14,19,0,0,0,35,34,0,4,51,0,0,0,0,0,0,0,0,0,0,0,0,0,0,0,0,0,0,0,0],"split_type":[0,0,0,0,0,0,0,0,0,0,0,0,0,0,0,0,0,0,0,0,0,0,0,0,0,0,0,0,0,0,0,0,0,0,0,0,0,0,0,0,0,0,0,0,0,0,0,0,0,0,0,0,0,0,0,0,0,0,0,0,0,0,0,0,0,0,0],"sum_hessian":[8.97E2,7.64E2,1.33E2,1.3E1,7.51E2,8E0,1.25E2,7E0,6E0,2.7E1,7.24E2,3E0,5E0,6.7E1,5.8E1,6E0,1E0,3E0,3E0,2E0,2.5E1,1.3E1,7.11E2,1E0,2E0,3.7E1,3E1,5.1E1,7E0,1E0,2E0,1E0,2E0,2E0,2.3E1,5E0,8E0,5.93E2,1.18E2,1E0,1E0,1E0,3.6E1,2.6E1,4E0,4E0,4.7E1,2E0,5E0,1.9E1,4E0,3E0,2E0,3E0,5.9E2,7.5E1,4.3E1,3E1,6E0,2.1E1,5E0,1E0,3E0,3E0,1E0,2E0,4.5E1],"tree_param":{"num_deleted":"0","num_feature":"54","num_nodes":"67","size_leaf_vector":"1"}},{"base_weights":[-1.0160053E-4,-2.8463374E-3,2.0321181E-2,-1.7586927E-3,-2.5551157E-2,-5.142605E-2,2.4265049E-2,5.7408735E-2,-2.1401173E-3,9.846381E-4,-3.877451E-2,-8.803155E-3,-1.4107341E-3,1.9140382E-3,2.1926071E-2,-1.410177E-4,7.528636E-2,-6.6478626E-4,-1.3883571E-2,-4.9604233E-2,-9.988692E-3,-2.7995015E-4,1.5855476E-5,2.8166333E-2,-6.816455E-3,1.6976708E-3,4.6494819E-4,2.9998561E-2,-1.3949632E-3,-3.2280706E-2,-7.0551704E-3,-1.9411147E-2,-6.441314E-2,-3.0521387E-2,1.6648281E-2,2.282974E-2,5.5556208E-2,-1.6406698E-2,3.3248633E-2,1.2389245E-4,9.564889E-4,-3.3318065E-5,1.1897928E-3,6.2498817E-4,-7.9638517E-4,-3.671684E-4,1.2734256E-4,3.875522E-4,-8.407025E-4,-2.6017344E-3,-1.0086051E-3,-7.911853E-4,-1.6594166E-4,-3.0546618E-4,5.6894013E-4,5.0555065E-4,-8.379072E-4,3.8439094E-4,1.6791254E-3,3.6384104E-4,-3.9852172E-4,8.9645764E-4,-1.4741169E-5],"categories":[],"categories_nodes":[],"categories_segments":[],"categories_sizes":[],"default_left":[0,0,0,0,0,0,0,0,0,0,0,0,0,0,0,0,0,0,0,0,0,0,0,0,0,0,0,0,0,0,0,0,0,0,0,0,0,0,0,0,0,0,0,0,0,0,0,0,0,0,0,0,0,0,0,0,0,0,0,0,0,0,0],"id":3,"left_children":[1,3,5,7,9,11,13,15,17,-1,19,21,-1,-1,23,-1,25,27,29,31,33,-1,-1,35,37,-1,-1,39,41,43,45,47,49,51,53,55,57,59,61,-1,-1,-1,-1,-1,-1,-1,-1,-1,-1,-1,-1,-1,-1,-1,-1,-1,-1,-1,-1,-1,-1,-1,-1],"loss_changes":[5.1572535E-2,1.998253E-2,3.2090664E-2,1.7612997E-2,3.849761E-2,4.2663645E-3,1.5278906E-2,6.2927604E-3,1.3348719E-2,0E0,9.480279E-3,1.6063078E-4,0E0,0E0,1.8486798E-2,0E0,2.438575E-5,1.5401162E-2,1.0575831E-2,9.033579E-3,5.9774173E-3,0E0,0E0,1.1009827E-2,7.845946E-3,0E0,0E0,6.492965E-3,1.116797E-2,1.225961E-2,9.826688E-3,8.712544E-3,7.2142817E-3,8.7693706E-4,2.31765E-3,1.2466241E-2,1.1801925E-2,2.310759E-3,1.6064723E-3,0E0,0E0,0E0,0E0,0E0,0E0,0E0,0E0,0E0,0E0,0E0,0E0,0E0,0E0,0E0,0E0,0E0,0E0,0E0,0E0,0E0,0E0,0E0,0E0],"parents":[2147483647,0,0,1,1,2,2,3,3,4,4,5,5,6,6,7,7,8,8,10,10,11,11,14,14,16,16,17,17,18,18,19,19,20,20,23,23,24,24,27,27,28,28,29,29,30,30,31,31,32,32,33,33,34,34,35,35,36,36,37,37,38,38],"right_children":[2,4,6,8,10,12,14,16,18,-1,20,22,-1,-1,24,-1,26,28,30,32,34,-1,-1,36,38,-1,-1,40,42,44,46,48,50,52,54,56,58,60,62,-1,-1,-1,-1,-1,-1,-1,-1,-1,-1,-1,-1,-1,-1,-1,-1,-1,-1,-1,-1,-1,-1,-1,-1],"split_conditions":[1.3296189E0,1.4035364E0,-1.0078394E0,-1.0360867E0,-1.8044513E0,9.892908E-1,-1.0120629E0,-2.0977494E-1,8.353964E-1,9.846381E-4,-6.0755163E-1,1.4626954E0,-1.4107341E-3,1.9140382E-3,1.6527145E0,-1.410177E-4,1.8119332E0,-1.2701168E0,-1.3961698E0,-1.9037353E0,-8.8566613E-1,-2.7995015E-4,1.5855476E-5,1.10677E0,1.6241809E0,1.6976708E-3,4.6494819E-4,1.6043048E-1,3.9182022E0,-9.291418E-2,7.074773E-1,1.1962879E0,-1.8421923E0,-1.4958099E0,-1.0352077E0,1.7415116E0,-4.835539E-2,-2.5463912E0,4.130646E0,1.2389245E-4,9.564889E-4,-3.3318065E-5,1.1897928E-3,6.2498817E-4,-7.9638517E-4,-3.671684E-4,1.2734256E-4,3.875522E-4,-8.407025E-4,-2.6017344E-3,-1.0086051E-3,-7.911853E-4,-1.6594166E-4,-3.0546618E-4,5.6894013E-4,5.0555065E-4,-8.379072E-4,3.8439094E-4,1.6791254E-3,3.6384104E-4,-3.9852172E-4,8.9645764E-4,-1.4741169E-5],"split_indices":[0,39,27,52,18,2,17,35,42,0,47,0,0,0,35,0,2,40,0,30,53,0,0,35,32,0,0,29,51,22,37,16,47,0,8,47,49,49,12,0,0,0,0,0,0,0,0,0,0,0,0,0,0,0,0,0,0,0,0,0,0,0,0],"split_type":[0,0,0,0,0,0,0,0,0,0,0,0,0,0,0,0,0,0,0,0,0,0,0,0,0,0,0,0,0,0,0,0,0,0,0,0,0,0,0,0,0,0,0,0,0,0,0,0,0,0,0,0,0,0,0,0,0,0,0,0,0,0,0],"sum_hessian":[9.18E2,8.1E2,1.08E2,7.74E2,3.6E1,5E0,1.03E2,4E0,7.7E2,5E0,3.1E1,2E0,3E0,2E0,1.01E2,1E0,3E0,6.85E2,8.5E1,2.2E1,9E0,1E0,1E0,8.3E1,1.8E1,2E0,1E0,1.5E1,6.7E2,2.2E1,6.3E1,8E0,1.4E1,5E0,4E0,7.1E1,1.2E1,1.5E1,3E0,7E0,8E0,6.68E2,2E0,2E0,2E1,3.4E1,2.9E1,3E0,5E0,1E0,1.3E1,3E0,2E0,1E0,3E0,6.9E1,2E0,6E0,6E0,1E0,1.4E1,2E0,1E0],"tree_param":{"num_deleted":"0","num_feature":"54","num_nodes":"63","size_leaf_vector":"1"}},{"base_weights":[-8.948984E-4,-4.1393116E-3,1.7424641E-2,-2.9821657E-3,-2.8828137E-2,-2.7993867E-2,2.0506073E-2,3.8517162E-2,-3.4960518E-3,9.6822757E-4,-4.3814655E-2,6.54894E-3,-4.635676E-2,1.8885176E-3,1.856795E-2,1.6750353E-3,1.3628451E-2,-2.3825883E-3,-2.0574054E-2,-2.219321E-3,-3.4730624E-2,1.569692E-5,1.641738E-4,-2.7715063E-4,-1.0017019E-3,2.3051409E-2,-2.3174556E-3,5.124799E-4,3.7054336E-3,-3.9447974E-3,8.417092E-3,-4.5091715E-2,-6.337619E-3,-3.7865054E-2,4.6764567E-4,-1.1414518E-3,2.4396474E-2,-2.1764262E-2,2.087581E-2,1.563768E-4,-3.2862357E-5,4.774548E-4,-9.218907E-5,1.1693232E-4,8.343132E-4,-2.1379245E-4,-1.1133655E-3,-4.4540563E-4,3.617902E-4,-2.1309814E-4,-9.09907E-4,4.0202434E-4,9.593776E-4,-4.9308885E-4,-7.824353E-5,-9.17316E-5,7.216194E-4],"categories":[],"categories_nodes":[],"categories_segments":[],"categories_sizes":[],"default_left":[0,0,0,0,0,0,0,0,0,0,0,0,0,0,0,0,0,0,0,0,0,0,0,0,0,0,0,0,0,0,0,0,0,0,0,0,0,0,0,0,0,0,0,0,0,0,0,0,0,0,0,0,0,0,0,0,0],"id":4,"left_children":[1,3,5,7,9,11,13,15,17,-1,19,21,23,-1,25,-1,27,29,31,-1,33,-1,-1,-1,-1,35,37,-1,39,41,43,45,47,49,-1,-1,51,53,55,-1,-1,-1,-1,-1,-1,-1,-1,-1,-1,-1,-1,-1,-1,-1,-1,-1,-1],"loss_changes":[5.3326923E-2,2.1683283E-2,1.9467842E-2,1.5681254E-2,4.147787E-2,6.0123405E-3,1.6441457E-2,8.991073E-3,1.3661321E-2,0E0,1.3836231E-2,3.1825257E-5,3.2952987E-5,0E0,1.1758283E-2,0E0,7.3827605E-4,1.1471985E-2,1.5072171E-2,0E0,5.803447E-3,0E0,0E0,0E0,0E0,1.24928765E-2,1.08281495E-2,0E0,1.2285112E-4,1.1074079E-2,7.1171164E-3,5.2266195E-3,1.1689347E-2,4.9134083E-3,0E0,0E0,9.363223E-3,5.742926E-4,4.424246E-3,0E0,0E0,0E0,0E0,0E0,0E0,0E0,0E0,0E0,0E0,0E0,0E0,0E0,0E0,0E0,0E0,0E0,0E0],"parents":[2147483647,0,0,1,1,2,2,3,3,4,4,5,5,6,6,7,7,8,8,10,10,11,11,12,12,14,14,16,16,17,17,18,18,20,20,25,25,26,26,28,28,29,29,30,30,31,31,32,32,33,33,36,36,37,37,38,38],"right_children":[2,4,6,8,10,12,14,16,18,-1,20,22,24,-1,26,-1,28,30,32,-1,34,-1,-1,-1,-1,36,38,-1,40,42,44,46,48,50,-1,-1,52,54,56,-1,-1,-1,-1,-1,-1,-1,-1,-1,-1,-1,-1,-1,-1,-1,-1,-1,-1],"split_conditions":[1.0755291E0,1.4035364E0,-9.858029E-1,-1.0360867E0,-1.8044513E0,-1.2362517E0,-1.0120629E0,1.8115579E0,1.0198925E0,9.6822757E-4,-1.8421923E0,2.2312348E0,2.3331012E-1,1.8885176E-3,1.6753402E0,1.6750353E-3,7.9330266E-1,8.858768E-1,2.0912133E-1,-2.219321E-3,7.085467E-1,1.569692E-5,1.641738E-4,-2.7715063E-4,-1.0017019E-3,-2.2756386E0,3.442272E-2,5.124799E-4,-1.1118945E0,-1.2701168E0,4.8008627E-1,-2.1862566E-1,4.5759436E-1,-1.5139612E0,4.6764567E-4,-1.1414518E-3,1.2856662E0,1.2027159E-1,1.3871919E0,1.563768E-4,-3.2862357E-5,4.774548E-4,-9.218907E-5,1.1693232E-4,8.343132E-4,-2.1379245E-4,-1.1133655E-3,-4.4540563E-4,3.617902E-4,-2.1309814E-4,-9.09907E-4,4.0202434E-4,9.593776E-4,-4.9308885E-4,-7.824353E-5,-9.17316E-5,7.216194E-4],"split_indices":[1,39,27,52,18,53,17,21,42,0,47,1,2,0,35,0,19,31,23,0,26,0,0,0,0,49,51,0,3,40,21,23,35,3,0,0,35,53,31,0,0,0,0,0,0,0,0,0,0,0,0,0,0,0,0,0,0],"split_type":[0,0,0,0,0,0,0,0,0,0,0,0,0,0,0,0,0,0,0,0,0,0,0,0,0,0,0,0,0,0,0,0,0,0,0,0,0,0,0,0,0,0,0,0,0,0,0,0,0,0,0,0,0,0,0,0,0],"sum_hessian":[8.95E2,7.61E2,1.34E2,7.28E2,3.3E1,8E0,1.26E2,8E0,7.2E2,5E0,2.8E1,3E0,5E0,2E0,1.24E2,2E0,6E0,6.77E2,4.3E1,2E0,2.6E1,1E0,2E0,1E0,4E0,1.02E2,2.2E1,2E0,4E0,5.92E2,8.5E1,1.5E1,2.8E1,2.5E1,1E0,1E0,1.01E2,1.2E1,1E1,2E0,2E0,1.3E1,5.79E2,8E1,5E0,4E0,1.1E1,1.7E1,1.1E1,6E0,1.9E1,8.7E1,1.4E1,1E1,2E0,4E0,6E0],"tree_param":{"num_deleted":"0","num_feature":"54","num_nodes":"57","size_leaf_vector":"1"}},{"base_weights":[-2.6789E-4,-3.1976802E-3,2.2187212E-2,5.0019164E-2,-3.717406E-3,-1.7711217E-2,2.5157213E-2,1.2290896E-3,-3.0028055E-4,-2.373356E-3,-3.352591E-2,-6.499275E-4,5.198035E-3,2.268698E-2,7.8771085E-2,-2.7901266E-4,-1.3872465E-2,-2.5535238E-3,-2.7001604E-2,1.553995E-5,1.282543E-4,2.5501618E-2,-1.7144307E-2,1.8545033E-3,3.690885E-4,-8.9361245E-4,4.427633E-2,-9.4652865E-3,-4.4091694E-2,6.236555E-4,-3.161259E-2,3.6597487E-2,1.3851366E-2,-8.778861E-5,-4.2736743E-4,-2.3351047E-5,1.1751582E-3,1.609557E-3,4.4872405E-4,-3.3127822E-4,1.21085315E-4,-9.957872E-4,-9.4091585E-5,-9.3308314E-5,-7.5303455E-4,5.49316E-4,1.4217419E-3,4.2248177E-4,-7.630827E-4],"categories":[],"categories_nodes":[],"categories_segments":[],"categories_sizes":[],"default_left":[0,0,0,0,0,0,0,0,0,0,0,0,0,0,0,0,0,0,0,0,0,0,0,0,0,0,0,0,0,0,0,0,0,0,0,0,0,0,0,0,0,0,0,0,0,0,0,0,0],"id":5,"left_children":[1,3,5,7,9,11,13,-1,-1,15,17,-1,19,21,23,25,27,-1,29,-1,-1,31,33,-1,-1,35,37,39,41,-1,43,45,47,-1,-1,-1,-1,-1,-1,-1,-1,-1,-1,-1,-1,-1,-1,-1,-1],"loss_changes":[6.0991317E-2,2.2865638E-2,1.3124894E-2,6.8720803E-3,3.2492563E-2,2.8786522E-3,1.14568025E-2,0E0,0E0,1.8756848E-2,1.8051825E-2,0E0,1.6497906E-5,1.1311937E-2,1.655465E-3,1.8112812E-2,1.5564444E-2,0E0,1.0107538E-2,0E0,0E0,1.1256617E-2,2.8334698E-4,0E0,0E0,1.0722891E-2,5.3101946E-3,1.17780315E-2,3.131982E-3,0E0,5.031951E-3,1.2535162E-2,1.8204166E-2,0E0,0E0,0E0,0E0,0E0,0E0,0E0,0E0,0E0,0E0,0E0,0E0,0E0,0E0,0E0,0E0],"parents":[2147483647,0,0,1,1,2,2,3,3,4,4,5,5,6,6,9,9,10,10,12,12,13,13,14,14,15,15,16,16,18,18,21,21,22,22,25,25,26,26,27,27,28,28,30,30,31,31,32,32],"right_children":[2,4,6,8,10,12,14,-1,-1,16,18,-1,20,22,24,26,28,-1,30,-1,-1,32,34,-1,-1,36,38,40,42,-1,44,46,48,-1,-1,-1,-1,-1,-1,-1,-1,-1,-1,-1,-1,-1,-1,-1,-1],"split_conditions":[1.3155867E0,-1.0360148E0,-9.99089E-1,3.5810237E0,1.4035364E0,1.5416888E0,3.916969E0,1.2290896E-3,-3.0028055E-4,7.490153E-1,-1.8421923E0,-6.499275E-4,2.2946935E0,3.246783E0,4.132299E0,1.7346842E0,1.7111168E0,-2.5535238E-3,-1.8044513E0,1.553995E-5,1.282543E-4,-1.1607774E-1,6.483124E-1,1.8545033E-3,3.690885E-4,3.9182022E0,-4.2413872E-1,1.653211E-1,4.5096293E-1,6.236555E-4,-1.5139612E0,8.2083213E-1,1.3716481E0,-8.778861E-5,-4.2736743E-4,-2.3351047E-5,1.1751582E-3,1.609557E-3,4.4872405E-4,-3.3127822E-4,1.21085315E-4,-9.957872E-4,-9.4091585E-5,-9.3308314E-5,-7.5303455E-4,5.49316E-4,1.4217419E-3,4.2248177E-4,-7.630827E-4],"split_indices":[0,50,10,2,39,20,0,0,0,38,47,0,0,35,2,2,19,0,18,0,0,11,19,0,0,51,22,3,0,0,3,35,42,0,0,0,0,0,0,0,0,0,0,0,0,0,0,0,0],"split_type":[0,0,0,0,0,0,0,0,0,0,0,0,0,0,0,0,0,0,0,0,0,0,0,0,0,0,0,0,0,0,0,0,0,0,0,0,0,0,0,0,0,0,0,0,0,0,0,0,0],"sum_hessian":[9.25E2,8.19E2,1.06E2,7E0,8.12E2,7E0,9.9E1,6E0,1E0,7.78E2,3.4E1,4E0,3E0,9.6E1,3E0,6.59E2,1.19E2,1E0,3.3E1,1E0,2E0,9E1,6E0,2E0,1E0,6.51E2,8E0,1.05E2,1.4E1,2E0,3.1E1,4.5E1,4.5E1,2E0,4E0,6.49E2,2E0,2E0,6E0,7.2E1,3.3E1,1.2E1,2E0,6E0,2.5E1,3.7E1,8E0,4E1,5E0],"tree_param":{"num_deleted":"0","num_feature":"54","num_nodes":"49","size_leaf_vector":"1"}},{"base_weights":[-5.638213E-6,-3.456139E-3,1.9161053E-2,2.973267E-2,-4.1633304E-3,-4.3547932E-2,2.1866303E-2,5.0497822E-2,2.655289E-3,-3.5287306E-2,-2.9454797E-3,-8.41651E-3,-1.1801902E-3,1.897968E-2,7.0701756E-2,5.553452E-2,1.0204254E-4,1.7966773E-2,-1.714789E-2,-1.0536109E-2,-5.928592E-2,-1.9187689E-3,-2.2371171E-2,-2.6787983E-4,1.538455E-5,2.1772072E-2,-9.36239E-3,8.3157964E-2,-4.0354986E-5,1.1826376E-3,3.0352984E-4,7.2299335E-5,5.265931E-4,-5.5731864E-5,-4.2012247E-4,7.0852094E-4,-2.497882E-2,-2.5279885E-3,-4.4400312E-2,9.98374E-4,-2.2204297E-3,-4.271268E-2,-5.807581E-3,-2.2817007E-3,2.5402956E-2,-3.5355475E-2,6.8198045E-4,4.2929774E-4,1.824072E-3,-9.0946513E-4,2.561609E-4,-9.980453E-4,-3.9090685E-4,-4.966233E-5,1.1594894E-3,3.0789716E-4,-9.5225684E-4,4.9740524E-4,-3.3897595E-4,-3.2524863E-4,1.5465963E-4,1.3336147E-3,4.4117667E-4,-4.3906857E-5,-1.0962497E-3],"categories":[],"categories_nodes":[],"categories_segments":[],"categories_sizes":[],"default_left":[0,0,0,0,0,0,0,0,0,0,0,0,0,0,0,0,0,0,0,0,0,0,0,0,0,0,0,0,0,0,0,0,0,0,0,0,0,0,0,0,0,0,0,0,0,0,0,0,0,0,0,0,0,0,0,0,0,0,0,0,0,0,0,0,0],"id":6,"left_children":[1,3,5,7,9,11,13,15,17,19,21,23,-1,25,27,29,-1,31,33,35,37,39,41,-1,-1,43,45,47,-1,-1,-1,-1,-1,-1,-1,-1,49,-1,51,-1,53,55,57,59,61,63,-1,-1,-1,-1,-1,-1,-1,-1,-1,-1,-1,-1,-1,-1,-1,-1,-1,-1,-1],"loss_changes":[5.9389032E-2,1.7985098E-2,2.4193376E-2,8.8621685E-3,2.8172705E-2,2.7624704E-3,1.726608E-2,1.7744545E-3,2.7338208E-3,1.6007204E-2,1.4297221E-2,1.4746857E-4,0E0,1.017575E-2,6.5084584E-3,2.640467E-4,0E0,5.0493167E-4,1.6310147E-4,1.0842172E-2,8.374184E-3,1.0806782E-2,1.1881366E-2,0E0,0E0,1.0101654E-2,1.47619415E-2,1.0204874E-3,0E0,0E0,0E0,0E0,0E0,0E0,0E0,0E0,9.875471E-3,0E0,8.024052E-4,0E0,1.09122E-2,5.288774E-3,7.5990795E-3,2.3659586E-3,1.2332894E-2,5.0412435E-3,0E0,0E0,0E0,0E0,0E0,0E0,0E0,0E0,0E0,0E0,0E0,0E0,0E0,0E0,0E0,0E0,0E0,0E0,0E0],"parents":[2147483647,0,0,1,1,2,2,3,3,4,4,5,5,6,6,7,7,8,8,9,9,10,10,11,11,13,13,14,14,15,15,17,17,18,18,19,19,20,20,21,21,22,22,25,25,26,26,27,27,36,36,38,38,40,40,41,41,42,42,43,43,44,44,45,45],"right_children":[2,4,6,8,10,12,14,16,18,20,22,24,-1,26,28,30,-1,32,34,36,38,40,42,-1,-1,44,46,48,-1,-1,-1,-1,-1,-1,-1,-1,50,-1,52,-1,54,56,58,60,62,64,-1,-1,-1,-1,-1,-1,-1,-1,-1,-1,-1,-1,-1,-1,-1,-1,-1,-1,-1],"split_conditions":[1.0745094E0,-1.033302E0,-1.0078394E0,-1.4149107E-1,-1.7848623E0,9.892908E-1,3.4025493E0,3.705625E-1,1.11389734E-1,-1.9171708E0,1.3070158E0,1.4626954E0,-1.1801902E-3,1.3431668E0,2.0572336E0,1.5083313E0,1.0204254E-4,-4.0603656E-1,2.100417E-1,-2.5475447E0,-9.3738204E-1,-2.064605E0,-6.989547E-1,-2.6787983E-4,1.538455E-5,-7.077714E-1,1.336368E0,-6.013073E-1,-4.0354986E-5,1.1826376E-3,3.0352984E-4,7.2299335E-5,5.265931E-4,-5.5731864E-5,-4.2012247E-4,7.0852094E-4,-9.418107E-1,-2.5279885E-3,-6.2705773E-1,9.98374E-4,3.9182022E0,-1.461034E0,7.364634E-1,-1.3085909E-1,-6.335509E-1,-4.458988E-1,6.8198045E-4,4.2929774E-4,1.824072E-3,-9.0946513E-4,2.561609E-4,-9.980453E-4,-3.9090685E-4,-4.966233E-5,1.1594894E-3,3.0789716E-4,-9.5225684E-4,4.9740524E-4,-3.3897595E-4,-3.2524863E-4,1.5465963E-4,1.3336147E-3,4.4117667E-4,-4.3906857E-5,-1.0962497E-3],"split_indices":[0,46,27,34,22,2,40,35,53,6,42,0,0,53,18,53,0,2,2,23,4,6,27,0,0,37,0,2,0,0,0,0,0,0,0,0,23,0,18,0,51,53,36,51,37,51,0,0,0,0,0,0,0,0,0,0,0,0,0,0,0,0,0,0,0],"split_type":[0,0,0,0,0,0,0,0,0,0,0,0,0,0,0,0,0,0,0,0,0,0,0,0,0,0,0,0,0,0,0,0,0,0,0,0,0,0,0,0,0,0,0,0,0,0,0,0,0,0,0,0,0,0,0,0,0,0,0,0,0,0,0,0,0],"sum_hessian":[8.96E2,7.6E2,1.36E2,1.5E1,7.45E2,5E0,1.31E2,8E0,7E0,2.7E1,7.18E2,2E0,3E0,1.25E2,6E0,7E0,1E0,4E0,3E0,1.4E1,1.3E1,6.83E2,3.5E1,1E0,1E0,1.14E2,1.1E1,5E0,1E0,6E0,1E0,2E0,2E0,1E0,2E0,3E0,1.1E1,1E0,1.2E1,3E0,6.8E2,1.5E1,2E1,1.5E1,9.9E1,7E0,4E0,1E0,4E0,7E0,4E0,9E0,3E0,6.78E2,2E0,1E0,1.4E1,5E0,1.5E1,6E0,9E0,6E0,9.3E1,3E0,4E0],"tree_param":{"num_deleted":"0","num_feature":"54","num_nodes":"65","size_leaf_vector":"1"}},{"base_weights":[9.766637E-4,-2.5920775E-3,2.019575E-2,8.215191E-5,-1.278494E-2,-3.137E-2,2.4339898E-2,-7.376784E-4,3.24873E-2,3.135694E-2,-1.56425E-2,-3.93133E-3,-4.6487622E-2,1.8159582E-3,2.2090504E-2,-3.6671112E-4,-3.1740546E-2,1.1352561E-2,5.501949E-2,1.1569696E-3,-6.7043016E-3,-4.2590573E-2,-1.1645106E-2,-3.9279E-4,4.9055885E-3,-2.3283549E-3,-1.2737131E-3,1.0194398E-2,3.0252336E-2,-9.077332E-4,1.899775E-2,-8.9045893E-4,1.4363586E-4,1.9903133E-2,-1.238296E-2,1.5615639E-3,1.820591E-2,3.4174073E-4,-1.6923895E-2,-2.8782701E-2,-2.1327666E-3,-7.1637975E-3,-3.1512503E-2,1.5230705E-5,1.2066188E-4,-2.6520106E-4,1.9535043E-4,1.4784012E-2,-1.4396338E-2,5.4027185E-2,2.0192351E-2,4.560553E-4,-2.740405E-5,7.7005505E-4,-2.3161017E-4,-4.989501E-5,5.4204087E-5,4.4039305E-4,7.2040224E-5,-5.0943316E-5,-3.2054546E-4,4.2130175E-4,9.628376E-5,-5.5174547E-5,-4.1452082E-4,-1.7156341E-4,-8.413611E-4,-1.7378053E-4,7.009143E-4,3.7369708E-4,-7.3850417E-4,-5.335773E-4,3.659442E-4,-1.3814306E-4,-3.801251E-4,4.3111827E-4,1.6907766E-3,6.5256347E-4,1.1103438E-6],"categories":[],"categories_nodes":[],"categories_segments":[],"categories_sizes":[],"default_left":[0,0,0,0,0,0,0,0,0,0,0,0,0,0,0,0,0,0,0,0,0,0,0,0,0,0,0,0,0,0,0,0,0,0,0,0,0,0,0,0,0,0,0,0,0,0,0,0,0,0,0,0,0,0,0,0,0,0,0,0,0,0,0,0,0,0,0,0,0,0,0,0,0,0,0,0,0,0,0],"id":7,"left_children":[1,3,5,7,9,11,13,15,17,19,21,23,25,-1,27,29,31,33,35,-1,37,39,41,-1,43,45,-1,47,49,51,53,-1,55,57,59,-1,61,-1,63,65,-1,67,69,-1,-1,-1,-1,71,73,75,77,-1,-1,-1,-1,-1,-1,-1,-1,-1,-1,-1,-1,-1,-1,-1,-1,-1,-1,-1,-1,-1,-1,-1,-1,-1,-1,-1,-1],"loss_changes":[6.219303E-2,2.0853462E-2,3.1108387E-2,1.6149964E-2,2.054644E-2,4.3801228E-3,1.7726943E-2,6.808482E-3,6.518567E-3,1.0470843E-2,1.5662339E-2,7.904024E-4,5.1678875E-3,0E0,1.2216724E-2,6.1670095E-3,2.8592893E-3,2.07303E-3,4.5206323E-3,0E0,1.5048684E-3,1.3733566E-2,1.1526464E-2,0E0,1.4095371E-5,5.262033E-4,0E0,6.3073826E-3,1.7086335E-2,6.3034412E-3,9.988745E-3,0E0,2.7076083E-5,1.6219635E-4,6.6710054E-5,0E0,5.174603E-5,0E0,1.5825476E-4,4.2023445E-3,0E0,7.3218434E-3,7.21083E-3,0E0,0E0,0E0,0E0,7.1888445E-3,1.7944176E-4,1.9974232E-2,1.3771182E-2,0E0,0E0,0E0,0E0,0E0,0E0,0E0,0E0,0E0,0E0,0E0,0E0,0E0,0E0,0E0,0E0,0E0,0E0,0E0,0E0,0E0,0E0,0E0,0E0,0E0,0E0,0E0,0E0],"parents":[2147483647,0,0,1,1,2,2,3,3,4,4,5,5,6,6,7,7,8,8,9,9,10,10,11,11,12,12,14,14,15,15,16,16,17,17,18,18,20,20,21,21,22,22,24,24,25,25,27,27,28,28,29,29,30,30,32,32,33,33,34,34,36,36,38,38,39,39,41,41,42,42,47,47,48,48,49,49,50,50],"right_children":[2,4,6,8,10,12,14,16,18,20,22,24,26,-1,28,30,32,34,36,-1,38,40,42,-1,44,46,-1,48,50,52,54,-1,56,58,60,-1,62,-1,64,66,-1,68,70,-1,-1,-1,-1,72,74,76,78,-1,-1,-1,-1,-1,-1,-1,-1,-1,-1,-1,-1,-1,-1,-1,-1,-1,-1,-1,-1,-1,-1,-1,-1,-1,-1,-1,-1],"split_conditions":[1.0044339E0,4.6852827E-1,-9.858029E-1,1.4370252E0,-1.033302E0,-3.6289543E-1,-1.0101619E0,1.1540322E0,2.9050347E-1,-1.4149107E-1,-1.2998238E0,1.3110042E0,-2.4862671E-1,1.8159582E-3,-2.22456E-1,1.4632901E0,2.3848885E-1,1.3582681E0,2.2049613E0,1.1569696E-3,-6.2891E-1,-6.909144E-1,1.1230148E0,-3.9279E-4,2.2946935E0,1.4626954E0,-1.2737131E-3,2.0740912E0,1.7377977E-1,-1.160856E0,8.267524E-1,-8.9045893E-4,1.332552E-1,-2.647233E-1,-8.998769E-1,1.5615639E-3,1.6939405E-2,3.4174073E-4,2.100417E-1,-6.5812546E-1,-2.1327666E-3,1.8838533E0,-8.5745955E-1,1.5230705E-5,1.2066188E-4,-2.6520106E-4,1.9535043E-4,-8.3246815E-1,-2.5989267E-1,-1.976378E-1,-7.2761044E-2,4.560553E-4,-2.740405E-5,7.7005505E-4,-2.3161017E-4,-4.989501E-5,5.4204087E-5,4.4039305E-4,7.2040224E-5,-5.0943316E-5,-3.2054546E-4,4.2130175E-4,9.628376E-5,-5.5174547E-5,-4.1452082E-4,-1.7156341E-4,-8.413611E-4,-1.7378053E-4,7.009143E-4,3.7369708E-4,-7.3850417E-4,-5.335773E-4,3.659442E-4,-1.3814306E-4,-3.801251E-4,4.3111827E-4,1.6907766E-3,6.5256347E-4,1.1103438E-6],"split_indices":[0,37,27,2,46,49,17,12,21,34,30,0,35,0,34,51,16,30,2,0,9,0,19,0,0,0,0,35,29,12,12,0,0,0,0,0,0,0,2,17,0,40,35,0,0,0,0,31,51,49,4,0,0,0,0,0,0,0,0,0,0,0,0,0,0,0,0,0,0,0,0,0,0,0,0,0,0,0,0],"split_type":[0,0,0,0,0,0,0,0,0,0,0,0,0,0,0,0,0,0,0,0,0,0,0,0,0,0,0,0,0,0,0,0,0,0,0,0,0,0,0,0,0,0,0,0,0,0,0,0,0,0,0,0,0,0,0,0,0,0,0,0,0,0,0,0,0,0,0,0,0,0,0,0,0,0,0,0,0,0,0],"sum_hessian":[9.05E2,7.64E2,1.41E2,6.06E2,1.58E2,1E1,1.31E2,5.92E2,1.4E1,9E0,1.49E2,4E0,6E0,3E0,1.28E2,5.86E2,6E0,8E0,6E0,5E0,4E0,1.8E1,1.31E2,1E0,3E0,2E0,4E0,5.3E1,7.5E1,5.71E2,1.5E1,4E0,2E0,6E0,2E0,3E0,3E0,1E0,3E0,1.6E1,2E0,1.08E2,2.3E1,1E0,2E0,1E0,1E0,4.5E1,8E0,2.1E1,5.4E1,1E1,5.61E2,9E0,6E0,1E0,1E0,5E0,1E0,1E0,1E0,2E0,1E0,1E0,2E0,7E0,9E0,1.05E2,3E0,2E0,2.1E1,3E0,4.2E1,4E0,4E0,1.1E1,1E1,3.3E1,2.1E1],"tree_param":{"num_deleted":"0","num_feature":"54","num_nodes":"79","size_leaf_vector":"1"}},{"base_weights":[-1.3907645E-4,-3.2751015E-3,1.7327538E-2,-6.9872633E-4,-1.253653E-2,-5.1162433E-2,1.9772066E-2,-1.6452476E-3,2.9891694E-2,1.4105994E-2,-1.6492385E-2,-4.3427412E-4,-1.2711403E-3,1.7085966E-2,7.378021E-2,2.8209155E-2,-2.432145E-3,7.200451E-3,6.4520724E-2,9.458715E-4,9.808402E-4,-2.5608836E-2,-1.5464425E-3,2.2807486E-2,4.3888995E-3,2.2615485E-3,-6.4189815E-5,1.271329E-2,9.866814E-4,-7.2267524E-4,-1.2982759E-2,2.6424207E-2,-1.6427338E-2,6.331736E-7,1.5052725E-3,1.14467535E-2,-2.6545597E-2,-8.067621E-3,-3.2998443E-2,7.6757325E-4,-7.1050287E-3,2.6090736E-2,-1.8911662E-2,1.9710742E-2,-1.628405E-2,-8.880015E-5,4.1397975E-4,-1.6450578E-4,3.2652584E-5,-3.3569275E-4,1.928624E-4,2.6834372E-4,7.8589004E-4,-5.698991E-4,-6.53958E-5,3.6836206E-4,-1.7686615E-4,-5.862455E-4,-1.5478881E-4,2.3167759E-5,-7.1822264E-4,-1.0575316E-3,-5.3545187E-4,1.0682549E-4,-5.208309E-4,3.816072E-4,9.3737757E-4,1.3643171E-4,-1.1099303E-3,-3.412642E-4,5.5837387E-4,-7.8597787E-4,3.8687747E-5],"categories":[],"categories_nodes":[],"categories_segments":[],"categories_sizes":[],"default_left":[0,0,0,0,0,0,0,0,0,0,0,0,0,0,0,0,0,0,0,0,0,0,0,0,0,0,0,0,0,0,0,0,0,0,0,0,0,0,0,0,0,0,0,0,0,0,0,0,0,0,0,0,0,0,0,0,0,0,0,0,0,0,0,0,0,0,0,0,0,0,0,0,0],"id":8,"left_children":[1,3,5,7,9,11,13,15,17,19,21,-1,-1,23,25,27,29,31,33,35,-1,37,39,41,43,-1,-1,45,-1,47,49,51,53,-1,-1,55,57,59,61,-1,63,65,67,69,71,-1,-1,-1,-1,-1,-1,-1,-1,-1,-1,-1,-1,-1,-1,-1,-1,-1,-1,-1,-1,-1,-1,-1,-1,-1,-1,-1,-1],"loss_changes":[4.930014E-2,1.819712E-2,2.3948912E-2,1.736396E-2,1.7728044E-2,4.4496544E-4,1.803388E-2,1.3717664E-2,1.3679387E-2,1.0068381E-2,1.9717216E-2,0E0,0E0,9.198658E-3,1.8515807E-2,4.2830342E-3,1.0217003E-2,5.8846576E-3,4.8472174E-3,5.2115005E-3,0E0,1.139982E-2,1.27006015E-2,1.2547165E-2,1.3307625E-2,0E0,0E0,1.4617142E-3,0E0,8.654519E-3,6.957506E-3,6.4460794E-4,8.595091E-4,0E0,0E0,2.0017151E-3,3.3292454E-5,7.234364E-3,6.3811243E-3,0E0,1.1923578E-2,1.1050057E-2,6.968705E-3,7.7205133E-3,7.6233214E-3,0E0,0E0,0E0,0E0,0E0,0E0,0E0,0E0,0E0,0E0,0E0,0E0,0E0,0E0,0E0,0E0,0E0,0E0,0E0,0E0,0E0,0E0,0E0,0E0,0E0,0E0,0E0,0E0],"parents":[2147483647,0,0,1,1,2,2,3,3,4,4,5,5,6,6,7,7,8,8,9,9,10,10,13,13,14,14,15,15,16,16,17,17,18,18,19,19,21,21,22,22,23,23,24,24,27,27,29,29,30,30,31,31,32,32,35,35,36,36,37,37,38,38,40,40,41,41,42,42,43,43,44,44],"right_children":[2,4,6,8,10,12,14,16,18,20,22,-1,-1,24,26,28,30,32,34,36,-1,38,40,42,44,-1,-1,46,-1,48,50,52,54,-1,-1,56,58,60,62,-1,64,66,68,70,72,-1,-1,-1,-1,-1,-1,-1,-1,-1,-1,-1,-1,-1,-1,-1,-1,-1,-1,-1,-1,-1,-1,-1,-1,-1,-1,-1,-1],"split_conditions":[1.0745094E0,4.6852827E-1,-1.0078394E0,1.4632901E0,-9.9042207E-1,1.4626954E0,2.3314772E0,-1.4937623E0,2.9050347E-1,-9.9706054E-1,5.9017307E-1,-4.3427412E-4,-1.2711403E-3,8.7537336E-1,-6.0730946E-1,-9.0050924E-1,2.568212E-1,-3.5156208E-1,-2.275251E0,1.4632901E0,9.808402E-4,-1.941996E-1,-8.326172E-1,1.3431668E0,8.125614E-1,2.2615485E-3,-6.4189815E-5,-4.727301E-1,9.866814E-4,-5.6257856E-1,9.470693E-1,9.2245656E-1,6.4770947E-3,6.331736E-7,1.5052725E-3,-9.9097973E-1,-1.2256186E-1,6.001736E-1,-2.128529E0,7.6757325E-4,4.2087227E-1,9.28352E-1,-4.458988E-1,-8.823086E-1,4.539386E-1,-8.880015E-5,4.1397975E-4,-1.6450578E-4,3.2652584E-5,-3.3569275E-4,1.928624E-4,2.6834372E-4,7.8589004E-4,-5.698991E-4,-6.53958E-5,3.6836206E-4,-1.7686615E-4,-5.862455E-4,-1.5478881E-4,2.3167759E-5,-7.1822264E-4,-1.0575316E-3,-5.3545187E-4,1.0682549E-4,-5.208309E-4,3.816072E-4,9.3737757E-4,1.3643171E-4,-1.1099303E-3,-3.412642E-4,5.5837387E-4,-7.8597787E-4,3.8687747E-5],"split_indices":[0,37,27,51,8,0,30,0,21,28,33,0,0,44,7,3,19,53,0,51,0,19,41,53,36,0,0,23,0,44,36,4,6,0,0,48,6,13,22,0,19,9,51,27,27,0,0,0,0,0,0,0,0,0,0,0,0,0,0,0,0,0,0,0,0,0,0,0,0,0,0,0,0],"split_type":[0,0,0,0,0,0,0,0,0,0,0,0,0,0,0,0,0,0,0,0,0,0,0,0,0,0,0,0,0,0,0,0,0,0,0,0,0,0,0,0,0,0,0,0,0,0,0,0,0,0,0,0,0,0,0,0,0,0,0,0,0,0,0,0,0,0,0,0,0,0,0,0,0],"sum_hessian":[8.98E2,7.62E2,1.36E2,5.97E2,1.65E2,4E0,1.32E2,5.8E2,1.7E1,2.1E1,1.44E2,2E0,2E0,1.27E2,5E0,1.4E1,5.66E2,1.1E1,6E0,1.6E1,5E0,8.9E1,5.5E1,8.7E1,4E1,3E0,2E0,9E0,5E0,4.88E2,7.8E1,6E0,5E0,1E0,5E0,1.2E1,4E0,2.7E1,6.2E1,6E0,4.9E1,8.1E1,6E0,2.3E1,1.7E1,3E0,6E0,1.16E2,3.72E2,6.7E1,1.1E1,4E0,2E0,2E0,3E0,9E0,3E0,3E0,1E0,2.1E1,6E0,1.3E1,4.9E1,3E1,1.9E1,6.2E1,1.9E1,4E0,2E0,4E0,1.9E1,7E0,1E1],"tree_param":{"num_deleted":"0","num_feature":"54","num_nodes":"73","size_leaf_vector":"1"}},{"base_weights":[5.65329E-4,-3.3627942E-3,1.3796165E-2,3.7774492E-2,-4.0194425E-3,-3.626471E-2,1.4966997E-2,1.0622352E-2,9.3257497E-4,-2.9941108E-2,-2.8673878E-3,-1.0096718E-3,2.061083E-4,1.4148679E-2,1.7944917E-3,-5.830642E-5,1.6106684E-2,-2.2186127E-2,-2.4708055E-3,-1.6199456E-3,-2.1539513E-2,7.777073E-3,2.103661E-2,3.974317E-4,8.57688E-5,1.7278798E-2,-3.1516712E-2,9.4893033E-4,-2.0181683E-3,-1.0258195E-2,-4.256361E-2,6.3377554E-3,1.101621E-3,4.445815E-2,1.6832536E-2,5.9309433E-4,-4.460079E-4,4.1090665E-5,-7.738495E-4,7.402178E-4,-4.9313374E-5,-4.1607654E-4,3.7412732E-4,-9.319359E-4,9.867785E-5,2.0392513E-4,-2.8016936E-4,5.742075E-4,1.8525975E-3,1.7985622E-4,5.809215E-4],"categories":[],"categories_nodes":[],"categories_segments":[],"categories_sizes":[],"default_left":[0,0,0,0,0,0,0,0,0,0,0,0,0,0,0,0,0,0,0,0,0,0,0,0,0,0,0,0,0,0,0,0,0,0,0,0,0,0,0,0,0,0,0,0,0,0,0,0,0,0,0],"id":9,"left_children":[1,3,5,7,9,11,13,15,-1,17,19,-1,-1,21,-1,-1,23,25,-1,27,29,31,33,-1,-1,35,37,-1,39,41,43,45,-1,47,49,-1,-1,-1,-1,-1,-1,-1,-1,-1,-1,-1,-1,-1,-1,-1,-1],"loss_changes":[4.676954E-2,1.8898662E-2,1.2617033E-2,2.1492243E-3,2.0340556E-2,3.831131E-3,1.108798E-2,3.4393652E-4,0E0,1.8309053E-2,1.5244922E-2,0E0,0E0,8.657724E-3,0E0,0E0,4.8265443E-5,1.0855033E-2,0E0,1.2132017E-2,9.287734E-3,6.8679657E-3,8.704383E-3,0E0,0E0,3.6002854E-3,5.620178E-3,0E0,1.0780155E-2,8.941755E-3,2.9118303E-3,8.307449E-3,0E0,7.960923E-3,7.6861084E-3,0E0,0E0,0E0,0E0,0E0,0E0,0E0,0E0,0E0,0E0,0E0,0E0,0E0,0E0,0E0,0E0],"parents":[2147483647,0,0,1,1,2,2,3,3,4,4,5,5,6,6,7,7,9,9,10,10,13,13,16,16,17,17,19,19,20,20,21,21,22,22,25,25,26,26,28,28,29,29,30,30,31,31,33,33,34,34],"right_children":[2,4,6,8,10,12,14,16,-1,18,20,-1,-1,22,-1,-1,24,26,-1,28,30,32,34,-1,-1,36,38,-1,40,42,44,46,-1,48,50,-1,-1,-1,-1,-1,-1,-1,-1,-1,-1,-1,-1,-1,-1,-1,-1],"split_conditions":[5.206512E-1,-1.0351064E0,-1.8527623E0,-1.0285405E0,-1.7848623E0,2.0467875E0,5.1424193E0,2.100417E-1,9.3257497E-4,8.264836E-3,1.0198925E0,-1.0096718E-3,2.061083E-4,1.3147001E0,1.7944917E-3,-5.830642E-5,-1.65314E0,-1.4963768E0,-2.4708055E-3,-2.064605E0,1.7316267E0,1.8851309E0,1.3250314E0,3.974317E-4,8.57688E-5,-3.221022E-2,-1.5139612E0,9.4893033E-4,-1.01707E0,1.0932677E0,2.8425782E0,1.3227497E0,1.101621E-3,1.3382399E0,1.5703723E-1,5.9309433E-4,-4.460079E-4,4.1090665E-5,-7.738495E-4,7.402178E-4,-4.9313374E-5,-4.1607654E-4,3.7412732E-4,-9.319359E-4,9.867785E-5,2.0392513E-4,-2.8016936E-4,5.742075E-4,1.8525975E-3,1.7985622E-4,5.809215E-4],"split_indices":[1,46,38,3,22,1,1,2,0,1,42,0,0,1,0,0,1,47,0,6,20,2,1,0,0,4,3,0,14,20,2,47,0,30,53,0,0,0,0,0,0,0,0,0,0,0,0,0,0,0,0],"split_type":[0,0,0,0,0,0,0,0,0,0,0,0,0,0,0,0,0,0,0,0,0,0,0,0,0,0,0,0,0,0,0,0,0,0,0,0,0,0,0,0,0,0,0,0,0,0,0,0,0,0,0],"sum_hessian":[8.98E2,6.93E2,2.05E2,1E1,6.83E2,4E0,2.01E2,3E0,7E0,2.8E1,6.55E2,3E0,1E0,2E2,1E0,1E0,2E0,2.7E1,1E0,6.15E2,4E1,1.05E2,9.5E1,1E0,1E0,5E0,2.2E1,4E0,6.11E2,2.7E1,1.3E1,1.03E2,2E0,1.3E1,8.2E1,4E0,1E0,4E0,1.8E1,6E0,6.05E2,2E1,7E0,1.2E1,1E0,8.7E1,1.6E1,1.1E1,2E0,5.1E1,3.1E1],"tree_param":{"num_deleted":"0","num_feature":"54","num_nodes":"51","size_leaf_vector":"1"}},{"base_weights":[2.1481684E-4,-2.8648605E-3,1.869124E-2,3.389919E-2,-3.5269975E-3,-5.334183E-2,2.0796249E-2,5.2756894E-2,7.5047943E-3,-4.6049476E-2,-2.6819853E-3,-2.640155E-4,-1.2464384E-3,3.9715018E-2,1.3530789E-2,2.759155E-4,1.1270388E-3,-4.574626E-3,5.027113E-4,4.5677496E-4,-5.840449E-2,-1.9480813E-3,-2.6082214E-2,2.9582962E-2,2.2168544E-3,7.862827E-3,2.8052274E-2,-1.1343302E-2,7.437851E-5,-4.2887382E-2,-2.4460976E-3,-2.2840644E-3,3.9366532E-2,-3.298171E-2,6.181662E-4,4.3632174E-3,4.4496648E-2,1.1894177E-2,-9.223457E-4,3.2987446E-2,-2.0779872E-2,-2.825757E-4,-5.772336E-5,-9.0726855E-4,-1.5650872E-4,-3.8258382E-5,-7.126721E-4,9.0746675E-4,9.332501E-5,-7.341287E-4,4.1512828E-4,3.29784E-4,-2.5063928E-4,7.434015E-4,1.8370147E-3,2.7368352E-4,-5.9321045E-4,3.4792244E-4,9.966418E-4,-9.176136E-5,-5.316348E-4],"categories":[],"categories_nodes":[],"categories_segments":[],"categories_sizes":[],"default_left":[0,0,0,0,0,0,0,0,0,0,0,0,0,0,0,0,0,0,0,0,0,0,0,0,0,0,0,0,0,0,0,0,0,0,0,0,0,0,0,0,0,0,0,0,0,0,0,0,0,0,0,0,0,0,0,0,0,0,0,0,0],"id":10,"left_children":[1,3,5,7,9,11,13,15,17,19,21,-1,-1,23,25,-1,-1,27,-1,-1,29,31,33,35,-1,37,39,41,-1,43,-1,45,47,49,-1,51,53,55,-1,57,59,-1,-1,-1,-1,-1,-1,-1,-1,-1,-1,-1,-1,-1,-1,-1,-1,-1,-1,-1,-1],"loss_changes":[5.217525E-2,1.9253034E-2,2.0972867E-2,6.5723974E-3,2.7651934E-2,6.1918516E-4,1.7056674E-2,3.4311786E-4,1.605772E-3,1.4100611E-2,1.2983894E-2,0E0,0E0,2.1944392E-2,7.5163096E-3,0E0,0E0,3.2286675E-4,0E0,0E0,7.6448023E-3,1.0320219E-2,1.0063142E-2,1.1841672E-2,0E0,1.5563803E-2,6.951349E-3,2.9893563E-5,0E0,6.8679266E-4,0E0,8.992184E-3,1.0389043E-3,4.9652513E-3,0E0,2.869961E-3,3.5247616E-3,5.2407663E-3,0E0,5.436247E-3,1.5986932E-4,0E0,0E0,0E0,0E0,0E0,0E0,0E0,0E0,0E0,0E0,0E0,0E0,0E0,0E0,0E0,0E0,0E0,0E0,0E0,0E0],"parents":[2147483647,0,0,1,1,2,2,3,3,4,4,5,5,6,6,7,7,8,8,9,9,10,10,13,13,14,14,17,17,20,20,21,21,22,22,23,23,25,25,26,26,27,27,29,29,31,31,32,32,33,33,35,35,36,36,37,37,39,39,40,40],"right_children":[2,4,6,8,10,12,14,16,18,20,22,-1,-1,24,26,-1,-1,28,-1,-1,30,32,34,36,-1,38,40,42,-1,44,-1,46,48,50,-1,52,54,56,-1,58,60,-1,-1,-1,-1,-1,-1,-1,-1,-1,-1,-1,-1,-1,-1,-1,-1,-1,-1,-1,-1],"split_conditions":[1.115315E0,-1.033302E0,-1.0532854E0,-1.4149107E-1,-1.6996206E0,1.4626954E0,-2.9219985E-1,-1.0417858E0,-2.3662096E-1,-2.899862E0,1.8735821E0,-2.640155E-4,-1.2464384E-3,2.3314772E0,1.0085056E0,2.759155E-4,1.1270388E-3,-1.0301971E0,5.027113E-4,4.5677496E-4,8.364443E-2,2.4287205E0,4.1617063E-1,-8.866003E-1,2.2168544E-3,1.873791E0,3.676115E0,-2.275251E0,7.437851E-5,-1.603711E0,-2.4460976E-3,2.172018E0,1.5548263E-1,2.7769632E0,6.181662E-4,1.4680527E0,-6.172678E-1,1.7558436E0,-9.223457E-4,1.2942172E0,1.3110042E0,-2.825757E-4,-5.772336E-5,-9.0726855E-4,-1.5650872E-4,-3.8258382E-5,-7.126721E-4,9.0746675E-4,9.332501E-5,-7.341287E-4,4.1512828E-4,3.29784E-4,-2.5063928E-4,7.434015E-4,1.8370147E-3,2.7368352E-4,-5.9321045E-4,3.4792244E-4,9.966418E-4,-9.176136E-5,-5.316348E-4],"split_indices":[0,46,50,34,38,0,36,8,40,22,18,0,0,30,34,0,0,0,0,0,53,29,3,5,0,12,29,0,0,12,0,29,5,24,0,30,5,15,0,31,0,0,0,0,0,0,0,0,0,0,0,0,0,0,0,0,0,0,0,0,0],"split_type":[0,0,0,0,0,0,0,0,0,0,0,0,0,0,0,0,0,0,0,0,0,0,0,0,0,0,0,0,0,0,0,0,0,0,0,0,0,0,0,0,0,0,0,0,0,0,0,0,0,0,0,0,0,0,0,0,0,0,0,0,0],"sum_hessian":[9.15E2,7.85E2,1.3E2,1.3E1,7.72E2,3E0,1.27E2,7E0,6E0,1.4E1,7.58E2,1E0,2E0,3.4E1,9.3E1,1E0,6E0,4E0,2E0,2E0,1.2E1,7.36E2,2.2E1,3.1E1,3E0,6.8E1,2.5E1,2E0,2E0,1.1E1,1E0,7.31E2,5E0,2E1,2E0,1.2E1,1.9E1,6.4E1,4E0,2.3E1,2E0,1E0,1E0,1E1,1E0,7.24E2,7E0,4E0,1E0,1.9E1,1E0,7E0,5E0,1.8E1,1E0,6.2E1,2E0,1.3E1,1E1,1E0,1E0],"tree_param":{"num_deleted":"0","num_feature":"54","num_nodes":"61","size_leaf_vector":"1"}},{"base_weights":[6.141113E-5,-2.8562434E-3,1.8660948E-2,4.278266E-2,-3.517398E-3,-1.6964171E-2,2.2776369E-2,5.0816957E-2,8.8377696E-5,-5.446199E-2,-2.8988991E-3,-3.8750884E-3,-9.089167E-4,4.4742968E-2,1.6306078E-2,5.375462E-2,2.7315633E-4,-3.0999282E-2,-2.4216366E-3,-1.5322069E-3,-1.07993595E-2,7.037319E-3,-4.4006057E-4,3.2569498E-2,2.382015E-3,1.9981952E-2,-1.6954845E-2,3.2028687E-4,1.1371665E-3,4.4463482E-4,-8.3559356E-4,-4.1301064E-2,-1.1528303E-3,-1.3522763E-2,2.561437E-2,3.191381E-4,-3.6415984E-3,3.848081E-2,-1.7695757E-2,1.1759113E-2,3.477391E-2,-3.8035765E-2,1.8905248E-2,-2.373416E-4,-1.0610257E-3,6.1439304E-4,-3.219899E-5,7.9275516E-4,-2.9935798E-4,-1.981182E-5,1.0493397E-3,-2.06726E-4,4.0708048E-5,5.445291E-4,1.5338324E-3,-8.1624166E-5,-4.4924853E-4,4.1572726E-4,-1.8574295E-4,1.269253E-5,8.500798E-4,-2.1505283E-4,-8.2683726E-4,5.533485E-4,-7.381293E-5],"categories":[],"categories_nodes":[],"categories_segments":[],"categories_sizes":[],"default_left":[0,0,0,0,0,0,0,0,0,0,0,0,0,0,0,0,0,0,0,0,0,0,0,0,0,0,0,0,0,0,0,0,0,0,0,0,0,0,0,0,0,0,0,0,0,0,0,0,0,0,0,0,0,0,0,0,0,0,0,0,0,0,0,0,0],"id":11,"left_children":[1,3,5,7,9,11,13,15,-1,17,19,21,-1,23,25,27,-1,29,-1,31,33,35,-1,37,-1,39,41,-1,-1,-1,-1,43,45,47,49,-1,51,53,55,57,59,61,63,-1,-1,-1,-1,-1,-1,-1,-1,-1,-1,-1,-1,-1,-1,-1,-1,-1,-1,-1,-1,-1,-1],"loss_changes":[4.802535E-2,2.3233876E-2,1.7979868E-2,3.1659305E-3,2.363155E-2,4.670278E-3,1.4620483E-2,2.4827942E-4,0E0,1.0314286E-2,8.049184E-3,2.133037E-3,0E0,1.7845571E-2,1.073114E-2,2.6527792E-5,0E0,5.5196467E-3,0E0,9.57813E-3,1.1254996E-2,7.2486943E-4,0E0,7.217888E-3,0E0,8.956747E-3,7.522749E-3,0E0,0E0,0E0,0E0,1.44557E-3,9.271966E-3,8.506188E-3,5.767274E-3,0E0,1.7306185E-4,6.5127183E-3,1.0301429E-4,9.882532E-3,7.0983097E-3,9.667035E-5,8.940677E-4,0E0,0E0,0E0,0E0,0E0,0E0,0E0,0E0,0E0,0E0,0E0,0E0,0E0,0E0,0E0,0E0,0E0,0E0,0E0,0E0,0E0,0E0],"parents":[2147483647,0,0,1,1,2,2,3,3,4,4,5,5,6,6,7,7,9,9,10,10,11,11,13,13,14,14,15,15,17,17,19,19,20,20,21,21,23,23,25,25,26,26,31,31,32,32,33,33,34,34,36,36,37,37,38,38,39,39,40,40,41,41,42,42],"right_children":[2,4,6,8,10,12,14,16,-1,18,20,22,-1,24,26,28,-1,30,-1,32,34,36,-1,38,-1,40,42,-1,-1,-1,-1,44,46,48,50,-1,52,54,56,58,60,62,64,-1,-1,-1,-1,-1,-1,-1,-1,-1,-1,-1,-1,-1,-1,-1,-1,-1,-1,-1,-1,-1,-1],"split_conditions":[1.115315E0,-1.033302E0,-1.22785E0,-1.0338509E0,-1.9427698E0,2.462753E-1,-6.5375674E-1,-1.0032245E0,8.8377696E-5,-1.9591789E0,6.4964026E-1,1.2027159E-1,-9.089167E-4,-6.453073E-1,1.7367743E0,-7.208749E-1,2.7315633E-4,-2.2742017E-1,-2.4216366E-3,-1.8421575E0,6.720365E-1,7.210526E-1,-4.4006057E-4,3.246783E0,2.382015E-3,1.2027159E-1,1.3404673E0,3.2028687E-4,1.1371665E-3,4.4463482E-4,-8.3559356E-4,8.884217E-1,-1.0202326E0,-1.841873E0,1.256919E0,3.191381E-4,1.8897908E0,1.7415116E0,1.8897908E0,1.3399725E0,-5.791327E-1,1.7462468E0,2.756026E0,-2.373416E-4,-1.0610257E-3,6.1439304E-4,-3.219899E-5,7.9275516E-4,-2.9935798E-4,-1.981182E-5,1.0493397E-3,-2.06726E-4,4.0708048E-5,5.445291E-4,1.5338324E-3,-8.1624166E-5,-4.4924853E-4,4.1572726E-4,-1.8574295E-4,1.269253E-5,8.500798E-4,-2.1505283E-4,-8.2683726E-4,5.533485E-4,-7.381293E-5],"split_indices":[0,46,36,48,38,47,52,27,0,9,47,53,0,4,32,3,0,21,0,49,3,3,0,35,0,53,0,0,0,0,0,20,52,0,31,0,0,47,0,0,4,6,0,0,0,0,0,0,0,0,0,0,0,0,0,0,0,0,0,0,0,0,0,0,0],"split_type":[0,0,0,0,0,0,0,0,0,0,0,0,0,0,0,0,0,0,0,0,0,0,0,0,0,0,0,0,0,0,0,0,0,0,0,0,0,0,0,0,0,0,0,0,0,0,0,0,0,0,0,0,0,0,0,0,0,0,0,0,0,0,0,0,0],"sum_hessian":[8.83E2,7.64E2,1.19E2,1E1,7.54E2,1.2E1,1.07E2,8E0,2E0,8E0,7.46E2,9E0,3E0,2.3E1,8.4E1,7E0,1E0,7E0,1E0,6.37E2,1.09E2,6E0,3E0,2.1E1,2E0,7.6E1,8E0,1E0,6E0,1E0,6E0,5E0,6.32E2,1.02E2,7E0,3E0,3E0,1.9E1,2E0,5E1,2.6E1,5E0,3E0,2E0,3E0,8E0,6.24E2,2E0,1E2,4E0,3E0,1E0,2E0,1.6E1,3E0,1E0,1E0,3.5E1,1.5E1,5E0,2.1E1,1E0,4E0,2E0,1E0],"tree_param":{"num_deleted":"0","num_feature":"54","num_nodes":"65","size_leaf_vector":"1"}},{"base_weights":[1.3581927E-4,-3.016287E-3,1.7920071E-2,-2.024868E-3,-2.2139134E-2,-2.331175E-2,2.2430759E-2,-7.8534917E-4,-1.4595962E-2,8.8433345E-4,-3.3532944E-2,-7.848104E-3,-4.9576685E-2,1.5329603E-2,4.2367533E-2,2.1250725E-2,-1.6356065E-3,-3.3052742E-2,-5.8527384E-3,-6.8239994E-2,-2.4898114E-2,-6.8831805E-4,3.0958327E-3,-4.2019645E-4,-1.2323598E-3,1.92899E-2,-1.946985E-2,5.6807633E-2,9.635737E-3,1.4699883E-3,3.4339882E-2,-3.2737444E-3,6.851484E-3,-3.68236E-2,4.2364467E-4,1.1485104E-3,-2.3713486E-2,-2.2522022E-3,-1.7902404E-2,1.1967377E-2,-3.1541E-2,1.14825005E-2,-2.9418894E-4,-5.2227057E-3,2.1586146E-2,-7.8631635E-4,3.1343414E-4,7.8640856E-2,2.2743681E-2,-1.7594695E-3,6.003443E-4,-2.2605709E-4,5.3296355E-4,4.0862316E-4,8.7912247E-4,-5.0690993E-5,-5.492512E-4,1.246922E-3,1.0337233E-4,-5.673152E-5,-8.08847E-4,-1.260367E-4,4.508824E-4,-7.40605E-4,6.6038285E-4,-7.85379E-5,-4.2503886E-4,4.67752E-4,-3.371351E-4,-8.115237E-4,-7.603636E-5,3.346882E-4,9.345887E-5,4.8897974E-4,-5.583104E-4,4.5103638E-4,-5.1805004E-4,5.1786285E-4,-6.779465E-4,2.105589E-4,1.9604387E-3,9.1423094E-4,-1.8732985E-4,1.6877968E-4,-1.9132678E-4],"categories":[],"categories_nodes":[],"categories_segments":[],"categories_sizes":[],"default_left":[0,0,0,0,0,0,0,0,0,0,0,0,0,0,0,0,0,0,0,0,0,0,0,0,0,0,0,0,0,0,0,0,0,0,0,0,0,0,0,0,0,0,0,0,0,0,0,0,0,0,0,0,0,0,0,0,0,0,0,0,0,0,0,0,0,0,0,0,0,0,0,0,0,0,0,0,0,0,0,0,0,0,0,0,0],"id":12,"left_children":[1,3,5,7,9,11,13,15,17,-1,19,21,23,25,27,29,31,33,35,37,39,-1,41,-1,-1,43,45,47,49,51,53,55,57,59,-1,61,63,-1,65,67,69,71,-1,73,75,-1,77,79,81,83,-1,-1,-1,-1,-1,-1,-1,-1,-1,-1,-1,-1,-1,-1,-1,-1,-1,-1,-1,-1,-1,-1,-1,-1,-1,-1,-1,-1,-1,-1,-1,-1,-1,-1,-1],"loss_changes":[5.1010642E-2,1.4610289E-2,2.600269E-2,1.1456968E-2,3.0212443E-2,5.2970396E-3,1.6905718E-2,1.2606838E-2,1.0457087E-2,0E0,8.190703E-3,3.014109E-3,4.253285E-4,1.3192475E-2,1.4577426E-2,6.422351E-3,9.017686E-3,5.0747674E-3,5.779422E-3,1.1384917E-2,7.2344765E-3,0E0,1.3635169E-3,0E0,0E0,4.840847E-3,3.9385078E-3,1.4573388E-2,2.607577E-3,3.8387682E-3,1.1081696E-3,9.639367E-3,9.483715E-3,2.3450907E-3,0E0,5.5618286E-3,1.1044141E-2,0E0,1.0379183E-4,2.0401292E-3,5.860826E-3,1.3638014E-4,0E0,6.06918E-3,4.1152537E-3,0E0,6.128316E-3,1.6129345E-2,7.8031784E-3,7.1767415E-4,0E0,0E0,0E0,0E0,0E0,0E0,0E0,0E0,0E0,0E0,0E0,0E0,0E0,0E0,0E0,0E0,0E0,0E0,0E0,0E0,0E0,0E0,0E0,0E0,0E0,0E0,0E0,0E0,0E0,0E0,0E0,0E0,0E0,0E0,0E0],"parents":[2147483647,0,0,1,1,2,2,3,3,4,4,5,5,6,6,7,7,8,8,10,10,11,11,12,12,13,13,14,14,15,15,16,16,17,17,18,18,19,19,20,20,22,22,25,25,26,26,27,27,28,28,29,29,30,30,31,31,32,32,33,33,35,35,36,36,38,38,39,39,40,40,41,41,43,43,44,44,46,46,47,47,48,48,49,49],"right_children":[2,4,6,8,10,12,14,16,18,-1,20,22,24,26,28,30,32,34,36,38,40,-1,42,-1,-1,44,46,48,50,52,54,56,58,60,-1,62,64,-1,66,68,70,72,-1,74,76,-1,78,80,82,84,-1,-1,-1,-1,-1,-1,-1,-1,-1,-1,-1,-1,-1,-1,-1,-1,-1,-1,-1,-1,-1,-1,-1,-1,-1,-1,-1,-1,-1,-1,-1,-1,-1,-1,-1],"split_conditions":[1.115315E0,1.4035364E0,-1.22785E0,1.3340878E0,-1.8044513E0,1.6750498E-1,1.6745365E0,-1.2473509E0,-7.298835E-1,8.8433345E-4,-9.0877163E-1,1.5409473E0,1.4626954E0,1.5495086E0,-8.867954E-1,-5.635693E-1,8.858768E-1,3.738823E0,7.3139775E-1,1.2962887E-1,-8.0756193E-1,-6.8831805E-4,1.6127481E0,-4.2019645E-4,-1.2323598E-3,-1.4945426E0,1.5375545E0,1.225524E0,3.026369E-1,-6.48648E-1,4.7682494E-1,1.4024749E0,-1.005689E0,-1.3283225E0,4.2364467E-4,1.5809771E-1,1.3382399E0,-2.2522022E-3,-2.545939E0,5.438734E-1,-1.1465911E0,1.0343069E0,-2.9418894E-4,-4.89956E-1,2.2552705E0,-7.8631635E-4,9.190752E-1,-4.1114688E-1,-1.5582489E0,-2.138514E-1,6.003443E-4,-2.2605709E-4,5.3296355E-4,4.0862316E-4,8.7912247E-4,-5.0690993E-5,-5.492512E-4,1.246922E-3,1.0337233E-4,-5.673152E-5,-8.08847E-4,-1.260367E-4,4.508824E-4,-7.40605E-4,6.6038285E-4,-7.85379E-5,-4.2503886E-4,4.67752E-4,-3.371351E-4,-8.115237E-4,-7.603636E-5,3.346882E-4,9.345887E-5,4.8897974E-4,-5.583104E-4,4.5103638E-4,-5.1805004E-4,5.1786285E-4,-6.779465E-4,2.105589E-4,1.9604387E-3,9.1423094E-4,-1.8732985E-4,1.6877968E-4,-1.9132678E-4],"split_indices":[0,39,36,53,18,53,30,6,49,0,33,0,0,30,39,13,31,20,40,35,33,0,30,0,0,53,25,49,49,51,20,18,7,18,0,2,30,0,0,0,18,6,0,51,6,0,36,49,39,47,0,0,0,0,0,0,0,0,0,0,0,0,0,0,0,0,0,0,0,0,0,0,0,0,0,0,0,0,0,0,0,0,0,0,0],"split_type":[0,0,0,0,0,0,0,0,0,0,0,0,0,0,0,0,0,0,0,0,0,0,0,0,0,0,0,0,0,0,0,0,0,0,0,0,0,0,0,0,0,0,0,0,0,0,0,0,0,0,0,0,0,0,0,0,0,0,0,0,0,0,0,0,0,0,0,0,0,0,0,0,0,0,0,0,0,0,0,0,0,0,0,0,0],"sum_hessian":[9.08E2,7.72E2,1.36E2,7.35E2,3.7E1,1.3E1,1.23E2,6.7E2,6.5E1,5E0,3.2E1,9E0,4E0,9.2E1,3.1E1,2.4E1,6.46E2,2E1,4.5E1,5E0,2.7E1,2E0,7E0,2E0,2E0,8.3E1,9E0,2.1E1,1E1,1E1,1.4E1,5.42E2,1.04E2,1.9E1,1E0,3.3E1,1.2E1,2E0,3E0,4E0,2.3E1,5E0,2E0,7E0,7.6E1,4E0,5E0,1.2E1,9E0,7E0,3E0,7E0,3E0,7E0,7E0,5.27E2,1.5E1,2E0,1.02E2,2E0,1.7E1,2.5E1,8E0,1E1,2E0,1E0,2E0,3E0,1E0,1.7E1,6E0,2E0,3E0,3E0,4E0,7.5E1,1E0,3E0,2E0,3E0,9E0,5E0,4E0,3E0,4E0],"tree_param":{"num_deleted":"0","num_feature":"54","num_nodes":"85","size_leaf_vector":"1"}},{"base_weights":[4.049038E-4,-2.6344617E-3,1.747601E-2,3.2693952E-2,-3.3375174E-3,-2.941213E-2,2.0636301E-2,5.197889E-2,3.228466E-3,-6.396494E-4,-1.4215229E-2,6.314746E-3,-4.8328027E-2,1.2495331E-2,3.6438327E-2,1.101777E-3,2.7099208E-4,1.669188E-2,-4.0573426E-4,1.5076426E-3,-1.0186922E-3,-8.561729E-2,-1.2161644E-2,1.9421111E-4,3.8919155E-5,-2.527728E-4,-1.0587635E-3,-1.0972255E-3,1.3933187E-2,7.7647366E-2,2.3246309E-2,4.8351169E-4,7.288431E-5,2.270342E-2,-1.7074888E-3,-6.998622E-4,-2.3748982E-3,-8.766286E-3,-2.9056115E-2,-5.7155564E-3,1.6629228E-2,2.361478E-3,1.3606033E-2,6.070787E-2,1.1285611E-2,-1.5478498E-4,5.9559307E-4,-3.9727616E-5,7.845691E-4,-2.0667003E-4,6.05734E-4,-8.4700406E-4,-1.2418747E-4,3.7303334E-4,-3.4369447E-4,8.573625E-4,2.65955E-4,4.7100894E-4,-2.617162E-4,5.887445E-4,1.6923841E-3,-3.67756E-4,5.4287724E-4],"categories":[],"categories_nodes":[],"categories_segments":[],"categories_sizes":[],"default_left":[0,0,0,0,0,0,0,0,0,0,0,0,0,0,0,0,0,0,0,0,0,0,0,0,0,0,0,0,0,0,0,0,0,0,0,0,0,0,0,0,0,0,0,0,0,0,0,0,0,0,0,0,0,0,0,0,0,0,0,0,0,0,0],"id":13,"left_children":[1,3,5,7,9,11,13,15,17,19,21,23,25,27,29,-1,-1,31,-1,-1,33,35,37,-1,-1,-1,-1,-1,39,41,43,-1,-1,45,47,-1,-1,49,51,53,55,-1,57,59,61,-1,-1,-1,-1,-1,-1,-1,-1,-1,-1,-1,-1,-1,-1,-1,-1,-1,-1],"loss_changes":[4.6690956E-2,1.9085227E-2,2.075946E-2,8.355789E-3,2.200088E-2,6.3874316E-3,1.6011104E-2,3.2919087E-4,2.5547855E-3,1.7423727E-2,2.0806655E-2,4.044597E-5,3.181342E-4,9.093423E-3,2.1571096E-2,0E0,0E0,4.001233E-4,0E0,0E0,9.842592E-3,2.5529824E-3,8.120252E-3,0E0,0E0,0E0,0E0,0E0,4.5978185E-3,2.4283182E-2,1.4549132E-2,0E0,0E0,3.8926024E-3,6.7452816E-3,0E0,0E0,7.841116E-3,7.0264693E-3,3.3947132E-3,5.98602E-3,0E0,1.6353503E-3,3.4908317E-3,1.3204464E-2,0E0,0E0,0E0,0E0,0E0,0E0,0E0,0E0,0E0,0E0,0E0,0E0,0E0,0E0,0E0,0E0,0E0,0E0],"parents":[2147483647,0,0,1,1,2,2,3,3,4,4,5,5,6,6,7,7,8,8,9,9,10,10,11,11,12,12,13,13,14,14,17,17,20,20,21,21,22,22,28,28,29,29,30,30,33,33,34,34,37,37,38,38,39,39,40,40,42,42,43,43,44,44],"right_children":[2,4,6,8,10,12,14,16,18,20,22,24,26,28,30,-1,-1,32,-1,-1,34,36,38,-1,-1,-1,-1,-1,40,42,44,-1,-1,46,48,-1,-1,50,52,54,56,-1,58,60,62,-1,-1,-1,-1,-1,-1,-1,-1,-1,-1,-1,-1,-1,-1,-1,-1,-1,-1],"split_conditions":[1.0745094E0,-1.033302E0,-9.858029E-1,-1.4149107E-1,4.6852827E-1,-1.2362517E0,1.3803406E0,1.5083313E0,9.735105E-1,-1.018066E0,-1.8421923E0,-8.7564015E-1,-1.0475515E0,-2.2756386E0,3.3275393E-1,1.101777E-3,2.7099208E-4,-1.0422945E0,-4.0573426E-4,1.5076426E-3,-1.4944004E0,-9.271913E-1,7.3139775E-1,1.9421111E-4,3.8919155E-5,-2.527728E-4,-1.0587635E-3,-1.0972255E-3,-5.8276916E-1,3.5314974E-1,2.4681753E-1,4.8351169E-4,7.288431E-5,-7.9814345E-1,1.3058256E0,-6.998622E-4,-2.3748982E-3,1.5174875E0,-3.5382444E-1,-4.0484864E-1,-4.0172592E-1,2.361478E-3,1.3399725E0,3.329607E0,1.334238E0,-1.5478498E-4,5.9559307E-4,-3.9727616E-5,7.845691E-4,-2.0667003E-4,6.05734E-4,-8.4700406E-4,-1.2418747E-4,3.7303334E-4,-3.4369447E-4,8.573625E-4,2.65955E-4,4.7100894E-4,-2.617162E-4,5.887445E-4,1.6923841E-3,-3.67756E-4,5.4287724E-4],"split_indices":[0,46,27,34,37,53,40,53,51,14,47,9,7,49,21,0,0,4,0,0,0,11,40,0,0,0,0,0,21,49,51,0,0,4,15,0,0,12,27,53,21,0,0,9,49,0,0,0,0,0,0,0,0,0,0,0,0,0,0,0,0,0,0],"split_type":[0,0,0,0,0,0,0,0,0,0,0,0,0,0,0,0,0,0,0,0,0,0,0,0,0,0,0,0,0,0,0,0,0,0,0,0,0,0,0,0,0,0,0,0,0,0,0,0,0,0,0,0,0,0,0,0,0,0,0,0,0,0,0],"sum_hessian":[8.98E2,7.63E2,1.35E2,1.4E1,7.49E2,8E0,1.27E2,8E0,6E0,6.01E2,1.48E2,3E0,5E0,8.5E1,4.2E1,7E0,1E0,4E0,2E0,2E0,5.99E2,3E0,1.45E2,1E0,2E0,1E0,4E0,1E0,8.4E1,9E0,3.3E1,2E0,2E0,1.6E1,5.83E2,2E0,1E0,1.22E2,2.3E1,1E1,7.4E1,5E0,4E0,7E0,2.6E1,3E0,1.3E1,5.8E2,3E0,1.18E2,4E0,1.4E1,9E0,3E0,7E0,7E0,6.7E1,3E0,1E0,4E0,3E0,9E0,1.7E1],"tree_param":{"num_deleted":"0","num_feature":"54","num_nodes":"63","size_leaf_vector":"1"}},{"base_weights":[-6.617128E-4,-3.078574E-3,1.832079E-2,1.4875405E-3,-3.3684454E-3,2.1236842E-2,-1.1540544E-3,-1.184496E-3,-1.17754135E-2,1.7699862E-2,8.34847E-2,-1.2497269E-2,-5.7074445E-5,3.1132044E-2,-1.4190843E-2,-2.0030146E-2,2.0965843E-2,-5.2488518E-5,2.1133616E-3,-3.2070886E-2,-6.564951E-3,4.9015735E-3,-2.434011E-3,-1.1181915E-2,8.963832E-4,-4.7566447E-2,-1.0539603E-2,3.6637815E-5,-4.6829987E-4,3.4090288E-2,1.0571946E-2,-7.5827935E-4,-1.8890921E-4,4.707148E-4,-1.855075E-4,-3.613971E-5,2.241934E-4,7.658742E-4,-5.915963E-5,-2.7078023E-4,-6.46772E-5,-2.3511492E-3,-6.834025E-4,6.4593187E-4,-2.4703876E-4,3.6061008E-4,9.528513E-4,3.2729862E-4,-8.9675805E-4],"categories":[],"categories_nodes":[],"categories_segments":[],"categories_sizes":[],"default_left":[0,0,0,0,0,0,0,0,0,0,0,0,0,0,0,0,0,0,0,0,0,0,0,0,0,0,0,0,0,0,0,0,0,0,0,0,0,0,0,0,0,0,0,0,0,0,0,0,0],"id":14,"left_children":[1,3,5,-1,7,9,-1,11,13,15,17,19,21,23,25,27,29,-1,-1,31,33,35,37,39,-1,41,43,-1,-1,45,47,-1,-1,-1,-1,-1,-1,-1,-1,-1,-1,-1,-1,-1,-1,-1,-1,-1,-1],"loss_changes":[4.102552E-2,1.80551E-2,2.3615979E-2,0E0,1.4509123E-2,2.0098932E-2,0E0,8.021719E-3,1.7335106E-2,1.2003139E-2,9.828281E-3,6.4081214E-3,6.7655337E-3,5.71357E-3,1.8387336E-2,6.3489075E-4,1.1507627E-2,0E0,0E0,1.3605133E-3,3.8896564E-3,7.891449E-3,8.393239E-3,1.24197395E-5,0E0,1.0047376E-2,1.1345256E-2,0E0,0E0,7.411558E-3,1.6783189E-2,0E0,0E0,0E0,0E0,0E0,0E0,0E0,0E0,0E0,0E0,0E0,0E0,0E0,0E0,0E0,0E0,0E0,0E0],"parents":[2147483647,0,0,1,1,2,2,4,4,5,5,7,7,8,8,9,9,10,10,11,11,12,12,13,13,14,14,15,15,16,16,19,19,20,20,21,21,22,22,23,23,25,25,26,26,29,29,30,30],"right_children":[2,4,6,-1,8,10,-1,12,14,16,18,20,22,24,26,28,30,-1,-1,32,34,36,38,40,-1,42,44,-1,-1,46,48,-1,-1,-1,-1,-1,-1,-1,-1,-1,-1,-1,-1,-1,-1,-1,-1,-1,-1],"split_conditions":[1.322985E0,-1.018066E0,3.676115E0,1.4875405E-3,3.0043292E-1,2.3314772E0,-1.1540544E-3,-8.4363985E-1,-1.7739874E0,-9.385623E-1,2.734958E0,4.7659722E-1,-3.415643E-1,-1.0285405E0,-2.251627E0,-1.0370635E0,-1.1607774E-1,-5.2488518E-5,2.1133616E-3,-1.9453068E-1,-9.338993E-1,-5.483642E-1,-1.0029658E0,-2.275251E0,8.963832E-4,2.3840837E0,-1.5471399E0,3.6637815E-5,-4.6829987E-4,1.2942172E0,2.2225342E0,-7.5827935E-4,-1.8890921E-4,4.707148E-4,-1.855075E-4,-3.613971E-5,2.241934E-4,7.658742E-4,-5.915963E-5,-2.7078023E-4,-6.46772E-5,-2.3511492E-3,-6.834025E-4,6.4593187E-4,-2.4703876E-4,3.6061008E-4,9.528513E-4,3.2729862E-4,-8.9675805E-4],"split_indices":[0,14,29,0,29,30,0,24,18,13,0,8,47,3,22,13,11,0,0,21,44,16,6,0,0,39,9,0,0,31,9,0,0,0,0,0,0,0,0,0,0,0,0,0,0,0,0,0,0],"split_type":[0,0,0,0,0,0,0,0,0,0,0,0,0,0,0,0,0,0,0,0,0,0,0,0,0,0,0,0,0,0,0,0,0,0,0,0,0,0,0,0,0,0,0,0,0,0,0,0,0],"sum_hessian":[8.92E2,7.92E2,1E2,2E0,7.9E2,9.7E1,3E0,6.28E2,1.62E2,9.3E1,4E0,5.6E1,5.72E2,8E0,1.54E2,7E0,8.6E1,1E0,3E0,1.2E1,4.4E1,1.85E2,3.87E2,2E0,6E0,1.4E1,1.4E2,1E0,6E0,3.7E1,4.9E1,9E0,3E0,3E0,4.1E1,9E1,9.5E1,4E0,3.83E2,1E0,1E0,1E0,1.3E1,5E0,1.35E2,1.8E1,1.9E1,4.5E1,4E0],"tree_param":{"num_deleted":"0","num_feature":"54","num_nodes":"49","size_leaf_vector":"1"}},{"base_weights":[1.4780863E-4,-2.1246932E-3,1.6340612E-2,-4.2898383E-2,-1.7583995E-3,1.6629074E-3,1.37150595E-2,-2.1676905E-4,-9.287059E-4,3.139466E-2,-2.3136793E-3,-5.0534952E-2,1.6032059E-2,1.0288255E-3,6.863095E-3,-2.5378847E-2,-1.5088558E-3,-2.4556206E-4,-1.1838906E-3,2.2473246E-2,3.5868178E-3,-2.6807244E-4,1.2474818E-2,-3.115815E-2,5.863036E-4,-1.1298265E-4,-8.741084E-3,4.6753544E-2,1.8051974E-2,8.990263E-3,-3.2793283E-2,3.781674E-4,9.061899E-5,-7.589767E-4,2.456499E-4,-1.5211527E-5,7.2560564E-4,-2.4299453E-4,2.2877842E-4,6.4848526E-4,1.7571707E-3,5.979991E-4,2.5345082E-4,3.8067868E-4,-2.0344651E-4,-7.230335E-4,-1.935969E-4],"categories":[],"categories_nodes":[],"categories_segments":[],"categories_sizes":[],"default_left":[0,0,0,0,0,0,0,0,0,0,0,0,0,0,0,0,0,0,0,0,0,0,0,0,0,0,0,0,0,0,0,0,0,0,0,0,0,0,0,0,0,0,0,0,0,0,0],"id":15,"left_children":[1,3,5,7,9,-1,11,-1,-1,13,15,17,19,-1,21,23,25,-1,-1,27,29,-1,31,33,-1,35,37,39,41,43,45,-1,-1,-1,-1,-1,-1,-1,-1,-1,-1,-1,-1,-1,-1,-1,-1],"loss_changes":[3.318987E-2,1.1738267E-2,1.8328989E-2,2.9046647E-4,1.4523883E-2,0E0,1.6887842E-2,0E0,0E0,6.0400283E-3,1.4311209E-2,5.9835706E-4,8.336417E-3,0E0,9.633262E-4,9.13183E-3,7.5502764E-3,0E0,0E0,6.563142E-3,7.568201E-3,0E0,2.2097077E-4,7.545909E-3,0E0,1.482833E-2,8.46214E-3,3.041301E-3,3.4452155E-3,6.544891E-3,3.8178172E-5,0E0,0E0,0E0,0E0,0E0,0E0,0E0,0E0,0E0,0E0,0E0,0E0,0E0,0E0,0E0,0E0],"parents":[2147483647,0,0,1,1,2,2,3,3,4,4,6,6,9,9,10,10,11,11,12,12,14,14,15,15,16,16,19,19,20,20,22,22,23,23,25,25,26,26,27,27,28,28,29,29,30,30],"right_children":[2,4,6,8,10,-1,12,-1,-1,14,16,18,20,-1,22,24,26,-1,-1,28,30,-1,32,34,-1,36,38,40,42,44,46,-1,-1,-1,-1,-1,-1,-1,-1,-1,-1,-1,-1,-1,-1,-1,-1],"split_conditions":[1.3110042E0,-2.2756386E0,-1.0101619E0,-1.7655146E-1,-1.033302E0,1.6629074E-3,-1.0532854E0,-2.1676905E-4,-9.287059E-4,-1.6441892E-1,-1.7848623E0,1.4626954E0,1.5495086E0,1.0288255E-3,-2.275251E0,1.338983E0,7.490153E-1,-2.4556206E-4,-1.1838906E-3,-3.4223005E-1,1.0401905E0,-2.6807244E-4,-8.0424213E-1,9.2765343E-1,5.863036E-4,1.7720648E0,6.2623304E-1,-9.49213E-2,-1.4868248E0,9.190752E-1,9.804934E-1,3.781674E-4,9.061899E-5,-7.589767E-4,2.456499E-4,-1.5211527E-5,7.2560564E-4,-2.4299453E-4,2.2877842E-4,6.4848526E-4,1.7571707E-3,5.979991E-4,2.5345082E-4,3.8067868E-4,-2.0344651E-4,-7.230335E-4,-1.935969E-4],"split_indices":[0,49,17,2,46,0,50,0,0,51,22,0,30,0,0,53,38,0,0,19,37,0,38,2,0,2,3,2,49,36,3,0,0,0,0,0,0,0,0,0,0,0,0,0,0,0,0],"split_type":[0,0,0,0,0,0,0,0,0,0,0,0,0,0,0,0,0,0,0,0,0,0,0,0,0,0,0,0,0,0,0,0,0,0,0,0,0,0,0,0,0,0,0,0,0,0,0],"sum_hessian":[9E2,7.9E2,1.1E2,6E0,7.84E2,3E0,1.07E2,1E0,5E0,1.2E1,7.72E2,3E0,1.04E2,6E0,6E0,2.5E1,7.47E2,1E0,2E0,6.8E1,3.6E1,1E0,5E0,2.3E1,2E0,6.27E2,1.2E2,9E0,5.9E1,3.2E1,4E0,2E0,3E0,2E1,3E0,6.17E2,1E1,1.03E2,1.7E1,8E0,1E0,1.7E1,4.2E1,2.1E1,1.1E1,3E0,1E0],"tree_param":{"num_deleted":"0","num_feature":"54","num_nodes":"47","size_leaf_vector":"1"}},{"base_weights":[5.440753E-4,-2.635688E-3,1.9178195E-2,-1.6493609E-3,-2.4374569E-2,-1.5979648E-2,2.2241179E-2,2.3980813E-2,-2.2940927E-3,-2.9498667E-2,2.0149808E-2,3.3459425E-4,-2.510725E-2,2.489491E-2,-1.8022941E-2,3.4396447E-2,-9.979121E-3,-1.3739194E-3,-2.3950113E-2,-1.8535985E-2,-4.439802E-2,7.098879E-4,3.2034805E-3,1.33422E-4,-5.982686E-4,4.61849E-2,1.6994976E-2,-2.6167186E-2,3.8986767E-4,4.3493733E-2,-2.6916346E-4,-4.5031976E-4,-3.23631E-4,3.5934814E-3,-4.078282E-3,5.3896774E-3,-5.169323E-2,-2.3704203E-2,3.3858497E-4,-4.7800772E-2,-6.967763E-5,1.04046856E-4,-7.942442E-6,6.343397E-2,1.874889E-2,1.869241E-2,-7.0133177E-4,-7.17836E-4,-1.9801545E-4,1.5237898E-3,5.8671256E-4,4.0671654E-5,-5.4181244E-5,2.5316712E-4,-1.590093E-5,-1.3669577E-4,1.1970499E-4,-6.6629227E-4,3.5683936E-4,-1.9628585E-3,-6.380446E-4,2.1434782E-4,-5.8016484E-4,-2.4723145E-4,-1.0021707E-3,6.012835E-4,1.869266E-3,5.947551E-4,-5.558649E-4,-1.6590329E-4,4.3444164E-4],"categories":[],"categories_nodes":[],"categories_segments":[],"categories_sizes":[],"default_left":[0,0,0,0,0,0,0,0,0,0,0,0,0,0,0,0,0,0,0,0,0,0,0,0,0,0,0,0,0,0,0,0,0,0,0,0,0,0,0,0,0,0,0,0,0,0,0,0,0,0,0,0,0,0,0,0,0,0,0,0,0,0,0,0,0,0,0,0,0,0,0],"id":16,"left_children":[1,3,5,7,9,11,13,15,17,19,21,-1,23,25,27,29,31,33,35,37,39,-1,41,-1,-1,43,45,47,-1,49,-1,51,-1,53,55,57,59,61,-1,63,-1,-1,-1,65,67,69,-1,-1,-1,-1,-1,-1,-1,-1,-1,-1,-1,-1,-1,-1,-1,-1,-1,-1,-1,-1,-1,-1,-1,-1,-1],"loss_changes":[5.284416E-2,1.6298331E-2,1.4354829E-2,1.2117964E-2,8.123253E-3,3.7041756E-3,1.3270706E-2,6.7101037E-3,1.4175253E-2,4.077146E-3,9.264322E-4,0E0,1.574148E-3,1.8220514E-2,2.954424E-3,6.6802055E-3,2.8822175E-4,9.216708E-3,2.3883952E-2,3.8838442E-3,1.5041158E-3,0E0,2.3657292E-5,0E0,0E0,1.3008051E-2,8.078653E-3,7.519354E-4,0E0,3.319852E-3,0E0,2.2340591E-5,0E0,9.637175E-3,1.23575535E-2,7.823755E-3,1.0658305E-2,3.414642E-3,0E0,2.8021634E-4,0E0,0E0,0E0,1.5227407E-2,7.475297E-3,6.8848003E-3,0E0,0E0,0E0,0E0,0E0,0E0,0E0,0E0,0E0,0E0,0E0,0E0,0E0,0E0,0E0,0E0,0E0,0E0,0E0,0E0,0E0,0E0,0E0,0E0,0E0],"parents":[2147483647,0,0,1,1,2,2,3,3,4,4,5,5,6,6,7,7,8,8,9,9,10,10,12,12,13,13,14,14,15,15,16,16,17,17,18,18,19,19,20,20,22,22,25,25,26,26,27,27,29,29,31,31,33,33,34,34,35,35,36,36,37,37,39,39,43,43,44,44,45,45],"right_children":[2,4,6,8,10,12,14,16,18,20,22,-1,24,26,28,30,32,34,36,38,40,-1,42,-1,-1,44,46,48,-1,50,-1,52,-1,54,56,58,60,62,-1,64,-1,-1,-1,66,68,70,-1,-1,-1,-1,-1,-1,-1,-1,-1,-1,-1,-1,-1,-1,-1,-1,-1,-1,-1,-1,-1,-1,-1,-1,-1],"split_conditions":[1.115315E0,1.1221702E0,-1.1754253E0,-1.0260438E0,2.1164582E0,-6.760415E-1,2.7006204E0,1.1840145E-1,1.4035364E0,7.901792E-1,-4.1120356E-1,3.3459425E-4,-3.3492458E-1,-8.867954E-1,1.1127362E0,2.0973861E0,-3.3757467E-2,-3.487023E-1,-1.9171708E0,7.3013973E-1,4.5096293E-1,7.098879E-4,3.4881417E-2,1.33422E-4,-5.982686E-4,1.580814E0,2.124128E0,1.0062103E0,3.8986767E-4,2.4336465E-1,-2.6916346E-4,-1.6176856E0,-3.23631E-4,-5.3651226E-1,7.5545007E-1,-1.4931947E0,-8.790437E-1,-8.5739195E-2,3.3858497E-4,-1.0036129E0,-6.967763E-5,1.04046856E-4,-7.942442E-6,1.6489733E0,7.273756E-1,-7.2598404E-1,-7.0133177E-4,-7.17836E-4,-1.9801545E-4,1.5237898E-3,5.8671256E-4,4.0671654E-5,-5.4181244E-5,2.5316712E-4,-1.590093E-5,-1.3669577E-4,1.1970499E-4,-6.6629227E-4,3.5683936E-4,-1.9628585E-3,-6.380446E-4,2.1434782E-4,-5.8016484E-4,-2.4723145E-4,-1.0021707E-3,6.012835E-4,1.869266E-3,5.947551E-4,-5.558649E-4,-1.6590329E-4,4.3444164E-4],"split_indices":[0,9,36,5,6,51,38,44,39,20,0,0,3,39,53,51,3,47,6,20,0,0,0,0,0,32,42,3,0,39,0,0,0,20,31,53,26,29,0,5,0,0,0,38,33,39,0,0,0,0,0,0,0,0,0,0,0,0,0,0,0,0,0,0,0,0,0,0,0,0,0],"split_type":[0,0,0,0,0,0,0,0,0,0,0,0,0,0,0,0,0,0,0,0,0,0,0,0,0,0,0,0,0,0,0,0,0,0,0,0,0,0,0,0,0,0,0,0,0,0,0,0,0,0,0,0,0,0,0,0,0,0,0,0,0,0,0,0,0,0,0,0,0,0,0],"sum_hessian":[8.9E2,7.61E2,1.29E2,7.29E2,3.2E1,1E1,1.19E2,1.7E1,7.12E2,2.9E1,3E0,2E0,8E0,1.12E2,7E0,1.3E1,4E0,6.84E2,2.8E1,1.8E1,1.1E1,1E0,2E0,1E0,7E0,2.9E1,8.3E1,6E0,1E0,1.1E1,2E0,2E0,2E0,2.41E2,4.43E2,1.4E1,1.4E1,1.6E1,2E0,1E1,1E0,1E0,1E0,1.7E1,1.2E1,8.1E1,2E0,3E0,3E0,2E0,9E0,1E0,1E0,7.8E1,1.63E2,3.48E2,9.5E1,3E0,1.1E1,3E0,1.1E1,2E0,1.4E1,1E0,9E0,9E0,8E0,1E1,2E0,8E0,7.3E1],"tree_param":{"num_deleted":"0","num_feature":"54","num_nodes":"71","size_leaf_vector":"1"}},{"base_weights":[9.393187E-4,-2.1360929E-3,1.7378476E-2,-1.129151E-4,-1.0282003E-2,-2.809024E-2,2.1063799E-2,9.2049554E-4,-5.7410385E-4,8.3009835E-4,-1.2354E-2,6.4295265E-3,-4.1838843E-2,1.8854186E-2,6.395503E-2,-1.3967218E-3,2.46542E-2,-7.392917E-3,-4.299112E-2,1.979291E-4,3.95013E-5,-3.5011992E-3,-1.0806904E-3,2.1426022E-2,-7.3637604E-3,-1.9525454E-4,1.6130225E-3,-7.631188E-4,-2.7048394E-2,4.6942286E-2,-5.3261523E-3,-2.1170059E-3,-2.5782999E-2,-2.9651102E-2,-8.893842E-2,-2.3712375E-4,1.3208778E-4,2.4290392E-2,-1.50088295E-2,-3.8377184E-2,6.009172E-4,4.761346E-5,-8.808337E-5,-9.345908E-4,-2.18445E-4,1.4150254E-3,3.0619177E-4,-4.4208884E-4,4.234564E-4,-1.0531644E-4,5.991249E-4,-4.7755507E-6,-6.2651414E-4,4.2777648E-4,-7.576469E-4,-2.3004194E-3,-8.380784E-4,4.2305648E-4,1.6813246E-3,-7.8619894E-4,2.4588112E-4,-4.25293E-5,-1.0490436E-3],"categories":[],"categories_nodes":[],"categories_segments":[],"categories_sizes":[],"default_left":[0,0,0,0,0,0,0,0,0,0,0,0,0,0,0,0,0,0,0,0,0,0,0,0,0,0,0,0,0,0,0,0,0,0,0,0,0,0,0,0,0,0,0,0,0,0,0,0,0,0,0,0,0,0,0,0,0,0,0,0,0,0,0],"id":17,"left_children":[1,3,5,7,9,11,13,-1,15,-1,17,19,21,23,25,27,29,31,33,-1,-1,35,-1,37,39,-1,-1,41,43,45,47,49,51,53,55,-1,-1,57,59,61,-1,-1,-1,-1,-1,-1,-1,-1,-1,-1,-1,-1,-1,-1,-1,-1,-1,-1,-1,-1,-1,-1,-1],"loss_changes":[4.523523E-2,1.2425231E-2,2.421863E-2,1.2899725E-2,1.66081E-2,5.489588E-3,1.1209443E-2,0E0,1.2486388E-2,0E0,2.1721197E-2,4.2227053E-5,3.5512447E-3,8.653734E-3,8.172171E-3,9.438592E-3,1.2945911E-2,1.2170495E-2,9.621635E-3,0E0,0E0,3.3159912E-4,0E0,1.236631E-2,1.50754815E-2,0E0,0E0,6.5236595E-3,3.9329426E-3,7.201396E-3,4.4694804E-3,1.0156029E-2,3.9568786E-3,7.952336E-3,8.728728E-5,0E0,0E0,1.82897E-2,6.454695E-3,3.4600636E-3,0E0,0E0,0E0,0E0,0E0,0E0,0E0,0E0,0E0,0E0,0E0,0E0,0E0,0E0,0E0,0E0,0E0,0E0,0E0,0E0,0E0,0E0,0E0],"parents":[2147483647,0,0,1,1,2,2,3,3,4,4,5,5,6,6,8,8,10,10,11,11,12,12,13,13,14,14,15,15,16,16,17,17,18,18,21,21,23,23,24,24,27,27,28,28,29,29,30,30,31,31,32,32,33,33,34,34,37,37,38,38,39,39],"right_children":[2,4,6,8,10,12,14,-1,16,-1,18,20,22,24,26,28,30,32,34,-1,-1,36,-1,38,40,-1,-1,42,44,46,48,50,52,54,56,-1,-1,58,60,62,-1,-1,-1,-1,-1,-1,-1,-1,-1,-1,-1,-1,-1,-1,-1,-1,-1,-1,-1,-1,-1,-1,-1],"split_conditions":[1.0745094E0,5.1051223E-1,-9.858029E-1,-1.7118822E0,-1.8044513E0,-1.2362517E0,3.4025493E0,9.2049554E-4,1.4632901E0,8.3009835E-4,1.8484509E0,7.210526E-1,4.493519E-1,1.3431668E0,1.0085288E0,1.0681312E0,-3.5941434E-1,1.1230148E0,2.2871764E-2,1.979291E-4,3.95013E-5,1.4626954E0,-1.0806904E-3,1.3394271E0,1.5767139E0,-1.9525454E-4,1.6130225E-3,-4.5750514E-1,3.2503895E-2,-3.0794302E-1,2.6641616E-1,1.5174875E0,-1.0113018E0,-1.4963768E0,5.689089E-1,-2.3712375E-4,1.3208778E-4,1.3407311E0,5.790722E-1,3.8459E-1,6.009172E-4,4.761346E-5,-8.808337E-5,-9.345908E-4,-2.18445E-4,1.4150254E-3,3.0619177E-4,-4.4208884E-4,4.234564E-4,-1.0531644E-4,5.991249E-4,-4.7755507E-6,-6.2651414E-4,4.2777648E-4,-7.576469E-4,-2.3004194E-3,-8.380784E-4,4.2305648E-4,1.6813246E-3,-7.8619894E-4,2.4588112E-4,-4.25293E-5,-1.0490436E-3],"split_indices":[0,37,27,6,18,53,40,0,51,0,39,3,2,53,19,6,53,19,3,0,0,0,0,49,18,0,0,20,18,37,2,12,11,47,3,0,0,47,20,12,0,0,0,0,0,0,0,0,0,0,0,0,0,0,0,0,0,0,0,0,0,0,0],"split_type":[0,0,0,0,0,0,0,0,0,0,0,0,0,0,0,0,0,0,0,0,0,0,0,0,0,0,0,0,0,0,0,0,0,0,0,0,0,0,0,0,0,0,0,0,0,0,0,0,0,0,0,0,0,0,0,0,0,0,0,0,0,0,0],"sum_hessian":[8.93E2,7.53E2,1.4E2,6.04E2,1.49E2,1E1,1.3E2,5E0,5.99E2,5E0,1.44E2,3E0,7E0,1.25E2,5E0,5.81E2,1.8E1,1.25E2,1.9E1,1E0,2E0,2E0,5E0,1.14E2,1.1E1,1E0,4E0,5.68E2,1.3E1,1E1,8E0,9.8E1,2.7E1,1.6E1,3E0,1E0,1E0,1.06E2,8E0,6E0,5E0,3.05E2,2.63E2,5E0,8E0,5E0,5E0,5E0,3E0,9E1,8E0,5E0,2.2E1,2E0,1.4E1,1E0,2E0,1.02E2,4E0,4E0,4E0,2E0,4E0],"tree_param":{"num_deleted":"0","num_feature":"54","num_nodes":"63","size_leaf_vector":"1"}},{"base_weights":[1.8157052E-4,-1.930965E-3,1.5781658E-2,2.7905596E-2,-2.4943245E-3,-3.090043E-2,1.8323109E-2,3.6918845E-2,-6.110551E-3,-2.1774342E-2,-1.0802117E-3,-1.1042995E-2,-9.415373E-4,2.4270361E-2,-2.5123316E-3,4.719765E-2,1.3088985E-2,-3.8803637E-4,3.3763252E-4,-4.6856724E-2,-1.6393565E-2,9.5667655E-4,-1.2354652E-2,2.0409598E-5,-3.0808628E-4,-1.593405E-2,2.7125046E-2,-8.735642E-4,5.4484233E-3,5.2984085E-2,6.6926266E-5,-9.983773E-4,4.5626704E-4,-2.277415E-3,-2.4246126E-2,5.989204E-4,-1.91805E-2,4.2846508E-4,4.7604457E-2,-2.3657765E-2,-4.241206E-3,-4.2230744E-4,-7.42854E-5,1.626948E-2,4.1543026E-2,2.1338591E-2,-1.0937055E-2,1.1496126E-3,2.6004793E-4,-8.013805E-5,5.0186733E-5,2.3131481E-4,-7.6222076E-4,-1.8867129E-4,-7.129608E-4,8.8681467E-4,-1.4572241E-6,1.375009E-3,-7.014034E-5,-2.5832411E-4,-9.6109125E-4,7.982908E-4,-1.6891873E-4,4.5625045E-4,-1.7824824E-4,3.420104E-4,1.10707E-3,5.6375127E-4,-4.7151127E-4,-3.5370348E-4,2.5905974E-4],"categories":[],"categories_nodes":[],"categories_segments":[],"categories_sizes":[],"default_left":[0,0,0,0,0,0,0,0,0,0,0,0,0,0,0,0,0,0,0,0,0,0,0,0,0,0,0,0,0,0,0,0,0,0,0,0,0,0,0,0,0,0,0,0,0,0,0,0,0,0,0,0,0,0,0,0,0,0,0,0,0,0,0,0,0,0,0,0,0,0,0],"id":18,"left_children":[1,3,5,7,9,11,13,15,17,19,21,23,-1,25,27,29,31,-1,-1,33,35,37,39,-1,-1,41,43,-1,45,47,-1,49,-1,-1,51,-1,53,55,57,59,61,-1,-1,63,65,67,69,-1,-1,-1,-1,-1,-1,-1,-1,-1,-1,-1,-1,-1,-1,-1,-1,-1,-1,-1,-1,-1,-1,-1,-1],"loss_changes":[3.0119061E-2,1.360062E-2,1.3497977E-2,4.824535E-3,2.15424E-2,1.407465E-3,1.29479915E-2,2.3215413E-3,1.549915E-3,6.519841E-3,1.6959826E-2,2.261705E-4,0E0,9.728663E-3,8.103053E-3,1.8526409E-3,7.077296E-4,0E0,0E0,1.0876119E-2,6.5150717E-3,1.5404177E-2,1.0262577E-2,0E0,0E0,3.0145945E-4,1.1219278E-2,0E0,5.7011093E-3,5.110726E-4,0E0,4.1713807E-5,0E0,0E0,4.4130106E-3,0E0,6.7260657E-3,1.3652143E-2,7.8067277E-3,1.1696119E-2,1.2776538E-2,0E0,0E0,7.617791E-3,9.855431E-3,4.048311E-3,2.002417E-3,0E0,0E0,0E0,0E0,0E0,0E0,0E0,0E0,0E0,0E0,0E0,0E0,0E0,0E0,0E0,0E0,0E0,0E0,0E0,0E0,0E0,0E0,0E0,0E0],"parents":[2147483647,0,0,1,1,2,2,3,3,4,4,5,5,6,6,7,7,8,8,9,9,10,10,11,11,13,13,14,14,15,15,16,16,19,19,20,20,21,21,22,22,25,25,26,26,28,28,29,29,31,31,34,34,36,36,37,37,38,38,39,39,40,40,43,43,44,44,45,45,46,46],"right_children":[2,4,6,8,10,12,14,16,18,20,22,24,-1,26,28,30,32,-1,-1,34,36,38,40,-1,-1,42,44,-1,46,48,-1,50,-1,-1,52,-1,54,56,58,60,62,-1,-1,64,66,68,70,-1,-1,-1,-1,-1,-1,-1,-1,-1,-1,-1,-1,-1,-1,-1,-1,-1,-1,-1,-1,-1,-1,-1,-1],"split_conditions":[1.3281195E0,-1.033302E0,-1.0318183E0,2.7928877E0,-1.0151724E0,7.586685E-2,5.3142E-1,-1.4996542E-1,-1.0321594E0,-1.3877301E0,6.773797E-1,-1.0481914E0,-9.415373E-4,-5.8276916E-1,5.8502406E-1,2.3271997E-1,-4.7843087E-1,-3.8803637E-4,3.3763252E-4,3.4519565E-1,-2.899862E0,1.7424031E0,1.3059847E-1,2.0409598E-5,-3.0808628E-4,-8.0189705E-1,4.3308043E-1,-8.735642E-4,1.3399725E0,1.3115596E0,6.6926266E-5,-1.0301971E0,4.5626704E-4,-2.277415E-3,-1.5901225E0,5.989204E-4,1.1962879E0,-1.9171708E0,-5.22673E-1,-5.949133E-1,7.364634E-1,-4.2230744E-4,-7.42854E-5,1.8470816E-2,-1.976378E-1,1.8392955E0,1.5375545E0,1.1496126E-3,2.6004793E-4,-8.013805E-5,5.0186733E-5,2.3131481E-4,-7.6222076E-4,-1.8867129E-4,-7.129608E-4,8.8681467E-4,-1.4572241E-6,1.375009E-3,-7.014034E-5,-2.5832411E-4,-9.6109125E-4,7.982908E-4,-1.6891873E-4,4.5625045E-4,-1.7824824E-4,3.420104E-4,1.10707E-3,5.6375127E-4,-4.7151127E-4,-3.5370348E-4,2.5905974E-4],"split_indices":[0,46,52,19,15,47,26,34,5,36,43,5,0,21,7,35,35,0,0,19,22,51,36,0,0,5,35,0,0,51,0,0,0,0,32,0,16,6,18,52,36,0,0,35,49,9,25,0,0,0,0,0,0,0,0,0,0,0,0,0,0,0,0,0,0,0,0,0,0,0,0],"split_type":[0,0,0,0,0,0,0,0,0,0,0,0,0,0,0,0,0,0,0,0,0,0,0,0,0,0,0,0,0,0,0,0,0,0,0,0,0,0,0,0,0,0,0,0,0,0,0,0,0,0,0,0,0,0,0,0,0,0,0,0,0,0,0,0,0,0,0,0,0,0,0],"sum_hessian":[9.12E2,8.04E2,1.08E2,1.4E1,7.9E2,5E0,1.03E2,1.1E1,3E0,5.3E1,7.37E2,3E0,2E0,8E1,2.3E1,7E0,4E0,2E0,1E0,8E0,4.5E1,6.25E2,1.12E2,1E0,2E0,5E0,7.5E1,3E0,2E1,6E0,1E0,2E0,2E0,1E0,7E0,2E0,4.3E1,6.19E2,6E0,4.6E1,6.6E1,3E0,2E0,4.4E1,3.1E1,1E1,1E1,5E0,1E0,1E0,1E0,2E0,5E0,2.8E1,1.5E1,6E0,6.13E2,4E0,2E0,3.3E1,1.3E1,5E0,6.1E1,3.5E1,9E0,1.2E1,1.9E1,9E0,1E0,8E0,2E0],"tree_param":{"num_deleted":"0","num_feature":"54","num_nodes":"71","size_leaf_vector":"1"}},{"base_weights":[4.9816157E-5,-2.310496E-3,1.4266619E-2,-2.4995718E-2,-1.5167611E-3,-2.7462885E-2,1.7277444E-2,-1.20792445E-2,-7.682906E-2,3.0640695E-2,-2.0397173E-3,6.34671E-3,-4.5425467E-2,1.6466281E-3,1.5477111E-2,5.946083E-4,-2.0245528E-2,-2.2051123E-3,-3.5585626E-4,1.4779106E-3,1.4600176E-2,-1.0695662E-3,-1.5600002E-2,1.9903068E-4,3.6558482E-5,1.273468E-4,-1.1411499E-3,1.8694947E-2,-3.4383659E-3,-7.386992E-4,-9.701563E-3,6.8180944E-4,1.3771242E-3,-1.3948067E-3,1.0962787E-3,-3.358806E-2,-4.0718387E-3,2.275292E-2,-2.6946175E-3,-1.5804313E-2,2.3927579E-2,-2.6500842E-4,3.2884738E-4,2.2028637E-4,-1.7208702E-4,-1.4545937E-4,8.572589E-6,4.7207935E-4,-7.615345E-4,-6.6020526E-4,8.387587E-5,3.3365074E-4,1.0469364E-3,-3.8355525E-4,4.7184824E-4,2.6596582E-4,-7.131145E-4,6.2133593E-4,-1.1768512E-4],"categories":[],"categories_nodes":[],"categories_segments":[],"categories_sizes":[],"default_left":[0,0,0,0,0,0,0,0,0,0,0,0,0,0,0,0,0,0,0,0,0,0,0,0,0,0,0,0,0,0,0,0,0,0,0,0,0,0,0,0,0,0,0,0,0,0,0,0,0,0,0,0,0,0,0,0,0,0,0],"id":19,"left_children":[1,3,5,7,9,11,13,15,17,19,21,23,25,-1,27,-1,29,-1,-1,-1,31,33,35,-1,-1,-1,-1,37,39,-1,41,-1,43,45,-1,47,49,51,53,55,57,-1,-1,-1,-1,-1,-1,-1,-1,-1,-1,-1,-1,-1,-1,-1,-1,-1,-1],"loss_changes":[3.0166337E-2,1.3844755E-2,1.655643E-2,1.6479064E-2,1.2607934E-2,5.754071E-3,1.2780011E-2,8.113358E-3,7.905137E-3,7.247071E-3,9.652625E-3,4.6967063E-5,3.9780363E-3,0E0,7.246578E-3,0E0,2.9851566E-3,0E0,0E0,0E0,2.5302651E-3,1.2563073E-2,1.0024329E-2,0E0,0E0,0E0,0E0,8.827936E-3,6.4694635E-3,0E0,1.424023E-3,0E0,7.6812506E-4,7.3345397E-3,0E0,5.7763644E-3,7.5534633E-3,1.4396656E-2,7.81843E-3,7.984621E-3,1.4598041E-3,0E0,0E0,0E0,0E0,0E0,0E0,0E0,0E0,0E0,0E0,0E0,0E0,0E0,0E0,0E0,0E0,0E0,0E0],"parents":[2147483647,0,0,1,1,2,2,3,3,4,4,5,5,6,6,7,7,8,8,9,9,10,10,11,11,12,12,14,14,16,16,20,20,21,21,22,22,27,27,28,28,30,30,32,32,33,33,35,35,36,36,37,37,38,38,39,39,40,40],"right_children":[2,4,6,8,10,12,14,16,18,20,22,24,26,-1,28,-1,30,-1,-1,-1,32,34,36,-1,-1,-1,-1,38,40,-1,42,-1,44,46,-1,48,50,52,54,56,58,-1,-1,-1,-1,-1,-1,-1,-1,-1,-1,-1,-1,-1,-1,-1,-1,-1,-1],"split_conditions":[1.115315E0,-1.4960117E0,-9.858029E-1,2.0854416E-1,-1.0360867E0,-1.2362517E0,-1.0120629E0,-1.6178921E0,5.689089E-1,3.1102425E-1,1.0198925E0,7.210526E-1,4.493519E-1,1.6466281E-3,1.7091343E0,5.946083E-4,-6.375616E-1,-2.2051123E-3,-3.5585626E-4,1.4779106E-3,-8.8566613E-1,2.7358837E0,1.1218524E0,1.9903068E-4,3.6558482E-5,1.273468E-4,-1.1411499E-3,1.6527145E0,1.0062103E0,-7.386992E-4,8.419114E-1,6.8180944E-4,-1.0308887E0,-5.7753515E-1,1.0962787E-3,-2.3972173E-1,-1.7798822E0,1.10677E0,3.442272E-2,-6.013073E-1,2.756026E0,-2.6500842E-4,3.2884738E-4,2.2028637E-4,-1.7208702E-4,-1.4545937E-4,8.572589E-6,4.7207935E-4,-7.615345E-4,-6.6020526E-4,8.387587E-5,3.3365074E-4,1.0469364E-3,-3.8355525E-4,4.7184824E-4,2.6596582E-4,-7.131145E-4,6.2133593E-4,-1.1768512E-4],"split_indices":[0,49,27,0,52,53,17,51,3,20,42,3,2,0,32,0,24,0,0,0,53,51,32,0,0,0,0,35,3,0,3,0,11,44,0,22,3,35,51,2,0,0,0,0,0,0,0,0,0,0,0,0,0,0,0,0,0,0,0],"split_type":[0,0,0,0,0,0,0,0,0,0,0,0,0,0,0,0,0,0,0,0,0,0,0,0,0,0,0,0,0,0,0,0,0,0,0,0,0,0,0,0,0,0,0,0,0,0,0,0,0,0,0,0,0,0,0,0,0,0,0],"sum_hessian":[8.97E2,7.7E2,1.27E2,2.5E1,7.45E2,8E0,1.19E2,2.1E1,4E0,1.1E1,7.34E2,3E0,5E0,2E0,1.17E2,3E0,1.8E1,2E0,2E0,2E0,9E0,6.86E2,4.8E1,1E0,2E0,1E0,4E0,1E2,1.7E1,6E0,1.2E1,3E0,6E0,6.83E2,3E0,1.8E1,3E1,8.4E1,1.6E1,1.2E1,5E0,1.1E1,1E0,3E0,3E0,1.61E2,5.22E2,1E0,1.7E1,6E0,2.4E1,7.1E1,1.3E1,1E1,6E0,5E0,7E0,4E0,1E0],"tree_param":{"num_deleted":"0","num_feature":"54","num_nodes":"59","size_leaf_vector":"1"}},{"base_weights":[-9.000659E-5,-2.4207756E-3,1.6982114E-2,-2.5262585E-2,-1.5436391E-3,-2.0870734E-2,2.1354634E-2,-1.4048936E-2,-6.777569E-2,-1.8785424E-4,-1.0815329E-2,-7.9004085E-3,-1.1429648E-3,3.991878E-2,1.2828303E-2,-7.5565156E-4,1.6626493E-3,-2.2325898E-3,-3.6679033E-2,3.3800342E-4,-2.7396651E-2,-1.24928765E-2,3.256902E-2,3.0729975E-4,-2.0066291E-2,2.9318482E-2,2.0828235E-3,1.4054197E-3,1.097738E-2,1.1396715E-2,-8.863441E-4,-8.160284E-4,-2.018948E-4,1.561382E-2,-4.7405247E-4,8.786424E-3,-8.8908576E-4,9.774814E-4,-1.36412205E-2,1.0693531E-4,7.9721696E-4,3.6071036E-5,-5.8349874E-4,1.5785802E-3,2.0208057E-2,1.735846E-2,-2.5394952E-3,5.1189173E-4,-2.3599085E-4,-8.962435E-5,5.653399E-4,-2.9265653E-5,2.80281E-4,-2.2284123E-4,5.157221E-4,-3.834925E-4,-1.01245576E-4,-3.786987E-4,5.713105E-4,2.2878032E-5,4.984657E-4,2.8533768E-4,-6.0535927E-4],"categories":[],"categories_nodes":[],"categories_segments":[],"categories_sizes":[],"default_left":[0,0,0,0,0,0,0,0,0,0,0,0,0,0,0,0,0,0,0,0,0,0,0,0,0,0,0,0,0,0,0,0,0,0,0,0,0,0,0,0,0,0,0,0,0,0,0,0,0,0,0,0,0,0,0,0,0,0,0,0,0,0,0],"id":20,"left_children":[1,3,5,7,9,11,13,15,17,19,21,23,-1,25,27,-1,29,-1,31,33,35,37,39,-1,41,43,-1,-1,45,47,-1,-1,-1,49,51,53,-1,-1,55,-1,-1,-1,-1,-1,57,59,61,-1,-1,-1,-1,-1,-1,-1,-1,-1,-1,-1,-1,-1,-1,-1,-1],"loss_changes":[3.6768362E-2,1.6249772E-2,1.8817559E-2,1.3349639E-2,9.853176E-3,5.1948796E-3,1.5316315E-2,9.385148E-3,4.087778E-3,9.810209E-3,7.684809E-3,3.138759E-3,0E0,1.8050808E-2,6.6711474E-3,0E0,7.666207E-3,0E0,1.3607368E-4,8.355843E-3,8.414166E-3,7.5023267E-3,5.8087334E-4,0E0,1.4470511E-3,1.1060242E-2,0E0,0E0,5.995487E-3,4.9127294E-3,0E0,0E0,0E0,8.771718E-3,9.193031E-3,1.9811997E-3,0E0,0E0,4.4601243E-3,0E0,0E0,0E0,0E0,0E0,8.719297E-3,5.736527E-3,1.1150178E-2,0E0,0E0,0E0,0E0,0E0,0E0,0E0,0E0,0E0,0E0,0E0,0E0,0E0,0E0,0E0,0E0],"parents":[2147483647,0,0,1,1,2,2,3,3,4,4,5,5,6,6,7,7,8,8,9,9,10,10,11,11,13,13,14,14,16,16,18,18,19,19,20,20,21,21,22,22,24,24,25,25,28,28,29,29,33,33,34,34,35,35,38,38,44,44,45,45,46,46],"right_children":[2,4,6,8,10,12,14,16,18,20,22,24,-1,26,28,-1,30,-1,32,34,36,38,40,-1,42,44,-1,-1,46,48,-1,-1,-1,50,52,54,-1,-1,56,-1,-1,-1,-1,-1,58,60,62,-1,-1,-1,-1,-1,-1,-1,-1,-1,-1,-1,-1,-1,-1,-1,-1],"split_conditions":[1.322985E0,-1.7848623E0,-9.816193E-1,1.908802E-1,8.4933835E-1,1.6750498E-1,-6.013923E-1,-7.215852E-1,5.689089E-1,2.38898E0,3.4025493E0,7.210526E-1,-1.1429648E-3,-6.147103E-1,-1.8535814E0,-7.5565156E-4,-1.3459848E0,-2.2325898E-3,5.438734E-1,-1.0046643E0,6.051681E-1,-2.545939E0,3.4881417E-2,3.0729975E-4,-1.2362517E0,-9.3738204E-1,2.0828235E-3,1.4054197E-3,7.273756E-1,-5.6276035E-1,-8.863441E-4,-8.160284E-4,-2.018948E-4,-5.5919063E-1,4.9113533E-1,-4.5572764E-1,-8.8908576E-4,9.774814E-4,-1.1787615E-1,1.0693531E-4,7.9721696E-4,3.6071036E-5,-5.8349874E-4,1.5785802E-3,-9.389961E-1,-2.22456E-1,1.0272335E0,5.1189173E-4,-2.3599085E-4,-8.962435E-5,5.653399E-4,-2.9265653E-5,2.80281E-4,-2.2284123E-4,5.157221E-4,-3.834925E-4,-1.01245576E-4,-3.786987E-4,5.713105E-4,2.2878032E-5,4.984657E-4,2.8533768E-4,-6.0535927E-4],"split_indices":[0,22,4,3,47,53,10,34,3,20,40,3,0,5,3,0,9,0,0,40,42,0,0,0,53,4,0,0,33,3,0,0,0,27,6,4,0,0,16,0,0,0,0,0,33,34,22,0,0,0,0,0,0,0,0,0,0,0,0,0,0,0,0],"split_type":[0,0,0,0,0,0,0,0,0,0,0,0,0,0,0,0,0,0,0,0,0,0,0,0,0,0,0,0,0,0,0,0,0,0,0,0,0,0,0,0,0,0,0,0,0,0,0,0,0,0,0,0,0,0,0,0,0,0,0,0,0,0,0],"sum_hessian":[9.22E2,8.12E2,1.1E2,2.9E1,7.83E2,1.1E1,9.9E1,2.4E1,5E0,6.84E2,9.9E1,9E0,2E0,3E1,6.9E1,9E0,1.5E1,1E0,4E0,6.72E2,1.2E1,9.6E1,3E0,3E0,6E0,2.7E1,3E0,1E0,6.8E1,1.3E1,2E0,3E0,1E0,3.3E1,6.39E2,4E0,8E0,1E0,9.5E1,1E0,2E0,2E0,4E0,3E0,2.4E1,4.6E1,2.2E1,8E0,5E0,1.3E1,2E1,5.99E2,4E1,2E0,2E0,5.7E1,3.8E1,4E0,2E1,1.5E1,3.1E1,1.4E1,8E0],"tree_param":{"num_deleted":"0","num_feature":"54","num_nodes":"63","size_leaf_vector":"1"}},{"base_weights":[3.275922E-4,-2.5339334E-3,1.6554438E-2,-9.151544E-5,-1.1733646E-2,-4.7686655E-2,1.8348541E-2,2.83278E-2,-8.006639E-4,-6.0118996E-2,-9.821964E-3,-2.2151548E-4,-1.1239671E-3,1.5550763E-3,1.6859418E-2,3.507711E-2,9.97925E-4,-1.4390317E-3,2.4234172E-2,-2.210264E-3,-2.7937511E-2,-5.769462E-3,-2.6238037E-2,1.8979155E-2,-1.0899287E-2,3.9117727E-2,1.9832017E-4,-3.3370582E-3,1.4002874E-4,2.1243074E-3,-4.3181675E-3,4.655381E-2,-7.92453E-3,-1.0269264E-5,-6.933032E-4,6.8900045E-3,-1.0798058E-2,5.7903765E-4,-3.104258E-2,1.5595438E-2,5.201377E-2,2.799684E-4,-1.8873515E-2,8.3194603E-4,1.6801558E-4,-9.2850736E-5,-7.2610096E-6,2.2289257E-4,-9.642951E-6,-1.345279E-4,1.01113976E-4,3.9096017E-4,1.2849771E-3,5.029578E-4,-3.525583E-4,-1.0116745E-4,5.3761585E-4,-4.543621E-4,-3.9783394E-5,4.7678212E-4,-6.770807E-4,3.488622E-4,-7.822889E-4,3.536776E-4,1.5534939E-3,-9.8409946E-5,-4.032775E-4],"categories":[],"categories_nodes":[],"categories_segments":[],"categories_sizes":[],"default_left":[0,0,0,0,0,0,0,0,0,0,0,0,0,0,0,0,0,0,0,0,0,0,0,0,0,0,0,0,0,0,0,0,0,0,0,0,0,0,0,0,0,0,0,0,0,0,0,0,0,0,0,0,0,0,0,0,0,0,0,0,0,0,0,0,0,0,0],"id":21,"left_children":[1,3,5,7,9,11,13,15,17,19,21,-1,-1,-1,23,25,27,29,31,-1,33,35,37,39,41,43,-1,45,-1,47,49,51,53,-1,-1,55,57,-1,59,61,63,-1,65,-1,-1,-1,-1,-1,-1,-1,-1,-1,-1,-1,-1,-1,-1,-1,-1,-1,-1,-1,-1,-1,-1,-1,-1],"loss_changes":[4.2435765E-2,1.7457763E-2,1.666494E-2,1.2417093E-2,1.4486589E-2,6.2404294E-4,1.0543E-2,2.7318615E-3,9.639715E-3,6.643096E-3,1.0359756E-2,0E0,0E0,0E0,7.973887E-3,8.32106E-4,1.2746471E-4,6.0314042E-3,1.1135476E-2,0E0,9.04697E-4,8.222794E-3,9.118773E-3,1.2937736E-2,2.2495994E-3,4.1219965E-4,0E0,9.962037E-6,0E0,6.188783E-3,7.370687E-3,3.044881E-3,2.6897057E-3,0E0,0E0,8.9737E-3,9.615029E-3,0E0,5.2816737E-3,1.2104992E-2,8.316711E-3,0E0,4.4818968E-5,0E0,0E0,0E0,0E0,0E0,0E0,0E0,0E0,0E0,0E0,0E0,0E0,0E0,0E0,0E0,0E0,0E0,0E0,0E0,0E0,0E0,0E0,0E0,0E0],"parents":[2147483647,0,0,1,1,2,2,3,3,4,4,5,5,6,6,7,7,8,8,9,9,10,10,14,14,15,15,16,16,17,17,18,18,20,20,21,21,22,22,23,23,24,24,25,25,27,27,29,29,30,30,31,31,32,32,35,35,36,36,38,38,39,39,40,40,42,42],"right_children":[2,4,6,8,10,12,14,16,18,20,22,-1,-1,-1,24,26,28,30,32,-1,34,36,38,40,42,44,-1,46,-1,48,50,52,54,-1,-1,56,58,-1,60,62,64,-1,66,-1,-1,-1,-1,-1,-1,-1,-1,-1,-1,-1,-1,-1,-1,-1,-1,-1,-1,-1,-1,-1,-1,-1,-1],"split_conditions":[1.0745094E0,5.1051223E-1,-1.0532854E0,-1.4937623E0,-1.6913434E0,1.4626954E0,-1.0101619E0,2.2049613E0,1.7424031E0,7.19072E-1,1.1230148E0,-2.2151548E-4,-1.1239671E-3,1.5550763E-3,3.246783E0,6.338382E-1,-2.275251E0,-5.6112486E-1,-1.1142508E-1,-2.210264E-3,2.2049613E0,-6.723774E-1,-2.545939E0,2.4304042E0,-9.752054E-1,-1.2473509E0,1.9832017E-4,-2.545939E0,1.4002874E-4,-3.487023E-1,8.337665E-1,-2.0593765E-1,2.945253E-3,-1.0269264E-5,-6.933032E-4,1.1886003E0,2.4280468E-1,5.7903765E-4,-9.3823075E-1,1.8288409E0,7.0487154E-1,2.799684E-4,-5.7074016E-1,8.3194603E-4,1.6801558E-4,-9.2850736E-5,-7.2610096E-6,2.2289257E-4,-9.642951E-6,-1.345279E-4,1.01113976E-4,3.9096017E-4,1.2849771E-3,5.029578E-4,-3.525583E-4,-1.0116745E-4,5.3761585E-4,-4.543621E-4,-3.9783394E-5,4.7678212E-4,-6.770807E-4,3.488622E-4,-7.822889E-4,3.536776E-4,1.5534939E-3,-9.8409946E-5,-4.032775E-4],"split_indices":[0,37,50,0,47,0,17,2,51,2,19,0,0,0,35,7,0,19,37,0,2,26,0,6,49,6,0,0,0,47,31,34,2,0,0,37,33,0,35,53,34,0,53,0,0,0,0,0,0,0,0,0,0,0,0,0,0,0,0,0,0,0,0,0,0,0,0],"split_type":[0,0,0,0,0,0,0,0,0,0,0,0,0,0,0,0,0,0,0,0,0,0,0,0,0,0,0,0,0,0,0,0,0,0,0,0,0,0,0,0,0,0,0,0,0,0,0,0,0,0,0,0,0,0,0,0,0,0,0,0,0,0,0,0,0,0,0],"sum_hessian":[9.12E2,7.76E2,1.36E2,6.14E2,1.62E2,3E0,1.33E2,1.4E1,6E2,5E0,1.57E2,1E0,2E0,2E0,1.31E2,1.1E1,3E0,5.86E2,1.4E1,1E0,4E0,1.27E2,3E1,1.22E2,9E0,9E0,2E0,2E0,1E0,2.62E2,3.24E2,8E0,6E0,1E0,3E0,3.6E1,9.1E1,2E0,2.8E1,1.12E2,1E1,2E0,7E0,8E0,1E0,1E0,1E0,5.8E1,2.04E2,2.58E2,6.6E1,4E0,4E0,1E0,5E0,2.3E1,1.3E1,3.8E1,5.3E1,1E0,2.7E1,1.09E2,3E0,5E0,5E0,1E0,6E0],"tree_param":{"num_deleted":"0","num_feature":"54","num_nodes":"67","size_leaf_vector":"1"}},{"base_weights":[-4.3051873E-4,-2.3125755E-3,1.5403101E-2,-2.591042E-2,-1.5168953E-3,2.0462241E-2,-2.9645806E-2,-2.1881612E-3,-1.8194193E-2,4.4875216E-2,-1.8768897E-3,4.3126814E-2,1.4665669E-2,9.094849E-4,-4.2870857E-2,-2.3547392E-2,5.782346E-4,1.3935438E-3,-3.1524946E-3,3.0491302E-2,-2.3003174E-3,1.5116102E-2,6.6345654E-2,1.9935671E-2,-4.3665688E-3,-1.7008993E-4,6.8823113E-3,-1.1007088E-3,-1.6612516E-4,-3.6154985E-2,-1.1068089E-2,7.719483E-5,-1.7176967E-4,8.2371365E-3,7.7704136E-4,-1.3633153E-3,-1.4286192E-2,5.857119E-4,-4.5969497E-4,1.7786736E-3,6.0977E-4,1.3842192E-2,4.9542103E-2,-1.1322033E-2,5.909557E-4,1.5990585E-5,1.9047875E-4,-1.8267911E-4,-7.588739E-4,-3.5498323E-4,3.4237085E-4,3.375249E-4,-5.359631E-6,3.3002679E-4,-4.1959887E-5,-3.8789818E-4,3.630378E-4,3.9138205E-4,-2.5024888E-4,3.795122E-4,1.6601264E-3,-3.9814858E-4,1.6226334E-4],"categories":[],"categories_nodes":[],"categories_segments":[],"categories_sizes":[],"default_left":[0,0,0,0,0,0,0,0,0,0,0,0,0,0,0,0,0,0,0,0,0,0,0,0,0,0,0,0,0,0,0,0,0,0,0,0,0,0,0,0,0,0,0,0,0,0,0,0,0,0,0,0,0,0,0,0,0,0,0,0,0,0,0],"id":22,"left_children":[1,3,5,7,9,11,13,-1,15,17,19,21,23,25,27,29,-1,-1,31,33,35,37,39,41,43,-1,45,-1,-1,47,49,-1,-1,51,-1,53,55,-1,-1,-1,-1,57,59,61,-1,-1,-1,-1,-1,-1,-1,-1,-1,-1,-1,-1,-1,-1,-1,-1,-1,-1,-1],"loss_changes":[2.6646817E-2,1.4962992E-2,2.2257945E-2,1.47608705E-2,1.3010726E-2,1.0665927E-2,4.0799435E-3,0E0,6.98498E-3,7.3667495E-3,1.0609737E-2,1.0053508E-2,7.1080467E-3,2.834429E-4,2.4861097E-3,3.2185148E-3,0E0,0E0,1.4750464E-4,1.5405891E-3,8.515923E-3,5.531949E-3,4.578028E-3,9.236569E-3,4.1087824E-3,0E0,4.0590632E-5,0E0,0E0,1.8508453E-4,2.7519604E-3,0E0,0E0,2.9842905E-4,0E0,9.300717E-3,9.466491E-3,0E0,0E0,0E0,0E0,7.3385974E-3,7.6308586E-3,2.4975368E-3,0E0,0E0,0E0,0E0,0E0,0E0,0E0,0E0,0E0,0E0,0E0,0E0,0E0,0E0,0E0,0E0,0E0,0E0,0E0],"parents":[2147483647,0,0,1,1,2,2,3,3,4,4,5,5,6,6,8,8,9,9,10,10,11,11,12,12,13,13,14,14,15,15,18,18,19,19,20,20,21,21,22,22,23,23,24,24,26,26,29,29,30,30,33,33,35,35,36,36,41,41,42,42,43,43],"right_children":[2,4,6,8,10,12,14,-1,16,18,20,22,24,26,28,30,-1,-1,32,34,36,38,40,42,44,-1,46,-1,-1,48,50,-1,-1,52,-1,54,56,-1,-1,-1,-1,58,60,62,-1,-1,-1,-1,-1,-1,-1,-1,-1,-1,-1,-1,-1,-1,-1,-1,-1,-1,-1],"split_conditions":[1.3281195E0,-1.4960117E0,1.4598347E0,-1.8421923E0,-1.01707E0,-1.3326286E0,-2.7457225E-1,-2.1881612E-3,3.738823E0,1.9579273E-1,-1.0351064E0,4.6968314E-1,1.54545E0,1.3346219E0,-9.2245495E-1,1.7036991E-2,5.782346E-4,1.3935438E-3,-8.3395064E-1,-1.0285405E0,1.2059911E0,-1.3355155E-1,1.6404226E0,1.10677E0,3.917918E-1,-1.7008993E-4,2.2946935E0,-1.1007088E-3,-1.6612516E-4,-2.7449092E-1,2.7603558E-1,7.719483E-5,-1.7176967E-4,-1.6176856E0,7.7704136E-4,-1.4937623E0,3.0047364E0,5.857119E-4,-4.5969497E-4,1.7786736E-3,6.0977E-4,1.3402009E0,3.5327247E-1,9.21872E-1,5.909557E-4,1.5990585E-5,1.9047875E-4,-1.8267911E-4,-7.588739E-4,-3.5498323E-4,3.4237085E-4,3.375249E-4,-5.359631E-6,3.3002679E-4,-4.1959887E-5,-3.8789818E-4,3.630378E-4,3.9138205E-4,-2.5024888E-4,3.795122E-4,1.6601264E-3,-3.9814858E-4,1.6226334E-4],"split_indices":[0,49,21,47,14,39,35,0,20,25,46,19,35,0,4,47,0,0,0,3,29,2,31,35,53,0,0,0,0,29,35,0,0,0,0,0,29,0,0,0,0,0,47,42,0,0,0,0,0,0,0,0,0,0,0,0,0,0,0,0,0,0,0],"split_type":[0,0,0,0,0,0,0,0,0,0,0,0,0,0,0,0,0,0,0,0,0,0,0,0,0,0,0,0,0,0,0,0,0,0,0,0,0,0,0,0,0,0,0,0,0,0,0,0,0,0,0,0,0,0,0,0,0,0,0,0,0,0,0],"sum_hessian":[8.92E2,7.98E2,9.4E1,2.5E1,7.73E2,8.5E1,9E0,1E0,2.4E1,5E0,7.68E2,1.6E1,6.9E1,3E0,6E0,2.2E1,2E0,3E0,2E0,9E0,7.59E2,8E0,8E0,5.4E1,1.5E1,1E0,2E0,4E0,2E0,1E1,1.2E1,1E0,1E0,3E0,6E0,7.05E2,5.4E1,6E0,2E0,4E0,4E0,4.6E1,8E0,1.3E1,2E0,1E0,1E0,1E0,9E0,1E1,2E0,1E0,2E0,2.7E1,6.78E2,4.7E1,7E0,3.8E1,8E0,5E0,3E0,9E0,4E0],"tree_param":{"num_deleted":"0","num_feature":"54","num_nodes":"63","size_leaf_vector":"1"}},{"base_weights":[-8.914685E-5,-1.7282404E-3,1.390321E-2,3.3098023E-2,-2.2376492E-3,-2.8766323E-2,1.8594028E-2,4.523806E-2,-3.6802856E-4,-2.2679688E-4,-1.0004412E-2,5.829983E-3,-4.4426166E-2,1.6991096E-2,1.5804917E-3,5.1656672E-5,9.938108E-4,-1.0142659E-3,2.462919E-2,-5.6900526E-3,-2.5665676E-2,1.8857396E-4,2.975023E-5,-1.1567497E-3,-3.9816607E-4,1.20418975E-2,3.0239219E-2,3.696247E-2,-1.4995217E-3,1.3726407E-3,1.2826804E-2,-3.073244E-3,-2.7713409E-2,-3.356689E-2,1.9434856E-2,1.8466236E-2,-1.0603647E-2,3.5445973E-2,-3.3543615E-3,8.720628E-4,-9.5222495E-5,-1.6081724E-5,-4.9735693E-4,1.1576949E-6,6.2119693E-4,3.8748022E-4,-1.3932456E-4,-6.7286834E-4,4.937671E-4,7.481595E-5,-7.253764E-4,6.4736174E-4,-8.57547E-5,1.8671843E-4,5.835098E-4,4.6659022E-4,-5.980635E-4,7.5057853E-4,-4.1301286E-5,-2.7533367E-4,9.410614E-5],"categories":[],"categories_nodes":[],"categories_segments":[],"categories_sizes":[],"default_left":[0,0,0,0,0,0,0,0,0,0,0,0,0,0,0,0,0,0,0,0,0,0,0,0,0,0,0,0,0,0,0,0,0,0,0,0,0,0,0,0,0,0,0,0,0,0,0,0,0,0,0,0,0,0,0,0,0,0,0,0,0],"id":23,"left_children":[1,3,5,7,9,11,13,15,-1,17,19,21,23,25,-1,-1,-1,27,29,31,33,-1,-1,-1,-1,35,37,39,41,-1,43,45,47,49,51,53,55,57,59,-1,-1,-1,-1,-1,-1,-1,-1,-1,-1,-1,-1,-1,-1,-1,-1,-1,-1,-1,-1,-1,-1],"loss_changes":[2.1215767E-2,1.47634465E-2,1.994992E-2,8.334908E-3,1.2757486E-2,5.6767305E-3,7.1815047E-3,1.7708745E-3,0E0,1.2747638E-2,1.120544E-2,4.8483984E-5,1.1502728E-3,5.340241E-3,0E0,0E0,0E0,1.1683765E-2,9.506441E-3,7.5797406E-3,1.3480924E-2,0E0,0E0,0E0,0E0,9.652182E-3,4.14191E-3,2.4241824E-3,1.0120729E-2,0E0,3.9560786E-3,1.0621381E-2,5.1810015E-3,3.2605678E-3,1.9796437E-3,4.71434E-3,1.0521037E-2,1.6401745E-3,4.0045596E-4,0E0,0E0,0E0,0E0,0E0,0E0,0E0,0E0,0E0,0E0,0E0,0E0,0E0,0E0,0E0,0E0,0E0,0E0,0E0,0E0,0E0,0E0],"parents":[2147483647,0,0,1,1,2,2,3,3,4,4,5,5,6,6,7,7,9,9,10,10,11,11,12,12,13,13,17,17,18,18,19,19,20,20,25,25,26,26,27,27,28,28,30,30,31,31,32,32,33,33,34,34,35,35,36,36,37,37,38,38],"right_children":[2,4,6,8,10,12,14,16,-1,18,20,22,24,26,-1,-1,-1,28,30,32,34,-1,-1,-1,-1,36,38,40,42,-1,44,46,48,50,52,54,56,58,60,-1,-1,-1,-1,-1,-1,-1,-1,-1,-1,-1,-1,-1,-1,-1,-1,-1,-1,-1,-1,-1,-1],"split_conditions":[1.3196212E0,-1.033302E0,-9.969288E-1,1.5083313E0,4.6852827E-1,-1.2362517E0,5.1424193E0,-5.428076E-1,-3.6802856E-4,1.3415291E0,1.0732628E0,7.210526E-1,-4.1109627E-1,8.31402E-1,1.5804917E-3,5.1656672E-5,9.938108E-4,-1.7118822E0,-1.0000515E0,1.2822127E0,1.0077137E0,1.8857396E-4,2.975023E-5,-1.1567497E-3,-3.9816607E-4,7.273756E-1,2.211458E0,2.2049613E0,1.198508E0,1.3726407E-3,1.6548519E-1,-1.2473509E0,1.5809771E-1,-1.0306565E0,1.6402112E0,6.1401594E-1,6.1067003E-1,1.3394271E0,1.3311973E0,8.720628E-4,-9.5222495E-5,-1.6081724E-5,-4.9735693E-4,1.1576949E-6,6.2119693E-4,3.8748022E-4,-1.3932456E-4,-6.7286834E-4,4.937671E-4,7.481595E-5,-7.253764E-4,6.4736174E-4,-8.57547E-5,1.8671843E-4,5.835098E-4,4.6659022E-4,-5.980635E-4,7.5057853E-4,-4.1301286E-5,-2.7533367E-4,9.410614E-5],"split_indices":[1,46,50,53,37,53,1,2,0,51,19,3,51,16,0,0,0,6,4,16,1,0,0,0,0,33,27,2,6,0,18,6,2,8,19,37,3,49,1,0,0,0,0,0,0,0,0,0,0,0,0,0,0,0,0,0,0,0,0,0,0],"split_type":[0,0,0,0,0,0,0,0,0,0,0,0,0,0,0,0,0,0,0,0,0,0,0,0,0,0,0,0,0,0,0,0,0,0,0,0,0,0,0,0,0,0,0,0,0,0,0,0,0,0,0,0,0,0,0,0,0,0,0,0,0],"sum_hessian":[9.23E2,8.27E2,9.6E1,1.1E1,8.16E2,9E0,8.7E1,9E0,2E0,6.49E2,1.67E2,3E0,6E0,8.6E1,1E0,1E0,8E0,6.3E2,1.9E1,1.32E2,3.5E1,1E0,2E0,3E0,3E0,6.4E1,2.2E1,7E0,6.23E2,3E0,1.6E1,1.19E2,1.3E1,3E1,5E0,5E1,1.4E1,1.9E1,3E0,6E0,1E0,6.06E2,1.7E1,1E1,6E0,1.7E1,1.02E2,1.2E1,1E0,2E0,2.8E1,3E0,2E0,2.8E1,2.2E1,5E0,9E0,1.8E1,1E0,1E0,2E0],"tree_param":{"num_deleted":"0","num_feature":"54","num_nodes":"61","size_leaf_vector":"1"}},{"base_weights":[-2.0163535E-4,-1.5977815E-3,1.7507091E-2,8.0563745E-4,-1.9995158E-3,5.7110363E-3,5.7232946E-2,-5.202864E-2,-1.3877122E-3,-2.1846622E-2,1.1218034E-2,9.056608E-2,1.6745694E-2,-2.5680603E-2,-2.0989438E-3,4.9816976E-5,-1.2920087E-2,2.9353561E-5,-2.871752E-2,-9.169115E-3,1.7483935E-2,4.2944547E-4,2.2003725E-3,-2.2079931E-4,5.569515E-4,-6.41325E-4,1.901895E-4,-2.0062495E-3,7.114907E-3,-7.951119E-3,-3.4082E-2,-7.996258E-4,-1.0274369E-2,1.572371E-2,-1.6447933E-2,2.9282747E-2,2.3800984E-3,-5.090639E-5,7.1958866E-4,-1.8693927E-4,2.4228207E-4,3.2993982E-4,-3.080275E-4,-7.7739666E-4,2.4356863E-5,-1.0495133E-5,-2.669864E-4,9.897638E-5,3.7273497E-4,-7.603813E-5,-4.427459E-4,7.387695E-4,9.180307E-6,2.5554845E-4,-4.6098998E-4],"categories":[],"categories_nodes":[],"categories_segments":[],"categories_sizes":[],"default_left":[0,0,0,0,0,0,0,0,0,0,0,0,0,0,0,0,0,0,0,0,0,0,0,0,0,0,0,0,0,0,0,0,0,0,0,0,0,0,0,0,0,0,0,0,0,0,0,0,0,0,0,0,0,0,0],"id":24,"left_children":[1,3,5,-1,7,9,11,13,15,17,19,21,23,25,-1,27,29,-1,31,33,35,-1,-1,-1,-1,-1,-1,37,39,41,43,-1,45,47,49,51,53,-1,-1,-1,-1,-1,-1,-1,-1,-1,-1,-1,-1,-1,-1,-1,-1,-1,-1],"loss_changes":[2.2328995E-2,1.4162647E-2,3.0601293E-2,0E0,2.533244E-2,8.136594E-3,1.8726915E-2,1.1247892E-2,1.3611285E-2,1.4838595E-3,5.7810405E-3,8.390062E-3,2.7752207E-3,2.102625E-3,0E0,1.0632995E-2,9.297921E-3,0E0,1.0433937E-3,2.2517163E-3,5.989353E-3,0E0,0E0,0E0,0E0,0E0,0E0,1.1702006E-2,1.3692094E-2,1.3914928E-2,2.9205047E-3,0E0,1.1291323E-4,1.9330764E-6,5.6336634E-4,4.1757133E-3,4.52491E-3,0E0,0E0,0E0,0E0,0E0,0E0,0E0,0E0,0E0,0E0,0E0,0E0,0E0,0E0,0E0,0E0,0E0,0E0],"parents":[2147483647,0,0,1,1,2,2,4,4,5,5,6,6,7,7,8,8,9,9,10,10,11,11,12,12,13,13,15,15,16,16,18,18,19,19,20,20,27,27,28,28,29,29,30,30,32,32,33,33,34,34,35,35,36,36],"right_children":[2,4,6,-1,8,10,12,14,16,18,20,22,24,26,-1,28,30,-1,32,34,36,-1,-1,-1,-1,-1,-1,38,40,42,44,-1,46,48,50,52,54,-1,-1,-1,-1,-1,-1,-1,-1,-1,-1,-1,-1,-1,-1,-1,-1,-1,-1],"split_conditions":[1.3422575E0,-1.7739874E0,1.0978259E0,8.0563745E-4,-1.9427698E0,-9.816193E-1,8.432554E-1,1.908802E-1,9.0395015E-1,-1.2362517E0,-2.0166194E-1,8.2083213E-1,-3.2229063E-1,2.5227025E0,-2.0989438E-3,2.5123444E-1,1.6558969E0,2.9353561E-5,1.5438843E-3,-1.2558354E0,2.9870737E-1,4.2944547E-4,2.2003725E-3,-2.2079931E-4,5.569515E-4,-6.41325E-4,1.901895E-4,1.6558969E0,-2.212263E-1,-6.453073E-1,2.4820235E0,-7.996258E-4,-1.0194507E0,6.1199355E-1,8.2599574E-1,2.9325156E0,9.113341E-1,-5.090639E-5,7.1958866E-4,-1.8693927E-4,2.4228207E-4,3.2993982E-4,-3.080275E-4,-7.7739666E-4,2.4356863E-5,-1.0495133E-5,-2.669864E-4,9.897638E-5,3.7273497E-4,-7.603813E-5,-4.427459E-4,7.387695E-4,9.180307E-6,2.5554845E-4,-4.6098998E-4],"split_indices":[3,18,47,0,38,4,25,3,42,53,35,35,4,2,0,6,2,0,51,9,13,0,0,0,0,0,0,2,3,4,18,0,4,2,2,35,19,0,0,0,0,0,0,0,0,0,0,0,0,0,0,0,0,0,0],"split_type":[0,0,0,0,0,0,0,0,0,0,0,0,0,0,0,0,0,0,0,0,0,0,0,0,0,0,0,0,0,0,0,0,0,0,0,0,0,0,0,0,0,0,0,0,0,0,0,0,0,0,0,0,0,0,0],"sum_hessian":[9.01E2,8.36E2,6.5E1,7E0,8.29E2,5.1E1,1.4E1,9E0,8.2E2,8E0,4.3E1,7E0,7E0,7E0,2E0,7.3E2,9E1,2E0,6E0,1E1,3.3E1,2E0,5E0,2E0,5E0,6E0,1E0,5.66E2,1.64E2,7.4E1,1.6E1,3E0,3E0,2E0,8E0,1.8E1,1.5E1,5.59E2,7E0,3.8E1,1.26E2,1.7E1,5.7E1,1.4E1,2E0,1E0,2E0,1E0,1E0,3E0,5E0,1.4E1,4E0,1.1E1,4E0],"tree_param":{"num_deleted":"0","num_feature":"54","num_nodes":"55","size_leaf_vector":"1"}},{"base_weights":[2.0492745E-4,-1.9891486E-3,1.2217212E-2,3.3266023E-2,-2.4420717E-3,1.47037385E-2,-3.8193006E-2,4.5171456E-4,5.5066943E-2,-1.5097919E-3,-2.2688461E-2,1.2532851E-2,6.950861E-2,-1.3015941E-3,-1.7580523E-3,-2.595668E-4,1.3731198E-2,1.2744373E-3,1.17923344E-4,-1.0684915E-4,-1.1919051E-2,-1.328203E-2,-7.458936E-2,1.5942188E-2,-1.1668641E-2,-2.8920308E-4,1.8823168E-3,1.7949234E-4,-1.6654296E-4,4.959518E-5,3.6234077E-4,-1.2931989E-3,1.1241736E-2,-1.46916425E-2,1.7643316E-2,1.701237E-2,-2.0021405E-2,-2.1491651E-3,-7.9015136E-4,2.0677332E-2,-6.688812E-3,-2.1942286E-2,5.4412545E-4,2.279444E-4,-4.026968E-5,3.1275096E-4,-7.1486254E-5,5.8582806E-5,-4.0277606E-4,8.675497E-4,-1.2945369E-4,5.592912E-4,-3.7748585E-4,-6.9517E-4,-1.9118765E-4,3.3223108E-4,9.134139E-4,2.6950453E-4,-6.043355E-4,4.476061E-4,-6.2388816E-4],"categories":[],"categories_nodes":[],"categories_segments":[],"categories_sizes":[],"default_left":[0,0,0,0,0,0,0,0,0,0,0,0,0,0,0,0,0,0,0,0,0,0,0,0,0,0,0,0,0,0,0,0,0,0,0,0,0,0,0,0,0,0,0,0,0,0,0,0,0,0,0,0,0,0,0,0,0,0,0,0,0],"id":25,"left_children":[1,3,5,7,9,11,13,15,17,19,21,23,25,-1,27,-1,29,-1,-1,31,33,35,37,39,41,-1,-1,-1,-1,-1,-1,43,45,47,49,51,53,-1,-1,55,57,59,-1,-1,-1,-1,-1,-1,-1,-1,-1,-1,-1,-1,-1,-1,-1,-1,-1,-1,-1],"loss_changes":[2.4403475E-2,1.2584093E-2,1.8486116E-2,7.1289474E-3,1.4575229E-2,1.542847E-2,6.7428956E-3,1.0699292E-3,2.1777004E-3,1.081999E-2,1.560818E-2,1.1159997E-2,1.1692122E-2,0E0,3.567487E-4,0E0,1.0311516E-4,0E0,0E0,8.819596E-3,7.4720737E-3,6.4655705E-3,1.5200824E-3,1.2676144E-2,7.386546E-3,0E0,0E0,0E0,0E0,0E0,0E0,5.443395E-3,4.093865E-3,7.833634E-3,5.245611E-3,2.8860373E-3,3.5222257E-3,0E0,0E0,9.098232E-3,1.0369972E-2,6.4392337E-3,0E0,0E0,0E0,0E0,0E0,0E0,0E0,0E0,0E0,0E0,0E0,0E0,0E0,0E0,0E0,0E0,0E0,0E0,0E0],"parents":[2147483647,0,0,1,1,2,2,3,3,4,4,5,5,6,6,7,7,8,8,9,9,10,10,11,11,12,12,14,14,16,16,19,19,20,20,21,21,22,22,23,23,24,24,31,31,32,32,33,33,34,34,35,35,36,36,39,39,40,40,41,41],"right_children":[2,4,6,8,10,12,14,16,18,20,22,24,26,-1,28,-1,30,-1,-1,32,34,36,38,40,42,-1,-1,-1,-1,-1,-1,44,46,48,50,52,54,-1,-1,56,58,60,-1,-1,-1,-1,-1,-1,-1,-1,-1,-1,-1,-1,-1,-1,-1,-1,-1,-1,-1],"split_conditions":[1.0044339E0,-1.0360867E0,2.38898E0,-1.0417858E0,1.3772151E0,2.3314772E0,2.0966265E0,-1.0481914E0,-1.0260438E0,8.4933835E-1,1.0584985E-1,1.7091343E0,7.998739E-1,-1.3015941E-3,2.734958E0,-2.595668E-4,-4.1120356E-1,1.2744373E-3,1.17923344E-4,1.0297602E0,2.4461896E0,-1.4963768E0,5.689089E-1,1.6753402E0,1.0062103E0,-2.8920308E-4,1.8823168E-3,1.7949234E-4,-1.6654296E-4,4.959518E-5,3.6234077E-4,-1.0608553E0,1.0379108E0,-5.4681903E-1,7.5395875E-2,-1.9171708E0,-1.3961442E0,-2.1491651E-3,-7.9015136E-4,1.2856662E0,1.7775978E0,3.0917144E-1,5.4412545E-4,2.279444E-4,-4.026968E-5,3.1275096E-4,-7.1486254E-5,5.8582806E-5,-4.0277606E-4,8.675497E-4,-1.2945369E-4,5.592912E-4,-3.7748585E-4,-6.9517E-4,-1.9118765E-4,3.3223108E-4,9.134139E-4,2.6950453E-4,-6.043355E-4,4.476061E-4,-6.2388816E-4],"split_indices":[0,52,20,8,39,30,0,5,5,47,3,32,2,0,0,0,0,0,0,31,34,47,3,35,3,0,0,0,0,0,0,9,5,29,33,6,53,0,0,35,30,44,0,0,0,0,0,0,0,0,0,0,0,0,0,0,0,0,0,0,0],"split_type":[0,0,0,0,0,0,0,0,0,0,0,0,0,0,0,0,0,0,0,0,0,0,0,0,0,0,0,0,0,0,0,0,0,0,0,0,0,0,0,0,0,0,0,0,0,0,0,0,0,0,0,0,0,0,0,0,0,0,0,0,0],"sum_hessian":[9.24E2,7.82E2,1.42E2,9E0,7.73E2,1.36E2,6E0,4E0,5E0,7.4E2,3.3E1,1.32E2,4E0,3E0,3E0,2E0,2E0,4E0,1E0,6.53E2,8.7E1,2.9E1,4E0,1.16E2,1.6E1,1E0,3E0,1E0,2E0,1E0,1E0,5.92E2,6.1E1,8E1,7E0,5E0,2.4E1,1E0,3E0,9.6E1,2E1,1.3E1,3E0,3.1E1,5.61E2,4.7E1,1.4E1,1.9E1,6.1E1,3E0,4E0,4E0,1E0,9E0,1.5E1,8.4E1,1.2E1,1.1E1,9E0,2E0,1.1E1],"tree_param":{"num_deleted":"0","num_feature":"54","num_nodes":"61","size_leaf_vector":"1"}},{"base_weights":[-2.7494677E-4,-2.884022E-3,1.3183331E-2,-6.911888E-4,-1.4001772E-2,-3.6328364E-2,1.593808E-2,-2.7997923E-4,-2.903354E-2,2.901966E-3,-1.9912876E-2,-1.37222065E-2,-1.1100793E-3,1.999274E-2,-3.3508728E-3,-1.0975562E-3,2.4383964E-2,-8.679928E-3,-1.0461115E-3,-6.3662687E-3,2.8324623E-2,5.2483473E-4,-2.17635E-2,-3.490138E-4,1.1917329E-5,1.5208569E-2,5.0873306E-2,-1.9601012E-2,1.3157025E-2,-2.3701433E-2,-6.375155E-4,3.6003504E-2,2.4542164E-3,-3.091741E-4,-1.4258641E-3,-1.43119395E-2,1.6110018E-2,-3.5748084E-3,7.589886E-4,-5.8964625E-2,-1.8363845E-2,1.9280009E-2,-7.62595E-3,5.092241E-3,9.029521E-2,4.4163803E-4,-2.9187167E-2,-3.6496538E-4,2.0526012E-2,1.7844759E-4,-8.225727E-4,-3.841595E-5,1.2897387E-4,-1.5836064E-5,8.553108E-4,-6.0253016E-5,1.7348492E-4,3.2692264E-5,-5.9817885E-5,3.8015196E-4,-3.8699957E-4,7.710668E-5,6.2328967E-4,-4.851328E-4,3.7788856E-4,-6.666168E-4,-2.1276735E-3,-4.0389372E-5,-4.330165E-4,4.351979E-4,-1.5237782E-4,-3.3446058E-4,3.1464457E-4,5.4512295E-4,-2.7314664E-4,1.984557E-3,2.7766728E-4,-6.85888E-4,2.1885167E-4,5.216316E-4,-5.9653925E-5],"categories":[],"categories_nodes":[],"categories_segments":[],"categories_sizes":[],"default_left":[0,0,0,0,0,0,0,0,0,0,0,0,0,0,0,0,0,0,0,0,0,0,0,0,0,0,0,0,0,0,0,0,0,0,0,0,0,0,0,0,0,0,0,0,0,0,0,0,0,0,0,0,0,0,0,0,0,0,0,0,0,0,0,0,0,0,0,0,0,0,0,0,0,0,0,0,0,0,0,0,0],"id":26,"left_children":[1,3,5,7,9,11,13,15,17,19,21,23,-1,25,27,29,31,33,-1,35,37,-1,39,-1,-1,41,43,45,47,49,51,53,55,-1,57,59,61,63,-1,65,67,69,71,73,75,-1,77,-1,79,-1,-1,-1,-1,-1,-1,-1,-1,-1,-1,-1,-1,-1,-1,-1,-1,-1,-1,-1,-1,-1,-1,-1,-1,-1,-1,-1,-1,-1,-1,-1,-1],"loss_changes":[3.1570084E-2,1.8347988E-2,2.0492291E-2,7.3342975E-3,1.2447836E-2,2.7062567E-3,1.0938197E-2,1.2569189E-2,3.8090209E-3,7.9558855E-3,8.429278E-3,2.7732184E-4,0E0,1.6216148E-2,6.9642817E-3,6.2553077E-3,5.0079096E-3,2.7300007E-4,0E0,4.6952944E-3,2.8988952E-3,0E0,1.0173105E-2,0E0,0E0,9.536929E-3,2.661185E-2,5.839034E-3,3.383092E-3,7.189467E-3,5.3958003E-3,3.2684095E-3,2.9816508E-4,0E0,2.4047913E-5,3.5572352E-3,1.1712644E-3,1.8524303E-3,0E0,4.962852E-3,4.4153407E-3,5.9025288E-3,3.6629497E-3,3.6967567E-3,4.082851E-3,0E0,2.629742E-3,0E0,1.5144399E-3,0E0,0E0,0E0,0E0,0E0,0E0,0E0,