{"learner":{"attributes":{"best_iteration":"132","best_score":"1.578658756583628"},"feature_names":[],"feature_types":[],"gradient_booster":{"model":{"gbtree_model_param":{"num_parallel_tree":"1","num_trees":"915"},"iteration_indptr":[0,5,10,15,20,25,30,35,40,45,50,55,60,65,70,75,80,85,90,95,100,105,110,115,120,125,130,135,140,145,150,155,160,165,170,175,180,185,190,195,200,205,210,215,220,225,230,235,240,245,250,255,260,265,270,275,280,285,290,295,300,305,310,315,320,325,330,335,340,345,350,355,360,365,370,375,380,385,390,395,400,405,410,415,420,425,430,435,440,445,450,455,460,465,470,475,480,485,490,495,500,505,510,515,520,525,530,535,540,545,550,555,560,565,570,575,580,585,590,595,600,605,610,615,620,625,630,635,640,645,650,655,660,665,670,675,680,685,690,695,700,705,710,715,720,725,730,735,740,745,750,755,760,765,770,775,780,785,790,795,800,805,810,815,820,825,830,835,840,845,850,855,860,865,870,875,880,885,890,895,900,905,910,915],"tree_info":[0,1,2,3,4,0,1,2,3,4,0,1,2,3,4,0,1,2,3,4,0,1,2,3,4,0,1,2,3,4,0,1,2,3,4,0,1,2,3,4,0,1,2,3,4,0,1,2,3,4,0,1,2,3,4,0,1,2,3,4,0,1,2,3,4,0,1,2,3,4,0,1,2,3,4,0,1,2,3,4,0,1,2,3,4,0,1,2,3,4,0,1,2,3,4,0,1,2,3,4,0,1,2,3,4,0,1,2,3,4,0,1,2,3,4,0,1,2,3,4,0,1,2,3,4,0,1,2,3,4,0,1,2,3,4,0,1,2,3,4,0,1,2,3,4,0,1,2,3,4,0,1,2,3,4,0,1,2,3,4,0,1,2,3,4,0,1,2,3,4,0,1,2,3,4,0,1,2,3,4,0,1,2,3,4,0,1,2,3,4,0,1,2,3,4,0,1,2,3,4,0,1,2,3,4,0,1,2,3,4,0,1,2,3,4,0,1,2,3,4,0,1,2,3,4,0,1,2,3,4,0,1,2,3,4,0,1,2,3,4,0,1,2,3,4,0,1,2,3,4,0,1,2,3,4,0,1,2,3,4,0,1,2,3,4,0,1,2,3,4,0,1,2,3,4,0,1,2,3,4,0,1,2,3,4,0,1,2,3,4,0,1,2,3,4,0,1,2,3,4,0,1,2,3,4,0,1,2,3,4,0,1,2,3,4,0,1,2,3,4,0,1,2,3,4,0,1,2,3,4,0,1,2,3,4,0,1,2,3,4,0,1,2,3,4,0,1,2,3,4,0,1,2,3,4,0,1,2,3,4,0,1,2,3,4,0,1,2,3,4,0,1,2,3,4,0,1,2,3,4,0,1,2,3,4,0,1,2,3,4,0,1,2,3,4,0,1,2,3,4,0,1,2,3,4,0,1,2,3,4,0,1,2,3,4,0,1,2,3,4,0,1,2,3,4,0,1,2,3,4,0,1,2,3,4,0,1,2,3,4,0,1,2,3,4,0,1,2,3,4,0,1,2,3,4,0,1,2,3,4,0,1,2,3,4,0,1,2,3,4,0,1,2,3,4,0,1,2,3,4,0,1,2,3,4,0,1,2,3,4,0,1,2,3,4,0,1,2,3,4,0,1,2,3,4,0,1,2,3,4,0,1,2,3,4,0,1,2,3,4,0,1,2,3,4,0,1,2,3,4,0,1,2,3,4,0,1,2,3,4,0,1,2,3,4,0,1,2,3,4,0,1,2,3,4,0,1,2,3,4,0,1,2,3,4,0,1,2,3,4,0,1,2,3,4,0,1,2,3,4,0,1,2,3,4,0,1,2,3,4,0,1,2,3,4,0,1,2,3,4,0,1,2,3,4,0,1,2,3,4,0,1,2,3,4,0,1,2,3,4,0,1,2,3,4,0,1,2,3,4,0,1,2,3,4,0,1,2,3,4,0,1,2,3,4,0,1,2,3,4,0,1,2,3,4,0,1,2,3,4,0,1,2,3,4,0,1,2,3,4,0,1,2,3,4,0,1,2,3,4,0,1,2,3,4,0,1,2,3,4,0,1,2,3,4,0,1,2,3,4,0,1,2,3,4,0,1,2,3,4,0,1,2,3,4,0,1,2,3,4,0,1,2,3,4,0,1,2,3,4,0,1,2,3,4,0,1,2,3,4,0,1,2,3,4,0,1,2,3,4,0,1,2,3,4,0,1,2,3,4,0,1,2,3,4,0,1,2,3,4,0,1,2,3,4,0,1,2,3,4,0,1,2,3,4,0,1,2,3,4,0,1,2,3,4,0,1,2,3,4,0,1,2,3,4,0,1,2,3,4,0,1,2,3,4,0,1,2,3,4,0,1,2,3,4,0,1,2,3,4,0,1,2,3,4,0,1,2,3,4,0,1,2,3,4,0,1,2,3,4,0,1,2,3,4,0,1,2,3,4,0,1,2,3,4,0,1,2,3,4,0,1,2,3,4,0,1,2,3,4,0,1,2,3,4,0,1,2,3,4,0,1,2,3,4,0,1,2,3,4,0,1,2,3,4,0,1,2,3,4,0,1,2,3,4],"trees":[{"base_weights":[-2.328316E-1,-3.3941105E-1,1.5230769E-1,2.8546712E-1,-3.7071902E-1,-6.3318774E-2,6.386138E-1,-2.0186335E-3,7.679738E-3,2.3291924E-3,-3.8733688E-1,3.8311687E-1,-2.834395E-1,9.7181004E-1,-1.2953367E-4,-4.034705E-1,9.067357E-4,7.879376E-3,-3.4313723E-3,2.7777776E-3,-4.071537E-1,2.9661015E-3,1.4729728E-2,-4.2609647E-3,-0E0,7.763975E-4,-5.4222643E-3],"categories":[],"categories_nodes":[],"categories_segments":[],"categories_sizes":[],"default_left":[0,0,0,0,0,0,0,0,0,0,0,0,0,0,0,0,0,0,0,0,0,0,0,0,0,0,0],"id":0,"left_children":[1,3,5,7,9,11,13,-1,-1,-1,15,17,19,21,-1,23,-1,-1,-1,-1,25,-1,-1,-1,-1,-1,-1],"loss_changes":[1.2287912E1,4.6852055E0,6.9138975E0,2.9298577E0,2.34342E0,4.5993767E0,4.493888E0,0E0,0E0,0E0,1.7463112E0,4.842494E0,2.3061554E0,3.9475737E0,0E0,1.9254761E0,0E0,0E0,0E0,0E0,1.8094339E0,0E0,0E0,0E0,0E0,0E0,0E0],"parents":[2147483647,0,0,1,1,2,2,3,3,4,4,5,5,6,6,10,10,11,11,12,12,13,13,15,15,20,20],"right_children":[2,4,6,8,10,12,14,-1,-1,-1,16,18,20,22,-1,24,-1,-1,-1,-1,26,-1,-1,-1,-1,-1,-1],"split_conditions":[4.6720338E-1,-9.528443E-3,2.7017373E-1,2.4196103E-1,-5.669731E-1,3.5244608E-1,5.7230306E-1,-2.0186335E-3,7.679738E-3,2.3291924E-3,1.5881376E-1,9.732016E-3,-2.8551054E-1,1.3277622E-2,-1.2953367E-4,1.3152122E-3,9.067357E-4,7.879376E-3,-3.4313723E-3,2.7777776E-3,2.1359518E0,2.9661015E-3,1.4729728E-2,-4.2609647E-3,-0E0,7.763975E-4,-5.4222643E-3],"split_indices":[196,12,80,211,188,177,66,0,0,0,148,85,145,113,0,210,0,0,0,0,77,0,0,0,0,0,0],"split_type":[0,0,0,0,0,0,0,0,0,0,0,0,0,0,0,0,0,0,0,0,0,0,0,0,0,0,0],"sum_hessian":[2.9664E2,2.3264001E2,6.400001E1,1.056E1,2.2208002E2,4.4800003E1,1.92E1,5.4400005E0,5.1200004E0,5.4400005E0,2.1664001E2,1.4400001E1,3.0400002E1,1.24800005E1,6.7200003E0,2.0992001E2,6.7200003E0,9.280001E0,5.1200004E0,5.1200004E0,2.5280003E1,6.0800004E0,6.4000006E0,1.9872002E2,1.1200001E1,5.4400005E0,1.9840002E1],"tree_param":{"num_deleted":"0","num_feature":"220","num_nodes":"27","size_leaf_vector":"1"}},{"base_weights":[-1.7055531E-3,1.0559305E-1,-2.5933608E-1,-4.086229E-1,1.9569139E-1,3.113879E-1,-3.4108728E-1,-5.56872E-3,1.9230768E-3,3.2793587E-1,-9.45753E-2,-1.7973855E-3,7.679738E-3,-4.7136036E-1,-8.443465E-2,7.647462E-1,1.880578E-1,-2.894257E-1,5.547112E-1,-1.6536964E-3,-5.341463E-1,3.9699567E-3,-3.2241014E-1,1.1469344E-2,4.448398E-4,7.0166313E-3,5.4032676E-4,3.1094525E-3,-4.1530943E-3,-7.396449E-4,1.0675674E-2,-1.7973855E-3,-5.7692304E-3,6.218905E-4,-5.63973E-3],"categories":[],"categories_nodes":[],"categories_segments":[],"categories_sizes":[],"default_left":[0,0,0,0,0,0,0,0,0,0,0,0,0,0,0,0,0,0,0,0,0,0,0,0,0,0,0,0,0,0,0,0,0,0,0],"id":1,"left_children":[1,3,5,7,9,11,13,-1,-1,15,17,-1,-1,19,21,23,25,27,29,-1,31,-1,33,-1,-1,-1,-1,-1,-1,-1,-1,-1,-1,-1,-1],"loss_changes":[8.146697E0,9.667516E0,4.1571736E0,2.9123855E0,6.8609858E0,2.717332E0,2.4630623E0,0E0,0E0,7.232235E0,7.2238483E0,0E0,0E0,8.076925E-1,3.2413862E0,7.8568764E0,6.365363E0,3.4558914E0,4.4213743E0,0E0,4.4221497E-1,0E0,1.8430122E0,0E0,0E0,0E0,0E0,0E0,0E0,0E0,0E0,0E0,0E0,0E0,0E0],"parents":[2147483647,0,0,1,1,2,2,3,3,4,4,5,5,6,6,9,9,10,10,13,13,14,14,15,15,16,16,17,17,18,18,20,20,22,22],"right_children":[2,4,6,8,10,12,14,-1,-1,16,18,-1,-1,20,22,24,26,28,30,-1,32,-1,34,-1,-1,-1,-1,-1,-1,-1,-1,-1,-1,-1,-1],"split_conditions":[3.479003E-1,-3.0079445E-2,-2.284761E-1,1.2601792E0,3.013384E-2,4.6544275E-3,2.9875444E1,-5.56872E-3,1.9230768E-3,-1.4245214E-2,2.1506874E-2,-1.7973855E-3,7.679738E-3,1.7536277E-1,8.9254117E-1,4.1686208E6,1.823515E-1,-1.5438662E-2,3.5714108E-1,-1.6536964E-3,9.6209407E-1,3.9699567E-3,-3.8103175E0,1.1469344E-2,4.448398E-4,7.0166313E-3,5.4032676E-4,3.1094525E-3,-4.1530943E-3,-7.396449E-4,1.0675674E-2,-1.7973855E-3,-5.7692304E-3,6.218905E-4,-5.63973E-3],"split_indices":[65,193,145,110,149,6,30,0,0,84,65,0,0,78,110,58,78,193,82,0,18,0,195,0,0,0,0,0,0,0,0,0,0,0,0],"split_type":[0,0,0,0,0,0,0,0,0,0,0,0,0,0,0,0,0,0,0,0,0,0,0,0,0,0,0,0,0,0,0,0,0,0,0],"sum_hessian":[2.9216003E2,2.0640001E2,8.576001E1,3.0080002E1,1.7632E2,1.0240001E1,7.5520004E1,2.4320002E1,5.76E0,1.2128001E2,5.5040005E1,5.1200004E0,5.1200004E0,4.9280003E1,2.6240002E1,2.8160002E1,9.312001E1,4.2880005E1,1.2160001E1,9.280001E0,4.0000004E1,8.320001E0,1.7920002E1,1.7920002E1,1.0240001E1,1.8240002E1,7.4880005E1,7.0400004E0,3.5840004E1,5.76E0,6.4000006E0,5.1200004E0,3.488E1,7.0400004E0,1.0880001E1],"tree_param":{"num_deleted":"0","num_feature":"220","num_nodes":"35","size_leaf_vector":"1"}},{"base_weights":[3.022128E-1,6.430775E-1,1.1413843E-1,3.1002638E-1,8.8622546E-1,8.396226E-3,7.035231E-2,-7.668711E-2,5.8320946E-1,-4.658385E-4,9.832713E-1,1.8467295E-1,-1.6894197E-1,-4.2753622E-1,6.360946E-3,-3.4313723E-3,8.211009E-1,-1.6339868E-4,1.090797E0,-2.549467E-1,3.0213025E-1,-2.5726628E-1,3.5714284E-3,-5.4147462E-3,-1.7973855E-3,1.40566025E-2,2.377049E-3,6.887366E-3,1.4914529E-2,2.9661015E-3,-4.4059404E-3,5.117973E-3,-0E0,3.8051745E-5,-5.1872074E-3],"categories":[],"categories_nodes":[],"categories_segments":[],"categories_sizes":[],"default_left":[0,0,0,0,0,0,0,0,0,0,0,0,0,0,0,0,0,0,0,0,0,0,0,0,0,0,0,0,0,0,0,0,0,0,0],"id":2,"left_children":[1,3,5,7,9,-1,11,13,15,-1,17,19,21,23,-1,-1,25,-1,27,29,31,33,-1,-1,-1,-1,-1,-1,-1,-1,-1,-1,-1,-1,-1],"loss_changes":[1.862424E1,8.00494E0,5.889312E0,4.9000473E0,5.5021973E0,0E0,4.9711275E0,5.1426396E0,6.2619057E0,0E0,5.907898E0,6.42891E0,2.8048058E0,2.2017956E-1,0E0,0E0,6.935978E0,0E0,6.5965157E0,2.836025E0,6.1851788E0,3.5291774E0,0E0,0E0,0E0,0E0,0E0,0E0,0E0,0E0,0E0,0E0,0E0,0E0,0E0],"parents":[2147483647,0,0,1,1,2,2,3,3,4,4,6,6,7,7,8,8,10,10,11,11,12,12,13,13,16,16,18,18,19,19,20,20,21,21],"right_children":[2,4,6,8,10,-1,12,14,16,-1,18,20,22,24,-1,-1,26,-1,28,30,32,34,-1,-1,-1,-1,-1,-1,-1,-1,-1,-1,-1,-1,-1],"split_conditions":[1.7780937E-2,-9.645522E-3,1.754677E-1,3.0170821E-9,1.6448116E1,8.396226E-3,2.0939037E-2,1.4593411E1,-4.06471E-1,-4.658385E-4,-7.7361025E-2,7.7720286E-10,4.0708216E5,4.4462183E-3,6.360946E-3,-3.4313723E-3,1.2381881E-1,-1.6339868E-4,2.484372E6,-2.70447E-1,5.678536E-1,2.0007528E5,3.5714284E-3,-5.4147462E-3,-1.7973855E-3,1.40566025E-2,2.377049E-3,6.887366E-3,1.4914529E-2,2.9661015E-3,-4.4059404E-3,5.117973E-3,-0E0,3.8051745E-5,-5.1872074E-3],"split_indices":[72,199,108,173,31,0,198,206,67,0,115,172,175,6,0,0,212,0,4,67,82,175,0,0,0,0,0,0,0,0,0,0,0,0,0],"split_type":[0,0,0,0,0,0,0,0,0,0,0,0,0,0,0,0,0,0,0,0,0,0,0,0,0,0,0,0,0,0,0,0,0,0,0],"sum_hessian":[2.9184003E2,1.0272001E2,1.8912001E2,4.4480003E1,5.8240005E1,9.6E0,1.7952002E2,1.8560001E1,2.5920002E1,5.4400005E0,5.2800003E1,1.21920006E2,5.7600002E1,1.2800001E1,5.76E0,5.1200004E0,2.0800001E1,5.1200004E0,4.7680004E1,2.5280003E1,9.664001E1,4.9920002E1,7.6800003E0,7.6800003E0,5.1200004E0,9.6E0,1.1200001E1,2.5280003E1,2.2400002E1,6.0800004E0,1.92E1,5.6640003E1,4.0000004E1,2.5280003E1,2.4640001E1],"tree_param":{"num_deleted":"0","num_feature":"220","num_nodes":"35","size_leaf_vector":"1"}},{"base_weights":[-1.6970584E-2,-3.2200646E-1,6.1321538E-2,-4.265306E-1,6.521739E-2,-2.0133163E-1,1.5480746E-1,-4.9259943E-1,4.4378696E-4,-5.124223E-3,5.1435404E-3,5.79096E-3,-2.964912E-1,-4.138322E-1,2.1677017E-1,-5.535152E-1,-1.6339868E-4,-3.5880527E-1,2.3291924E-3,-1.6339868E-4,-5.670926E-3,3.304362E-1,-1.3236763E-1,-6.0303025E-3,-1.7973855E-3,6.218905E-4,-4.2902064E-3,3.818508E-4,4.9082097E-3,-3.224688E-3,3.196721E-3],"categories":[],"categories_nodes":[],"categories_segments":[],"categories_sizes":[],"default_left":[0,0,0,0,0,0,0,0,0,0,0,0,0,0,0,0,0,0,0,0,0,0,0,0,0,0,0,0,0,0,0],"id":3,"left_children":[1,3,5,7,9,11,13,15,-1,-1,-1,-1,17,19,21,23,-1,25,-1,-1,-1,27,29,-1,-1,-1,-1,-1,-1,-1,-1],"loss_changes":[7.2228055E0,2.565257E0,5.9126897E0,1.5911913E0,3.8440206E0,4.828084E0,6.329049E0,1.1884365E0,0E0,0E0,0E0,0E0,1.9765744E0,1.0070169E0,6.4528484E0,5.1884365E-1,0E0,1.5874915E0,0E0,0E0,0E0,5.644944E0,3.5441322E0,0E0,0E0,0E0,0E0,0E0,0E0,0E0,0E0],"parents":[2147483647,0,0,1,1,2,2,3,3,4,4,5,5,6,6,7,7,12,12,13,13,14,14,15,15,17,17,21,21,22,22],"right_children":[2,4,6,8,10,12,14,16,-1,-1,-1,-1,18,20,22,24,-1,26,-1,-1,-1,28,30,-1,-1,-1,-1,-1,-1,-1,-1],"split_conditions":[1.8604612E-1,-5.5136047E-3,3.1617635E-1,7.020586E-2,2.2164536E0,3.0867984E7,5.1884437E-1,1.2983034E0,4.4378696E-4,-5.124223E-3,5.1435404E-3,5.79096E-3,1.436477E1,7.7391796E-2,1.1977433E-2,1.2541537E-2,-1.6339868E-4,6.0961205E-1,2.3291924E-3,-1.6339868E-4,-5.670926E-3,2.677331E-2,3.8775865E-2,-6.0303025E-3,-1.7973855E-3,6.218905E-4,-4.2902064E-3,3.818508E-4,4.9082097E-3,-3.224688E-3,3.196721E-3],"split_indices":[78,84,44,121,77,61,60,111,0,0,0,0,28,29,11,20,0,60,0,0,0,207,72,0,0,0,0,0,0,0,0],"split_type":[0,0,0,0,0,0,0,0,0,0,0,0,0,0,0,0,0,0,0,0,0,0,0,0,0,0,0,0,0,0,0],"sum_hessian":[2.9952002E2,6.0800003E1,2.3872002E2,4.8000004E1,1.2800001E1,6.2080006E1,1.7664001E2,4.224E1,5.76E0,5.4400005E0,7.3600006E0,6.0800004E0,5.6000004E1,1.6640001E1,1.6000002E2,3.7120003E1,5.1200004E0,5.0560005E1,5.4400005E0,5.1200004E0,1.152E1,1.2096001E2,3.904E1,3.2000004E1,5.1200004E0,7.0400004E0,4.3520004E1,4.3520004E1,7.744E1,2.7840002E1,1.1200001E1],"tree_param":{"num_deleted":"0","num_feature":"220","num_nodes":"31","size_leaf_vector":"1"}},{"base_weights":[-1.313276E-1,7.2306234E-1,-1.9743589E-1,1.557377E-1,1.3353413E-2,-2.67872E-1,3.0329797E-1,-3.813559E-3,7.679738E-3,2.7040314E-2,-3.2691154E-1,1.126943E-2,5.5066075E-2,2.4468084E-1,-4.2284864E-1,1.0215053E-1,-3.693368E-1,-1.3302751E-1,6.987577E-3,-3.4232363E-3,5.2658487E-3,-5.382775E-3,-1.7973855E-3,7.679738E-3,-2.0029673E-3,5.5910536E-4,-3.988554E-3,-3.4172658E-3,4.4117644E-3],"categories":[],"categories_nodes":[],"categories_segments":[],"categories_sizes":[],"default_left":[0,0,0,0,0,0,0,0,0,0,0,0,0,0,0,0,0,0,0,0,0,0,0,0,0,0,0,0,0],"id":4,"left_children":[1,3,5,7,-1,9,11,-1,-1,13,15,-1,17,19,21,23,25,27,-1,-1,-1,-1,-1,-1,-1,-1,-1,-1,-1],"loss_changes":[1.6648535E1,6.993087E0,9.7063465E0,4.3432364E0,0E0,4.218281E0,6.763034E0,0E0,0E0,4.068791E0,3.7116146E0,0E0,3.4475904E0,4.865194E0,2.0972371E-1,3.956192E0,2.350727E0,2.7532382E0,0E0,0E0,0E0,0E0,0E0,0E0,0E0,0E0,0E0,0E0,0E0],"parents":[2147483647,0,0,1,1,2,2,3,3,5,5,6,6,9,9,10,10,12,12,13,13,14,14,15,15,16,16,17,17],"right_children":[2,4,6,8,-1,10,12,-1,-1,14,16,-1,18,20,22,24,26,28,-1,-1,-1,-1,-1,-1,-1,-1,-1,-1,-1],"split_conditions":[-5.946733E-2,-1.1613E-2,3.1573322E-1,2.6453263E-1,1.3353413E-2,6.893725E-1,1.6428572E-1,-3.813559E-3,7.679738E-3,3.2996945E-9,-1.0320794E-1,1.126943E-2,9.749279E-1,9.9394046E-2,8.106635E-3,7.577199E-1,-1.8609041E-2,6.9720335E-2,6.987577E-3,-3.4232363E-3,5.2658487E-3,-5.382775E-3,-1.7973855E-3,7.679738E-3,-2.0029673E-3,5.5910536E-4,-3.988554E-3,-3.4172658E-3,4.4117644E-3],"split_indices":[52,84,104,79,0,216,13,0,0,173,198,0,96,136,9,60,194,214,0,0,0,0,0,0,0,0,0,0,0],"split_type":[0,0,0,0,0,0,0,0,0,0,0,0,0,0,0,0,0,0,0,0,0,0,0,0,0,0,0,0,0],"sum_hessian":[2.9216003E2,2.0160002E1,2.7200003E2,1.1200001E1,8.960001E0,2.3904002E2,3.2960003E1,6.0800004E0,5.1200004E0,3.9680004E1,1.9936002E2,6.7200003E0,2.6240002E1,2.7200003E1,1.24800005E1,1.76E1,1.8176001E2,2.0800001E1,5.4400005E0,8.64E0,1.8560001E1,7.3600006E0,5.1200004E0,5.1200004E0,1.24800005E1,1.152E1,1.7024E2,1.5680001E1,5.1200004E0],"tree_param":{"num_deleted":"0","num_feature":"220","num_nodes":"29","size_leaf_vector":"1"}},{"base_weights":[-2.3230998E-1,-2.6871994E-1,9.27366E-3,-3.8626903E-1,-7.2194904E-2,1.3243068E-3,-4.1415575E-1,-1.2069209E-1,7.6722438E-3,-2.1570255E-1,-4.706023E-1,2.8689793E-1,-2.4193677E-1,9.999812E-4,-4.3262905E-3,6.433834E-4,-5.0130007E-3,6.730074E-3,-1.5567129E-3,1.6981283E-3,-3.5452114E-3],"categories":[],"categories_nodes":[],"categories_segments":[],"categories_sizes":[],"default_left":[0,0,0,0,0,0,0,0,0,0,0,0,0,0,0,0,0,0,0,0,0],"id":5,"left_children":[1,3,-1,5,7,-1,9,11,-1,13,15,17,19,-1,-1,-1,-1,-1,-1,-1,-1],"loss_changes":[1.2959948E1,6.7236214E0,0E0,2.7382774E0,4.574143E0,0E0,1.7860184E0,5.330486E0,0E0,2.878117E0,2.2882118E0,4.3767605E0,3.91951E0,0E0,0E0,0E0,0E0,0E0,0E0,0E0,0E0],"parents":[2147483647,0,0,1,1,3,3,4,4,6,6,7,7,9,9,10,10,11,11,12,12],"right_children":[2,4,-1,6,8,-1,10,12,-1,14,16,18,20,-1,-1,-1,-1,-1,-1,-1,-1],"split_conditions":[5.501995E-1,3.5318813E-1,9.27366E-3,-1.1107209E-1,3.5470365E8,1.3243068E-3,1.6E1,3.0778695E-2,7.6722438E-3,7.482048E-1,1.448472E-1,4.6850857E-3,2.5407421E1,9.999812E-4,-4.3262905E-3,6.433834E-4,-5.0130007E-3,6.730074E-3,-1.5567129E-3,1.6981283E-3,-3.5452114E-3],"split_indices":[106,196,0,120,61,0,91,214,0,74,105,144,36,0,0,0,0,0,0,0,0],"split_type":[0,0,0,0,0,0,0,0,0,0,0,0,0,0,0,0,0,0,0,0,0],"sum_hessian":[3.0159293E2,2.9324066E2,8.352268E0,1.8256642E2,1.1067424E2,8.940282E0,1.7362614E2,1.0555139E2,5.1228485E0,3.9908806E1,1.3371735E2,2.3697182E1,8.185421E1,1.62857E1,2.3623106E1,7.0207195E0,1.2669662E2,1.2498458E1,1.1198724E1,1.7275776E1,6.457843E1],"tree_param":{"num_deleted":"0","num_feature":"220","num_nodes":"21","size_leaf_vector":"1"}},{"base_weights":[-4.3291263E-2,6.024255E-1,-7.837082E-2,-1.214616E-3,1.1607427E-2,1.4164186E-1,-1.5694016E-1,2.3897262E-1,-5.4681413E-3,2.5025746E-1,-2.0843722E-1,9.415123E-2,8.159111E-1,6.7171264E-1,-2.844099E-3,1.831539E-1,-2.7710783E-1,-1.6490519E-3,4.067931E-3,1.5634945E-2,-7.415249E-4,-4.8058628E-4,1.1770841E-2,8.7349415E-3,-1.0216854E-3,-3.3081525E-3,1.0621249E-3],"categories":[],"categories_nodes":[],"categories_segments":[],"categories_sizes":[],"default_left":[0,0,0,0,0,0,0,0,0,0,0,0,0,0,0,0,0,0,0,0,0,0,0,0,0,0,0],"id":6,"left_children":[1,3,5,-1,-1,7,9,11,-1,13,15,17,19,21,-1,23,25,-1,-1,-1,-1,-1,-1,-1,-1,-1,-1],"loss_changes":[6.642666E0,6.343947E0,4.853437E0,0E0,0E0,5.039107E0,4.3820205E0,5.296872E0,0E0,5.5118055E0,5.0145845E0,4.428354E0,8.8181E0,5.0837765E0,0E0,5.656636E0,3.2973785E0,0E0,0E0,0E0,0E0,0E0,0E0,0E0,0E0,0E0,0E0],"parents":[2147483647,0,0,1,1,2,2,5,5,6,6,7,7,9,9,10,10,11,11,12,12,13,13,15,15,16,16],"right_children":[2,4,6,-1,-1,8,10,12,-1,14,16,18,20,22,-1,24,26,-1,-1,-1,-1,-1,-1,-1,-1,-1,-1],"split_conditions":[2.6025242E-7,-1.1241221E-3,2.862535E-4,-1.214616E-3,1.1607427E-2,2.2081594E0,4.176199E7,2.6982807E-2,-5.4681413E-3,1.5981856E1,-1.8899283E-1,3.7313366E-1,3.8E1,3.2179583E-2,-2.844099E-3,1.214175E-1,6.5862185E-1,-1.6490519E-3,4.067931E-3,1.5634945E-2,-7.415249E-4,-4.8058628E-4,1.1770841E-2,8.7349415E-3,-1.0216854E-3,-3.3081525E-3,1.0621249E-3],"split_indices":[85,5,210,0,0,56,62,112,0,32,212,79,160,207,0,211,211,0,0,0,0,0,0,0,0,0,0],"split_type":[0,0,0,0,0,0,0,0,0,0,0,0,0,0,0,0,0,0,0,0,0,0,0,0,0,0,0],"sum_hessian":[2.9248483E2,1.4090691E1,2.7839413E2,6.398302E0,7.6923885E0,7.271092E1,2.0568321E2,6.440393E1,8.306995E0,2.2440458E1,1.8324275E2,5.2549603E1,1.1854326E1,1.2510044E1,9.930413E0,2.6873644E1,1.5636911E2,2.8821045E1,2.3728558E1,6.0926886E0,5.761638E0,5.4520445E0,7.058E0,7.3585696E0,1.9515074E1,1.3750148E2,1.886763E1],"tree_param":{"num_deleted":"0","num_feature":"220","num_nodes":"27","size_leaf_vector":"1"}},{"base_weights":[3.2345247E-1,6.848432E-1,1.2118831E-1,1.1010021E0,5.013415E-1,3.584002E-1,-7.2919756E-2,3.1675387E-3,1.3513842E0,3.0259982E-1,9.264619E-1,2.0682625E-1,8.1355894E-1,5.5047214E-1,-1.8043795E-1,5.530717E-3,1.6552218E0,4.7147432E-1,-2.5793383E-1,1.2160287E0,3.1698395E-3,1.3754822E-2,6.069815E-1,1.2478391E0,-3.8597535E-4,9.842375E-3,-1.4081174E-4,1.4163618E-1,-3.952621E-1,1.9551136E-2,9.252939E-3,1.7931836E-3,9.955091E-3,1.1460596E-3,-5.319546E-3,1.564607E-2,5.720767E-3,-1.6393632E-3,6.1012176E-3,-0E0,9.672764E-3,1.7040221E-2,6.7943386E-3,-3.7279978E-4,8.066174E-3,1.297861E-3,-5.016283E-3],"categories":[],"categories_nodes":[],"categories_segments":[],"categories_sizes":[],"default_left":[0,0,0,0,0,0,0,0,0,0,0,0,0,0,0,0,0,0,0,0,0,0,0,0,0,0,0,0,0,0,0,0,0,0,0,0,0,0,0,0,0,0,0,0,0,0,0],"id":7,"left_children":[1,3,5,7,9,11,13,-1,15,17,19,21,23,25,27,-1,29,31,33,35,-1,37,39,41,-1,-1,-1,43,45,-1,-1,-1,-1,-1,-1,-1,-1,-1,-1,-1,-1,-1,-1,-1,-1,-1,-1],"loss_changes":[2.1598625E1,7.4163513E0,8.908031E0,5.604187E0,6.007181E0,5.7271442E0,7.190213E0,0E0,4.5703316E0,5.192842E0,3.6130772E0,5.084288E0,8.018967E0,3.968679E0,6.4185038E0,0E0,1.503479E0,6.055684E0,1.4155432E0,2.3669968E0,0E0,5.0401225E0,4.7142787E0,2.275179E0,0E0,0E0,0E0,4.532625E0,3.195897E0,0E0,0E0,0E0,0E0,0E0,0E0,0E0,0E0,0E0,0E0,0E0,0E0,0E0,0E0,0E0,0E0,0E0,0E0],"parents":[2147483647,0,0,1,1,2,2,3,3,4,4,5,5,6,6,8,8,9,9,10,10,11,11,12,12,13,13,14,14,16,16,17,17,18,18,19,19,21,21,22,22,23,23,27,27,28,28],"right_children":[2,4,6,8,10,12,14,-1,16,18,20,22,24,26,28,-1,30,32,34,36,-1,38,40,42,-1,-1,-1,44,46,-1,-1,-1,-1,-1,-1,-1,-1,-1,-1,-1,-1,-1,-1,-1,-1,-1,-1],"split_conditions":[1.792833E-2,1.5434602E-2,2.4375147E-1,-5.560522E-1,1.611946E1,2.9532764E1,-1.2602054E0,3.1675387E-3,1.2216842E-1,3.9200284E-2,3.3186987E-2,1.9546704E0,9.7084314E2,1.1036257E1,8.9940786E-1,5.530717E-3,1.0290722E0,1.9362386E-1,2.0725359E-1,9.9394046E-2,3.1698395E-3,5.3215354E-6,1.5734279E-1,-1.0840942E-2,-3.8597535E-4,9.842375E-3,-1.4081174E-4,3.7191175E5,3.7747338E-1,1.9551136E-2,9.252939E-3,1.7931836E-3,9.955091E-3,1.1460596E-3,-5.319546E-3,1.564607E-2,5.720767E-3,-1.6393632E-3,6.1012176E-3,-0E0,9.672764E-3,1.7040221E-2,6.7943386E-3,-3.7279978E-4,8.066174E-3,1.297861E-3,-5.016283E-3],"split_indices":[72,109,105,133,206,206,133,0,101,109,207,29,2,28,59,0,63,101,103,136,0,182,79,84,0,0,0,175,208,0,0,0,0,0,0,0,0,0,0,0,0,0,0,0,0,0,0],"split_type":[0,0,0,0,0,0,0,0,0,0,0,0,0,0,0,0,0,0,0,0,0,0,0,0,0,0,0,0,0,0,0,0,0,0,0,0,0,0,0,0,0,0,0,0,0,0,0],"sum_hessian":[2.967195E2,1.05442444E2,1.9127708E2,3.0569569E1,7.487287E1,8.593188E1,1.053452E2,8.0426855E0,2.2526882E1,5.2347637E1,2.252524E1,6.572026E1,2.0211615E1,1.4753623E1,9.0591576E1,7.0783677E0,1.5448515E1,4.0487167E1,1.1860467E1,1.4484357E1,8.040882E0,4.5197258E1,2.0523005E1,1.3158656E1,7.052959E0,8.023012E0,6.730611E0,3.619763E1,5.4393944E1,9.662968E0,5.7855463E0,2.6979036E1,1.3508134E1,5.1185136E0,6.7419534E0,8.369088E0,6.115269E0,3.5251335E1,9.945922E0,8.009103E0,1.2513902E1,6.09399E0,7.064666E0,2.9148624E1,7.049009E0,8.967581E0,4.5426365E1],"tree_param":{"num_deleted":"0","num_feature":"220","num_nodes":"47","size_leaf_vector":"1"}},{"base_weights":[1.86625E-2,-1.9246043E-1,9.534481E-2,5.9901136E-3,-2.5791737E-1,6.4287055E-1,2.5970833E-2,-9.844784E-2,-4.9523506E-1,-3.7759307E-4,9.325671E-1,-2.952677E-1,9.863043E-2,3.0601588E-1,-2.653215E-1,-5.940131E-3,-1.504925E-4,1.2137512E-2,3.9031622E-3,-4.5344692E-1,2.102508E-3,3.14907E-1,-3.635623E-2,-1.4137813E-3,7.863339E-3,2.7907928E-3,-3.8025714E-3,-5.91158E-3,1.4109077E-4,1.1779338E-2,1.7884838E-3,8.610308E-3,-1.0616472E-3],"categories":[],"categories_nodes":[],"categories_segments":[],"categories_sizes":[],"default_left":[0,0,0,0,0,0,0,0,0,0,0,0,0,0,0,0,0,0,0,0,0,0,0,0,0,0,0,0,0,0,0,0,0],"id":8,"left_children":[1,3,5,-1,7,9,11,13,15,-1,17,19,21,23,25,-1,-1,-1,-1,27,-1,29,31,-1,-1,-1,-1,-1,-1,-1,-1,-1,-1],"loss_changes":[4.750186E0,4.1623E0,8.115717E0,0E0,2.649806E0,4.870863E0,4.5094037E0,3.1201873E0,1.2956343E0,0E0,1.961874E0,2.9630692E0,4.6587896E0,3.0676613E0,2.1578255E0,0E0,0E0,0E0,0E0,1.8400478E0,0E0,6.8392916E0,6.15746E0,0E0,0E0,0E0,0E0,0E0,0E0,0E0,0E0,0E0,0E0],"parents":[2147483647,0,0,1,1,2,2,4,4,5,5,6,6,7,7,8,8,10,10,11,11,12,12,13,13,14,14,19,19,21,21,22,22],"right_children":[2,4,6,-1,8,10,12,14,16,-1,18,20,22,24,26,-1,-1,-1,-1,28,-1,30,32,-1,-1,-1,-1,-1,-1,-1,-1,-1,-1],"split_conditions":[3.1617635E-1,3.0867984E7,9.9456584E-1,5.9901136E-3,-2.260399E-1,2.5862032E-1,-2.0874112E-3,-3.172485E-2,2.7778018E-1,-3.7759307E-4,1.9733183E-2,3.6501194E1,1.4E1,2.4579607E-1,3.838291E4,-5.940131E-3,-1.504925E-4,1.2137512E-2,3.9031622E-3,1.166587E0,2.102508E-3,1.1411314E-1,-5.148992E-1,-1.4137813E-3,7.863339E-3,2.7907928E-3,-3.8025714E-3,-5.91158E-3,1.4109077E-4,1.1779338E-2,1.7884838E-3,8.610308E-3,-1.0616472E-3],"split_indices":[44,61,70,0,188,78,12,115,38,0,188,30,160,108,189,0,0,0,0,111,0,166,67,0,0,0,0,0,0,0,0,0,0],"split_type":[0,0,0,0,0,0,0,0,0,0,0,0,0,0,0,0,0,0,0,0,0,0,0,0,0,0,0,0,0,0,0,0,0],"sum_hessian":[2.9187982E2,7.7018196E1,2.1486163E2,5.1437426E0,7.187446E1,2.3070702E1,1.9179094E2,4.4086212E1,2.7788246E1,7.0444746E0,1.6026226E1,3.45593E1,1.5723163E2,1.2457937E1,3.1628273E1,2.2677916E1,5.1103296E0,9.616711E0,6.4095163E0,2.6551903E1,8.007399E0,6.019489E1,9.703674E1,6.70759E0,5.750347E0,5.112827E0,2.6515448E1,2.0471788E1,6.080114E0,7.0546107E0,5.314028E1,6.082293E0,9.0954445E1],"tree_param":{"num_deleted":"0","num_feature":"220","num_nodes":"33","size_leaf_vector":"1"}},{"base_weights":[-1.1136091E-1,6.131201E-1,-1.7508657E-1,1.0033611E0,1.530446E-1,-3.2961917E-1,-2.8649548E-2,3.347608E-3,1.5086256E-2,-3.5792666E-3,6.311742E-3,-3.7819985E-1,4.5893874E-2,9.851381E-3,-9.823891E-2,-4.1716582E-1,1.8852178E-3,5.1640975E-3,-4.1808207E-3,2.823888E-1,-1.900945E-1,-1.1660376E-3,-4.823263E-3,6.1898455E-3,-3.4164665E-3,-2.8883542E-3,1.2732467E-3],"categories":[],"categories_nodes":[],"categories_segments":[],"categories_sizes":[],"default_left":[0,0,0,0,0,0,0,0,0,0,0,0,0,0,0,0,0,0,0,0,0,0,0,0,0,0,0],"id":9,"left_children":[1,3,5,7,9,11,13,-1,-1,-1,-1,15,17,-1,19,21,-1,-1,-1,23,25,-1,-1,-1,-1,-1,-1],"loss_changes":[1.3615987E1,4.008912E0,6.080883E0,3.5654612E0,3.2419343E0,2.4456778E0,9.9150715E0,0E0,0E0,0E0,0E0,2.67626E0,3.6521988E0,0E0,4.6738296E0,2.0297756E0,0E0,0E0,0E0,5.686227E0,3.4214818E0,0E0,0E0,0E0,0E0,0E0,0E0],"parents":[2147483647,0,0,1,1,2,2,3,3,4,4,5,5,6,6,11,11,12,12,14,14,15,15,19,19,20,20],"right_children":[2,4,6,8,10,12,14,-1,-1,-1,-1,16,18,-1,20,22,-1,-1,-1,24,26,-1,-1,-1,-1,-1,-1],"split_conditions":[9.405327E-1,7.5902743E-4,3.5197442E6,-1.33453E1,2.3E1,1.3314229E0,-3.8857603E-1,3.347608E-3,1.5086256E-2,-3.5792666E-3,6.311742E-3,5.9006277E-2,5.408478E-3,9.851381E-3,3.313674E6,1.6357338E-1,1.8852178E-3,5.1640975E-3,-4.1808207E-3,3.3749762E-1,3.6678374E-2,-1.1660376E-3,-4.823263E-3,6.1898455E-3,-3.4164665E-3,-2.8883542E-3,1.2732467E-3],"split_indices":[19,194,57,195,160,60,144,0,0,0,0,121,198,0,4,107,0,0,0,212,198,0,0,0,0,0,0],"split_type":[0,0,0,0,0,0,0,0,0,0,0,0,0,0,0,0,0,0,0,0,0,0,0,0,0,0,0],"sum_hessian":[2.9254596E2,2.2828142E1,2.6971783E2,1.1594957E1,1.1233185E1,1.3029054E2,1.3942729E2,5.791592E0,5.803365E0,5.4505277E0,5.7826576E0,1.1559499E2,1.4695545E1,8.018544E0,1.3140875E2,1.0857039E2,7.0246005E0,7.347251E0,7.3482947E0,2.4932299E1,1.0647645E2,2.011432E1,8.845607E1,1.6305622E1,8.626677E0,8.152211E1,2.4954336E1],"tree_param":{"num_deleted":"0","num_feature":"220","num_nodes":"27","size_leaf_vector":"1"}},{"base_weights":[-1.9791058E-1,-3.1516686E-1,2.2771364E-1,-4.087818E-2,-4.0157926E-1,9.99586E-2,1.1897314E-2,6.836603E-3,-1.5685336E-1,2.3539497E-3,-4.234647E-1,-1.4214987E-1,4.350413E-1,-2.5795898E-1,6.0892324E-3,-4.5863584E-1,-1.0000001E-1,-4.7611952E-1,2.1260089E-1,7.28254E-1,-5.1159794E-3,5.0997094E-4,-4.561964E-3,-4.8417845E-3,3.9731263E-4,4.407321E-3,-4.0603504E-3,-5.7009934E-3,-1.7976303E-3,-2.6211329E-3,8.030503E-3,1.0891778E-2,6.1920076E-4],"categories":[],"categories_nodes":[],"categories_segments":[],"categories_sizes":[],"default_left":[0,0,0,0,0,0,0,0,0,0,0,0,0,0,0,0,0,0,0,0,0,0,0,0,0,0,0,0,0,0,0,0,0],"id":10,"left_children":[1,3,5,7,9,11,-1,-1,13,-1,15,17,19,21,-1,23,25,27,29,31,-1,-1,-1,-1,-1,-1,-1,-1,-1,-1,-1,-1,-1],"loss_changes":[1.5029294E1,5.519722E0,7.7520847E0,4.9109335E0,2.6088924E0,4.848761E0,0E0,0E0,4.0514393E0,0E0,1.8689365E0,4.229934E0,7.338575E0,2.8597388E0,0E0,2.0453644E0,3.2444117E0,3.3191633E-1,5.1239853E0,4.5300236E0,0E0,0E0,0E0,0E0,0E0,0E0,0E0,0E0,0E0,0E0,0E0,0E0,0E0],"parents":[2147483647,0,0,1,1,2,2,3,3,4,4,5,5,8,8,10,10,11,11,12,12,13,13,15,15,16,16,17,17,18,18,19,19],"right_children":[2,4,6,8,10,12,-1,-1,14,-1,16,18,20,22,-1,24,26,28,30,32,-1,-1,-1,-1,-1,-1,-1,-1,-1,-1,-1,-1,-1],"split_conditions":[4.6034044E-1,1.09E2,2.9591188E9,9.8371035E-1,-1.4558939E1,4.9796125E-1,1.1897314E-2,6.836603E-3,1.0087502E3,2.3539497E-3,1.355381E0,5.0443256E1,8.588734E6,6.179719E-1,6.0892324E-3,1.3227437E0,2.1828964E-1,6.734931E-3,2.1071297E1,7.741431E-2,-5.1159794E-3,5.0997094E-4,-4.561964E-3,-4.8417845E-3,3.9731263E-4,4.407321E-3,-4.0603504E-3,-5.7009934E-3,-1.7976303E-3,-2.6211329E-3,8.030503E-3,1.0891778E-2,6.1920076E-4],"split_indices":[196,100,179,16,195,163,0,0,2,0,114,33,183,56,0,136,78,12,45,207,0,0,0,0,0,0,0,0,0,0,0,0,0],"split_type":[0,0,0,0,0,0,0,0,0,0,0,0,0,0,0,0,0,0,0,0,0,0,0,0,0,0,0,0,0,0,0,0,0],"sum_hessian":[2.9853204E2,2.3444005E2,6.4092E1,5.679444E1,1.7764561E2,5.7644695E1,6.4473076E0,7.0421944E0,4.9752247E1,5.425042E0,1.7222057E2,3.3626076E1,2.4018621E1,4.465073E1,5.1015167E0,1.5467528E2,1.7545284E1,1.7289318E1,1.6336756E1,1.8595247E1,5.423373E0,1.7544952E1,2.710578E1,1.4735222E2,7.3230615E0,6.0639744E0,1.1481309E1,1.2169146E1,5.1201735E0,9.27028E0,7.0664763E0,1.1552895E1,7.0423536E0],"tree_param":{"num_deleted":"0","num_feature":"220","num_nodes":"33","size_leaf_vector":"1"}},{"base_weights":[-1.1907481E-2,5.8563894E-1,-4.7271118E-2,8.252875E-5,1.3572905E-2,1.7179316E-1,-1.2701476E-1,4.5361215E-1,-1.1724692E-1,-1.7771906E-1,3.257892E-1,-8.221718E-2,8.2061E-1,1.05228536E-1,-5.6686425E-3,1.4571126E-1,-2.38322E-1,-8.7372184E-2,8.738034E-3,-5.4730503E-3,4.7553363E-3,2.2900337E-3,1.1893034E-2,8.6362995E-3,-2.1030407E-3,9.250465E-3,-1.4066185E-3,-1.1450583E-4,-3.646517E-3,4.405071E-3,-5.2655777E-3],"categories":[],"categories_nodes":[],"categories_segments":[],"categories_sizes":[],"default_left":[0,0,0,0,0,0,0,0,0,0,0,0,0,0,0,0,0,0,0,0,0,0,0,0,0,0,0,0,0,0,0],"id":11,"left_children":[1,3,5,-1,-1,7,9,11,13,15,17,19,21,23,-1,25,27,29,-1,-1,-1,-1,-1,-1,-1,-1,-1,-1,-1,-1,-1],"loss_changes":[6.099813E0,7.031989E0,4.817537E0,0E0,0E0,6.067612E0,4.689124E0,7.5266824E0,3.7935166E0,3.6275792E0,4.803932E0,4.434684E0,4.491704E0,6.3150325E0,0E0,6.728049E0,4.3896284E0,3.1412287E0,0E0,0E0,0E0,0E0,0E0,0E0,0E0,0E0,0E0,0E0,0E0,0E0,0E0],"parents":[2147483647,0,0,1,1,2,2,5,5,6,6,7,7,8,8,9,9,10,10,11,11,12,12,13,13,15,15,16,16,17,17],"right_children":[2,4,6,-1,-1,8,10,12,14,16,18,20,22,24,-1,26,28,30,-1,-1,-1,-1,-1,-1,-1,-1,-1,-1,-1,-1,-1],"split_conditions":[2.6025242E-7,3.1241153E-3,2.922742E0,8.252875E-5,1.3572905E-2,1.7408306E1,1.1355497E0,2.8209407E0,3.9E1,1.2733577E-2,7.243779E-1,-1.05524585E-1,8.209008E-10,2.0688258E-1,-5.6686425E-3,-3.3560383E0,2.0219888E-1,7.808847E-1,8.738034E-3,-5.4730503E-3,4.7553363E-3,2.2900337E-3,1.1893034E-2,8.6362995E-3,-2.1030407E-3,9.250465E-3,-1.4066185E-3,-1.1450583E-4,-3.646517E-3,4.405071E-3,-5.2655777E-3],"split_indices":[85,194,75,0,0,45,63,77,160,207,13,137,172,211,0,38,102,44,0,0,0,0,0,0,0,0,0,0,0,0,0],"split_type":[0,0,0,0,0,0,0,0,0,0,0,0,0,0,0,0,0,0,0,0,0,0,0,0,0,0,0,0,0,0,0],"sum_hessian":[2.8889853E2,1.5114672E1,2.7378384E2,9.297861E0,5.8168106E0,7.242268E1,2.0136118E2,3.6556282E1,3.58664E1,1.8182863E2,1.9532536E1,1.5064741E1,2.1491543E1,2.4357565E1,1.1508835E1,2.8211727E1,1.5361691E2,1.1511683E1,8.020851E0,8.322737E0,6.742004E0,8.97791E0,1.2513633E1,6.7392488E0,1.7618317E1,7.075488E0,2.113624E1,5.5617493E1,9.799941E1,5.123177E0,6.388507E0],"tree_param":{"num_deleted":"0","num_feature":"220","num_nodes":"31","size_leaf_vector":"1"}},{"base_weights":[3.3756554E-1,6.654017E-1,1.5656121E-1,8.297565E-1,2.0751958E-1,1.19584635E-1,1.2498621E-2,3.553122E-1,1.0097272E0,-1.6631404E-1,6.608967E-1,3.4168306E-1,-5.820897E-2,1.0827087E-2,-1.0645917E-1,1.1989336E0,1.9008507E-1,-5.4290285E-3,2.032013E-3,-2.0538426E-3,1.2818032E-2,1.5271993E-1,8.769795E-1,-1.6614427E-1,5.7510823E-1,-4.2836815E-3,2.8817824E-3,6.1911964E-3,1.4819501E-2,5.9436313E-3,-2.0736752E-3,-5.001089E-6,9.226562E-3,5.7493587E-4,1.2650138E-2,4.7655227E-3,-2.6426965E-3,9.892453E-4,1.0623427E-2],"categories":[],"categories_nodes":[],"categories_segments":[],"categories_sizes":[],"default_left":[0,0,0,0,0,0,0,0,0,0,0,0,0,0,0,0,0,0,0,0,0,0,0,0,0,0,0,0,0,0,0,0,0,0,0,0,0,0,0],"id":12,"left_children":[1,3,5,7,9,11,-1,13,15,17,19,21,23,-1,25,27,29,-1,-1,-1,-1,31,33,35,37,-1,-1,-1,-1,-1,-1,-1,-1,-1,-1,-1,-1,-1,-1],"loss_changes":[1.7520428E1,7.6741333E0,7.5464525E0,6.1002426E0,5.141941E0,7.4960546E0,0E0,7.917716E0,8.209969E0,2.4807622E0,7.690057E0,8.285389E0,7.256659E0,0E0,2.0249245E0,6.1985245E0,2.035466E0,0E0,0E0,0E0,0E0,7.5978866E0,6.674097E0,5.8390455E0,3.3588996E0,0E0,0E0,0E0,0E0,0E0,0E0,0E0,0E0,0E0,0E0,0E0,0E0,0E0,0E0],"parents":[2147483647,0,0,1,1,2,2,3,3,4,4,5,5,7,7,8,8,9,9,10,10,11,11,12,12,14,14,15,15,16,16,21,21,22,22,23,23,24,24],"right_children":[2,4,6,8,10,12,-1,14,16,18,20,22,24,-1,26,28,30,-1,-1,-1,-1,32,34,36,38,-1,-1,-1,-1,-1,-1,-1,-1,-1,-1,-1,-1,-1,-1],"split_conditions":[1.7780937E-2,5.756779E-4,1E0,6.933021E-10,5.9699684E-2,2.4375147E-1,1.2498621E-2,-6.930808E-3,3.474614E-2,-1.2651758E-1,7.779269E-1,2.4016941E1,1.3823928E0,1.0827087E-2,1.0748745E-3,1.3E1,1.0046053E0,-5.4290285E-3,2.032013E-3,-2.0538426E-3,1.2818032E-2,9.563101E-1,2E0,-1.2866129E0,-9.810569E-3,-4.2836815E-3,2.8817824E-3,6.1911964E-3,1.4819501E-2,5.9436313E-3,-2.0736752E-3,-5.001089E-6,9.226562E-3,5.7493587E-4,1.2650138E-2,4.7655227E-3,-2.6426965E-3,9.892453E-4,1.0623427E-2],"split_indices":[72,210,159,172,207,105,0,84,199,67,111,206,110,0,20,160,16,0,0,0,0,44,87,133,193,0,0,0,0,0,0,0,0,0,0,0,0,0,0],"split_type":[0,0,0,0,0,0,0,0,0,0,0,0,0,0,0,0,0,0,0,0,0,0,0,0,0,0,0,0,0,0,0,0,0,0,0,0,0,0,0],"sum_hessian":[2.9739682E2,1.0464127E2,1.9275554E2,7.6243454E1,2.8397818E1,1.8761118E2,5.1443596E0,2.1938482E1,5.4304974E1,1.5790395E1,1.2607422E1,8.325292E1,1.0435826E2,8.080966E0,1.3857516E1,4.364516E1,1.0659815E1,7.721985E0,8.06841E0,5.475808E0,7.131614E0,6.2619823E1,2.0633095E1,8.99276E1,1.4430665E1,7.724501E0,6.133015E0,1.5477478E1,2.8167683E1,5.1636543E0,5.49616E0,5.2951714E1,9.668109E0,7.082181E0,1.3550914E1,1.1265533E1,7.866206E1,8.010308E0,6.4203568E0],"tree_param":{"num_deleted":"0","num_feature":"220","num_nodes":"39","size_leaf_vector":"1"}},{"base_weights":[4.6961486E-2,1.22672E-2,6.280646E-1,8.45714E-3,-7.16485E-3,-9.840489E-4,1.0757705E-2,-2.071509E-1,7.9446726E-2,-3.9946458E-1,-3.646984E-2,1.0052184E-2,4.6261303E-2,-5.59679E-3,-3.8442234E-4,4.3970197E-3,-4.0608267E-3,-1.7283129E-3,1.7226685E-3],"categories":[],"categories_nodes":[],"categories_segments":[],"categories_sizes":[],"default_left":[0,0,0,0,0,0,0,0,0,0,0,0,0,0,0,0,0,0,0],"id":13,"left_children":[1,3,5,-1,7,-1,-1,9,11,13,15,-1,17,-1,-1,-1,-1,-1,-1],"loss_changes":[5.853846E0,4.600981E0,5.5301023E0,0E0,4.759017E0,0E0,0E0,2.671116E0,5.7137246E0,2.1583033E0,8.170413E0,0E0,5.1497626E0,0E0,0E0,0E0,0E0,0E0,0E0],"parents":[2147483647,0,0,1,1,2,2,4,4,7,7,8,8,9,9,10,10,12,12],"right_children":[2,4,6,-1,8,-1,-1,10,12,14,16,-1,18,-1,-1,-1,-1,-1,-1],"split_conditions":[3.46E2,2.8609998E7,1.5044053E-3,8.45714E-3,-9.069952E-3,-9.840489E-4,1.0757705E-2,9.1194315E-3,1.9895197E1,1.9293171E-1,3.0360058E-1,1.0052184E-2,-9.003491E-3,-5.59679E-3,-3.8442234E-4,4.3970197E-3,-4.0608267E-3,-1.7283129E-3,1.7226685E-3],"split_indices":[100,61,12,0,8,0,0,113,36,145,103,0,198,0,0,0,0,0,0],"split_type":[0,0,0,0,0,0,0,0,0,0,0,0,0,0,0,0,0,0,0],"sum_hessian":[2.9291382E2,2.775369E2,1.5376919E1,5.471854E0,2.7206503E2,6.075445E0,9.301474E0,8.214807E1,1.8991698E2,3.772048E1,4.4427586E1,5.454303E0,1.8446268E2,2.5553225E1,1.2167258E1,1.9214014E1,2.5213573E1,6.692732E1,1.17535355E2],"tree_param":{"num_deleted":"0","num_feature":"220","num_nodes":"19","size_leaf_vector":"1"}},{"base_weights":[-1.16982274E-1,7.631408E-1,-1.5637118E-1,1.1691956E-3,1.4016578E-2,-2.140209E-1,2.2837806E-1,6.347878E-3,-2.4333113E-1,1.034469E-2,-1.761729E-2,2.5375994E-2,-3.0297533E-1,-5.410514E-3,1.8947463E-1,9.310725E-3,-1.1578997E-3,3.911582E-3,-3.2912188E-3,5.2457443E-3,-3.2269359E-3],"categories":[],"categories_nodes":[],"categories_segments":[],"categories_sizes":[],"default_left":[0,0,0,0,0,0,0,0,0,0,0,0,0,0,0,0,0,0,0,0,0],"id":14,"left_children":[1,3,5,-1,-1,7,9,-1,11,-1,13,15,17,-1,19,-1,-1,-1,-1,-1,-1],"loss_changes":[1.0214781E1,4.8877835E0,6.2879944E0,0E0,0E0,6.2213135E0,7.441147E0,0E0,3.8510246E0,0E0,3.3003724E0,5.797478E0,3.6654549E0,0E0,3.8810291E0,0E0,0E0,0E0,0E0,0E0,0E0],"parents":[2147483647,0,0,1,1,2,2,5,5,6,6,8,8,10,10,11,11,12,12,14,14],"right_children":[2,4,6,-1,-1,8,10,-1,12,-1,14,16,18,-1,20,-1,-1,-1,-1,-1,-1],"split_conditions":[3.4269154E1,1.4288406E-3,3.1573322E-1,1.1691956E-3,1.4016578E-2,-1.9040424E-2,1.9325909E-1,6.347878E-3,7.1298057E-1,1.034469E-2,-5.4048546E-2,7.43437E-1,-1.7001055E1,-5.410514E-3,8.961166E-1,9.310725E-3,-1.1578997E-3,3.911582E-3,-3.2912188E-3,5.2457443E-3,-3.2269359E-3],"split_indices":[33,44,104,0,0,167,13,0,216,0,199,114,28,0,74,0,0,0,0,0,0],"split_type":[0,0,0,0,0,0,0,0,0,0,0,0,0,0,0,0,0,0,0,0,0],"sum_hessian":[2.9196164E2,1.1610829E1,2.803508E2,6.4364467E0,5.1743827E0,2.4442981E2,3.5921005E1,7.3552904E0,2.3707451E2,7.744542E0,2.8176464E1,4.2863796E1,1.9421072E2,7.6672955E0,2.0509169E1,5.121019E0,3.774278E1,6.4043574E0,1.8780637E2,1.2501048E1,8.0081215E0],"tree_param":{"num_deleted":"0","num_feature":"220","num_nodes":"21","size_leaf_vector":"1"}},{"base_weights":[-2.3113112E-1,3.774808E-1,-2.8310707E-1,8.102462E-1,-1.2955481E-1,-4.1041017E-1,-9.078992E-2,1.2470071E-2,1.1073215E-3,-5.108286E-3,2.7262163E-3,-4.3662697E-1,1.496334E-4,4.7206176E-3,-1.3864794E-1,-5.4386307E-2,-4.7472876E-1,5.522953E-3,-3.603827E-1,4.4518486E-3,-4.3824054E-3,-2.5099044E-4,-5.0317375E-3,4.746403E-3,-2.0038835E-3,-5.0174897E-3,4.4715873E-4],"categories":[],"categories_nodes":[],"categories_segments":[],"categories_sizes":[],"default_left":[0,0,0,0,0,0,0,0,0,0,0,0,0,0,0,0,0,0,0,0,0,0,0,0,0,0,0],"id":15,"left_children":[1,3,5,7,9,11,13,-1,-1,-1,-1,15,-1,-1,17,19,21,23,25,-1,-1,-1,-1,-1,-1,-1,-1],"loss_changes":[9.415693E0,5.3196115E0,6.5747604E0,3.6668396E0,1.935109E0,1.8679981E0,2.994638E0,0E0,0E0,0E0,0E0,2.1629944E0,0E0,0E0,3.3077142E0,3.1321E0,1.7200108E0,6.1794496E0,2.3929062E0,0E0,0E0,0E0,0E0,0E0,0E0,0E0,0E0],"parents":[2147483647,0,0,1,1,2,2,3,3,4,4,5,5,6,6,11,11,14,14,15,15,16,16,17,17,18,18],"right_children":[2,4,6,8,10,12,14,-1,-1,-1,-1,16,-1,-1,18,20,22,24,26,-1,-1,-1,-1,-1,-1,-1,-1],"split_conditions":[-1.1107209E-1,1.3571842E-1,3.424908E-1,4.6180648E-1,1.0314803E0,1.5912788E0,1.1509076E0,1.2470071E-2,1.1073215E-3,-5.108286E-3,2.7262163E-3,1.3224421E1,1.496334E-4,4.7206176E-3,4.8492235E-1,3.2347783E-1,4.4270578E2,6.8667917E0,5.2138742E-2,4.4518486E-3,-4.3824054E-3,-2.5099044E-4,-5.0317375E-3,4.746403E-3,-2.0038835E-3,-5.0174897E-3,4.4715873E-4],"split_indices":[120,136,196,13,14,208,203,0,0,0,0,30,0,0,66,78,46,206,201,0,0,0,0,0,0,0,0],"split_type":[0,0,0,0,0,0,0,0,0,0,0,0,0,0,0,0,0,0,0,0,0,0,0,0,0,0,0],"sum_hessian":[2.9357233E2,2.2454544E1,2.7111777E2,1.189831E1,1.0556235E1,1.6213774E2,1.0898003E2,6.755004E0,5.1433053E0,5.407895E0,5.1483397E0,1.5292146E2,9.216281E0,7.6818247E0,1.012982E2,1.4319449E1,1.38602E2,6.1703182E1,3.959502E1,6.039277E0,8.280172E0,8.567861E0,1.3003415E2,1.8572031E1,4.3131153E1,2.9358221E1,1.02368E1],"tree_param":{"num_deleted":"0","num_feature":"220","num_nodes":"27","size_leaf_vector":"1"}},{"base_weights":[-1.4511429E-2,-3.860507E-1,3.847454E-2,-4.7275558E-1,8.0490945E-4,-1.4452237E-1,1.431395E-1,-3.4075303E-4,-5.9405165E-3,-2.3752409E-1,4.833955E-1,4.5258796E-1,2.7773995E-2,3.9751032E-1,-3.354707E-1,1.3106671E-2,-3.6806245E-3,-1.4938389E-1,7.162362E-1,-4.6878967E-1,1.5070817E-1,9.253899E-3,-1.8029205E-3,2.8770124E-3,-4.2366437E-3,2.1837044E-3,-5.2703447E-3,1.2686895E-2,2.9688159E-3,-1.5625736E-4,-5.8566574E-3,4.722568E-4,6.7733293E-3],"categories":[],"categories_nodes":[],"categories_segments":[],"categories_sizes":[],"default_left":[0,0,0,0,0,0,0,0,0,0,0,0,0,0,0,0,0,0,0,0,0,0,0,0,0,0,0,0,0,0,0,0,0],"id":16,"left_children":[1,3,5,7,-1,9,11,-1,-1,13,15,17,19,21,23,-1,-1,25,27,29,31,-1,-1,-1,-1,-1,-1,-1,-1,-1,-1,-1,-1],"loss_changes":[5.7811537E0,1.5604057E0,4.913819E0,1.5794744E0,0E0,5.5273266E0,5.771767E0,0E0,0E0,5.2214932E0,9.171394E0,7.1573477E0,7.382957E0,3.6775353E0,4.072668E0,0E0,0E0,2.1088412E0,6.633071E0,1.1995168E0,5.200864E0,0E0,0E0,0E0,0E0,0E0,0E0,0E0,0E0,0E0,0E0,0E0,0E0],"parents":[2147483647,0,0,1,1,2,2,3,3,5,5,6,6,9,9,10,10,11,11,12,12,13,13,14,14,17,17,18,18,19,19,20,20],"right_children":[2,4,6,8,-1,10,12,-1,-1,14,16,18,20,22,24,-1,-1,26,28,30,32,-1,-1,-1,-1,-1,-1,-1,-1,-1,-1,-1,-1],"split_conditions":[-3.9172582E-2,1.3393282E0,2.7858465E0,1.4393564E5,8.0490945E-4,2.8507796E-1,1.5467683E1,-3.4075303E-4,-5.9405165E-3,1.7316E6,1.5956952E-1,-4.776107E-3,7.8315015E2,1.0075197E0,5.2292025E-1,1.3106671E-2,-3.6806245E-3,3.714036E6,5.400731E-1,1.7072354E-2,1.1597142E5,9.253899E-3,-1.8029205E-3,2.8770124E-3,-4.2366437E-3,2.1837044E-3,-5.2703447E-3,1.2686895E-2,2.9688159E-3,-1.5625736E-4,-5.8566574E-3,4.722568E-4,6.7733293E-3],"split_indices":[193,110,77,175,0,106,73,0,0,4,43,11,26,17,110,0,0,4,208,207,189,0,0,0,0,0,0,0,0,0,0,0,0],"split_type":[0,0,0,0,0,0,0,0,0,0,0,0,0,0,0,0,0,0,0,0,0,0,0,0,0,0,0,0,0,0,0,0,0],"sum_hessian":[2.9014273E2,3.566438E1,2.5447835E2,3.0244572E1,5.419808E0,9.2105034E1,1.623733E2,7.007296E0,2.3237276E1,8.090333E1,1.1201712E1,4.306604E1,1.19307274E2,1.0265808E1,7.063752E1,5.4675736E0,5.734138E0,1.3133416E1,2.9932623E1,2.2955826E1,9.635145E1,5.140738E0,5.1250706E0,8.336462E0,6.2301056E1,6.7334175E0,6.3999987E0,1.19396515E1,1.7992971E1,5.114534E0,1.7841291E1,8.159708E1,1.4754371E1],"tree_param":{"num_deleted":"0","num_feature":"220","num_nodes":"33","size_leaf_vector":"1"}},{"base_weights":[3.268301E-1,7.0019925E-1,1.22943126E-1,7.776874E-1,1.6285157E-2,7.023885E-1,3.4358576E-2,5.159379E-1,1.0289296E0,5.8675534E-3,-5.151394E-3,2.92129E-1,1.6848387E-2,1.0507832E-1,-4.16596E-1,6.692119E-1,-1.4089007E-3,1.185347E0,2.8015324E-3,-4.2104716E-3,7.897017E-1,5.0913495E-1,3.3710573E-2,1.1414909E-3,-5.8326023E-3,-1.8355092E-3,8.076808E-3,8.00907E-3,1.6899018E-2,2.241085E-3,1.2406188E-2,-1.1888877E-3,1.0998396E-2,6.254091E-3,-2.5662914E-4],"categories":[],"categories_nodes":[],"categories_segments":[],"categories_sizes":[],"default_left":[0,0,0,0,0,0,0,0,0,0,0,0,0,0,0,0,0,0,0,0,0,0,0,0,0,0,0,0,0,0,0,0,0,0,0],"id":17,"left_children":[1,3,5,7,9,11,13,15,17,-1,-1,19,-1,21,23,25,-1,27,-1,-1,29,31,33,-1,-1,-1,-1,-1,-1,-1,-1,-1,-1,-1,-1],"loss_changes":[2.2231844E1,5.3953285E0,9.742688E0,5.42099E0,3.8535442E0,9.475599E0,5.3541102E0,4.9469748E0,4.9297485E0,0E0,0E0,7.1375217E0,0E0,4.132202E0,2.1227884E0,4.810364E0,0E0,5.7253113E0,0E0,0E0,2.5504851E0,8.242525E0,4.47351E0,0E0,0E0,0E0,0E0,0E0,0E0,0E0,0E0,0E0,0E0,0E0,0E0],"parents":[2147483647,0,0,1,1,2,2,3,3,4,4,5,5,6,6,7,7,8,8,11,11,13,13,14,14,15,15,17,17,20,20,21,21,22,22],"right_children":[2,4,6,8,10,12,14,16,18,-1,-1,20,-1,22,24,26,-1,28,-1,-1,30,32,34,-1,-1,-1,-1,-1,-1,-1,-1,-1,-1,-1,-1],"split_conditions":[1.7780937E-2,9.011142E1,1.8779324E-1,1.992512E1,5.2420977E-3,1.112192E0,2.1315099E9,1.5535116E-2,2.6104733E-2,5.8675534E-3,-5.151394E-3,1.9887536E8,1.6848387E-2,4.654828E4,4.09115E1,-5.777444E-1,-1.4089007E-3,9.2132634E-1,2.8015324E-3,-4.2104716E-3,1.6875446E-1,2.400247E9,1.7419758E-1,1.1414909E-3,-5.8326023E-3,-1.8355092E-3,8.076808E-3,8.00907E-3,1.6899018E-2,2.241085E-3,1.2406188E-2,-1.1888877E-3,1.0998396E-2,6.254091E-3,-2.5662914E-4],"split_indices":[72,36,107,30,83,129,179,20,112,0,0,178,0,189,68,136,0,114,0,0,212,176,217,0,0,0,0,0,0,0,0,0,0,0,0],"split_type":[0,0,0,0,0,0,0,0,0,0,0,0,0,0,0,0,0,0,0,0,0,0,0,0,0,0,0,0,0,0,0,0,0,0,0],"sum_hessian":[2.9325568E2,1.0254495E2,1.9071074E2,9.185442E1,1.0690528E1,2.4220802E1,1.6648993E2,4.6676956E1,4.5177467E1,5.1963935E0,5.4941344E0,1.8072906E1,6.1478963E0,1.4477477E2,2.1715176E1,3.795368E1,8.723282E0,3.6778038E1,8.39943E0,7.4079037E0,1.0665004E1,2.0601553E1,1.2417321E2,5.1213226E0,1.6593853E1,5.1555295E0,3.2798145E1,2.245457E1,1.4323466E1,5.493361E0,5.171643E0,1.0290439E1,1.0311113E1,1.0607983E1,1.1356522E2],"tree_param":{"num_deleted":"0","num_feature":"220","num_nodes":"35","size_leaf_vector":"1"}},{"base_weights":[-2.3042239E-4,8.363086E-3,-1.9133603E-2,-1.9826712E-1,5.75005E-2,-2.0691467E-2,-4.0790036E-1,-6.65242E-2,2.5375077E-1,3.1729826E-1,-2.2198074E-1,-4.9009916E-1,1.1482952E-3,-1.5725958E-1,5.1994514E-1,5.0491524E-1,-1.3542111E-1,9.305375E-3,7.692455E-5,-4.083723E-3,6.0646157E-3,-2.3682201E-3,-5.9418683E-3,-3.2273075E-3,1.0788657E-3,1.1563054E-2,1.1096912E-3,7.3899548E-3,-1.3891847E-3,2.8075813E-3,-4.3207826E-3],"categories":[],"categories_nodes":[],"categories_segments":[],"categories_sizes":[],"default_left":[0,0,0,0,0,0,0,0,0,0,0,0,0,0,0,0,0,0,0,0,0,0,0,0,0,0,0,0,0,0,0],"id":18,"left_children":[1,-1,3,5,7,9,11,13,15,17,19,21,-1,23,25,27,29,-1,-1,-1,-1,-1,-1,-1,-1,-1,-1,-1,-1,-1,-1],"loss_changes":[4.659242E0,0E0,4.0516753E0,3.242893E0,5.0446777E0,3.409592E0,1.8241701E0,6.781441E0,7.945904E0,3.4301286E0,5.110875E0,7.0295525E-1,0E0,4.9060726E0,4.180981E0,7.5652466E0,4.099E0,0E0,0E0,0E0,0E0,0E0,0E0,0E0,0E0,0E0,0E0,0E0,0E0,0E0,0E0],"parents":[2147483647,0,0,2,2,3,3,4,4,5,5,6,6,7,7,8,8,9,9,10,10,11,11,13,13,14,14,15,15,16,16],"right_children":[2,-1,4,6,8,10,12,14,16,18,20,22,-1,24,26,28,30,-1,-1,-1,-1,-1,-1,-1,-1,-1,-1,-1,-1,-1,-1],"split_conditions":[2.8609998E7,8.363086E-3,-9.069952E-3,-2.0083046E0,1.7466522E1,1.7012403E1,2.6305928E0,5.78042E6,2.579031E-1,-8.781051E-1,3.7155758E1,-2.3511879E-1,1.1482952E-3,2.50332E-3,6.5519457E0,4.774048E-2,3.5008047E0,9.305375E-3,7.692455E-5,-4.083723E-3,6.0646157E-3,-2.3682201E-3,-5.9418683E-3,-3.2273075E-3,1.0788657E-3,1.1563054E-2,1.1096912E-3,7.3899548E-3,-1.3891847E-3,2.8075813E-3,-4.3207826E-3],"split_indices":[61,0,8,195,71,71,137,57,106,28,71,67,0,193,206,122,130,0,0,0,0,0,0,0,0,0,0,0,0,0,0],"split_type":[0,0,0,0,0,0,0,0,0,0,0,0,0,0,0,0,0,0,0,0,0,0,0,0,0,0,0,0,0,0,0],"sum_hessian":[2.9779742E2,5.508161E0,2.9228928E2,8.749228E1,2.0479698E2,4.822104E1,3.9271244E1,1.25583305E2,7.921368E1,1.7598253E1,3.0622786E1,3.4154247E1,5.1169977E0,1.0953847E2,1.6044836E1,4.811845E1,3.1095222E1,5.1228423E0,1.2475411E1,2.5510855E1,5.11193E0,1.1181699E1,2.2972548E1,6.7545166E1,4.19933E1,5.46678E0,1.0578056E1,3.529403E1,1.2824424E1,1.2822744E1,1.8272478E1],"tree_param":{"num_deleted":"0","num_feature":"220","num_nodes":"31","size_leaf_vector":"1"}},{"base_weights":[-1.0611231E-1,-4.021527E-1,5.2631248E-2,1.5930547E-3,-4.481048E-1,6.79145E-1,-2.4222573E-2,-4.9180287E-1,1.2601612E-3,1.4743933E-1,1.4401504E-2,-6.465596E-2,9.974157E-3,-1.404757E-1,-5.3753597E-1,7.694944E-3,-4.0453393E-3,1.1827237E-2,-4.0501827E-1,-5.168656E-3,2.8251498E-3,-1.4607839E-3,-5.8437306E-3,-7.896329E-4,4.095703E-3,-5.503796E-3,3.820807E-4],"categories":[],"categories_nodes":[],"categories_segments":[],"categories_sizes":[],"default_left":[0,0,0,0,0,0,0,0,0,0,0,0,0,0,0,0,0,0,0,0,0,0,0,0,0,0,0],"id":19,"left_children":[1,3,5,-1,7,9,11,13,-1,15,-1,17,-1,19,21,-1,-1,23,25,-1,-1,-1,-1,-1,-1,-1,-1],"loss_changes":[1.3811578E1,2.7449036E0,9.288171E0,0E0,2.4863453E0,8.153699E0,7.040341E0,1.283638E0,0E0,5.015375E0,0E0,4.3562894E0,0E0,2.0536692E0,1.2712593E0,0E0,0E0,4.976087E0,2.04772E0,0E0,0E0,0E0,0E0,0E0,0E0,0E0,0E0],"parents":[2147483647,0,0,1,1,2,2,4,4,5,5,6,6,7,7,9,9,11,11,13,13,14,14,17,17,18,18],"right_children":[2,4,6,-1,8,10,12,14,-1,16,-1,18,-1,20,22,-1,-1,24,26,-1,-1,-1,-1,-1,-1,-1,-1],"split_conditions":[1.973091E-1,1.521071E-1,9.4193363E-1,1.5930547E-3,7.856492E1,3.7943968E-1,1.1089203E13,1.5191801E-1,1.2601612E-3,-1.7671831E1,1.4401504E-2,3.2920133E-2,9.974157E-3,5.589476E1,5.790402E8,7.694944E-3,-4.0453393E-3,3.6678374E-2,1.6501816E-2,-5.168656E-3,2.8251498E-3,-1.4607839E-3,-5.8437306E-3,-7.896329E-4,4.095703E-3,-5.503796E-3,3.820807E-4],"split_indices":[105,107,19,0,68,66,179,82,0,28,0,193,0,68,179,0,0,198,194,0,0,0,0,0,0,0,0],"split_type":[0,0,0,0,0,0,0,0,0,0,0,0,0,0,0,0,0,0,0,0,0,0,0,0,0,0,0],"sum_hessian":[2.917036E2,1.015046E2,1.90199E2,7.3278284E0,9.417677E1,2.006807E1,1.7013094E2,8.781079E1,6.365982E0,1.2593962E1,7.4741077E0,1.6464922E2,5.4817276E0,1.0834803E1,7.697598E1,5.8209915E0,6.77297E0,1.3498747E2,2.966174E1,5.740877E0,5.093925E0,8.89412E0,6.808186E1,1.1034883E2,2.4638641E1,2.2324135E1,7.337606E0],"tree_param":{"num_deleted":"0","num_feature":"220","num_nodes":"27","size_leaf_vector":"1"}},{"base_weights":[-2.2102453E-1,-3.2829994E-1,1.4997031E-1,-8.806268E-2,-4.004841E-1,5.9728515E-1,-5.704788E-2,-2.0434995E-1,7.2270795E-3,2.58928E-3,-4.2701116E-1,-3.5785607E-3,9.464488E-1,-2.0835258E-1,4.9343747E-3,5.798018E-3,-3.300533E-1,-4.446054E-1,8.207356E-4,3.8861285E-3,1.6374912E-2,2.1951348E-1,-3.7984088E-1,-4.4462746E-3,3.4098055E-3,-8.3691E-4,-4.747148E-3,-1.8138828E-3,6.0093286E-3,-0E0,-5.3570555E-3],"categories":[],"categories_nodes":[],"categories_segments":[],"categories_sizes":[],"default_left":[0,0,0,0,0,0,0,0,0,0,0,0,0,0,0,0,0,0,0,0,0,0,0,0,0,0,0,0,0,0,0],"id":20,"left_children":[1,3,5,7,9,11,13,15,-1,-1,17,-1,19,21,-1,-1,23,25,-1,-1,-1,27,29,-1,-1,-1,-1,-1,-1,-1,-1],"loss_changes":[1.1999763E1,3.9581165E0,6.3598785E0,5.3246326E0,3.2521896E0,7.623798E0,3.9939976E0,5.034754E0,0E0,0E0,1.6156254E0,0E0,5.41304E0,2.869998E0,0E0,0E0,3.492034E0,1.7175331E0,0E0,0E0,0E0,1.8743922E0,1.626075E0,0E0,0E0,0E0,0E0,0E0,0E0,0E0,0E0],"parents":[2147483647,0,0,1,1,2,2,3,3,4,4,5,5,6,6,7,7,10,10,12,12,13,13,16,16,17,17,21,21,22,22],"right_children":[2,4,6,8,10,12,14,16,-1,-1,18,-1,20,22,-1,-1,24,26,-1,-1,-1,28,30,-1,-1,-1,-1,-1,-1,-1,-1],"split_conditions":[4.6034044E-1,1.09E2,3.5317355E-1,1.0092322E3,-1.4558939E1,4.4846493E-1,2.6012959E1,2.9098868E-1,7.2270795E-3,2.58928E-3,7.199002E6,-3.5785607E-3,7.5902743E-4,-5.516072E0,4.9343747E-3,5.798018E-3,9.8E1,3.1054614E-3,8.207356E-4,3.8861285E-3,1.6374912E-2,-1.274022E1,1.3E2,-4.4462746E-3,3.4098055E-3,-8.3691E-4,-4.747148E-3,-1.8138828E-3,6.0093286E-3,-0E0,-5.3570555E-3],"split_indices":[196,100,177,25,195,56,27,66,0,0,183,0,194,132,0,0,100,207,0,0,0,132,100,0,0,0,0,0,0,0,0],"split_type":[0,0,0,0,0,0,0,0,0,0,0,0,0,0,0,0,0,0,0,0,0,0,0,0,0,0,0,0,0,0,0],"sum_hessian":[2.988268E2,2.320987E2,6.672812E1,5.4458794E1,1.776399E2,2.0667866E1,4.6060253E1,4.8389656E1,6.0691385E0,6.385209E0,1.7125468E2,5.449473E0,1.5218392E1,3.6759754E1,9.300502E0,6.0764008E0,4.2313255E1,1.6584604E2,5.40864E0,9.365372E0,5.8530207E0,1.0270789E1,2.6488964E1,3.6557713E1,5.755541E0,1.3317157E1,1.5252888E2,5.1353707E0,5.1354184E0,8.002767E0,1.8486197E1],"tree_param":{"num_deleted":"0","num_feature":"220","num_nodes":"31","size_leaf_vector":"1"}},{"base_weights":[-4.0120548E-3,-6.231293E-2,3.7627375E-1,1.7328684E-1,-1.5270184E-1,1.21946335E-2,9.938471E-1,8.22913E-3,6.554271E-2,-1.5147404E-2,-2.97781E-1,6.7123976E-3,-3.511141E-1,1.533533E-2,2.5536667E-3,-9.8614074E-2,4.5697588E-1,-1.8197228E-1,4.196173E-1,-3.4816948E-1,4.4489224E-3,-5.6492346E-3,1.1574461E-3,3.8999377E-3,-2.5839463E-3,7.833751E-3,-3.4206053E-3,-2.5728599E-3,4.3110196E-3,-3.098731E-3,7.250909E-3,2.3390322E-3,-3.9156503E-3],"categories":[],"categories_nodes":[],"categories_segments":[],"categories_sizes":[],"default_left":[0,0,0,0,0,0,0,0,0,0,0,0,0,0,0,0,0,0,0,0,0,0,0,0,0,0,0,0,0,0,0,0,0],"id":21,"left_children":[1,3,5,7,9,11,13,-1,15,17,19,-1,21,-1,-1,23,25,27,29,31,-1,-1,-1,-1,-1,-1,-1,-1,-1,-1,-1,-1,-1],"loss_changes":[6.587951E0,5.540832E0,8.759819E0,4.8958683E0,3.717039E0,6.478591E0,5.216812E0,0E0,4.12681E0,7.155947E0,3.5549803E0,0E0,1.8352053E0,0E0,0E0,3.6010513E0,5.257316E0,3.4014719E0,6.348617E0,2.2800064E0,0E0,0E0,0E0,0E0,0E0,0E0,0E0,0E0,0E0,0E0,0E0,0E0,0E0],"parents":[2147483647,0,0,1,1,2,2,3,3,4,4,5,5,6,6,8,8,9,9,10,10,12,12,15,15,16,16,17,17,18,18,19,19],"right_children":[2,4,6,8,10,12,14,-1,16,18,20,-1,22,-1,-1,24,26,28,30,32,-1,-1,-1,-1,-1,-1,-1,-1,-1,-1,-1,-1,-1],"split_conditions":[3E0,2.862535E-4,1.0757279E0,-6.578225E-2,2.3929423E-1,1.013901E0,2.671254E-1,8.22913E-3,4.828396E-3,4.851221E-9,3.471963E8,6.7123976E-3,2.52879E-1,1.533533E-2,2.5536667E-3,-3.17316E-1,1.1400036E0,2.6082842E5,1.8031909E-1,4.4033336E4,4.4489224E-3,-5.6492346E-3,1.1574461E-3,3.8999377E-3,-2.5839463E-3,7.833751E-3,-3.4206053E-3,-2.5728599E-3,4.3110196E-3,-3.098731E-3,7.250909E-3,2.3390322E-3,-3.9156503E-3],"split_indices":[127,210,74,115,102,16,80,0,12,172,62,0,101,0,0,143,110,189,108,190,0,0,0,0,0,0,0,0,0,0,0,0,0],"split_type":[0,0,0,0,0,0,0,0,0,0,0,0,0,0,0,0,0,0,0,0,0,0,0,0,0,0,0,0,0,0,0,0,0],"sum_hessian":[2.9650134E2,2.580407E2,3.8460617E1,7.09875E1,1.870532E2,2.49396E1,1.3521017E1,9.022427E0,6.1965073E1,9.693734E1,9.0115875E1,8.659275E0,1.6280325E1,7.1117144E0,6.4093027E0,4.4003685E1,1.796139E1,7.0642395E1,2.629495E1,8.501375E1,5.1021214E0,1.1169243E1,5.1110826E0,1.0334421E1,3.3669262E1,1.2854992E1,5.106398E0,6.3575806E1,7.066586E0,7.6601834E0,1.8634766E1,5.4338665E0,7.957989E1],"tree_param":{"num_deleted":"0","num_feature":"220","num_nodes":"33","size_leaf_vector":"1"}},{"base_weights":[3.160259E-1,6.885795E-1,1.1128625E-1,7.6728016E-1,-1.431859E-3,2.1463588E-1,-2.6844367E-1,8.605725E-1,-1.7293189E-4,1.1097063E-1,5.87195E-1,4.6807993E-3,-4.5434242E-1,6.1547005E-1,1.1492842E0,-3.014781E-3,4.820251E-1,2.643073E-1,1.1361603E0,-7.460167E-4,-5.2673924E-1,-0E0,8.732134E-3,2.4216431E-3,1.3258207E-2,-1.9926166E-3,2.8140114E-3,1.0456031E-2,7.88192E-4,-3.770654E-3,8.378408E-3,5.380556E-3,1.56195E-2,-1.8058094E-3,-5.9256265E-3],"categories":[],"categories_nodes":[],"categories_segments":[],"categories_sizes":[],"default_left":[0,0,0,0,0,0,0,0,0,0,0,0,0,0,0,0,0,0,0,0,0,0,0,0,0,0,0,0,0,0,0,0,0,0,0],"id":22,"left_children":[1,3,5,7,-1,9,11,13,-1,15,17,-1,19,21,23,25,27,29,31,-1,33,-1,-1,-1,-1,-1,-1,-1,-1,-1,-1,-1,-1,-1,-1],"loss_changes":[2.2370113E1,7.0046463E0,7.5855336E0,7.0980225E0,0E0,5.7220273E0,5.8666134E0,5.1729393E0,0E0,5.128236E0,5.3326063E0,0E0,8.2418823E-1,7.728443E0,5.6009026E0,5.2192307E0,6.2660027E0,8.427043E0,1.9148903E0,0E0,4.4980192E-1,0E0,0E0,0E0,0E0,0E0,0E0,0E0,0E0,0E0,0E0,0E0,0E0,0E0,0E0],"parents":[2147483647,0,0,1,1,2,2,3,3,5,5,6,6,7,7,9,9,10,10,12,12,13,13,14,14,15,15,16,16,17,17,18,18,20,20],"right_children":[2,4,6,8,-1,10,12,14,-1,16,18,-1,20,22,24,26,28,30,32,-1,34,-1,-1,-1,-1,-1,-1,-1,-1,-1,-1,-1,-1,-1,-1],"split_conditions":[1.0178088E0,6.1868596E-1,1.0372698E0,2.72768E-1,-1.431859E-3,1.8044222E5,3.8204845E1,5.027318E-1,-1.7293189E-4,3.8E1,-3.0524643E1,4.6807993E-3,2.215539E-1,2.206526E6,1.636208E1,3.313083E-9,-1.213747E-3,5.471141E-1,9.793247E-1,-7.460167E-4,3.6140133E1,-0E0,8.732134E-3,2.4216431E-3,1.3258207E-2,-1.9926166E-3,2.8140114E-3,1.0456031E-2,7.88192E-4,-3.770654E-3,8.378408E-3,5.380556E-3,1.56195E-2,-1.8058094E-3,-5.9256265E-3],"split_indices":[14,211,14,108,0,190,68,66,0,91,39,0,217,4,30,173,5,81,74,0,34,0,0,0,0,0,0,0,0,0,0,0,0,0,0],"split_type":[0,0,0,0,0,0,0,0,0,0,0,0,0,0,0,0,0,0,0,0,0,0,0,0,0,0,0,0,0,0,0,0,0,0,0],"sum_hessian":[2.9432993E2,1.0337409E2,1.9095584E2,9.46191E1,8.7549925E0,1.5065167E2,4.030417E1,8.45911E1,1.0028E1,1.190829E2,3.1568762E1,7.7083044E0,3.2595863E1,4.7631977E1,3.695912E1,9.165078E1,2.7432125E1,2.092489E1,1.0643871E1,5.76558E0,2.6830284E1,1.433644E1,3.3295536E1,6.499602E0,3.045952E1,5.461645E1,3.7034325E1,1.0672909E1,1.6759216E1,9.957636E0,1.0967254E1,5.4653063E0,5.178565E0,5.127571E0,2.1702713E1],"tree_param":{"num_deleted":"0","num_feature":"220","num_nodes":"35","size_leaf_vector":"1"}},{"base_weights":[1.8240247E-2,-1.853211E-1,1.1139039E-1,4.9009677E-3,-2.3547348E-1,-9.84257E-2,2.6556012E-1,-4.1512668E-1,-7.4774146E-2,6.0777436E-3,-1.805528E-1,9.516951E-1,1.5210406E-1,-3.1619397E-4,-5.1173645E-1,7.3722345E-3,-2.2518373E-1,-2.7214068E-1,2.607637E-1,1.4152343E-2,2.1536527E-3,-1.3448037E-1,3.417031E-1,-5.960751E-3,-1.9525511E-3,3.1035733E-3,-3.4527206E-3,-3.5637815E-3,2.5572637E-3,-2.7149315E-3,7.920876E-3,-2.7279686E-3,5.7431E-3,4.733874E-4,5.9214346E-3],"categories":[],"categories_nodes":[],"categories_segments":[],"categories_sizes":[],"default_left":[0,0,0,0,0,0,0,0,0,0,0,0,0,0,0,0,0,0,0,0,0,0,0,0,0,0,0,0,0,0,0,0,0,0,0],"id":23,"left_children":[1,3,5,-1,7,9,11,13,15,-1,17,19,21,-1,23,-1,25,27,29,-1,-1,31,33,-1,-1,-1,-1,-1,-1,-1,-1,-1,-1,-1,-1],"loss_changes":[5.746034E0,3.3063848E0,6.7833867E0,0E0,2.4952893E0,5.212396E0,9.138084E0,1.470952E0,6.0503254E0,0E0,3.320669E0,5.268343E0,5.7642446E0,0E0,6.841984E-1,0E0,2.8036437E0,3.0909119E0,4.2648225E0,0E0,0E0,4.2694016E0,4.5966353E0,0E0,0E0,0E0,0E0,0E0,0E0,0E0,0E0,0E0,0E0,0E0,0E0],"parents":[2147483647,0,0,1,1,2,2,4,4,5,5,6,6,7,7,8,8,10,10,11,11,12,12,14,14,16,16,17,17,18,18,21,21,22,22],"right_children":[2,4,6,-1,8,10,12,14,16,-1,18,20,22,-1,24,-1,26,28,30,-1,-1,32,34,-1,-1,-1,-1,-1,-1,-1,-1,-1,-1,-1,-1],"split_conditions":[2.7631578E-1,1.5821281E-1,-1.8055829E-6,4.9009677E-3,2.0492299E-1,4.5E1,-1.3403552E-7,-7.842568E-6,2.1615801E-2,6.0777436E-3,1.8329655E5,8.5989654E-4,-1.6298955E-2,-3.1619397E-4,8.1624165E-3,7.3722345E-3,2.9623947E0,1.0018206E0,6.87251E2,1.4152343E-2,2.1536527E-3,5.8467167E1,1.650208E1,-5.960751E-3,-1.9525511E-3,3.1035733E-3,-3.4527206E-3,-3.5637815E-3,2.5572637E-3,-2.7149315E-3,7.920876E-3,-2.7279686E-3,5.7431E-3,4.733874E-4,5.9214346E-3],"split_indices":[78,107,192,0,102,100,192,192,112,0,189,210,122,0,20,0,77,136,23,0,0,68,32,0,0,0,0,0,0,0,0,0,0,0,0],"split_type":[0,0,0,0,0,0,0,0,0,0,0,0,0,0,0,0,0,0,0,0,0,0,0,0,0,0,0,0,0,0,0,0,0,0,0],"sum_hessian":[3.0133383E2,9.395362E1,2.073802E2,5.750035E0,8.820358E1,8.771632E1,1.1966389E2,4.0604458E1,4.7599125E1,8.344555E0,7.9371765E1,1.5806024E1,1.03857864E2,8.645842E0,3.1958616E1,6.7253766E0,4.087375E1,6.62356E1,1.3136158E1,9.050606E0,6.755418E0,4.125819E1,6.2599674E1,2.428699E1,7.671628E0,7.0439053E0,3.3829845E1,5.756383E1,8.671775E0,6.712594E0,6.423564E0,3.5154243E1,6.103946E0,2.9506474E1,3.30932E1],"tree_param":{"num_deleted":"0","num_feature":"220","num_nodes":"35","size_leaf_vector":"1"}},{"base_weights":[-8.078049E-2,6.503944E-1,-1.4256534E-1,9.3423504E-1,-2.0588513E-3,-2.3319428E-1,1.4843829E-1,3.5164107E-3,1.5984356E-2,-3.5440937E-1,-4.8361514E-3,1.0069861E0,-2.9483179E-2,-1.1535563E-1,-4.43899E-1,4.9048045E-1,-2.12848E-1,1.5611534E-2,2.7096022E-3,2.2500536E-1,-3.0265856E-1,-2.8288697E-3,5.202818E-3,-1.2249585E-3,-5.2481126E-3,-5.3299085E-4,1.0276169E-2,3.0797655E-3,-3.3226265E-3,-5.75012E-4,7.0148516E-3,-5.776523E-3,5.7948375E-4],"categories":[],"categories_nodes":[],"categories_segments":[],"categories_sizes":[],"default_left":[0,0,0,0,0,0,0,0,0,0,0,0,0,0,0,0,0,0,0,0,0,0,0,0,0,0,0,0,0,0,0,0,0],"id":24,"left_children":[1,3,5,7,-1,9,11,-1,-1,13,15,17,19,21,23,25,27,-1,-1,29,31,-1,-1,-1,-1,-1,-1,-1,-1,-1,-1,-1,-1],"loss_changes":[1.3399912E1,5.877843E0,7.258773E0,6.058071E0,0E0,5.7552004E0,1.01056595E1,0E0,0E0,2.811039E0,7.687225E0,4.0184164E0,3.898347E0,4.2563887E0,2.4350662E0,6.580009E0,3.3923223E0,0E0,0E0,3.9881449E0,2.776206E0,0E0,0E0,0E0,0E0,0E0,0E0,0E0,0E0,0E0,0E0,0E0,0E0],"parents":[2147483647,0,0,1,1,2,2,3,3,5,5,6,6,9,9,10,10,11,11,12,12,13,13,14,14,15,15,16,16,19,19,20,20],"right_children":[2,4,6,8,-1,10,12,-1,-1,14,16,18,20,22,24,26,28,-1,-1,30,32,-1,-1,-1,-1,-1,-1,-1,-1,-1,-1,-1,-1],"split_conditions":[9.405327E-1,6.440709E-1,2.9406884E-1,8.2713073E-1,-2.0588513E-3,2.9857673E-2,1.9325909E-1,3.5164107E-3,1.5984356E-2,1.80942E-1,2.5302875E-1,4.2676125E-3,2.1039324E1,2.8479846E9,-5.083458E0,2.2427309E1,1.5435541E1,1.5611534E-2,2.7096022E-3,3.029069E-1,7.213085E-3,-2.8288697E-3,5.202818E-3,-1.2249585E-3,-5.2481126E-3,-5.3299085E-4,1.0276169E-2,3.0797655E-3,-3.3226265E-3,-5.75012E-4,7.0148516E-3,-5.776523E-3,5.7948375E-4],"split_indices":[19,13,104,208,0,122,13,0,0,103,78,85,45,176,129,30,30,0,0,80,20,0,0,0,0,0,0,0,0,0,0,0,0],"split_type":[0,0,0,0,0,0,0,0,0,0,0,0,0,0,0,0,0,0,0,0,0,0,0,0,0,0,0,0,0,0,0,0,0],"sum_hessian":[2.946904E2,2.2092916E1,2.7259747E2,1.661207E1,5.480847E0,2.0827536E2,6.4322105E1,9.74466E0,6.8674097E0,1.3540889E2,7.286648E1,1.0338192E1,5.3983913E1,3.781095E1,9.759794E1,2.1006716E1,5.185976E1,5.1806583E0,5.157533E0,2.7849632E1,2.6134283E1,3.048775E1,7.323203E0,2.0382704E1,7.721523E1,1.079391E1,1.0212806E1,9.2219515E0,4.263781E1,1.7903833E1,9.945799E0,1.4643089E1,1.1491194E1],"tree_param":{"num_deleted":"0","num_feature":"220","num_nodes":"33","size_leaf_vector":"1"}},{"base_weights":[-2.2713846E-1,-3.2637745E-1,1.09712325E-1,-3.7021485E-1,6.548855E-2,8.49307E-3,-2.2129938E-3,1.5677881E-3,-3.9419147E-1,4.747378E-1,-4.643387E-3,4.8930067E-1,-1.6013469E-1,-2.0253204E-1,-4.4922015E-1,-1.990904E-3,9.279653E-3,8.68026E-3,-7.478963E-4,4.5709377E-3,-3.1619093E-1,1.3155633E-3,-3.5562243E-3,-5.10782E-3,-2.6500972E-3,-4.18267E-3,2.3548114E-3],"categories":[],"categories_nodes":[],"categories_segments":[],"categories_sizes":[],"default_left":[0,0,0,0,0,0,0,0,0,0,0,0,0,0,0,0,0,0,0,0,0,0,0,0,0,0,0],"id":25,"left_children":[1,3,5,7,9,-1,11,-1,13,15,-1,17,19,21,23,-1,-1,-1,-1,-1,25,-1,-1,-1,-1,-1,-1],"loss_changes":[1.00743885E1,4.0390854E0,5.7742825E0,2.7261658E0,5.415983E0,0E0,4.7459736E0,0E0,1.9569569E0,4.568985E0,0E0,3.309953E0,4.6324973E0,2.4689355E0,1.5384178E0,0E0,0E0,0E0,0E0,0E0,2.2581928E0,0E0,0E0,0E0,0E0,0E0,0E0],"parents":[2147483647,0,0,1,1,2,2,3,3,4,4,6,6,8,8,9,9,11,11,12,12,13,13,14,14,20,20],"right_children":[2,4,6,8,10,-1,12,-1,14,16,-1,18,20,22,24,-1,-1,-1,-1,-1,26,-1,-1,-1,-1,-1,-1],"split_conditions":[4.6034044E-1,1.4557847E0,-1.0695544E1,-1.4558939E1,1.6644228E0,8.49307E-3,1.033643E0,1.5677881E-3,-2.9131906E0,6.5070885E-1,-4.643387E-3,1.5684204E0,2.3903146E-1,4.3203926E-1,5.2223515E-2,-1.990904E-3,9.279653E-3,8.68026E-3,-7.478963E-4,4.5709377E-3,4.4413973E-6,1.3155633E-3,-3.5562243E-3,-5.10782E-3,-2.6500972E-3,-4.18267E-3,2.3548114E-3],"split_indices":[196,114,38,195,114,0,14,0,129,60,0,205,219,81,201,0,0,0,0,0,182,0,0,0,0,0,0],"split_type":[0,0,0,0,0,0,0,0,0,0,0,0,0,0,0,0,0,0,0,0,0,0,0,0,0,0,0],"sum_hessian":[2.986498E2,2.3094073E2,6.770907E1,2.0798431E2,2.295642E1,8.151279E0,5.9557785E1,8.62834E0,1.9935599E2,1.3117171E1,9.83925E0,1.3818292E1,4.5739494E1,4.5919754E1,1.5343622E2,5.4116225E0,7.7055483E0,8.051233E0,5.7670584E0,8.712052E0,3.7027443E1,1.4268702E1,3.1651054E1,1.1326737E2,4.0168854E1,3.1603016E1,5.4244275E0],"tree_param":{"num_deleted":"0","num_feature":"220","num_nodes":"27","size_leaf_vector":"1"}},{"base_weights":[-3.3290848E-2,2.7486828E-1,-1.15133815E-1,1.2626688E-2,1.407518E-1,4.377063E-1,-1.6213019E-1,6.829238E-1,-8.2812734E-2,-0E0,1.1303582E-2,7.151794E-3,-1.9157775E-1,1.0727012E-2,9.061307E-4,-3.451278E-1,2.8640753E-1,4.3274383E-3,-5.0652013E-3,1.0011846E-1,-2.4681108E-1,2.1934588E-3,-5.829634E-3,-2.3963857E-3,8.709841E-3,-1.8036328E-3,7.3252027E-3,2.2257017E-3,-2.958929E-3],"categories":[],"categories_nodes":[],"categories_segments":[],"categories_sizes":[],"default_left":[0,0,0,0,0,0,0,0,0,0,0,0,0,0,0,0,0,0,0,0,0,0,0,0,0,0,0,0,0],"id":26,"left_children":[1,3,5,-1,7,9,11,13,15,17,-1,-1,19,-1,-1,21,23,-1,-1,25,27,-1,-1,-1,-1,-1,-1,-1,-1],"loss_changes":[7.421347E0,7.8505316E0,6.0964785E0,0E0,6.8440685E0,5.592093E0,5.6550975E0,3.5827246E0,3.9845502E0,2.9011793E0,0E0,0E0,3.4149642E0,0E0,0E0,3.3905933E0,5.5079756E0,0E0,0E0,6.179031E0,4.144862E0,0E0,0E0,0E0,0E0,0E0,0E0,0E0,0E0],"parents":[2147483647,0,0,1,1,2,2,4,4,5,5,6,6,7,7,8,8,9,9,12,12,15,15,16,16,19,19,20,20],"right_children":[2,4,6,-1,8,10,12,14,16,18,-1,-1,20,-1,-1,22,24,-1,-1,26,28,-1,-1,-1,-1,-1,-1,-1,-1],"split_conditions":[1.8604612E-1,5.372087E-3,5.107652E-1,1.2626688E-2,-1.0758604E-1,8.4896314E-1,1.8552464E-3,1E-1,5.8744115E-1,1E0,1.1303582E-2,7.151794E-3,1.5324843E-2,1.0727012E-2,9.061307E-4,-1.3418086E-3,7.701349E-2,4.3274383E-3,-5.0652013E-3,3.3498797E-1,4.0915436E7,2.1934588E-3,-5.829634E-3,-2.3963857E-3,8.709841E-3,-1.8036328E-3,7.3252027E-3,2.2257017E-3,-2.958929E-3],"split_indices":[78,113,60,0,145,74,83,213,217,131,0,0,207,0,0,161,120,0,0,212,62,0,0,0,0,0,0,0,0],"split_type":[0,0,0,0,0,0,0,0,0,0,0,0,0,0,0,0,0,0,0,0,0,0,0,0,0,0,0,0,0],"sum_hessian":[2.9263525E2,6.0658936E1,2.3197632E2,6.156258E0,5.4502678E1,1.7356956E1,2.1461935E2,1.544331E1,3.905937E1,1.1227759E1,6.129197E0,6.1033807E0,2.0851598E2,8.723094E0,6.720216E0,2.303213E1,1.602724E1,6.1082635E0,5.119496E0,3.2779408E1,1.7573657E2,6.7260227E0,1.6306107E1,8.656485E0,7.3707557E0,2.3093632E1,9.685777E0,1.610912E1,1.5962746E2],"tree_param":{"num_deleted":"0","num_feature":"220","num_nodes":"29","size_leaf_vector":"1"}},{"base_weights":[3.068056E-1,6.643293E-1,1.07688814E-1,5.760385E-1,1.416673E-2,8.256504E-1,5.6818895E-2,4.6307895E-1,1.1420083E0,1.037648E-3,1.2948598E-2,2.256236E-1,-1.2384282E-1,2.2496656E-1,8.053521E-1,1.5593505E-2,2.557973E-3,5.1686675E-3,5.050491E-1,-4.5193154E-1,6.626722E-2,7.0593744E-3,-0E0,1.2755658E-2,2.408934E-3,-1.2031323E-3,6.880028E-3,1.9887951E-3,1.2406462E-2,-5.9085297E-3,-1.8045413E-3,5.5268575E-3,-1.0002007E-3],"categories":[],"categories_nodes":[],"categories_segments":[],"categories_sizes":[],"default_left":[0,0,0,0,0,0,0,0,0,0,0,0,0,0,0,0,0,0,0,0,0,0,0,0,0,0,0,0,0,0,0,0,0],"id":27,"left_children":[1,3,5,7,-1,9,11,13,15,-1,-1,17,19,21,23,-1,-1,25,27,29,31,-1,-1,-1,-1,-1,-1,-1,-1,-1,-1,-1,-1],"loss_changes":[2.1377687E1,6.144848E0,7.008342E0,5.593605E0,0E0,4.0401173E0,5.645022E0,6.541731E0,5.160364E0,0E0,0E0,5.840716E0,5.6301446E0,5.448956E0,8.512587E0,0E0,0E0,4.8262167E0,9.06591E0,1.0620704E0,4.7218356E0,0E0,0E0,0E0,0E0,0E0,0E0,0E0,0E0,0E0,0E0,0E0,0E0],"parents":[2147483647,0,0,1,1,2,2,3,3,5,5,6,6,7,7,8,8,11,11,12,12,13,13,14,14,17,17,18,18,19,19,20,20],"right_children":[2,4,6,8,-1,10,12,14,16,-1,-1,18,20,22,24,-1,-1,26,28,30,32,-1,-1,-1,-1,-1,-1,-1,-1,-1,-1,-1,-1],"split_conditions":[1.0178088E0,1.7138232E-2,1.7426473E-1,4.108269E-1,1.416673E-2,1.39297E-2,1.0050756E0,1.852802E-1,3.6633266E-3,1.037648E-3,1.2948598E-2,1.3213187E-1,1.0181195E0,3.563931E-1,2.5460953E-1,1.5593505E-2,2.557973E-3,1.3823928E0,-7.7771638E-3,5.013821E0,8.3033836E-1,7.0593744E-3,-0E0,1.2755658E-2,2.408934E-3,-1.2031323E-3,6.880028E-3,1.9887951E-3,1.2406462E-2,-5.9085297E-3,-1.8045413E-3,5.5268575E-3,-1.0002007E-3],"split_indices":[14,72,107,65,0,109,17,101,194,0,0,67,17,217,101,0,0,110,134,76,59,0,0,0,0,0,0,0,0,0,0,0,0],"split_type":[0,0,0,0,0,0,0,0,0,0,0,0,0,0,0,0,0,0,0,0,0,0,0,0,0,0,0,0,0,0,0,0,0],"sum_hessian":[3.0138434E2,1.06793304E2,1.9459103E2,9.727611E1,9.517196E0,1.1737356E1,1.8285367E2,8.27544E1,1.4521707E1,5.188714E0,6.5486417E0,9.468634E1,8.8167336E1,4.995274E1,3.280166E1,9.279372E0,5.2423344E0,5.3697586E1,4.0988754E1,3.2033413E1,5.6133923E1,1.5108579E1,3.4844162E1,1.7110802E1,1.5690857E1,4.593385E1,7.7637386E0,2.9935383E1,1.105337E1,2.0168118E1,1.1865294E1,1.3862233E1,4.227169E1],"tree_param":{"num_deleted":"0","num_feature":"220","num_nodes":"33","size_leaf_vector":"1"}},{"base_weights":[1.2018339E-2,-2.1392724E-1,9.032838E-2,3.4972217E-3,-2.7607346E-1,5.7847077E-1,2.2859182E-2,-5.921814E-3,-1.082249E-1,-1.2686543E-4,9.492808E-1,2.895912E-1,-7.1876444E-2,3.1026024E-1,-2.9406437E-1,1.5253693E-2,3.1540815E-3,-4.1905022E-1,5.2677053E-1,5.5263126E-3,-1.22139774E-1,7.1251127E-3,-3.4144192E-3,1.10487454E-4,-4.8824777E-3,-1.8076372E-3,-5.3578853E-3,1.0421386E-2,1.077749E-3,-5.473631E-3,-3.4612571E-4],"categories":[],"categories_nodes":[],"categories_segments":[],"categories_sizes":[],"default_left":[0,0,0,0,0,0,0,0,0,0,0,0,0,0,0,0,0,0,0,0,0,0,0,0,0,0,0,0,0,0,0],"id":28,"left_children":[1,3,5,-1,7,9,11,-1,13,-1,15,17,19,21,23,-1,-1,25,27,-1,29,-1,-1,-1,-1,-1,-1,-1,-1,-1,-1],"loss_changes":[5.1585026E0,2.7130039E0,7.0814934E0,0E0,3.483645E0,5.840019E0,4.8963866E0,0E0,3.664511E0,0E0,5.2478943E0,8.772802E0,4.490177E0,4.0701766E0,1.9792767E0,0E0,0E0,1.9853282E-1,8.112954E0,0E0,4.8594036E0,0E0,0E0,0E0,0E0,0E0,0E0,0E0,0E0,0E0,0E0],"parents":[2147483647,0,0,1,1,2,2,4,4,5,5,6,6,8,8,10,10,11,11,12,12,13,13,14,14,17,17,18,18,20,20],"right_children":[2,4,6,-1,8,10,12,-1,14,-1,16,18,20,22,24,-1,-1,26,28,-1,30,-1,-1,-1,-1,-1,-1,-1,-1,-1,-1],"split_conditions":[3.1617635E-1,3.662882E4,9.9456584E-1,3.4972217E-3,7.630462E4,-4.124107E0,-7.653476E-3,-5.921814E-3,8.659759E-1,-1.2686543E-4,-9.377664E-3,1.3116672E0,-5.0495386E-1,3.7951008E1,2E0,1.5253693E-2,3.1540815E-3,-1.8369701E-16,8.406124E-3,5.5263126E-3,-3.4466693E-1,7.1251127E-3,-3.4144192E-3,1.10487454E-4,-4.8824777E-3,-1.8076372E-3,-5.3578853E-3,1.0421386E-2,1.077749E-3,-5.473631E-3,-3.4612571E-4],"split_indices":[44,189,70,0,189,38,194,0,60,0,84,37,67,34,87,0,0,99,113,0,67,0,0,0,0,0,0,0,0,0,0],"split_type":[0,0,0,0,0,0,0,0,0,0,0,0,0,0,0,0,0,0,0,0,0,0,0,0,0,0,0,0,0,0,0],"sum_hessian":[2.9014923E2,7.390491E1,2.1624434E2,6.7199793E0,6.718492E1,2.5159359E1,1.9108498E2,2.2218025E1,4.49669E1,9.966519E0,1.519284E1,4.9818287E1,1.412667E2,1.3456681E1,3.1510218E1,7.139757E0,8.053082E0,1.2194696E1,3.7623592E1,9.630178E0,1.316365E2,8.357999E0,5.0986824E0,1.2421268E1,1.908895E1,5.1294746E0,7.065222E0,1.609756E1,2.1526031E1,2.1378696E1,1.1025781E2],"tree_param":{"num_deleted":"0","num_feature":"220","num_nodes":"31","size_leaf_vector":"1"}},{"base_weights":[-1.3281514E-1,5.2612174E-1,-1.9048855E-1,4.6856422E-2,1.2684392E-2,-2.875748E-1,3.2954562E-2,4.583642E-3,-3.1569537E-3,-3.1454447E-1,4.4023874E-3,3.250247E-1,-2.2524467E-1,-3.6396787E-1,-1.8983597E-2,7.921239E-2,9.198499E-1,2.0928848E-1,-4.1126314E-1,1.877812E-3,-3.9656786E-3,6.1003724E-3,-1.9247037E-3,-2.0880878E-3,5.431786E-3,1.3974686E-2,2.7314809E-3,7.7179484E-3,-1.9776847E-3,7.9444214E-4,-5.1991898E-3],"categories":[],"categories_nodes":[],"categories_segments":[],"categories_sizes":[],"default_left":[0,0,0,0,0,0,0,0,0,0,0,0,0,0,0,0,0,0,0,0,0,0,0,0,0,0,0,0,0,0,0],"id":29,"left_children":[1,3,5,7,-1,9,11,-1,-1,13,-1,15,17,19,21,23,25,27,29,-1,-1,-1,-1,-1,-1,-1,-1,-1,-1,-1,-1],"loss_changes":[1.1259369E1,8.286804E0,5.9288034E0,2.4864821E0,0E0,3.8517199E0,6.333259E0,0E0,0E0,2.6388855E0,0E0,5.5997653E0,3.6950946E0,2.9206982E0,3.0950696E0,4.042038E0,2.951149E0,3.3723218E0,1.7695808E0,0E0,0E0,0E0,0E0,0E0,0E0,0E0,0E0,0E0,0E0,0E0,0E0],"parents":[2147483647,0,0,1,1,2,2,3,3,5,5,6,6,9,9,11,11,12,12,13,13,14,14,15,15,16,16,17,17,18,18],"right_children":[2,4,6,8,-1,10,12,-1,-1,14,-1,16,18,20,22,24,26,28,30,-1,-1,-1,-1,-1,-1,-1,-1,-1,-1,-1,-1],"split_conditions":[9.405327E-1,-6.987717E-3,2.6603937E-1,4.0709525E-2,1.2684392E-2,1.8361437E0,2.0861488E1,4.583642E-3,-3.1569537E-3,2.60554E-1,4.4023874E-3,5.1260788E-2,-7.341818E-1,1.203777E-1,2.2830315E-9,1.7754984E1,1.693202E6,3.753715E6,1.6614856E-1,1.877812E-3,-3.9656786E-3,6.1003724E-3,-1.9247037E-3,-2.0880878E-3,5.431786E-3,1.3974686E-2,2.7314809E-3,7.7179484E-3,-1.9776847E-3,7.9444214E-4,-5.1991898E-3],"split_indices":[19,84,108,137,0,59,45,0,0,145,0,201,133,56,173,45,183,184,81,0,0,0,0,0,0,0,0,0,0,0,0],"split_type":[0,0,0,0,0,0,0,0,0,0,0,0,0,0,0,0,0,0,0,0,0,0,0,0,0,0,0,0,0,0,0],"sum_hessian":[2.9352075E2,2.2829554E1,2.706912E2,1.4600689E1,8.228865E0,1.888125E2,8.1878685E1,6.8440385E0,7.756651E0,1.8274593E2,6.066572E0,3.8479675E1,4.3399006E1,1.5607709E2,2.666884E1,2.814854E1,1.0331137E1,1.2810775E1,3.0588232E1,8.270627E0,1.4780646E2,5.0966997E0,2.157214E1,1.7573605E1,1.0574935E1,5.185707E0,5.1454296E0,5.1053677E0,7.705407E0,5.4270964E0,2.5161135E1],"tree_param":{"num_deleted":"0","num_feature":"220","num_nodes":"31","size_leaf_vector":"1"}},{"base_weights":[-2.206945E-1,-3.5249433E-1,2.2988196E-1,8.426642E-2,-3.9736724E-1,7.2021204E-1,2.4609403E-3,-2.545505E-1,7.9906825E-3,1.0743559E-3,-4.2198145E-1,1.1262431E0,-3.5952546E-3,9.192954E-3,-1.3005449E-1,2.4310083E-3,-5.5150585E-3,-5.2138495E-1,-2.747358E-1,2.6704376E-3,1.5149828E-2,-2.9080108E-1,6.0224184E-3,-5.5503026E-3,-2.8134654E-3,-3.7265064E-3,3.2353657E-4,-4.161315E-3,1.2900601E-3],"categories":[],"categories_nodes":[],"categories_segments":[],"categories_sizes":[],"default_left":[0,0,0,0,0,0,0,0,0,0,0,0,0,0,0,0,0,0,0,0,0,0,0,0,0,0,0,0,0],"id":30,"left_children":[1,3,5,7,9,11,13,15,-1,-1,17,19,-1,-1,21,-1,-1,23,25,-1,-1,27,-1,-1,-1,-1,-1,-1,-1],"loss_changes":[1.7616268E1,4.550112E0,7.4208517E0,5.571354E0,2.660244E0,9.755419E0,5.915831E0,2.4625869E0,0E0,0E0,2.6846313E0,4.655077E0,0E0,0E0,5.075797E0,0E0,0E0,7.056637E-1,2.5290213E0,0E0,0E0,1.9313529E0,0E0,0E0,0E0,0E0,0E0,0E0,0E0],"parents":[2147483647,0,0,1,1,2,2,3,3,4,4,5,5,6,6,7,7,10,10,11,11,14,14,17,17,18,18,21,21],"right_children":[2,4,6,8,10,12,14,16,-1,-1,18,20,-1,-1,22,-1,-1,24,26,-1,-1,28,-1,-1,-1,-1,-1,-1,-1],"split_conditions":[4.6720338E-1,3.0411053E-1,3.5244608E-1,1.0753239E0,-1.4558939E1,4.6850857E-3,7.1606785E-1,3.7283823E-4,7.9906825E-3,1.0743559E-3,2.3284132E-2,3.6231518E0,-3.5952546E-3,9.192954E-3,3.7793577E-1,2.4310083E-3,-5.5150585E-3,1.874644E1,2.511698E-1,2.6704376E-3,1.5149828E-2,2.744916E-2,6.0224184E-3,-5.5503026E-3,-2.8134654E-3,-3.7265064E-3,3.2353657E-4,-4.161315E-3,1.2900601E-3],"split_indices":[196,66,177,60,195,144,60,210,0,0,112,77,0,0,80,0,0,28,188,0,0,20,0,0,0,0,0,0,0],"split_type":[0,0,0,0,0,0,0,0,0,0,0,0,0,0,0,0,0,0,0,0,0,0,0,0,0,0,0,0,0],"sum_hessian":[2.940696E2,2.278577E2,6.62119E1,2.0939661E1,2.0691805E2,2.0153484E1,4.605841E1,1.4547918E1,6.3917427E0,9.274925E0,1.9764311E2,1.4681942E1,5.471543E0,5.1619296E0,4.089648E1,5.3786826E0,9.169236E0,1.1606748E2,8.157564E1,5.1791286E0,9.502813E0,3.4141518E1,6.7549663E0,1.002824E2,1.5785076E1,6.193874E1,1.9636894E1,2.6482357E1,7.6591597E0],"tree_param":{"num_deleted":"0","num_feature":"220","num_nodes":"29","size_leaf_vector":"1"}},{"base_weights":[1.1472211E-3,3.0888572E-1,-7.2047316E-2,6.4489394E-1,-3.0542677E-2,4.4236386E-1,-1.0913037E-1,5.1285874E-2,1.2107104E0,4.5092905E-1,-3.6576596E-1,-3.1280558E-4,9.862241E-3,1.0718845E-1,-1.8237019E-1,4.5310343E-3,-5.1876814E-3,3.7886589E-3,1.6418613E-2,-0E0,9.143035E-3,-5.6976923E-3,1.1781853E-3,-1.02636546E-1,9.556848E-1,-2.3421269E-2,-3.5689357E-1,6.209008E-3,-2.5546805E-3,1.4408014E-2,2.698854E-3,-2.3119191E-3,2.8647066E-3,6.7924877E-4,-4.1797394E-3],"categories":[],"categories_nodes":[],"categories_segments":[],"categories_sizes":[],"default_left":[0,0,0,0,0,0,0,0,0,0,0,0,0,0,0,0,0,0,0,0,0,0,0,0,0,0,0,0,0,0,0,0,0,0,0],"id":31,"left_children":[1,3,5,7,9,11,13,15,17,19,21,-1,-1,23,25,-1,-1,-1,-1,-1,-1,-1,-1,27,29,31,33,-1,-1,-1,-1,-1,-1,-1,-1],"loss_changes":[6.8277893E0,6.7306967E0,4.665293E0,9.717508E0,4.967913E0,4.353143E0,3.6451964E0,3.7842314E0,4.5446377E0,2.611506E0,1.9126606E0,0E0,0E0,1.05180025E1,4.706188E0,0E0,0E0,0E0,0E0,0E0,0E0,0E0,0E0,5.3577614E0,3.3326426E0,5.921982E0,2.172742E0,0E0,0E0,0E0,0E0,0E0,0E0,0E0,0E0],"parents":[2147483647,0,0,1,1,2,2,3,3,4,4,5,5,6,6,7,7,8,8,9,9,10,10,13,13,14,14,23,23,24,24,25,25,26,26],"right_children":[2,4,6,8,10,12,14,16,18,20,22,-1,-1,24,26,-1,-1,-1,-1,-1,-1,-1,-1,28,30,32,34,-1,-1,-1,-1,-1,-1,-1,-1],"split_conditions":[1.7536277E-1,2.5358263E-1,7.396366E-7,5.6498325E-1,-4.455508E-2,1.205584E-4,-1.6035283E-2,1.0108579E0,1.6193584E-1,4.8815068E-2,1.0125973E0,-3.1280558E-4,9.862241E-3,3E0,2.4941235E0,4.5310343E-3,-5.1876814E-3,3.7886589E-3,1.6418613E-2,-0E0,9.143035E-3,-5.6976923E-3,1.1781853E-3,6.5889006E0,3.061736E-1,8.9975854E2,-6.249913E-2,6.209008E-3,-2.5546805E-3,1.4408014E-2,2.698854E-3,-2.3119191E-3,2.8647066E-3,6.7924877E-4,-4.1797394E-3],"split_indices":[78,163,182,56,145,194,84,216,102,201,16,0,0,127,38,0,0,0,0,0,0,0,0,75,138,41,198,0,0,0,0,0,0,0,0],"split_type":[0,0,0,0,0,0,0,0,0,0,0,0,0,0,0,0,0,0,0,0,0,0,0,0,0,0,0,0,0,0,0,0,0,0,0],"sum_hessian":[3.0008408E2,5.730357E1,2.4278049E2,2.849267E1,2.8810898E1,1.5408612E1,2.2737189E2,1.4523347E1,1.3969323E1,1.1561694E1,1.7249205E1,8.641446E0,6.767166E0,5.704795E1,1.7032393E2,8.74194E0,5.7814074E0,5.489255E0,8.480068E0,6.3821874E0,5.179507E0,1.2151558E1,5.0976467E0,4.6347775E1,1.0700178E1,9.003283E1,8.02911E1,7.4344616E0,3.891331E1,5.536839E0,5.163339E0,5.424218E1,3.5790646E1,9.873182E0,7.041792E1],"tree_param":{"num_deleted":"0","num_feature":"220","num_nodes":"35","size_leaf_vector":"1"}},{"base_weights":[3.1089082E-1,6.4481556E-1,1.2017016E-1,1.0280588E0,4.6668914E-1,1.8797606E-1,-2.7868536E-1,1.45018E0,3.702664E-1,2.8707245E-1,9.9471027E-1,-2.2059928E-1,2.7351776E-1,-5.8083534E-3,1.5333112E-1,4.9251234E-3,1.8787669E-2,9.447072E-3,-2.692656E-3,6.495738E-1,1.8807068E-2,9.869568E-4,1.3252146E0,-4.7510117E-1,1.7587443E-1,2.1936932E-1,1.0308169E-2,-5.059062E-3,7.112482E-3,-2.9329287E-3,1.0574047E-2,-2.4208706E-3,3.5391434E-3,5.7203523E-3,1.721821E-2,-1.8170734E-3,-5.7004476E-3,6.935945E-3,-3.563116E-3,3.7700827E-3,-5.1520247E-4],"categories":[],"categories_nodes":[],"categories_segments":[],"categories_sizes":[],"default_left":[0,0,0,0,0,0,0,0,0,0,0,0,0,0,0,0,0,0,0,0,0,0,0,0,0,0,0,0,0,0,0,0,0,0,0,0,0,0,0,0,0],"id":32,"left_children":[1,3,5,7,9,11,13,15,17,19,21,23,25,-1,27,-1,-1,-1,-1,29,31,-1,33,35,37,39,-1,-1,-1,-1,-1,-1,-1,-1,-1,-1,-1,-1,-1,-1,-1],"loss_changes":[1.894142E1,6.7828445E0,5.2428823E0,8.567017E0,6.806967E0,5.837108E0,3.802888E0,7.0197945E0,5.651682E0,5.59592E0,5.2876396E0,3.0335476E0,5.274747E0,0E0,4.87831E0,0E0,0E0,0E0,0E0,9.857794E0,3.132855E0,0E0,2.8350334E0,3.240161E-1,3.5568776E0,5.579137E0,0E0,0E0,0E0,0E0,0E0,0E0,0E0,0E0,0E0,0E0,0E0,0E0,0E0,0E0,0E0],"parents":[2147483647,0,0,1,1,2,2,3,3,4,4,5,5,6,6,7,7,8,8,9,9,10,10,11,11,12,12,14,14,19,19,20,20,22,22,23,23,24,24,25,25],"right_children":[2,4,6,8,10,12,14,16,18,20,22,24,26,-1,28,-1,-1,-1,-1,30,32,-1,34,36,38,40,-1,-1,-1,-1,-1,-1,-1,-1,-1,-1,-1,-1,-1,-1,-1],"split_conditions":[1.7780937E-2,1.5434602E-2,6.424939E-1,7.364251E-3,2.395987E-1,1.3313956E-2,2.24576E-6,7.332487E-1,2.9062653E-1,2.0381521E1,1.9033918E1,2.854101E-1,8.2501085E6,-5.8083534E-3,9.223746E-2,4.9251234E-3,1.8787669E-2,9.447072E-3,-2.692656E-3,1.6448116E1,1.13614105E-1,9.869568E-4,1.0275965E1,1.6302355E1,3.1876006E9,1.3266201E-2,1.0308169E-2,-5.059062E-3,7.112482E-3,-2.9329287E-3,1.0574047E-2,-2.4208706E-3,3.5391434E-3,5.7203523E-3,1.721821E-2,-1.8170734E-3,-5.7004476E-3,6.935945E-3,-3.563116E-3,3.7700827E-3,-5.1520247E-4],"split_indices":[72,109,196,83,196,207,182,110,13,31,31,104,57,0,207,0,0,0,0,31,138,0,206,31,176,174,0,0,0,0,0,0,0,0,0,0,0,0,0,0,0],"split_type":[0,0,0,0,0,0,0,0,0,0,0,0,0,0,0,0,0,0,0,0,0,0,0,0,0,0,0,0,0,0,0,0,0,0,0,0,0,0,0,0,0],"sum_hessian":[2.988351E2,1.0757729E2,1.9125781E2,3.244285E1,7.513445E1,1.6413423E2,2.7123585E1,1.8935095E1,1.3507752E1,5.735656E1,1.7777891E1,2.7939253E1,1.3619498E2,1.5894238E1,1.1229346E1,6.590731E0,1.2344363E1,6.946996E0,6.560756E0,2.3630716E1,3.372584E1,5.2219906E0,1.2555901E1,1.7049105E1,1.0890147E1,1.2843344E2,7.7615314E0,5.1078606E0,6.1214857E0,7.1458445E0,1.6484873E1,1.8950954E1,1.4774888E1,5.260451E0,7.2954493E0,5.1381955E0,1.191091E1,5.4616084E0,5.428539E0,8.11735E1,4.7259945E1],"tree_param":{"num_deleted":"0","num_feature":"220","num_nodes":"41","size_leaf_vector":"1"}},{"base_weights":[-3.96144E-4,-2.8946994E-2,4.7823477E-1,-2.1850802E-1,3.9030243E-2,-2.022742E-3,8.318934E-1,-1.185637E-1,-5.7865414E-3,-1.974084E-1,1.190265E-1,1.23706125E-2,2.7282625E-3,6.050214E-3,-1.9785444E-1,1.5201835E-1,-4.2004374E-1,-6.774465E-2,2.7785462E-1,1.2385737E-3,-4.2168195E-3,-1.91205E-3,6.4580026E-3,6.226472E-4,-5.5757696E-3,4.5399303E-3,-1.65163E-3,5.308478E-4,5.648471E-3],"categories":[],"categories_nodes":[],"categories_segments":[],"categories_sizes":[],"default_left":[0,0,0,0,0,0,0,0,0,0,0,0,0,0,0,0,0,0,0,0,0,0,0,0,0,0,0,0,0],"id":33,"left_children":[1,3,5,7,9,-1,11,13,-1,15,17,-1,-1,-1,19,21,23,25,27,-1,-1,-1,-1,-1,-1,-1,-1,-1,-1],"loss_changes":[4.0746145E0,3.6947343E0,4.267952E0,2.5857205E0,3.9875326E0,0E0,2.0777884E0,3.5624197E0,0E0,4.2252665E0,4.722275E0,0E0,0E0,0E0,4.085428E0,3.7692327E0,2.2668958E0,3.7593381E0,5.442293E0,0E0,0E0,0E0,0E0,0E0,0E0,0E0,0E0,0E0,0E0],"parents":[2147483647,0,0,1,1,2,2,3,3,4,4,6,6,7,7,9,9,10,10,14,14,15,15,16,16,17,17,18,18],"right_children":[2,4,6,8,10,-1,12,14,-1,16,18,-1,-1,-1,20,22,24,26,28,-1,-1,-1,-1,-1,-1,-1,-1,-1,-1],"split_conditions":[3.46E2,-2.9530488E-2,4.3388373E-1,8.694431E0,2E-1,-2.022742E-3,3.2805712E0,3.9324312E4,-5.7865414E-3,1.3E1,7.7997404E-3,1.23706125E-2,2.7282625E-3,6.050214E-3,2.944254E-1,4.16424E6,-3.5859066E-1,9.013007E-2,1.0051647E0,1.2385737E-3,-4.2168195E-3,-1.91205E-3,6.4580026E-3,6.226472E-4,-5.5757696E-3,4.5399303E-3,-1.65163E-3,5.308478E-4,5.648471E-3],"split_indices":[100,121,96,76,151,0,77,189,0,160,83,0,0,0,13,4,133,163,16,0,0,0,0,0,0,0,0,0,0],"split_type":[0,0,0,0,0,0,0,0,0,0,0,0,0,0,0,0,0,0,0,0,0,0,0,0,0,0,0,0,0],"sum_hessian":[2.994467E2,2.836737E2,1.5772992E1,7.467948E1,2.0899422E2,5.4436426E0,1.03293495E1,5.971486E1,1.4964622E1,5.2147675E1,1.5684654E2,5.1821446E0,5.1472044E0,5.117983E0,5.4596878E1,2.0243488E1,3.1904184E1,7.2056656E1,8.4789894E1,2.2400318E1,3.219656E1,1.2184446E1,8.059042E0,7.039141E0,2.4865044E1,1.0600021E1,6.1456635E1,4.8409462E1,3.6380432E1],"tree_param":{"num_deleted":"0","num_feature":"220","num_nodes":"29","size_leaf_vector":"1"}},{"base_weights":[-1.2382293E-1,6.7863446E-1,-1.8941289E-1,1.0550587E0,-6.622401E-4,-2.1545282E-1,7.1703265E-3,5.6026326E-3,1.4969772E-2,-2.6644078E-1,9.80976E-2,4.331562E-3,-2.9076064E-1,5.75728E-1,-2.1328233E-1,-3.44497E-3,-3.2169974E-4,1.2473436E-2,1.0771863E-3,2.3169406E-3,-5.0684735E-3],"categories":[],"categories_nodes":[],"categories_segments":[],"categories_sizes":[],"default_left":[0,0,0,0,0,0,0,0,0,0,0,0,0,0,0,0,0,0,0,0,0],"id":34,"left_children":[1,3,5,7,-1,9,-1,-1,-1,11,13,-1,15,17,19,-1,-1,-1,-1,-1,-1],"loss_changes":[1.5730425E1,6.4973736E0,6.6138935E0,2.2665596E0,0E0,4.3429155E0,0E0,0E0,0E0,4.056999E0,5.8218703E0,0E0,3.07543E0,4.578116E0,3.2346485E0,0E0,0E0,0E0,0E0,0E0,0E0],"parents":[2147483647,0,0,1,1,2,2,3,3,5,5,9,9,10,10,12,12,13,13,14,14],"right_children":[2,4,6,8,-1,10,-1,-1,-1,12,14,-1,16,18,20,-1,-1,-1,-1,-1,-1],"split_conditions":[9.4193363E-1,5.8436E0,1.10915E13,3.8050357E-1,-6.622401E-4,1.2944114E1,7.1703265E-3,5.6026326E-3,1.4969772E-2,-1.9040424E-2,3.0842468E1,4.331562E-3,2.4747427E-1,4.758977E-2,1.539914E-1,-3.44497E-3,-3.2169974E-4,1.2473436E-2,1.0771863E-3,2.3169406E-3,-5.0684735E-3],"split_indices":[19,77,179,66,0,38,0,0,0,167,31,0,145,145,136,0,0,0,0,0,0],"split_type":[0,0,0,0,0,0,0,0,0,0,0,0,0,0,0,0,0,0,0,0,0],"sum_hessian":[2.963564E2,2.1571362E1,2.7478503E2,1.4142205E1,7.4291553E0,2.6795987E2,6.8251863E0,7.8485913E0,6.2936144E0,2.3088387E2,3.707599E1,7.053608E0,2.2383026E2,1.44236E1,2.2652386E1,1.8472469E2,3.9105583E1,5.151735E0,9.271866E0,8.952537E0,1.369985E1],"tree_param":{"num_deleted":"0","num_feature":"220","num_nodes":"21","size_leaf_vector":"1"}},{"base_weights":[-2.1491967E-1,-3.1406343E-1,1.6158567E-1,-4.0245906E-1,-2.1930322E-2,3.3566767E-1,-3.0325058E-1,-4.2836133E-1,3.0123817E-3,1.7912357E-1,-3.3306146E-1,-1.6734502E-1,5.0479645E-1,-5.6004333E-3,1.2232227E-3,-1.877382E-1,-4.8479268E-1,-1.709252E-2,6.509089E-3,4.9687416E-4,-4.6696052E-1,2.7357617E-3,-5.2577346E-3,2.589005E-1,1.1863098E-2,9.5620315E-4,-4.734925E-3,-5.0668973E-3,-4.8178673E-4,5.8876392E-3,-3.1007093E-3,-1.7334544E-3,-5.6469576E-3,5.906323E-3,-1.2690001E-3],"categories":[],"categories_nodes":[],"categories_segments":[],"categories_sizes":[],"default_left":[0,0,0,0,0,0,0,0,0,0,0,0,0,0,0,0,0,0,0,0,0,0,0,0,0,0,0,0,0,0,0,0,0,0,0],"id":35,"left_children":[1,3,5,7,9,11,13,15,-1,17,19,21,23,-1,-1,25,27,29,-1,-1,31,-1,-1,33,-1,-1,-1,-1,-1,-1,-1,-1,-1,-1,-1],"loss_changes":[1.1479942E1,6.2131557E0,5.2988634E0,3.5304928E0,3.6827288E0,4.144609E0,2.0637577E0,2.2840614E0,0E0,3.3597822E0,1.2531009E0,2.1463234E0,5.550578E0,0E0,0E0,3.0091507E0,1.3037758E0,4.750106E0,0E0,0E0,3.2949734E-1,0E0,0E0,3.6673627E0,0E0,0E0,0E0,0E0,0E0,0E0,0E0,0E0,0E0,0E0,0E0],"parents":[2147483647,0,0,1,1,2,2,3,3,4,4,5,5,6,6,7,7,9,9,10,10,11,11,12,12,15,15,16,16,17,17,20,20,23,23],"right_children":[2,4,6,8,10,12,14,16,-1,18,20,22,24,-1,-1,26,28,30,-1,-1,32,-1,-1,34,-1,-1,-1,-1,-1,-1,-1,-1,-1,-1,-1],"split_conditions":[3.1080848E-1,1.1035662E1,5.484165E-1,1.3567927E-2,4.6120927E-1,1.3333334E-1,1.6132343E-1,1.09E2,3.0123817E-3,7.974959E1,1.8298023E1,8.462424E-2,2.3E1,-5.6004333E-3,1.2232227E-3,8.150098E8,1.288787E0,3.0005025E6,6.509089E-3,4.9687416E-4,2.454525E-6,2.7357617E-3,-5.2577346E-3,-2.6889047E-2,1.1863098E-2,9.5620315E-4,-4.734925E-3,-5.0668973E-3,-4.8178673E-4,5.8876392E-3,-3.1007093E-3,-1.7334544E-3,-5.6469576E-3,5.906323E-3,-1.2690001E-3],"split_indices":[103,75,136,11,177,80,148,100,0,36,30,80,88,0,0,179,216,58,0,0,182,0,0,144,0,0,0,0,0,0,0,0,0,0,0],"split_type":[0,0,0,0,0,0,0,0,0,0,0,0,0,0,0,0,0,0,0,0,0,0,0,0,0,0,0,0,0,0,0,0,0,0,0],"sum_hessian":[3.0477313E2,2.4158809E2,6.318506E1,1.8491522E2,5.6672874E1,4.632811E1,1.685695E1,1.7886479E2,6.050421E0,3.448891E1,2.2183964E1,1.1511268E1,3.481684E1,1.0462704E1,6.394246E0,3.5137512E1,1.4372728E2,2.4889252E1,9.599659E0,5.718834E0,1.646513E1,5.1427035E0,6.3685637E0,2.6707253E1,8.109588E0,1.7801094E1,1.733642E1,1.3649239E2,7.234896E0,7.672407E0,1.7216843E1,5.0601835E0,1.1404946E1,1.421377E1,1.2493483E1],"tree_param":{"num_deleted":"0","num_feature":"220","num_nodes":"35","size_leaf_vector":"1"}},{"base_weights":[-1.5559566E-2,-2.367181E-1,1.005422E-1,-3.2958724E-2,-3.7874395E-1,7.562728E-1,4.0019084E-2,8.510452E-3,-1.8436705E-1,-5.250212E-1,-1.2052091E-1,1.7974415E-3,1.171415E-2,3.06114E-1,-6.410846E-2,7.7768795E-2,-4.74744E-1,-6.013609E-3,-1.0822145E-4,2.5311054E-3,-4.2123443E-1,4.3411054E-2,7.1243984E-1,-1.4414716E-1,4.7614366E-1,4.3513444E-3,-2.7924546E-3,-5.685275E-3,-1.7358863E-3,-1.761681E-3,-5.3758044E-3,5.43515E-3,-2.8721076E-3,1.0231559E-2,5.787164E-5,3.1220384E-3,-2.3233485E-3,1.0250325E-2,-1.0092478E-3],"categories":[],"categories_nodes":[],"categories_segments":[],"categories_sizes":[],"default_left":[0,0,0,0,0,0,0,0,0,0,0,0,0,0,0,0,0,0,0,0,0,0,0,0,0,0,0,0,0,0,0,0,0,0,0,0,0,0,0],"id":36,"left_children":[1,3,5,7,9,11,13,-1,15,17,19,-1,-1,21,23,25,27,-1,-1,-1,29,31,33,35,37,-1,-1,-1,-1,-1,-1,-1,-1,-1,-1,-1,-1,-1,-1],"loss_changes":[7.651818E0,2.9178352E0,7.623724E0,5.9204173E0,2.1430979E0,3.5485573E0,5.020019E0,0E0,2.977323E0,1.4174433E0,2.7398283E0,0E0,0E0,5.3326473E0,5.6411953E0,2.778882E0,3.468275E-1,0E0,0E0,0E0,2.1672869E-1,5.4995046E0,4.2373323E0,4.646011E0,5.5169244E0,0E0,0E0,0E0,0E0,0E0,0E0,0E0,0E0,0E0,0E0,0E0,0E0,0E0,0E0],"parents":[2147483647,0,0,1,1,2,2,3,3,4,4,5,5,6,6,8,8,9,9,10,10,13,13,14,14,15,15,16,16,20,20,21,21,22,22,23,23,24,24],"right_children":[2,4,6,8,10,12,14,-1,16,18,20,-1,-1,22,24,26,28,-1,-1,-1,30,32,34,36,38,-1,-1,-1,-1,-1,-1,-1,-1,-1,-1,-1,-1,-1,-1],"split_conditions":[-4.1477927E-3,-1.18780464E-1,1.2128003E-4,4.9741822E-1,3.286799E-9,3.1241153E-3,8.694763E-1,8.510452E-3,1.0277445E0,1.5209799E0,4.4057612E0,1.7974415E-3,1.171415E-2,3.7320745E6,1.0412725E1,-5.090948E-1,-2.241917E-2,-6.013609E-3,-1.0822145E-4,2.5311054E-3,9.757968E2,7.37749E-1,2.3709831E0,-1.2223894E-3,1.3165307E0,4.3513444E-3,-2.7924546E-3,-5.685275E-3,-1.7358863E-3,-1.761681E-3,-5.3758044E-3,5.43515E-3,-2.8721076E-3,1.0231559E-2,5.787164E-5,3.1220384E-3,-2.3233485E-3,1.0250325E-2,-1.0092478E-3],"split_indices":[5,144,85,205,173,194,205,0,110,114,77,0,0,57,77,129,147,0,0,0,24,111,203,167,56,0,0,0,0,0,0,0,0,0,0,0,0,0,0],"split_type":[0,0,0,0,0,0,0,0,0,0,0,0,0,0,0,0,0,0,0,0,0,0,0,0,0,0,0,0,0,0,0,0,0,0,0,0,0,0,0],"sum_hessian":[2.9554672E2,1.0168075E2,1.9386597E2,4.2559017E1,5.912173E1,1.52706E1,1.7859537E2,5.451116E0,3.7107903E1,3.6835064E1,2.2286667E1,7.093441E0,8.17716E0,4.995567E1,1.286397E2,1.9706127E1,1.7401775E1,3.1756416E1,5.0786495E0,9.860686E0,1.242598E1,3.1161613E1,1.8794056E1,1.12840576E2,1.579912E1,9.878844E0,9.827283E0,1.233929E1,5.062485E0,5.086233E0,7.3397465E0,1.2266161E1,1.8895452E1,1.2644743E1,6.1493125E0,1.767943E1,9.516115E1,7.7882257E0,8.010894E0],"tree_param":{"num_deleted":"0","num_feature":"220","num_nodes":"39","size_leaf_vector":"1"}},{"base_weights":[2.793606E-1,7.284344E-1,1.3631599E-1,1.5845948E-1,9.017319E-1,4.5775634E-1,2.7880039E-2,7.3677436E-3,-4.484783E-3,1.3589023E0,5.8682156E-1,1.609059E-1,8.215415E-1,-2.7209818E-3,8.363679E-3,1.5636634E0,5.7849484E-3,7.827077E-2,1.0428555E0,-3.3754906E-1,4.5079923E-1,1.168929E0,2.815977E-1,1.6918722E-1,-1.22610636E-1,8.803888E-3,1.8536318E-2,-5.309163E-3,4.877905E-3,3.3215533E-3,1.6738823E-2,-5.328527E-3,-3.0974264E-4,-2.2225291E-3,8.788443E-3,1.6513035E-2,4.0042857E-3,-1.9435033E-3,7.2699073E-3,4.5619956E-3,-8.032293E-4,-3.5815793E-3,8.420426E-4],"categories":[],"categories_nodes":[],"categories_segments":[],"categories_sizes":[],"default_left":[0,0,0,0,0,0,0,0,0,0,0,0,0,0,0,0,0,0,0,0,0,0,0,0,0,0,0,0,0,0,0,0,0,0,0,0,0,0,0,0,0,0,0],"id":37,"left_children":[1,3,5,7,9,11,13,-1,-1,15,17,19,21,23,-1,25,-1,27,29,31,33,35,37,39,41,-1,-1,-1,-1,-1,-1,-1,-1,-1,-1,-1,-1,-1,-1,-1,-1,-1,-1],"loss_changes":[1.9381117E1,6.980152E0,8.039659E0,6.821758E0,7.037838E0,6.0684996E0,4.417364E0,0E0,0E0,2.3743172E0,7.9037857E0,5.0062723E0,4.3678284E0,3.511097E0,0E0,1.3890686E0,0E0,4.6684027E0,7.4161263E0,6.91656E-1,6.5257583E0,4.797323E0,2.6400893E0,5.069299E0,4.969306E0,0E0,0E0,0E0,0E0,0E0,0E0,0E0,0E0,0E0,0E0,0E0,0E0,0E0,0E0,0E0,0E0,0E0,0E0],"parents":[2147483647,0,0,1,1,2,2,3,3,4,4,5,5,6,6,9,9,10,10,11,11,12,12,13,13,15,15,17,17,18,18,19,19,20,20,21,21,22,22,23,23,24,24],"right_children":[2,4,6,8,10,12,14,-1,-1,16,18,20,22,24,-1,26,-1,28,30,32,34,36,38,40,42,-1,-1,-1,-1,-1,-1,-1,-1,-1,-1,-1,-1,-1,-1,-1,-1,-1,-1],"split_conditions":[1.981999E-2,-5.560522E-1,1.0178905E0,-1.3686086E-2,3.8871108E-4,5.0183167E-3,2.003782E0,7.3677436E-3,-4.484783E-3,4.884167E-4,1.6343725E-1,4.0420022E8,1.1755409E0,-1.3898531E-2,8.363679E-3,-5.1028943E-3,5.7849484E-3,-1.5835297E-1,1.6509823E5,2.4906056E-1,7.0267725E-10,8.654701E-3,2.0425065E-1,1.2326962E-2,2.5429414E-3,8.803888E-3,1.8536318E-2,-5.309163E-3,4.877905E-3,3.3215533E-3,1.6738823E-2,-5.328527E-3,-3.0974264E-4,-2.2225291E-3,8.788443E-3,1.6513035E-2,4.0042857E-3,-1.9435033E-3,7.2699073E-3,4.5619956E-3,-8.032293E-4,-3.5815793E-3,8.420426E-4],"split_indices":[112,133,14,147,167,85,67,0,0,210,102,178,139,198,0,20,0,144,175,104,172,134,163,174,6,0,0,0,0,0,0,0,0,0,0,0,0,0,0,0,0,0,0],"split_type":[0,0,0,0,0,0,0,0,0,0,0,0,0,0,0,0,0,0,0,0,0,0,0,0,0,0,0,0,0,0,0,0,0,0,0,0,0,0,0,0,0,0,0],"sum_hessian":[3.036019E2,7.2186966E1,2.3141495E2,1.7411623E1,5.477534E1,5.7329E1,1.7408595E2,8.890877E0,8.520746E0,2.0859642E1,3.39157E1,3.2514336E1,2.4814661E1,1.6857826E2,5.507689E0,1.5627546E1,5.232096E0,1.6692173E1,1.7223526E1,1.1768952E1,2.0745384E1,1.4278249E1,1.0536413E1,6.8751335E1,9.982693E1,5.961361E0,9.666184E0,6.492915E0,1.0199257E1,8.892785E0,8.330742E0,6.5390058E0,5.2299466E0,8.160727E0,1.2584658E1,7.986439E0,6.291809E0,5.257432E0,5.2789807E0,3.1774E1,3.6977333E1,4.655541E1,5.3271515E1],"tree_param":{"num_deleted":"0","num_feature":"220","num_nodes":"43","size_leaf_vector":"1"}},{"base_weights":[4.241532E-2,1.1015085E-2,6.4393604E-1,-1.293211E-1,1.4872293E-1,-4.8324474E-4,1.0741133E-2,4.9688292E-1,-1.9682528E-1,-1.1883687E-1,3.8863745E-1,1.1347019E-2,-1.4237665E-3,-3.07286E-1,-3.0992986E-3,-4.7145703E-1,4.8284335E-3,1.9492233E-1,8.949699E-1,-3.504973E-3,2.3220377E-3,-1.506237E-3,6.1046663E-3,-1.7211555E-3,-5.667704E-3,-1.78955E-3,7.382606E-3,-1.10308836E-4,6.066055E-3,1.3624087E-2,3.3279945E-4],"categories":[],"categories_nodes":[],"categories_segments":[],"categories_sizes":[],"default_left":[0,0,0,0,0,0,0,0,0,0,0,0,0,0,0,0,0,0,0,0,0,0,0,0,0,0,0,0,0,0,0],"id":38,"left_children":[1,3,5,7,9,-1,-1,11,13,15,17,-1,-1,19,21,23,25,27,29,-1,-1,-1,-1,-1,-1,-1,-1,-1,-1,-1,-1],"loss_changes":[5.543254E0,5.5047445E0,4.494955E0,6.0157537E0,9.319349E0,0E0,0E0,5.900472E0,2.704464E0,3.0432372E0,7.2077436E0,0E0,0E0,1.9838595E0,4.370413E0,3.435173E-1,7.145625E0,4.8704762E0,8.158014E0,0E0,0E0,0E0,0E0,0E0,0E0,0E0,0E0,0E0,0E0,0E0,0E0],"parents":[2147483647,0,0,1,1,2,2,3,3,4,4,7,7,8,8,9,9,10,10,13,13,14,14,15,15,16,16,17,17,18,18],"right_children":[2,4,6,8,10,-1,-1,12,14,16,18,-1,-1,20,22,24,26,28,30,-1,-1,-1,-1,-1,-1,-1,-1,-1,-1,-1,-1],"split_conditions":[3.46E2,9.562066E-3,-3.3774388E-1,-7.3047113E-1,9.976115E-1,-4.8324474E-4,1.0741133E-2,5.82992E-1,1.1284164E-2,-1.2005853E1,2.9574599E-6,1.1347019E-2,-1.4237665E-3,2.9E1,4.866066E-6,-4.278314E-2,4.4046915E-1,5.575165E-1,1.0262855E0,-3.504973E-3,2.3220377E-3,-1.506237E-3,6.1046663E-3,-1.7211555E-3,-5.667704E-3,-1.78955E-3,7.382606E-3,-1.10308836E-4,6.066055E-3,1.3624087E-2,3.3279945E-4],"split_indices":[100,83,136,136,17,0,0,170,20,164,182,0,0,88,182,198,211,177,14,0,0,0,0,0,0,0,0,0,0,0,0],"split_type":[0,0,0,0,0,0,0,0,0,0,0,0,0,0,0,0,0,0,0,0,0,0,0,0,0,0,0,0,0,0,0],"sum_hessian":[2.9632495E2,2.8274957E2,1.3575372E1,1.397089E2,1.430407E2,5.4539056E0,8.121466E0,1.2831844E1,1.26877045E2,6.7665726E1,7.537497E1,6.113513E0,6.718331E0,8.010153E1,4.6775517E1,1.7048832E1,5.061689E1,5.5662E1,1.971297E1,7.46574E1,5.4441285E0,3.8448532E1,8.326984E0,5.04849E0,1.2000341E1,4.097023E1,9.646662E0,3.758807E1,1.8073927E1,1.2328187E1,7.3847837E0],"tree_param":{"num_deleted":"0","num_feature":"220","num_nodes":"31","size_leaf_vector":"1"}},{"base_weights":[-1.1463109E-1,6.4443445E-1,-1.7319395E-1,5.295171E-4,1.2256895E-2,-3.5867435E-1,-1.1761697E-2,-7.416502E-2,-4.5678157E-1,-7.424606E-2,6.3402015E-1,-3.0123192E-1,5.127707E-3,-5.7372E-1,-2.4088107E-1,6.3206987E-3,-4.9314228E-1,1.5384597E-3,1.06334025E-2,2.0284906E-3,-4.739596E-3,-1.6974786E-3,-6.077803E-3,3.2924414E-3,-4.36432E-3,-3.1478773E-3,1.3685903E-3,-1.7464418E-3,-5.775105E-3],"categories":[],"categories_nodes":[],"categories_segments":[],"categories_sizes":[],"default_left":[0,0,0,0,0,0,0,0,0,0,0,0,0,0,0,0,0,0,0,0,0,0,0,0,0,0,0,0,0],"id":39,"left_children":[1,3,5,-1,-1,7,9,11,13,15,17,19,-1,21,23,25,27,-1,-1,-1,-1,-1,-1,-1,-1,-1,-1,-1,-1],"loss_changes":[1.2437349E1,6.692004E0,7.723135E0,0E0,0E0,3.272153E0,5.6388597E0,4.439789E0,2.0281372E0,4.3937364E0,2.2527013E0,2.217439E0,0E0,5.996189E-1,3.867467E0,4.5811534E0,3.8729334E-1,0E0,0E0,0E0,0E0,0E0,0E0,0E0,0E0,0E0,0E0,0E0,0E0],"parents":[2147483647,0,0,1,1,2,2,5,5,6,6,7,7,8,8,9,9,10,10,11,11,13,13,14,14,15,15,16,16],"right_children":[2,4,6,-1,-1,8,10,12,14,16,18,20,-1,22,24,26,28,-1,-1,-1,-1,-1,-1,-1,-1,-1,-1,-1,-1],"split_conditions":[9.405327E-1,-1.1613E-2,3.4535065E6,5.295171E-4,1.2256895E-2,7.8086716E-1,6.8176043E-1,1.9593122E1,2.32815E-2,1.1825391E0,3.1515673E-1,1.6367619E-1,5.127707E-3,6.44831E-1,-3.5200208E-1,-3.6943352E-1,4.75E-1,1.5384597E-3,1.06334025E-2,2.0284906E-3,-4.739596E-3,-1.6974786E-3,-6.077803E-3,3.2924414E-3,-4.36432E-3,-3.1478773E-3,1.3685903E-3,-1.7464418E-3,-5.775105E-3],"split_indices":[19,84,57,0,0,114,219,32,122,133,104,108,0,75,133,137,141,0,0,0,0,0,0,0,0,0,0,0,0],"split_type":[0,0,0,0,0,0,0,0,0,0,0,0,0,0,0,0,0,0,0,0,0,0,0,0,0,0,0,0,0],"sum_hessian":[2.7733548E2,1.9025377E1,2.5831012E2,1.0055789E1,8.969588E0,1.19345146E2,1.3896497E2,3.1313057E1,8.803209E1,1.276534E2,1.1311567E1,2.3052082E1,8.260975E0,5.5727715E1,3.2304375E1,1.0768787E2,1.9965534E1,6.090692E0,5.2208757E0,5.6908436E0,1.7361238E1,5.026823E0,5.070089E1,7.94521E0,2.4359165E1,3.049539E1,7.7192474E1,5.072326E0,1.4893208E1],"tree_param":{"num_deleted":"0","num_feature":"220","num_nodes":"29","size_leaf_vector":"1"}},{"base_weights":[-2.3394454E-1,-3.4165555E-1,1.6647287E-1,-4.1832945E-1,-6.0215835E-2,4.6197806E-2,1.01623535E-2,-1.7477067E-1,-4.8223913E-1,1.8372603E-1,-3.4381542E-1,5.6936044E-1,-1.4809494E-1,1.9951299E-1,-3.6925104E-1,-5.106893E-1,-1.8444945E-4,-2.1228215E-1,6.921715E-1,-5.6833657E-3,-5.1865485E-2,1.1254575E-2,7.250012E-4,2.599206E-1,-4.3415484E-1,7.7749495E-3,-2.0574383E-3,-4.9514323E-3,1.1894725E-3,-1.9784567E-3,-5.4045296E-3,2.1669709E-3,-5.477557E-3,-7.2234607E-4,1.3634473E-2,-5.017188E-3,3.432308E-3,-3.0400972E-3,7.269134E-3,-5.3647994E-3,-1.6639884E-4],"categories":[],"categories_nodes":[],"categories_segments":[],"categories_sizes":[],"default_left":[0,0,0,0,0,0,0,0,0,0,0,0,0,0,0,0,0,0,0,0,0,0,0,0,0,0,0,0,0,0,0,0,0,0,0,0,0,0,0,0,0],"id":40,"left_children":[1,3,5,7,9,11,-1,13,15,17,19,21,23,25,27,29,-1,31,33,-1,35,-1,-1,37,39,-1,-1,-1,-1,-1,-1,-1,-1,-1,-1,-1,-1,-1,-1,-1,-1],"loss_changes":[1.2701616E1,4.91687E0,6.238412E0,2.6718063E0,3.604454E0,5.811922E0,0E0,2.971303E0,1.820694E0,5.803661E0,1.4882884E0,4.0793905E0,4.967087E0,3.4976168E0,1.7294669E0,1.069004E0,0E0,2.4995856E0,6.663121E0,0E0,2.2802143E0,0E0,0E0,4.887989E0,9.986739E-1,0E0,0E0,0E0,0E0,0E0,0E0,0E0,0E0,0E0,0E0,0E0,0E0,0E0,0E0,0E0,0E0],"parents":[2147483647,0,0,1,1,2,2,3,3,4,4,5,5,7,7,8,8,9,9,10,10,11,11,12,12,13,13,14,14,15,15,17,17,18,18,20,20,23,23,24,24],"right_children":[2,4,6,8,10,12,-1,14,16,18,20,22,24,26,28,30,-1,32,34,-1,36,-1,-1,38,40,-1,-1,-1,-1,-1,-1,-1,-1,-1,-1,-1,-1,-1,-1,-1,-1],"split_conditions":[1.3445404E0,1.1035662E1,5.501995E-1,1.09E2,4.2740953E-1,2.8195742E-1,1.01623535E-2,-2.244465E-2,1.5382236E0,3.6488032E-1,6.2662095E-1,-1.1500588E-2,6.778609E-4,1.264513E1,4.8532564E-2,1.0838099E9,-1.8444945E-4,-2.7176034E-1,-4.2342773E-1,-5.6833657E-3,1.9461584E-1,1.1254575E-2,7.250012E-4,3.4398514E-1,6.0288006E-1,7.7749495E-3,-2.0574383E-3,-4.9514323E-3,1.1894725E-3,-1.9784567E-3,-5.4045296E-3,2.1669709E-3,-5.477557E-3,-7.2234607E-4,1.3634473E-2,-5.017188E-3,3.432308E-3,-3.0400972E-3,7.269134E-3,-5.3647994E-3,-1.6639884E-4],"split_indices":[114,75,106,100,177,104,0,188,208,66,177,20,210,71,121,176,0,136,132,0,101,0,0,196,67,0,0,0,0,0,0,0,0,0,0,0,0,0,0,0,0],"split_type":[0,0,0,0,0,0,0,0,0,0,0,0,0,0,0,0,0,0,0,0,0,0,0,0,0,0,0,0,0,0,0,0,0,0,0,0,0,0,0,0,0],"sum_hessian":[2.9177548E2,2.3023854E2,6.153695E1,1.8028183E2,4.9956707E1,5.4933697E1,6.603249E0,3.857448E1,1.4170735E2,2.6855852E1,2.3100855E1,1.4493098E1,4.04406E1,1.3005299E1,2.556918E1,1.3321869E2,8.488662E0,1.5314107E1,1.1541745E1,1.2329646E1,1.0771208E1,6.146923E0,8.346175E0,1.6560986E1,2.3879614E1,5.083452E0,7.921846E0,2.0478878E1,5.0903015E0,1.2529444E1,1.2068925E2,6.745026E0,8.56908E0,5.7441244E0,5.797621E0,5.0287514E0,5.7424564E0,7.5629735E0,8.998013E0,1.8757946E1,5.121669E0],"tree_param":{"num_deleted":"0","num_feature":"220","num_nodes":"41","size_leaf_vector":"1"}},{"base_weights":[-2.086276E-2,-7.764023E-2,3.456004E-1,3.9952257E-1,-1.2859674E-1,1.3837963E-1,1.2417862E-2,-0E0,1.1341822E-2,2.017898E-1,-2.0245686E-1,6.9054824E-1,-2.1126848E-1,4.9455585E-3,-5.4136794E-3,6.239943E-1,-7.409134E-2,2.6879367E-1,-2.586102E-1,1.1966122E-2,1.1704883E-3,-5.6877234E-3,3.2091422E-3,1.4697846E-3,1.085865E-2,4.594072E-3,-3.225887E-3,-1.1526246E-3,1.1298695E-2,9.4157684E-4,-3.0426686E-3],"categories":[],"categories_nodes":[],"categories_segments":[],"categories_sizes":[],"default_left":[0,0,0,0,0,0,0,0,0,0,0,0,0,0,0,0,0,0,0,0,0,0,0,0,0,0,0,0,0,0,0],"id":41,"left_children":[1,3,5,7,9,11,-1,13,-1,15,17,19,21,-1,-1,23,25,27,29,-1,-1,-1,-1,-1,-1,-1,-1,-1,-1,-1,-1],"loss_changes":[6.1557884E0,6.278391E0,7.0507994E0,7.3615475E0,5.7350836E0,6.643727E0,0E0,4.8386993E0,0E0,5.096736E0,5.134873E0,3.5880013E0,4.223657E0,0E0,0E0,3.506297E0,3.6728098E0,7.0723667E0,2.8162413E0,0E0,0E0,0E0,0E0,0E0,0E0,0E0,0E0,0E0,0E0,0E0,0E0],"parents":[2147483647,0,0,1,1,2,2,3,3,4,4,5,5,7,7,9,9,10,10,11,11,12,12,15,15,16,16,17,17,18,18],"right_children":[2,4,6,8,10,12,-1,14,-1,16,18,20,22,-1,-1,24,26,28,30,-1,-1,-1,-1,-1,-1,-1,-1,-1,-1,-1,-1],"split_conditions":[3E0,5.1884437E-1,1.3746679E0,8.410156E-1,1.8604612E-1,1.7800517E0,1.2417862E-2,1.4058337E0,1.1341822E-2,2.4662331E-1,9.933704E-3,3.138708E6,9.216177E1,4.9455585E-3,-5.4136794E-3,1.5024465E-9,-6.2197894E-2,2.830291E-1,8.928138E-7,1.1966122E-2,1.1704883E-3,-5.6877234E-3,3.2091422E-3,1.4697846E-3,1.085865E-2,4.594072E-3,-3.225887E-3,-1.1526246E-3,1.1298695E-2,9.4157684E-4,-3.0426686E-3],"split_indices":[127,60,74,74,78,129,0,139,0,211,207,183,35,0,0,172,145,212,182,0,0,0,0,0,0,0,0,0,0,0,0],"split_type":[0,0,0,0,0,0,0,0,0,0,0,0,0,0,0,0,0,0,0,0,0,0,0,0,0,0,0,0,0,0,0],"sum_hessian":[2.948522E2,2.5621664E2,3.8635563E1,2.387214E1,2.323445E2,3.240801E1,6.2275543E0,1.6063164E1,7.808976E0,4.1887947E1,1.9045654E2,1.2297952E1,2.0110056E1,8.387578E0,7.6755857E0,1.6198559E1,2.5689388E1,1.9685349E1,1.707712E2,5.8632545E0,6.434697E0,1.2100479E1,8.009577E0,8.72362E0,7.474939E0,7.7658153E0,1.7923573E1,1.4132151E1,5.553199E0,1.9196468E1,1.5157474E2],"tree_param":{"num_deleted":"0","num_feature":"220","num_nodes":"31","size_leaf_vector":"1"}},{"base_weights":[3.2870865E-1,6.2685746E-1,9.1951214E-2,8.558519E-1,4.3655148E-1,2.3995139E-1,-2.5780916E-1,1.7083599E-1,1.0257407E0,9.781818E-1,2.5651655E-1,3.528635E-1,-2.7477157E-1,4.151573E-3,-3.463074E-1,7.258148E-3,-2.8202687E-3,1.1526045E0,5.399825E-4,1.3707677E0,5.638614E-4,5.719615E-1,-1.4334338E-2,-9.8947555E-2,5.069873E-1,-5.043281E-3,1.2514128E-3,-4.5487103E-1,2.9561238E-3,5.3987103E-3,1.3393217E-2,7.1126497E-3,1.7378125E-2,-2.337097E-3,8.122362E-3,-3.6257838E-3,2.374093E-3,1.5345068E-3,-5.5059157E-3,6.278588E-3,-2.110956E-3,6.912688E-5,-6.0027037E-3],"categories":[],"categories_nodes":[],"categories_segments":[],"categories_sizes":[],"default_left":[0,0,0,0,0,0,0,0,0,0,0,0,0,0,0,0,0,0,0,0,0,0,0,0,0,0,0,0,0,0,0,0,0,0,0,0,0,0,0,0,0,0,0],"id":42,"left_children":[1,3,5,7,9,11,13,15,17,19,21,23,25,-1,27,-1,-1,29,-1,31,-1,33,35,37,39,-1,-1,41,-1,-1,-1,-1,-1,-1,-1,-1,-1,-1,-1,-1,-1,-1,-1],"loss_changes":[2.1283588E1,5.332718E0,8.882899E0,6.6291275E0,6.9791574E0,7.1070185E0,3.1718066E0,3.5515757E0,5.6551476E0,6.4093437E0,5.0272965E0,7.0129967E0,2.1278286E0,0E0,3.336082E0,0E0,0E0,3.8652878E0,0E0,1.600174E0,0E0,5.480592E0,2.909283E0,3.0830286E0,6.636051E0,0E0,0E0,2.7241802E0,0E0,0E0,0E0,0E0,0E0,0E0,0E0,0E0,0E0,0E0,0E0,0E0,0E0,0E0,0E0],"parents":[2147483647,0,0,1,1,2,2,3,3,4,4,5,5,6,6,7,7,8,8,9,9,10,10,11,11,12,12,14,14,17,17,19,19,21,21,22,22,23,23,24,24,27,27],"right_children":[2,4,6,8,10,12,14,16,18,20,22,24,26,-1,28,-1,-1,30,-1,32,-1,34,36,38,40,-1,-1,42,-1,-1,-1,-1,-1,-1,-1,-1,-1,-1,-1,-1,-1,-1,-1],"split_conditions":[2.2181678E-1,-4.082124E-3,2.1786584E-2,7.239873E-1,4.653569E-3,1.0372698E0,2.2141564E-1,1.5444991E9,2.6940088E-5,3.157608E-2,4.302569E-1,6.066464E-1,3.8011443E-9,4.151573E-3,8.2501085E6,7.258148E-3,-2.8202687E-3,-5E-1,5.399825E-4,9.341697E-4,5.638614E-4,8E0,1.85E2,4.896963E6,4.760939E-9,-5.043281E-3,1.2514128E-3,5.9890004E4,2.9561238E-3,5.3987103E-3,1.3393217E-2,7.1126497E-3,1.7378125E-2,-2.337097E-3,8.122362E-3,-3.6257838E-3,2.374093E-3,1.5345068E-3,-5.5059157E-3,6.278588E-3,-2.110956E-3,6.912688E-5,-6.0027037E-3],"split_indices":[106,198,198,216,83,14,107,176,192,198,217,110,172,0,57,0,0,98,0,194,0,160,100,4,172,0,0,189,0,0,0,0,0,0,0,0,0,0,0,0,0,0,0],"split_type":[0,0,0,0,0,0,0,0,0,0,0,0,0,0,0,0,0,0,0,0,0,0,0,0,0,0,0,0,0,0,0,0,0,