{"learner":{"attributes":{"best_iteration":"14","best_score":"1.0788827997088322","scikit_learn":"{\"_estimator_type\": \"regressor\"}"},"feature_names":[],"feature_types":[],"gradient_booster":{"model":{"gbtree_model_param":{"num_parallel_tree":"1","num_trees":"45"},"iteration_indptr":[0,1,2,3,4,5,6,7,8,9,10,11,12,13,14,15,16,17,18,19,20,21,22,23,24,25,26,27,28,29,30,31,32,33,34,35,36,37,38,39,40,41,42,43,44,45],"tree_info":[0,0,0,0,0,0,0,0,0,0,0,0,0,0,0,0,0,0,0,0,0,0,0,0,0,0,0,0,0,0,0,0,0,0,0,0,0,0,0,0,0,0,0,0,0],"trees":[{"base_weights":[-7.0752267E-6,-4.3354202E-2,3.9869785E0,-1.9183506E-1,4.7820738E-1,3.3168384E-1,1.1602457E0,-2.2804007E-1,5.3266984E-1,5.261931E-1,-1.505666E-1,1.3593788E-1,-1.4930652E-2,-2.463685E-1,4.345932E-1,1.1714003E0,-1.0950613E0,2.994181E-1,1.1277025E0,-1.6402481E-2,-5.8754836E-3,4.932433E-2,6.4473427E-3,1.5602775E-1,3.6959473E-2,-9.395986E-2,-3.5063956E-2,1.0618661E-2,8.439332E-2,1.4734912E-1,4.0534545E-2],"categories":[],"categories_nodes":[],"categories_segments":[],"categories_sizes":[],"default_left":[0,0,0,0,1,0,0,0,0,0,0,0,0,0,0,0,0,0,0,0,0,0,0,0,0,0,0,0,0,0,0],"id":0,"left_children":[1,3,5,7,9,-1,11,13,15,17,-1,-1,-1,19,21,23,25,27,29,-1,-1,-1,-1,-1,-1,-1,-1,-1,-1,-1,-1],"loss_changes":[2.2496864E2,9.996317E1,9.6265015E1,2.6452866E1,4.9226135E1,0E0,1.9243061E1,1.17231865E1,5.1195107E1,3.8122894E1,0E0,0E0,0E0,9.737034E0,4.1470428E0,2.6792946E1,2.747013E0,2.4468988E1,4.1643578E1,0E0,0E0,0E0,0E0,0E0,0E0,0E0,0E0,0E0,0E0,0E0,0E0],"parents":[2147483647,0,0,1,1,2,2,3,3,4,4,6,6,7,7,8,8,9,9,13,13,14,14,15,15,16,16,17,17,18,18],"right_children":[2,4,6,8,10,-1,12,14,16,18,-1,-1,-1,20,22,24,26,28,30,-1,-1,-1,-1,-1,-1,-1,-1,-1,-1,-1,-1],"split_conditions":[6.5538073E0,8.3011043E-1,-7.651579E-1,1.4626331E0,5.2592535E0,3.3168384E-1,1.7825341E-1,1.587521E0,5.326877E-1,2.3369215E0,-1.505666E-1,1.3593788E-1,-1.4930652E-2,2.4879111E-2,-1.5605421E-1,-4.120962E-1,-7.254286E-1,2.7657537E0,-7.30411E-1,-1.6402481E-2,-5.8754836E-3,4.932433E-2,6.4473427E-3,1.5602775E-1,3.6959473E-2,-9.395986E-2,-3.5063956E-2,1.0618661E-2,8.439332E-2,1.4734912E-1,4.0534545E-2],"split_indices":[29,132,141,136,136,0,5,52,52,233,0,0,0,136,136,30,27,136,245,0,0,0,0,0,0,0,0,0,0,0,0],"split_type":[0,0,0,0,0,0,0,0,0,0,0,0,0,0,0,0,0,0,0,0,0,0,0,0,0,0,0,0,0,0,0],"sum_hessian":[1.302E3,1.289E3,1.3E1,1.004E3,2.85E2,6E0,7E0,9.57E2,4.7E1,2.82E2,3E0,3E0,4E0,9.32E2,2.5E1,3.4E1,1.3E1,2.06E2,7.6E1,5.69E2,3.63E2,8E0,1.7E1,5E0,2.9E1,3E0,1E1,1.95E2,1.1E1,1E1,6.6E1],"tree_param":{"num_deleted":"0","num_feature":"255","num_nodes":"31","size_leaf_vector":"1"}},{"base_weights":[3.0058954E-2,3.1534946E0,-2.9097853E-2,1.6082006E0,4.8244605E0,-1.6910341E-1,4.7334638E-1,1.9512168E-1,1.3155597E-1,3.6371312E-1,2.9840016E0,-2.13268E-1,1.1164402E0,3.5470635E-1,1.4310379E0,-2.5028411E-2,4.3351557E-2,7.330497E-2,1.7907616E-1,-2.3157482E-1,3.7834975E-1,2.2933269E-1,4.7618124E-1,-1.6921647E-1,4.957997E-1,2.0319505E0,-8.1938237E-1,-1.579054E-2,-5.0201155E-3,6.463871E-2,-4.6389974E-3,6.0389053E-2,-5.123182E-2,-3.0945439E-2,2.993606E-2,2.721916E-2,-7.1962416E-2,1.4162265E-1,3.0900104E-2,-1.0390842E-1,3.0962458E-2],"categories":[],"categories_nodes":[],"categories_segments":[],"categories_sizes":[],"default_left":[0,0,0,0,0,0,0,0,0,0,0,0,0,0,0,0,0,0,0,0,0,0,0,0,1,0,0,0,0,0,0,0,0,0,0,0,0,0,0,0,0],"id":1,"left_children":[1,3,5,7,9,11,13,15,-1,-1,17,19,21,23,25,-1,-1,-1,-1,27,29,-1,31,33,35,37,39,-1,-1,-1,-1,-1,-1,-1,-1,-1,-1,-1,-1,-1,-1],"loss_changes":[2.3857593E2,5.35692E1,8.9106384E1,1.9440502E1,2.6864136E1,5.64123E1,3.0673107E1,3.7427392E0,0E0,0E0,1.500206E0,1.0459518E1,7.06302E1,1.8375296E1,4.235539E1,0E0,0E0,0E0,0E0,1.0213703E1,1.2733506E1,0E0,3.309779E1,1.8675362E1,1.9026226E1,2.5069344E1,1.4109301E1,0E0,0E0,0E0,0E0,0E0,0E0,0E0,0E0,0E0,0E0,0E0,0E0,0E0,0E0],"parents":[2147483647,0,0,1,1,2,2,3,3,4,4,5,5,6,6,7,7,10,10,11,11,12,12,13,13,14,14,19,19,20,20,22,22,23,23,24,24,25,25,26,26],"right_children":[2,4,6,8,10,12,14,16,-1,-1,18,20,22,24,26,-1,-1,-1,-1,28,30,-1,32,34,36,38,40,-1,-1,-1,-1,-1,-1,-1,-1,-1,-1,-1,-1,-1,-1],"split_conditions":[-2.9204679E0,1E0,8.3011043E-1,2.6661298E0,-2.4092892E-1,1.6303337E0,2.1113076E0,2.0809903E0,1.3155597E-1,3.6371312E-1,-1.9345576E0,1.6851102E0,-5.800411E-1,-1.6881326E-1,3.315618E0,-2.5028411E-2,4.3351557E-2,7.330497E-2,1.7907616E-1,2.4879111E-2,-1.5605421E-1,2.2933269E-1,-3.598359E-2,-2.0059945E-1,2.5859919E0,1.6796486E0,4.020839E0,-1.579054E-2,-5.0201155E-3,6.463871E-2,-4.6389974E-3,6.0389053E-2,-5.123182E-2,-3.0945439E-2,2.993606E-2,2.721916E-2,-7.1962416E-2,1.4162265E-1,3.0900104E-2,-1.0390842E-1,3.0962458E-2],"split_indices":[48,114,132,84,26,136,84,17,0,0,3,52,235,134,18,0,0,0,0,136,136,0,96,118,193,40,32,0,0,0,0,0,0,0,0,0,0,0,0,0,0],"split_type":[0,0,0,0,0,0,0,0,0,0,0,0,0,0,0,0,0,0,0,0,0,0,0,0,0,0,0,0,0,0,0,0,0,0,0,0,0,0,0,0,0],"sum_hessian":[1.288E3,2.3E1,1.265E3,1.3E1,1E1,9.9E2,2.75E2,6E0,7E0,3E0,7E0,9.58E2,3.2E1,2.46E2,2.9E1,3E0,3E0,3E0,4E0,9.3E2,2.8E1,4E0,2.8E1,5.2E1,1.94E2,2.3E1,6E0,5.65E2,3.65E2,9E0,1.9E1,1.9E1,9E0,3.3E1,1.9E1,1.9E2,4E0,1.4E1,9E0,3E0,3E0],"tree_param":{"num_deleted":"0","num_feature":"255","num_nodes":"41","size_leaf_vector":"1"}},{"base_weights":[-9.902951E-4,3.1585593E0,-7.167377E-2,5.71813E0,2.1960342E0,-8.451936E-2,1.9677445E-1,1.4901252E-1,3.5007387E-1,2.5952365E0,-1.1209291E-2,-1.3889404E-1,4.7935367E-1,2.9143E0,3.2258686E-2,-1.743249E-1,7.4615103E-1,1.3781738E0,-3.4852257E-1,7.2733216E-2,1.7182188E-1,-9.556226E-3,3.6786553E-2,-9.478192E-3,4.8106555E-2,3.813676E-2,1.3737275E-1,5.5341113E-2,-5.4424047E-2],"categories":[],"categories_nodes":[],"categories_segments":[],"categories_sizes":[],"default_left":[0,0,1,0,0,0,0,0,0,0,0,1,0,0,0,1,0,0,0,0,0,0,0,0,0,0,0,0,0],"id":2,"left_children":[1,3,5,7,9,11,-1,-1,-1,13,-1,15,17,19,-1,21,23,25,27,-1,-1,-1,-1,-1,-1,-1,-1,-1,-1],"loss_changes":[2.857775E2,5.5633636E1,6.444488E1,2.7312164E0,2.2074394E1,3.8358055E1,0E0,0E0,0E0,9.585495E0,0E0,3.5852264E1,8.243559E1,6.7061157E0,0E0,1.6873032E1,9.151854E0,4.221695E1,6.3662804E1,0E0,0E0,0E0,0E0,0E0,0E0,0E0,0E0,0E0,0E0],"parents":[2147483647,0,0,1,1,2,2,3,3,4,4,5,5,9,9,11,11,12,12,13,13,15,15,16,16,17,17,18,18],"right_children":[2,4,6,8,10,12,-1,-1,-1,14,-1,16,18,20,-1,22,24,26,28,-1,-1,-1,-1,-1,-1,-1,-1,-1,-1],"split_conditions":[-2.9204679E0,4.1771138E-1,1.6152813E1,4.6601045E-1,1.7520525E0,1.4626331E0,1.9677445E-1,1.4901252E-1,3.5007387E-1,2.1370506E0,-1.1209291E-2,1.492516E0,-1.2481616E-1,-1.9719523E0,3.2258686E-2,1.5349963E0,-1.7950578E-2,2.392954E0,2.545892E-1,7.2733216E-2,1.7182188E-1,-9.556226E-3,3.6786553E-2,-9.478192E-3,4.8106555E-2,3.813676E-2,1.3737275E-1,5.5341113E-2,-5.4424047E-2],"split_indices":[48,148,216,5,234,136,0,0,0,88,0,193,193,147,0,244,216,136,52,0,0,0,0,0,0,0,0,0,0],"split_type":[0,0,0,0,0,0,0,0,0,0,0,0,0,0,0,0,0,0,0,0,0,0,0,0,0,0,0,0,0],"sum_hessian":[1.279E3,2.7E1,1.252E3,6E0,2.1E1,1.249E3,3E0,3E0,3E0,1.8E1,3E0,1.14E3,1.09E2,1.5E1,3E0,1.097E3,4.3E1,5.2E1,5.7E1,5E0,1E1,1.078E3,1.9E1,8E0,3.5E1,3.7E1,1.5E1,1.9E1,3.8E1],"tree_param":{"num_deleted":"0","num_feature":"255","num_nodes":"29","size_leaf_vector":"1"}},{"base_weights":[1.1726994E-2,2.9933224E0,-5.104803E-2,3.5278623E0,-4.6862345E-2,-1.7347275E-1,3.8889116E-1,2.6049201E0,2.9229343E-1,-1.945246E-1,4.4818884E-1,1.3840467E0,2.9792824E-1,1.4455496E-1,6.026994E-2,5.2372437E-2,-2.0214087E-1,2.2629118E0,-2.1903896E-1,1.6116695E-1,3.716477E-1,3.4911153E-1,-9.423789E-2,-1.0911333E-2,1.4342074E-2,4.4440445E-2,1.866669E-1,3.31426E-2,-5.4588653E-2,3.768764E-2,-2.9986713E-2,1.5724469E-2,1.1960315E-1],"categories":[],"categories_nodes":[],"categories_segments":[],"categories_sizes":[],"default_left":[0,0,0,0,0,0,0,0,0,0,0,0,1,0,0,0,0,0,0,0,0,0,0,0,0,0,0,0,0,0,0,0,0],"id":3,"left_children":[1,3,5,7,-1,9,11,13,-1,15,17,19,21,-1,-1,-1,23,25,27,-1,29,31,-1,-1,-1,-1,-1,-1,-1,-1,-1,-1,-1],"loss_changes":[2.4507787E2,6.0293777E1,6.903985E1,3.5272156E1,0E0,1.3188219E1,2.4675163E1,3.7151947E0,0E0,9.312084E0,4.0657562E1,4.12708E1,2.9215704E1,0E0,0E0,0E0,7.6539803E0,1.4404213E1,2.0007984E1,0E0,6.406174E0,1.6801373E1,0E0,0E0,0E0,0E0,0E0,0E0,0E0,0E0,0E0,0E0,0E0],"parents":[2147483647,0,0,1,1,2,2,3,3,5,5,6,6,7,7,9,9,10,10,11,11,12,12,16,16,17,17,18,18,20,20,21,21],"right_children":[2,4,6,8,-1,10,12,14,-1,16,18,20,22,-1,-1,-1,24,26,28,-1,30,32,-1,-1,-1,-1,-1,-1,-1,-1,-1,-1,-1],"split_conditions":[-2.9204679E0,7.3333335E-1,8.3011043E-1,8.677445E0,-4.6862345E-2,1.6303337E0,-3.0637274E0,-3.7785426E-2,2.9229343E-1,-8.5616165E-1,2.5576118E-1,-1.8968645E0,4.1387086E0,1.4455496E-1,6.026994E-2,5.2372437E-2,1.587521E0,-4.537178E-1,-3.95904E0,1.6116695E-1,7.2698677E-1,3.8746777E0,-9.423789E-2,-1.0911333E-2,1.4342074E-2,4.4440445E-2,1.866669E-1,3.31426E-2,-5.4588653E-2,3.768764E-2,-2.9986713E-2,1.5724469E-2,1.1960315E-1],"split_indices":[48,161,132,72,0,136,41,91,0,107,83,2,136,0,0,0,52,0,192,0,118,116,0,0,0,0,0,0,0,0,0,0,0],"split_type":[0,0,0,0,0,0,0,0,0,0,0,0,0,0,0,0,0,0,0,0,0,0,0,0,0,0,0,0,0,0,0,0,0],"sum_hessian":[1.306E3,2.6E1,1.28E3,2.3E1,3E0,1.002E3,2.78E2,1.8E1,5E0,9.7E2,3.2E1,2.2E1,2.56E2,1.4E1,4E0,5E0,9.65E2,8E0,2.4E1,7E0,1.5E1,2.51E2,5E0,9.35E2,3E1,5E0,3E0,1.2E1,1.2E1,1.1E1,4E0,2.48E2,3E0],"tree_param":{"num_deleted":"0","num_feature":"255","num_nodes":"33","size_leaf_vector":"1"}},{"base_weights":[2.7497862E-2,-4.5769956E-2,1.9776527E0,-1.1648454E-1,5.150134E-1,4.396754E0,1.3661253E0,-1.5504351E-1,1.1853958E0,1.1173166E0,-4.9286765E-1,1.1159982E-1,3.259851E-1,1.746298E0,-6.06992E-1,-2.1430413E-1,8.252817E-2,2.4697474E-1,1.5375181E0,1.2807565E0,-9.425946E-1,-6.9233334E-1,1.049335E-1,2.0605373E0,-0E0,-7.002878E-2,1.5666982E-2,-1.1508203E-2,1.8598322E-2,1.4375972E-2,-5.299087E-3,2.8790524E-2,-8.851158E-3,-1.0131363E-2,9.068357E-2,4.624517E-2,1.342297E-1,-7.877097E-3,-7.334993E-2,6.779396E-2,-4.5104414E-2,1.4166717E-1,6.487994E-2],"categories":[],"categories_nodes":[],"categories_segments":[],"categories_sizes":[],"default_left":[0,0,0,0,1,0,0,0,0,1,0,0,0,0,0,0,1,0,0,1,0,0,0,0,0,0,0,0,0,0,0,0,0,0,0,0,0,0,0,0,0,0,0],"id":4,"left_children":[1,3,5,7,9,11,13,15,17,19,21,-1,-1,23,25,27,29,31,33,35,37,39,-1,41,-1,-1,-1,-1,-1,-1,-1,-1,-1,-1,-1,-1,-1,-1,-1,-1,-1,-1,-1],"loss_changes":[1.8546082E2,4.9589596E1,6.2946487E1,5.585202E1,8.560013E1,2.5933899E1,3.042881E1,1.52358E1,1.0015869E1,3.0868134E1,2.8709253E1,0E0,0E0,1.8247421E1,5.660101E0,8.114384E0,8.39549E0,1.5360674E0,1.1581177E1,3.8119995E1,2.488225E0,2.2658878E1,0E0,1.2419258E1,0E0,0E0,0E0,0E0,0E0,0E0,0E0,0E0,0E0,0E0,0E0,0E0,0E0,0E0,0E0,0E0,0E0,0E0,0E0],"parents":[2147483647,0,0,1,1,2,2,3,3,4,4,5,5,6,6,7,7,8,8,9,9,10,10,13,13,14,14,15,15,16,16,17,17,18,18,19,19,20,20,21,21,23,23],"right_children":[2,4,6,8,10,12,14,16,18,20,22,-1,-1,24,26,28,30,32,34,36,38,40,-1,42,-1,-1,-1,-1,-1,-1,-1,-1,-1,-1,-1,-1,-1,-1,-1,-1,-1,-1,-1],"split_conditions":[4.069764E0,1.1966194E0,-2.1406911E-1,4.2518053E0,1.2729783E-1,9.032113E-1,5.1769745E-1,4.565855E-1,6.913859E-1,1.9060942E0,4.7646575E0,1.1159982E-1,3.259851E-1,5.3258556E-1,6.9200337E-1,1.5377778E0,-2.509306E-1,1.7269347E0,-9.710318E-2,2.7657537E0,7.0240635E-1,-3.902735E-1,1.049335E-1,1.778561E-2,-0E0,-7.002878E-2,1.5666982E-2,-1.1508203E-2,1.8598322E-2,1.4375972E-2,-5.299087E-3,2.8790524E-2,-8.851158E-3,-1.0131363E-2,9.068357E-2,4.624517E-2,1.342297E-1,-7.877097E-3,-7.334993E-2,6.779396E-2,-4.5104414E-2,1.4166717E-1,6.487994E-2],"split_indices":[49,136,26,94,0,203,47,33,194,191,133,0,0,130,2,52,248,148,30,136,86,52,0,71,0,0,0,0,0,0,0,0,0,0,0,0,0,0,0,0,0,0,0],"split_type":[0,0,0,0,0,0,0,0,0,0,0,0,0,0,0,0,0,0,0,0,0,0,0,0,0,0,0,0,0,0,0,0,0,0,0,0,0,0,0,0,0,0,0],"sum_hessian":[1.295E3,1.249E3,4.6E1,1.11E3,1.39E2,8E0,3.8E1,1.079E3,3.1E1,8.7E1,5.2E1,5E0,3E0,3.2E1,6E0,8.64E2,2.15E2,9E0,2.2E1,8.1E1,6E0,4.9E1,3E0,2.7E1,5E0,3E0,3E0,8.42E2,2.2E1,1.03E2,1.12E2,5E0,4E0,3E0,1.9E1,6.6E1,1.5E1,3E0,3E0,4E0,4.5E1,1.2E1,1.5E1],"tree_param":{"num_deleted":"0","num_feature":"255","num_nodes":"43","size_leaf_vector":"1"}},{"base_weights":[2.3178926E-2,-3.475529E-2,2.0996797E0,-1.4739038E-1,3.6945668E-1,4.4335938E0,1.1537975E0,-1.9600119E-1,3.8216707E-1,3.2434103E-1,1.1832674E-1,1.0157036E-1,3.2047492E-1,-4.3035915E-1,2.2760525E0,-2.1340781E-1,6.399887E-1,1.9011712E-1,1.6509245E-1,1.4915873E0,2.6059276E-1,6.598176E-1,-1.4003335E-1,2.0756777E-2,2.8534303E0,-1.1453076E-2,1.2425239E-2,6.311436E-2,3.1781904E-3,3.9754502E-2,-3.631152E-2,1.2693249E-1,-1.5546873E-2,1.8376125E-2,-1.1196832E-2,7.686838E-2,-9.259327E-4,6.430278E-2,1.6109411E-1],"categories":[],"categories_nodes":[],"categories_segments":[],"categories_sizes":[],"default_left":[0,0,0,0,1,0,0,0,0,0,0,0,0,0,0,0,0,0,0,0,1,0,0,0,0,0,0,0,0,0,0,0,0,0,0,0,0,0,0],"id":5,"left_children":[1,3,5,7,9,11,13,15,17,19,-1,-1,-1,21,23,25,27,-1,29,31,33,35,-1,-1,37,-1,-1,-1,-1,-1,-1,-1,-1,-1,-1,-1,-1,-1,-1],"loss_changes":[1.5955725E2,5.8718422E1,7.379967E1,2.6030184E1,2.4281311E1,3.3600525E1,4.916545E1,1.3554298E1,6.208235E1,1.9973225E1,0E0,0E0,0E0,3.3070667E1,1.567981E1,6.613182E0,6.6026373E0,0E0,4.6068336E1,2.7435112E1,1.3722845E1,5.537821E0,0E0,0E0,2.3357162E0,0E0,0E0,0E0,0E0,0E0,0E0,0E0,0E0,0E0,0E0,0E0,0E0,0E0,0E0],"parents":[2147483647,0,0,1,1,2,2,3,3,4,4,5,5,6,6,7,7,8,8,9,9,13,13,14,14,15,15,16,16,18,18,19,19,20,20,21,21,24,24],"right_children":[2,4,6,8,10,12,14,16,18,20,-1,-1,-1,22,24,26,28,-1,30,32,34,36,-1,-1,38,-1,-1,-1,-1,-1,-1,-1,-1,-1,-1,-1,-1,-1,-1],"split_conditions":[4.078308E0,8.3011043E-1,-2.4092892E-1,1.0241593E0,1.6152813E1,8.383173E0,-9.3333334E-1,1.6851102E0,-7.344819E-1,-3.3117375E0,1.1832674E-1,1.0157036E-1,3.2047492E-1,2.3998644E0,8.726772E-2,1.3354038E0,2.60999E-1,1.9011712E-1,3.1147286E-2,2.0460327E0,6.5619344E-1,-6.564355E-1,-1.4003335E-1,2.0756777E-2,-3.4095812E-1,-1.1453076E-2,1.2425239E-2,6.311436E-2,3.1781904E-3,3.9754502E-2,-3.631152E-2,1.2693249E-1,-1.5546873E-2,1.8376125E-2,-1.1196832E-2,7.686838E-2,-9.259327E-4,6.430278E-2,1.6109411E-1],"split_indices":[20,132,26,136,216,13,103,52,86,41,0,0,0,220,248,193,136,0,96,17,8,5,0,0,52,0,0,0,0,0,0,0,0,0,0,0,0,0,0],"split_type":[0,0,0,0,0,0,0,0,0,0,0,0,0,0,0,0,0,0,0,0,0,0,0,0,0,0,0,0,0,0,0,0,0,0,0,0,0,0,0],"sum_hessian":[1.323E3,1.288E3,3.5E1,1.008E3,2.8E2,9E0,2.6E1,9.24E2,8.4E1,2.75E2,5E0,5E0,4E0,1.1E1,1.5E1,9.06E2,1.8E1,4E0,8E1,1.3E1,2.62E2,8E0,3E0,4E0,1.1E1,8.77E2,2.9E1,8E0,1E1,4.7E1,3.3E1,8E0,5E0,2.15E2,4.7E1,3E0,5E0,3E0,8E0],"tree_param":{"num_deleted":"0","num_feature":"255","num_nodes":"39","size_leaf_vector":"1"}},{"base_weights":[-4.050934E-3,2.7343464E0,-6.0055867E-2,4.144779E0,1.4170434E0,-1.8442452E-1,1.8481958E-1,2.8111574E-1,1.1359616E-1,1.3565853E-1,-4.3714143E-2,-2.2123334E-1,2.8239065E-1,1.5466987E-1,1.1339646E-1,3.8955804E-2,-5.4316163E-2,-2.3883845E-1,4.2503026E-1,1.0342312E0,-4.9958628E-1,1.7694147E-1,-1.1015419E-1,-9.851047E-3,-1.9804368E-2,4.486944E-2,2.881293E-3,1.7523493E-1,2.7628401E-2,4.0569928E-2,-4.253393E-2,5.7311792E-2,6.5277764E-3],"categories":[],"categories_nodes":[],"categories_segments":[],"categories_sizes":[],"default_left":[0,0,0,0,0,0,1,0,0,0,0,0,0,1,0,0,0,0,0,0,0,0,0,0,0,0,0,0,0,0,0,0,0],"id":6,"left_children":[1,3,5,7,9,11,13,-1,-1,-1,15,17,19,21,-1,-1,-1,23,25,27,29,31,-1,-1,-1,-1,-1,-1,-1,-1,-1,-1,-1],"loss_changes":[1.9896294E2,4.1877625E1,3.880304E1,1.9643646E1,2.8785465E1,1.4575924E1,2.6350372E1,0E0,0E0,0E0,7.7402143E0,9.002884E0,3.7021313E1,2.2451847E1,0E0,0E0,0E0,4.886532E0,3.4972646E0,3.5735546E1,1.4962746E1,1.865152E1,0E0,0E0,0E0,0E0,0E0,0E0,0E0,0E0,0E0,0E0,0E0],"parents":[2147483647,0,0,1,1,2,2,3,3,4,4,5,5,6,6,10,10,11,11,12,12,13,13,17,17,18,18,19,19,20,20,21,21],"right_children":[2,4,6,8,10,12,14,-1,-1,-1,16,18,20,22,-1,-1,-1,24,26,28,30,32,-1,-1,-1,-1,-1,-1,-1,-1,-1,-1,-1],"split_conditions":[-2.9204679E0,-1.6743168E0,3.4557667E-1,4.1771138E-1,-1.1881069E0,1.0241593E0,1.6152813E1,2.8111574E-1,1.1359616E-1,1.3565853E-1,5E-1,1.587521E0,1.2619256E-2,3.4234247E0,1.1339646E-1,3.8955804E-2,-5.4316163E-2,8.958833E-2,-2.1414317E-1,-4.9095857E-1,-2.5503382E-1,-3.3117375E0,-1.1015419E-1,-9.851047E-3,-1.9804368E-2,4.486944E-2,2.881293E-3,1.7523493E-1,2.7628401E-2,4.0569928E-2,-4.253393E-2,5.7311792E-2,6.5277764E-3],"split_indices":[48,97,20,148,143,136,216,0,0,0,56,52,194,193,0,0,0,29,136,83,94,41,0,0,0,0,0,0,0,0,0,0,0],"split_type":[0,0,0,0,0,0,0,0,0,0,0,0,0,0,0,0,0,0,0,0,0,0,0,0,0,0,0,0,0,0,0,0,0],"sum_hessian":[1.297E3,2.5E1,1.272E3,1.1E1,1.4E1,8.44E2,4.28E2,5E0,6E0,7E0,7E0,7.83E2,6.1E1,4.23E2,5E0,4E0,3E0,7.63E2,2E1,3.1E1,3E1,4.2E2,3E0,6.05E2,1.58E2,8E0,1.2E1,4E0,2.7E1,6E0,2.4E1,1.8E1,4.02E2],"tree_param":{"num_deleted":"0","num_feature":"255","num_nodes":"33","size_leaf_vector":"1"}},{"base_weights":[-2.0852701E-3,2.2678244E0,-4.2821903E-2,2.2029634E-1,1.4235779E0,-1.4800505E-1,2.9788E-1,-4.3137934E-2,1.9450291E0,5.7799775E-2,-1.559641E-1,-7.143987E-2,3.319813E-1,2.325807E0,1.4571885E-2,5.6714946E-1,-1.694642E-1,2.9046157E-1,1.343472E-1,7.056883E-2,1.4941709E-1,5.0330795E-2,-4.775526E-3,-9.3675695E-2,-8.103008E-3,2.4767105E-2,-1.1432407E-3],"categories":[],"categories_nodes":[],"categories_segments":[],"categories_sizes":[],"default_left":[0,0,0,0,0,0,0,0,0,0,0,0,0,0,0,0,0,1,0,0,0,0,0,0,0,0,0],"id":7,"left_children":[1,3,5,-1,7,9,11,-1,13,-1,15,-1,17,19,-1,21,23,25,-1,-1,-1,-1,-1,-1,-1,-1,-1],"loss_changes":[1.2063845E2,3.4661842E1,4.604265E1,0E0,2.3246151E1,1.0272089E1,1.8205875E1,0E0,8.505215E0,0E0,9.593908E0,0E0,2.8059464E1,2.6124573E0,0E0,5.4291553E0,1.1604992E1,1.893175E1,0E0,0E0,0E0,0E0,0E0,0E0,0E0,0E0,0E0],"parents":[2147483647,0,0,1,1,2,2,4,4,5,5,6,6,8,8,10,10,12,12,13,13,15,15,16,16,17,17],"right_children":[2,4,6,-1,8,10,12,-1,14,-1,16,-1,18,20,-1,22,24,26,-1,-1,-1,-1,-1,-1,-1,-1,-1],"split_conditions":[-2.9204679E0,-5.455185E-1,7.21841E-1,2.2029634E-1,-7.406373E-1,-7.3829496E-1,-7.86402E0,-4.3137934E-2,1E0,5.7799775E-2,-1.4968208E0,-7.143987E-2,3.8746777E0,-5.739526E-1,1.4571885E-2,1.4250525E0,-1.8982093E0,5E-1,1.343472E-1,7.056883E-2,1.4941709E-1,5.0330795E-2,-4.775526E-3,-9.3675695E-2,-8.103008E-3,2.4767105E-2,-1.1432407E-3],"split_indices":[48,154,132,0,27,232,90,0,123,0,75,0,116,199,0,223,8,254,0,0,0,0,0,0,0,0,0],"split_type":[0,0,0,0,0,0,0,0,0,0,0,0,0,0,0,0,0,0,0,0,0,0,0,0,0,0,0],"sum_hessian":[1.305E3,2.2E1,1.283E3,5E0,1.7E1,9.81E2,3.02E2,3E0,1.4E1,5E0,9.76E2,5E0,2.97E2,1.1E1,3E0,1.7E1,9.59E2,2.93E2,4E0,6E0,5E0,1E1,7E0,3E0,9.56E2,1.77E2,1.16E2],"tree_param":{"num_deleted":"0","num_feature":"255","num_nodes":"27","size_leaf_vector":"1"}},{"base_weights":[-4.059872E-3,-3.586856E-2,3.1376202E0,-1.2726124E-1,4.6098694E-1,1.8715924E-1,4.0715184E-2,-1.6099969E-1,2.0304418E-1,5.272505E-1,-1.4463712E-1,-1.7639473E-1,6.281688E-1,2.030591E0,-4.1773655E-2,1.4921721E0,3.2338113E-1,2.9377624E-2,-9.455693E-3,4.5292745E-3,5.009063E-2,3.9382834E-2,2.1472727E-1,2.3987664E-2,-3.6931794E-2,1.1683267E-1,5.586169E-3,1.2769012E-1,1.3266861E-2],"categories":[],"categories_nodes":[],"categories_segments":[],"categories_sizes":[],"default_left":[1,0,0,0,1,0,0,0,0,0,0,0,0,0,1,0,0,0,0,0,0,0,0,0,0,0,0,0,0],"id":8,"left_children":[1,3,5,7,9,-1,-1,11,13,15,-1,17,19,21,23,25,27,-1,-1,-1,-1,-1,-1,-1,-1,-1,-1,-1,-1],"loss_changes":[1.2961497E2,5.8466618E1,1.4786095E1,1.2153149E1,4.5734688E1,0E0,0E0,1.2069128E1,4.547273E1,3.8089355E1,0E0,9.49651E0,3.6164389E0,2.98765E1,3.308917E1,3.913006E1,2.0272287E1,0E0,0E0,0E0,0E0,0E0,0E0,0E0,0E0,0E0,0E0,0E0,0E0],"parents":[2147483647,0,0,1,1,2,2,3,3,4,4,7,7,8,8,9,9,11,11,12,12,13,13,14,14,15,15,16,16],"right_children":[2,4,6,8,10,-1,-1,12,14,16,-1,18,20,22,24,26,28,-1,-1,-1,-1,-1,-1,-1,-1,-1,-1,-1,-1],"split_conditions":[1.6152813E1,1.0517993E0,8.811717E-1,1.0241593E0,3.4234247E0,1.8715924E-1,4.0715184E-2,3.8012974E0,-3.7047178E-1,-8.760761E-3,-1.4463712E-1,-1.0325236E0,-2.0233044E-1,4.2766234E-1,1.9828077E-2,4.6554574E-1,1.0116894E0,2.9377624E-2,-9.455693E-3,4.5292745E-3,5.009063E-2,3.9382834E-2,2.1472727E-1,2.3987664E-2,-3.6931794E-2,1.1683267E-1,5.586169E-3,1.2769012E-1,1.3266861E-2],"split_indices":[216,20,140,136,193,0,0,191,29,100,0,26,203,46,194,130,32,0,0,0,0,0,0,0,0,0,0,0,0],"split_type":[0,0,0,0,0,0,0,0,0,0,0,0,0,0,0,0,0,0,0,0,0,0,0,0,0,0,0,0,0],"sum_hessian":[1.298E3,1.286E3,1.2E1,1.087E3,1.99E2,9E0,3E0,9.87E2,1E2,1.96E2,3E0,9.69E2,1.8E1,1.1E1,8.9E1,3.3E1,1.63E2,1.5E1,9.54E2,8E0,1E1,8E0,3E0,5.1E1,3.8E1,2E1,1.3E1,3E0,1.6E2],"tree_param":{"num_deleted":"0","num_feature":"255","num_nodes":"29","size_leaf_vector":"1"}},{"base_weights":[1.9213493E-3,2.669366E0,-2.7199954E-2,1.056644E0,4.116853E0,-6.722053E-2,8.4623563E-1,2.2666983E-2,6.539793E-2,2.565763E-1,1.0239836E-1,-5.758364E-2,-1.4835383E-1,5.704657E-1,1.7624979E-1,-1.0168087E-1,4.9001572E-1,1.2990665E0,1.0857222E-1,-7.2542797E-3,2.9969832E-2,5.0486583E-2,-3.559178E-2,9.671583E-2,2.971894E-2,-4.4147912E-3,5.1293053E-2],"categories":[],"categories_nodes":[],"categories_segments":[],"categories_sizes":[],"default_left":[0,0,0,0,0,0,1,0,0,0,0,0,0,0,0,0,0,0,1,0,0,0,0,0,0,0,0],"id":9,"left_children":[1,3,5,7,9,11,13,-1,-1,-1,-1,15,-1,17,-1,19,21,23,25,-1,-1,-1,-1,-1,-1,-1,-1],"loss_changes":[1.00698685E2,2.7814125E1,4.4686935E1,4.438734E-1,3.4675522E0,3.3732094E1,3.894798E1,0E0,0E0,0E0,0E0,2.9495222E1,0E0,1.7218063E1,0E0,3.4457947E1,5.7589096E1,7.5504723E0,6.1436367E0,0E0,0E0,0E0,0E0,0E0,0E0,0E0,0E0],"parents":[2147483647,0,0,1,1,2,2,3,3,4,4,5,5,6,6,11,11,13,13,15,15,16,16,17,17,18,18],"right_children":[2,4,6,8,10,12,14,-1,-1,-1,-1,16,-1,18,-1,20,22,24,26,-1,-1,-1,-1,-1,-1,-1,-1],"split_conditions":[-2.8443327E0,5.2592535E0,2.2633982E0,-3.4579945E0,2.0116076E0,2.4966404E0,2.6088888E1,2.2666983E-2,6.539793E-2,2.565763E-1,1.0239836E-1,1.4626331E0,-1.4835383E-1,0E0,1.7624979E-1,3.34624E0,7.853598E-1,7.1026343E-1,1.8577567E0,-7.2542797E-3,2.9969832E-2,5.0486583E-2,-3.559178E-2,9.671583E-2,2.971894E-2,-4.4147912E-3,5.1293053E-2],"split_indices":[0,136,224,9,134,34,94,0,0,0,0,136,0,218,0,94,191,226,37,0,0,0,0,0,0,0,0],"split_type":[0,0,0,0,0,0,0,0,0,0,0,0,0,0,0,0,0,0,0,0,0,0,0,0,0,0,0],"sum_hessian":[1.291E3,1.3E1,1.278E3,7E0,6E0,1.223E3,5.5E1,3E0,4E0,3E0,3E0,1.22E3,3E0,5.1E1,4E0,1.13E3,9E1,1.9E1,3.2E1,1.065E3,6.5E1,6.3E1,2.7E1,9E0,1E1,2.7E1,5E0],"tree_param":{"num_deleted":"0","num_feature":"255","num_nodes":"27","size_leaf_vector":"1"}},{"base_weights":[-1.471851E-2,-8.362753E-2,9.115431E-1,-1.0702435E-1,1.0265986E0,1.3851186E0,-1.289129E-1,-1.18768334E-1,1.6260918E0,2.2141674E0,-6.7704976E-1,2.3908138E0,8.092547E-1,3.5907942E-1,-1.6468173E-1,-1.5839994E-1,1.3608867E-1,2.5223969E-2,1.0890818E-1,2.9989133E0,1.2446352E-3,-5.9716206E-2,-1.513357E-3,1.3563395E0,3.4865494E0,-1.8868186E-1,1.3373953E0,1.1490709E0,-2.0023216E-1,4.116698E-2,-8.598191E-3,-5.111852E-3,1.9625826E-2,9.924558E-2,1.8993668E-1,-1.5267238E-2,9.4768964E-2,1.15419425E-1,2.3258467E-1,2.0699961E-2,-3.9013885E-2,1.3403873E-1,4.1057743E-2,9.0254135E-2,2.5102613E-2,-2.9220266E-2,2.603953E-2],"categories":[],"categories_nodes":[],"categories_segments":[],"categories_sizes":[],"default_left":[0,0,0,0,0,0,1,0,0,0,0,1,0,0,0,0,0,0,0,0,0,0,0,0,0,0,0,0,0,0,0,0,0,0,0,0,0,0,0,0,0,0,0,0,0,0,0],"id":10,"left_children":[1,3,5,7,9,11,13,15,17,19,21,23,25,27,-1,29,31,-1,-1,33,-1,-1,-1,35,37,39,41,43,45,-1,-1,-1,-1,-1,-1,-1,-1,-1,-1,-1,-1,-1,-1,-1,-1,-1,-1],"loss_changes":[8.296956E1,3.1474558E1,4.4650276E1,2.4202232E1,5.2232807E1,3.3652122E1,4.626257E1,1.1942249E1,3.5865803E0,2.5393333E1,3.521597E0,1.9723991E1,2.1976294E1,1.1813101E1,0E0,1.36856E1,9.7861805E0,0E0,0E0,8.026886E-1,0E0,0E0,0E0,1.2382027E1,2.2933502E0,5.707816E0,1.6173153E1,3.532011E0,4.742676E0,0E0,0E0,0E0,0E0,0E0,0E0,0E0,0E0,0E0,0E0,0E0,0E0,0E0,0E0,0E0,0E0,0E0,0E0],"parents":[2147483647,0,0,1,1,2,2,3,3,4,4,5,5,6,6,7,7,8,8,9,9,10,10,11,11,12,12,13,13,15,15,16,16,19,19,23,23,24,24,25,25,26,26,27,27,28,28],"right_children":[2,4,6,8,10,12,14,16,18,20,22,24,26,28,-1,30,32,-1,-1,34,-1,-1,-1,36,38,40,42,44,46,-1,-1,-1,-1,-1,-1,-1,-1,-1,-1,-1,-1,-1,-1,-1,-1,-1,-1],"split_conditions":[2.3369215E0,2.7657537E0,1.6908145E-1,2.6445293E0,2.5058381E-2,-9.261462E-1,5.2592535E0,8.255447E-1,-2.1648204E0,-6.984336E-2,1.2422793E0,-1.3855636E0,-3.082627E-1,4.5426875E-1,-1.6468173E-1,-1.2036794E0,3.5864165E-1,2.5223969E-2,1.0890818E-1,-8.9764035E-1,1.2446352E-3,-5.9716206E-2,-1.513357E-3,-5.714779E-1,8.383173E0,1.1151513E0,0E0,1.9838949E-1,2.0203216E0,4.116698E-2,-8.598191E-3,-5.111852E-3,1.9625826E-2,9.924558E-2,1.8993668E-1,-1.5267238E-2,9.4768964E-2,1.15419425E-1,2.3258467E-1,2.0699961E-2,-3.9013885E-2,1.3403873E-1,4.1057743E-2,9.0254135E-2,2.5102613E-2,-2.9220266E-2,2.603953E-2],"split_indices":[233,136,209,116,191,98,136,5,5,22,30,147,219,7,0,22,31,0,0,9,0,0,0,22,13,189,104,245,191,0,0,0,0,0,0,0,0,0,0,0,0,0,0,0,0,0,0],"split_type":[0,0,0,0,0,0,0,0,0,0,0,0,0,0,0,0,0,0,0,0,0,0,0,0,0,0,0,0,0,0,0,0,0,0,0,0,0,0,0,0,0,0,0,0,0,0,0],"sum_hessian":[1.299E3,1.21E3,8.9E1,1.186E3,2.4E1,6.1E1,2.8E1,1.179E3,7E0,1.4E1,1E1,2.1E1,4E1,2.5E1,3E0,1.021E3,1.58E2,3E0,4E0,1E1,4E0,5E0,5E0,1.2E1,9E0,1.4E1,2.6E1,1E1,1.5E1,1.3E1,1.008E3,8.2E1,7.6E1,6E0,4E0,3E0,9E0,6E0,3E0,7E0,7E0,6E0,2E1,4E0,6E0,1E1,5E0],"tree_param":{"num_deleted":"0","num_feature":"255","num_nodes":"47","size_leaf_vector":"1"}},{"base_weights":[-3.0092457E-3,1.733568E0,-3.847006E-2,1.7529112E-1,1.2474388E0,-1.3493623E-1,2.439123E-1,1.7856153E0,-2.3431726E-2,4.6435213E-1,-1.4971977E-1,2.0346215E-1,1.1719673E-1,1.1178659E0,1.2827812E-1,7.1617824E-1,-1.9927587E-1,-1.6116735E-1,5.526605E-1,9.6997833E-1,1.3203563E-1,1.6945336E-2,6.775562E-2,4.722305E-2,6.1791497E-3,1.291641E-2,-3.160305E-2,-5.599252E-2,-7.675294E-3,-3.0799932E-3,1.1411382E-1,9.1815375E-2,1.7323624E-2,8.917841E-3,-5.3340267E-2],"categories":[],"categories_nodes":[],"categories_segments":[],"categories_sizes":[],"default_left":[0,0,0,0,0,0,1,0,0,0,1,0,0,0,0,0,0,1,0,0,0,0,0,0,0,0,0,0,0,0,0,0,0,0,0],"id":11,"left_children":[1,3,5,-1,7,9,11,13,-1,15,17,19,-1,21,-1,23,25,27,29,31,33,-1,-1,-1,-1,-1,-1,-1,-1,-1,-1,-1,-1,-1,-1],"loss_changes":[8.0013336E1,1.7551529E1,3.4780697E1,0E0,2.128661E1,8.472403E0,2.6875874E1,5.6174545E0,0E0,4.038141E0,7.5276394E0,1.7281593E1,0E0,1.4041986E0,0E0,2.0762243E0,1.586962E0,6.4287205E0,1.6299173E1,1.3729847E1,1.6427755E1,0E0,0E0,0E0,0E0,0E0,0E0,0E0,0E0,0E0,0E0,0E0,0E0,0E0,0E0],"parents":[2147483647,0,0,1,1,2,2,4,4,5,5,6,6,7,7,9,9,10,10,11,11,13,13,15,15,16,16,17,17,18,18,19,19,20,20],"right_children":[2,4,6,-1,8,10,12,14,-1,16,18,20,-1,22,-1,24,26,28,30,32,34,-1,-1,-1,-1,-1,-1,-1,-1,-1,-1,-1,-1,-1,-1],"split_conditions":[-2.9204679E0,-6.232537E0,6.589515E-1,1.7529112E-1,-5.494275E-3,-1.1208786E0,1.6152813E1,8.09017E-1,-2.3431726E-2,-9.227157E-1,1.6544392E0,-2.5636404E0,1.1719673E-1,-8.5011315E-1,1.2827812E-1,-6.989818E-1,-1.1096643E0,-1.440001E0,1E0,-9.852493E-1,3.3021991E0,1.6945336E-2,6.775562E-2,4.722305E-2,6.1791497E-3,1.291641E-2,-3.160305E-2,-5.599252E-2,-7.675294E-3,-3.0799932E-3,1.1411382E-1,9.1815375E-2,1.7323624E-2,8.917841E-3,-5.3340267E-2],"split_indices":[48,253,132,0,70,197,216,57,0,68,194,41,0,235,0,139,9,4,254,139,32,0,0,0,0,0,0,0,0,0,0,0,0,0,0],"split_type":[0,0,0,0,0,0,0,0,0,0,0,0,0,0,0,0,0,0,0,0,0,0,0,0,0,0,0,0,0,0,0,0,0,0,0],"sum_hessian":[1.3E3,2.5E1,1.275E3,4E0,2.1E1,9.51E2,3.24E2,1.6E1,5E0,2.2E1,9.29E2,3.19E2,5E0,1E1,6E0,1.6E1,6E0,9.15E2,1.4E1,2.6E1,2.93E2,3E0,7E0,1.1E1,5E0,3E0,3E0,6E0,9.09E2,1.1E1,3E0,1E1,1.6E1,2.83E2,1E1],"tree_param":{"num_deleted":"0","num_feature":"255","num_nodes":"35","size_leaf_vector":"1"}},{"base_weights":[-1.9487645E-2,-4.6497677E-2,2.4461792E0,-1.365787E-1,2.7567258E-1,2.1986917E-1,4.2060328E-1,-1.4987537E-1,9.645539E-1,2.2662489E-1,1.2305398E-1,-4.3874472E-2,6.974784E-2,3.975157E-2,-1.5557472E-1,1.5106654E-1,-9.219055E-1,-9.748741E-2,2.6631212E-1,-7.5406446E-3,-6.309498E-2,-7.3388084E-3,-7.207792E-2,4.648436E-2,6.483402E-3],"categories":[],"categories_nodes":[],"categories_segments":[],"categories_sizes":[],"default_left":[1,0,0,0,1,0,0,0,0,0,0,0,0,0,0,0,0,0,0,0,0,0,0,0,0],"id":12,"left_children":[1,3,5,7,9,-1,11,13,15,17,-1,-1,-1,-1,19,-1,21,-1,23,-1,-1,-1,-1,-1,-1],"loss_changes":[8.605123E1,3.7200184E1,5.3001007E1,1.4733789E1,2.918646E1,0E0,1.1394217E1,5.396633E0,4.9555637E1,2.4103811E1,0E0,0E0,0E0,0E0,4.862791E0,0E0,2.4491682E0,0E0,2.4338652E1,0E0,0E0,0E0,0E0,0E0,0E0],"parents":[2147483647,0,0,1,1,2,2,3,3,4,4,6,6,7,7,8,8,9,9,14,14,16,16,18,18],"right_children":[2,4,6,8,10,-1,12,14,16,18,-1,-1,-1,-1,20,-1,22,-1,24,-1,-1,-1,-1,-1,-1],"split_conditions":[6.749131E0,8.3011043E-1,-9.860259E-1,2.392954E0,2.5986001E0,2.1986917E-1,-8.1296986E-1,-1.1161172E0,1.0304518E0,-1.3560395E0,1.2305398E-1,-4.3874472E-2,6.974784E-2,3.975157E-2,1.0907714E0,1.5106654E-1,3.115062E-1,-9.748741E-2,-6.054547E-1,-7.5406446E-3,-6.309498E-2,-7.3388084E-3,-7.207792E-2,4.648436E-2,6.483402E-3],"split_indices":[80,132,7,136,133,0,7,16,220,54,0,0,0,0,99,0,21,0,6,0,0,0,0,0,0],"split_type":[0,0,0,0,0,0,0,0,0,0,0,0,0,0,0,0,0,0,0,0,0,0,0,0,0],"sum_hessian":[1.293E3,1.28E3,1.3E1,1.001E3,2.79E2,6E0,7E0,9.9E2,1.1E1,2.74E2,5E0,3E0,4E0,5E0,9.85E2,5E0,6E0,4E0,2.7E2,9.82E2,3E0,3E0,3E0,4.5E1,2.25E2],"tree_param":{"num_deleted":"0","num_feature":"255","num_nodes":"25","size_leaf_vector":"1"}},{"base_weights":[-6.9739087E-3,2.3829656E0,-3.6596827E-2,3.8893692E0,7.680548E-1,-4.9442474E-2,1.7918583E0,2.5396347E-1,7.023259E-2,7.624065E-2,-2.6704816E-2,-9.543692E-2,3.2702237E-1,2.1169176E-2,1.3909808E-1,-1.321286E-1,4.3702653E-1,8.4160894E-1,-6.4377326E-1,3.8679985E-3,-8.5997805E-3,3.871346E-2,7.278372E-4,5.0578024E-2,-6.76155E-2,-2.2923717E-2,-1.08135454E-1],"categories":[],"categories_nodes":[],"categories_segments":[],"categories_sizes":[],"default_left":[0,0,1,0,0,0,0,0,0,0,0,0,1,0,0,1,0,1,0,0,0,0,0,0,0,0,0],"id":13,"left_children":[1,3,5,7,9,11,13,-1,-1,-1,-1,15,17,-1,-1,19,21,23,25,-1,-1,-1,-1,-1,-1,-1,-1],"loss_changes":[9.252582E1,3.5470337E1,3.0307419E1,1.586953E1,9.782192E0,2.227552E1,1.0696009E1,0E0,0E0,0E0,0E0,2.2436165E1,7.049976E1,0E0,0E0,8.992474E0,1.0452982E1,3.5636955E1,1.2537733E1,0E0,0E0,0E0,0E0,0E0,0E0,0E0,0E0],"parents":[2147483647,0,0,1,1,2,2,3,3,4,4,5,5,6,6,11,11,12,12,15,15,16,16,17,17,18,18],"right_children":[2,4,6,8,10,12,14,-1,-1,-1,-1,16,18,-1,-1,20,22,24,26,-1,-1,-1,-1,-1,-1,-1,-1],"split_conditions":[-1.9907037E0,3.1085994E0,1.6152813E1,-5.102686E0,-2.1406911E-1,1.3318202E0,2.5986001E0,2.5396347E-1,7.023259E-2,7.624065E-2,-2.6704816E-2,2.383581E0,1.0435936E0,2.1169176E-2,1.3909808E-1,-8.081425E-1,3.0954698E-1,1.0641718E0,4.1387086E0,3.8679985E-3,-8.5997805E-3,3.871346E-2,7.278372E-4,5.0578024E-2,-6.76155E-2,-2.2923717E-2,-1.08135454E-1],"split_indices":[247,186,216,10,26,136,133,0,0,0,0,94,191,0,0,125,136,1,136,0,0,0,0,0,0,0,0],"split_type":[0,0,0,0,0,0,0,0,0,0,0,0,0,0,0,0,0,0,0,0,0,0,0,0,0,0,0],"sum_hessian":[1.308E3,1.5E1,1.293E3,7E0,8E0,1.285E3,8E0,4E0,3E0,5E0,3E0,1.146E3,1.39E2,4E0,4E0,1.073E3,7.3E1,9.1E1,4.8E1,1.71E2,9.02E2,4E1,3.3E1,8.5E1,6E0,4.4E1,4E0],"tree_param":{"num_deleted":"0","num_feature":"255","num_nodes":"27","size_leaf_vector":"1"}},{"base_weights":[-8.357906E-3,-2.1111306E-2,1.3559864E-1,-5.2656215E-2,6.34648E-1,-4.1757293E-2,-1.9350454E0,4.306635E-1,1.8687166E0,-8.149705E-2,5.0384295E-1,-1.5793894E-1,-1.0127519E-2,1.11701E0,1.7067593E-1,1.2416204E-1,3.041911E-2,-5.4541584E-3,2.7342552E-2,5.6413453E-2,-3.4716953E-2,8.805466E-2,2.0065548E-2,-1.6106991E-2,2.659291E-2],"categories":[],"categories_nodes":[],"categories_segments":[],"categories_sizes":[],"default_left":[1,0,0,1,1,0,0,0,0,0,0,0,0,1,1,0,0,0,0,0,0,0,0,0,0],"id":14,"left_children":[1,3,-1,5,7,9,11,13,15,17,19,-1,-1,21,23,-1,-1,-1,-1,-1,-1,-1,-1,-1,-1],"loss_changes":[4.461213E1,2.659793E1,0E0,2.4935692E1,1.38174E1,2.6515938E1,1.3864843E1,8.959546E0,4.3761272E0,1.9793608E1,6.2925407E1,0E0,0E0,5.53059E0,7.134162E0,0E0,0E0,0E0,0E0,0E0,0E0,0E0,0E0,0E0,0E0],"parents":[2147483647,0,0,1,1,3,3,4,4,5,5,6,6,7,7,8,8,9,9,10,10,13,13,14,14],"right_children":[2,4,-1,6,8,10,12,14,16,18,20,-1,-1,22,24,-1,-1,-1,-1,-1,-1,-1,-1,-1,-1],"split_conditions":[7.1740937E0,2.2633982E0,1.3559864E-1,3.4234247E0,2.1166112E0,1.5526154E0,1.5058675E0,-5.971777E-1,1.7048511E-1,3.832208E0,3.9193165E-1,-1.5793894E-1,-1.0127519E-2,3.5936436E-1,2.1779838E-1,1.2416204E-1,3.041911E-2,-5.4541584E-3,2.7342552E-2,5.6413453E-2,-3.4716953E-2,8.805466E-2,2.0065548E-2,-1.6106991E-2,2.659291E-2],"split_indices":[79,224,0,193,0,136,2,209,14,94,96,0,0,146,141,0,0,0,0,0,0,0,0,0,0],"split_type":[0,0,0,0,0,0,0,0,0,0,0,0,0,0,0,0,0,0,0,0,0,0,0,0,0],"sum_hessian":[1.291E3,1.286E3,5E0,1.228E3,5.8E1,1.222E3,6E0,5.1E1,7E0,1.14E3,8.2E1,3E0,3E0,1.3E1,3.8E1,4E0,3E0,1.093E3,4.7E1,5.4E1,2.8E1,6E0,7E0,1.6E1,2.2E1],"tree_param":{"num_deleted":"0","num_feature":"255","num_nodes":"25","size_leaf_vector":"1"}},{"base_weights":[2.5818027E-3,-1.8504255E-2,2.2915087E0,-4.9888063E-2,7.47878E-1,1.7070697E-1,1.2909259E0,-4.2321086E-2,-1.18381895E-1,-5.0170284E-2,9.6222204E-1,9.876419E-2,4.387356E-3,8.823588E-1,-5.7452634E-2,1.7347243E0,4.0008762E-1,9.681118E-3,9.393803E-2,-3.8729229E-3,2.8369969E-2,1.2828504E-1,3.601378E-2,3.2434907E-2,-4.2663023E-2],"categories":[],"categories_nodes":[],"categories_segments":[],"categories_sizes":[],"default_left":[1,1,0,1,0,0,0,0,0,0,0,0,0,0,0,0,0,0,0,0,0,0,0,0,0],"id":15,"left_children":[1,3,5,7,9,-1,11,13,-1,-1,15,-1,-1,17,19,21,23,-1,-1,-1,-1,-1,-1,-1,-1],"loss_changes":[6.3447865E1,3.1187002E1,8.601505E0,2.1546677E1,2.010562E1,0E0,6.20761E0,1.7388039E1,0E0,0E0,1.9067982E1,0E0,0E0,1.3154159E1,1.5320787E1,1.3840069E1,9.257728E0,0E0,0E0,0E0,0E0,0E0,0E0,0E0,0E0],"parents":[2147483647,0,0,1,1,2,2,3,3,4,4,6,6,7,7,10,10,13,13,14,14,15,15,16,16],"right_children":[2,4,6,8,10,-1,12,14,-1,-1,16,-1,-1,18,20,22,24,-1,-1,-1,-1,-1,-1,-1,-1],"split_conditions":[1.6152813E1,2.72564E0,3.330373E-1,5.2592535E0,-9.480681E-1,1.7070697E-1,-4.738641E-1,-4.8227916E0,-1.18381895E-1,-5.0170284E-2,-2.1263969E-1,9.876419E-2,4.387356E-3,5.456345E-1,4.3077044E0,6.1964963E-2,5.075608E-1,9.681118E-3,9.393803E-2,-3.8729229E-3,2.8369969E-2,1.2828504E-1,3.601378E-2,3.2434907E-2,-4.2663023E-2],"split_indices":[216,135,55,136,46,0,43,188,0,0,93,0,0,54,191,128,205,0,0,0,0,0,0,0,0],"split_type":[0,0,0,0,0,0,0,0,0,0,0,0,0,0,0,0,0,0,0,0,0,0,0,0,0],"sum_hessian":[1.308E3,1.297E3,1.1E1,1.247E3,5E1,4E0,7E0,1.244E3,3E0,5E0,4.5E1,4E0,3E0,1.9E1,1.225E3,1.8E1,2.7E1,1.2E1,7E0,1.188E3,3.7E1,9E0,9E0,2.3E1,4E0],"tree_param":{"num_deleted":"0","num_feature":"255","num_nodes":"25","size_leaf_vector":"1"}},{"base_weights":[1.4419402E-2,-7.884839E-3,2.2205439E0,-7.081333E-2,4.5974678E-1,1.6387868E-1,1.3754668E0,-8.749434E-2,1.3627921E0,5.456676E-1,-1.0777291E-1,9.1916144E-2,1.5615809E-2,-7.71332E-2,-1.2188318E0,1.5509167E-1,-9.9337846E-2,2.3474488E0,4.2522687E-1,3.957322E-2,-4.3718982E-3,-7.6221E-2,-1.7717227E-2,-2.4546878E-2,1.9499814E-2,1.5041527E-1,3.7215095E-2,-5.1099617E-2,2.786654E-2],"categories":[],"categories_nodes":[],"categories_segments":[],"categories_sizes":[],"default_left":[1,0,0,0,0,0,0,0,0,0,0,0,0,0,0,0,1,0,0,0,0,0,0,0,0,0,0,0,0],"id":16,"left_children":[1,3,5,7,9,-1,11,13,15,17,-1,-1,-1,19,21,-1,23,25,27,-1,-1,-1,-1,-1,-1,-1,-1,-1,-1],"loss_changes":[6.391125E1,3.771952E1,6.6390305E0,2.7038435E1,3.516966E1,0E0,3.6395683E0,1.2893251E1,3.3663536E1,3.084169E1,0E0,0E0,0E0,9.9340725E0,1.9137249E0,0E0,1.7345427E0,6.920704E0,2.7288782E1,0E0,0E0,0E0,0E0,0E0,0E0,0E0,0E0,0E0,0E0],"parents":[2147483647,0,0,1,1,2,2,3,3,4,4,6,6,7,7,8,8,9,9,13,13,14,14,16,16,17,17,18,18],"right_children":[2,4,6,8,10,-1,12,14,16,18,-1,-1,-1,20,22,-1,24,26,28,-1,-1,-1,-1,-1,-1,-1,-1,-1,-1],"split_conditions":[1.6152813E1,1.4846379E0,3.330373E-1,2.7657537E0,9.335546E0,1.6387868E-1,-1.6431774E0,2.0520368E0,1.6050621E0,-9.447644E-1,-1.0777291E-1,9.1916144E-2,1.5615809E-2,-1.5284728E0,-2.514531E-1,1.5509167E-1,7.1428573E-1,6.4655906E-1,-7.456013E-1,3.957322E-2,-4.3718982E-3,-7.6221E-2,-1.7717227E-2,-2.4546878E-2,1.9499814E-2,1.5041527E-1,3.7215095E-2,-5.1099617E-2,2.786654E-2],"split_indices":[216,132,55,136,84,0,9,31,216,6,0,0,0,92,137,0,149,140,118,0,0,0,0,0,0,0,0,0,0],"split_type":[0,0,0,0,0,0,0,0,0,0,0,0,0,0,0,0,0,0,0,0,0,0,0,0,0,0,0,0,0],"sum_hessian":[1.293E3,1.281E3,1.2E1,1.13E3,1.51E2,4E0,8E0,1.118E3,1.2E1,1.47E2,4E0,5E0,3E0,1.109E3,9E0,5E0,7E0,8E0,1.39E2,1.2E1,1.097E3,6E0,3E0,4E0,3E0,5E0,3E0,1.1E1,1.28E2],"tree_param":{"num_deleted":"0","num_feature":"255","num_nodes":"29","size_leaf_vector":"1"}},{"base_weights":[1.2588887E-2,-8.281278E-3,1.9344156E0,-8.184184E-2,2.8732675E-1,1.5732352E-1,1.1249465E0,-1.437943E0,-6.703894E-2,2.1947606E0,2.323693E-1,-3.8647135E-3,8.327602E-2,-0E0,-1.3172671E-1,-8.378358E-2,1.622548E0,1.6164723E-1,2.9144332E-2,2.654617E-1,-9.2209E-2,7.065341E-3,-5.982065E-3,1.3037458E-1,-2.4086999E-2,9.798746E-3,4.995891E-2],"categories":[],"categories_nodes":[],"categories_segments":[],"categories_sizes":[],"default_left":[1,0,0,0,0,0,0,0,0,0,1,0,0,0,0,0,0,0,0,1,0,0,0,0,0,0,0],"id":17,"left_children":[1,3,5,7,9,-1,11,13,15,17,19,-1,-1,-1,-1,21,23,-1,-1,25,-1,-1,-1,-1,-1,-1,-1],"loss_changes":[5.2269905E1,2.794541E1,9.768944E0,2.0429556E1,2.6083183E1,0E0,6.7865562E0,1.8900139E1,2.8839422E1,9.447929E0,1.7511198E1,0E0,0E0,0E0,0E0,8.174751E0,2.2194757E1,0E0,0E0,1.2277624E1,0E0,0E0,0E0,0E0,0E0,0E0,0E0],"parents":[2147483647,0,0,1,1,2,2,3,3,4,4,6,6,7,7,8,8,9,9,10,10,15,15,16,16,19,19],"right_children":[2,4,6,8,10,-1,12,14,16,18,20,-1,-1,-1,-1,22,24,-1,-1,26,-1,-1,-1,-1,-1,-1,-1],"split_conditions":[1.6152813E1,1.0525417E0,3.330373E-1,-1.8372982E0,-1.08529E0,1.5732352E-1,4.265531E0,5.63007E-1,2.5612662E0,0E0,5.2592535E0,-3.8647135E-3,8.327602E-2,-0E0,-1.3172671E-1,-8.0700374E-1,-2.531676E-1,1.6164723E-1,2.9144332E-2,9.982844E0,-9.2209E-2,7.065341E-3,-5.982065E-3,1.3037458E-1,-2.4086999E-2,9.798746E-3,4.995891E-2],"split_indices":[216,135,55,9,98,0,83,109,136,56,136,0,0,0,0,108,0,0,0,188,0,0,0,0,0,0,0],"split_type":[0,0,0,0,0,0,0,0,0,0,0,0,0,0,0,0,0,0,0,0,0,0,0,0,0,0,0],"sum_hessian":[1.297E3,1.284E3,1.3E1,1.029E3,2.55E2,4E0,9E0,1E1,1.019E3,6E0,2.49E2,3E0,6E0,5E0,5E0,1.01E3,9E0,3E0,3E0,2.46E2,3E0,1.38E2,8.72E2,6E0,3E0,2.26E2,2E1],"tree_param":{"num_deleted":"0","num_feature":"255","num_nodes":"27","size_leaf_vector":"1"}},{"base_weights":[2.1203768E-3,3.0814445E0,-1.4221885E-2,3.990239E-2,2.2847402E-1,-9.7724855E-2,2.3551868E-1,-1.1752667E-1,5.332173E-1,-1.3124505E0,2.7355668E-1,6.176067E-1,-1.2921402E-1,1.5314716E0,-1.3211739E0,1.3126436E-3,-1.0704615E-1,8.45048E-1,1.8680866E-1,9.572629E-2,-9.4785396E-4,-4.6515525E-3,-1.3386428E-2,3.7051406E-2,2.2414945E-1,-8.6959325E-2,-2.2586083E-2,1.4978632E-2,9.537289E-2,1.121959E-2,-5.5563223E-2],"categories":[],"categories_nodes":[],"categories_segments":[],"categories_sizes":[],"default_left":[0,0,0,0,0,0,0,0,0,0,0,0,0,0,0,0,0,0,1,0,0,0,0,0,0,0,0,0,0,0,0],"id":18,"left_children":[1,3,5,-1,-1,7,9,11,13,15,17,19,21,23,25,-1,-1,27,29,-1,-1,-1,-1,-1,-1,-1,-1,-1,-1,-1,-1],"loss_changes":[6.672675E1,1.9601013E1,2.739064E1,0E0,0E0,1.2327494E1,1.9627203E1,8.24468E0,5.757899E1,9.140305E0,1.5702337E1,1.26094265E1,4.6601954E0,4.281573E1,2.993143E0,0E0,0E0,2.354765E1,1.3869438E1,0E0,0E0,0E0,0E0,0E0,0E0,0E0,0E0,0E0,0E0,0E0,0E0],"parents":[2147483647,0,0,1,1,2,2,5,5,6,6,7,7,8,8,9,9,10,10,11,11,12,12,13,13,14,14,17,17,18,18],"right_children":[2,4,6,-1,-1,8,10,12,14,16,18,20,22,24,26,-1,-1,28,30,-1,-1,-1,-1,-1,-1,-1,-1,-1,-1,-1,-1],"split_conditions":[-3.57042E0,2.3105516E-1,6.589515E-1,3.990239E-2,2.2847402E-1,1.6303337E0,-1.3560395E0,-1.2036794E0,3.9193165E-1,-6.867235E-1,-8.4410655E-1,3.2E-1,4.0359834E-1,-3.426152E-1,6.8619037E-1,1.3126436E-3,-1.0704615E-1,-9.065421E-1,3.90533E0,9.572629E-2,-9.4785396E-4,-4.6515525E-3,-1.3386428E-2,3.7051406E-2,2.2414945E-1,-8.6959325E-2,-2.2586083E-2,1.4978632E-2,9.537289E-2,1.121959E-2,-5.5563223E-2],"split_indices":[48,5,132,0,0,136,54,22,96,193,16,62,146,0,5,0,0,16,136,0,0,0,0,0,0,0,0,0,0,0,0],"split_type":[0,0,0,0,0,0,0,0,0,0,0,0,0,0,0,0,0,0,0,0,0,0,0,0,0,0,0,0,0,0,0],"sum_hessian":[1.318E3,6E0,1.312E3,3E0,3E0,9.84E2,3.28E2,9.55E2,2.9E1,7E0,3.21E2,1.4E1,9.41E2,1.9E1,1E1,3E0,4E0,4.1E1,2.8E2,4E0,1E1,7.48E2,1.93E2,1.6E1,3E0,6E0,4E0,2.8E1,1.3E1,2.73E2,7E0],"tree_param":{"num_deleted":"0","num_feature":"255","num_nodes":"31","size_leaf_vector":"1"}},{"base_weights":[2.7917925E-2,1.4816252E0,-4.8588873E-3,1.946468E0,-9.4262965E-2,-4.949535E-2,2.5188735E-1,1.9714496E-1,1.3997123E0,-7.8262426E-2,7.0869285E-1,6.8658656E-1,-4.5285773E-1,8.649833E-3,1.7444525E0,-1.02087975E-1,3.0374855E-1,-8.419653E-2,1.055081E0,2.2738736E0,5.337475E-1,-9.801805E-1,1.7790014E-1,2.57788E-2,1.1025932E-1,-3.459166E-2,-4.5513567E-3,4.432113E-2,3.0853373E-3,-1.324482E-2,1.8180113E-2,6.930923E-2,2.0774521E-3,4.8151657E-2,1.987188E-1,4.0683623E-2,-1.7141372E-2,-8.239172E-2,-3.1581026E-2,-4.2689866E-3,7.187181E-2],"categories":[],"categories_nodes":[],"categories_segments":[],"categories_sizes":[],"default_left":[0,0,0,0,0,0,1,0,0,0,0,0,0,0,0,0,0,0,0,0,1,0,0,0,0,0,0,0,0,0,0,0,0,0,0,0,0,0,0,0,0],"id":19,"left_children":[1,3,5,7,-1,9,11,-1,13,15,17,19,21,-1,23,25,27,29,31,33,35,37,39,-1,-1,-1,-1,-1,-1,-1,-1,-1,-1,-1,-1,-1,-1,-1,-1,-1,-1],"loss_changes":[6.2668907E1,4.9062805E1,1.4707182E1,2.2327377E1,0E0,2.387531E1,5.85412E1,0E0,8.810226E0,9.622154E0,1.117182E1,2.7132301E1,2.4535349E1,0E0,8.216129E0,6.349203E0,8.594441E0,1.1383697E0,9.195986E0,1.796968E1,2.7071938E1,8.03994E0,1.1532689E1,0E0,0E0,0E0,0E0,0E0,0E0,0E0,0E0,0E0,0E0,0E0,0E0,0E0,0E0,0E0,0E0,0E0,0E0],"parents":[2147483647,0,0,1,1,2,2,3,3,5,5,6,6,8,8,9,9,10,10,11,11,12,12,14,14,15,15,16,16,17,17,18,18,19,19,20,20,21,21,22,22],"right_children":[2,4,6,8,-1,10,12,-1,14,16,18,20,22,-1,24,26,28,30,32,34,36,38,40,-1,-1,-1,-1,-1,-1,-1,-1,-1,-1,-1,-1,-1,-1,-1,-1,-1,-1],"split_conditions":[-2.9204679E0,5.1627314E-1,1.0241593E0,-3.2882924E0,-9.4262965E-2,3.832208E0,4.098795E-1,1.9714496E-1,-4.2169264E-1,1.492516E0,-8.4077604E-2,-3.5594037E-1,1.3801597E0,8.649833E-3,-1.9719523E0,-1.5418986E0,-1.5220444E-1,3.9185412E0,4.5987839E-1,-2.9865798E-1,-3.7840102E-2,6.5941757E-1,1E0,2.57788E-2,1.1025932E-1,-3.459166E-2,-4.5513567E-3,4.432113E-2,3.0853373E-3,-1.324482E-2,1.8180113E-2,6.930923E-2,2.0774521E-3,4.8151657E-2,1.987188E-1,4.0683623E-2,-1.7141372E-2,-8.239172E-2,-3.1581026E-2,-4.2689866E-3,7.187181E-2],"split_indices":[48,146,136,141,0,94,96,0,222,193,203,20,83,0,147,52,204,96,8,52,94,52,56,0,0,0,0,0,0,0,0,0,0,0,0,0,0,0,0,0,0],"split_type":[0,0,0,0,0,0,0,0,0,0,0,0,0,0,0,0,0,0,0,0,0,0,0,0,0,0,0,0,0,0,0,0,0,0,0,0,0,0,0,0,0],"sum_hessian":[1.311E3,2.8E1,1.283E3,2.5E1,3E0,1.094E3,1.89E2,4E0,2.1E1,1.055E3,3.9E1,1.17E2,7.2E1,5E0,1.6E1,9.94E2,6.1E1,1.2E1,2.7E1,9E0,1.08E2,3.9E1,3.3E1,5E0,1.1E1,1.7E1,9.77E2,1.7E1,4.4E1,9E0,3E0,2E1,7E0,6E0,3E0,8.2E1,2.6E1,1.2E1,2.7E1,2.8E1,5E0],"tree_param":{"num_deleted":"0","num_feature":"255","num_nodes":"41","size_leaf_vector":"1"}},{"base_weights":[1.0225038E-2,1.5677671E-1,-3.859549E-3,-3.736677E-2,6.447015E-1,-2.880995E-2,-1.08053915E-1,3.8771886E-1,2.0093338E0,1.1493423E0,-4.0213656E-2,5.744134E-1,-2.0625155E-1,1.2816283E-1,2.5631795E-2,1.1776032E-1,2.3729347E-2,-2.7324392E-3,3.4644265E-2,-7.7380054E-3,3.7418026E-2,-3.1492803E-2,8.8841915E-3],"categories":[],"categories_nodes":[],"categories_segments":[],"categories_sizes":[],"default_left":[0,0,0,1,1,0,0,0,0,0,0,1,1,0,0,0,0,0,0,0,0,0,0],"id":20,"left_children":[1,-1,3,5,7,9,-1,11,13,15,17,19,21,-1,-1,-1,-1,-1,-1,-1,-1,-1,-1],"loss_changes":[5.8870125E1,0E0,2.8757565E1,2.2633917E1,2.1775883E1,1.682348E1,0E0,6.3651886E0,6.6689377E0,8.363231E0,1.3159683E1,5.6291943E0,2.434047E0,0E0,0E0,0E0,0E0,0E0,0E0,0E0,0E0,0E0,0E0],"parents":[2147483647,0,0,2,2,3,3,4,4,5,5,7,7,8,8,9,9,10,10,11,11,12,12],"right_children":[2,-1,4,6,8,10,-1,12,14,16,18,20,22,-1,-1,-1,-1,-1,-1,-1,-1,-1,-1],"split_conditions":[-3.57042E0,1.5677671E-1,2.2633982E0,3.4234247E0,2.1166112E0,-2.902448E0,-1.08053915E-1,8.7539107E-1,-4.558022E-2,-3.5297588E-1,2.473032E0,-1.5218463E0,1.0525417E0,1.2816283E-1,2.5631795E-2,1.1776032E-1,2.3729347E-2,-2.7324392E-3,3.4644265E-2,-7.7380054E-3,3.7418026E-2,-3.1492803E-2,8.8841915E-3],"split_indices":[48,0,224,193,0,11,0,118,16,138,141,209,135,0,0,0,0,0,0,0,0,0,0],"split_type":[0,0,0,0,0,0,0,0,0,0,0,0,0,0,0,0,0,0,0,0,0,0,0],"sum_hessian":[1.329E3,5E0,1.324E3,1.26E3,6.4E1,1.256E3,4E0,5.5E1,9E0,1.1E1,1.245E3,4.2E1,1.3E1,6E0,3E0,3E0,8E0,1.222E3,2.3E1,8E0,3.4E1,6E0,7E0],"tree_param":{"num_deleted":"0","num_feature":"255","num_nodes":"23","size_leaf_vector":"1"}},{"base_weights":[3.298486E-2,1.4054804E-1,2.0130353E-2,-4.2415373E-2,3.475355E-1,-6.630366E-2,1.2434787E0,7.513727E-1,-2.1973167E-1,-8.493143E-2,5.057831E-1,1.6223344E0,3.6213174E-3,1.678421E0,4.8455125E-1,9.250184E-2,-3.4150678E-1,-4.8008594E-3,2.7398352E-2,4.3365587E-2,-6.862438E-3,4.5663364E-2,9.377706E-2,1.04826145E-1,2.054321E-2,8.127671E-2,1.6678503E-2,-2.6352836E-2,4.0369038E-2],"categories":[],"categories_nodes":[],"categories_segments":[],"categories_sizes":[],"default_left":[0,0,0,0,1,0,0,1,0,0,0,0,0,0,0,0,0,0,0,0,0,0,0,0,0,0,0,0,0],"id":21,"left_children":[1,-1,3,5,7,9,11,13,15,17,19,21,-1,23,25,-1,27,-1,-1,-1,-1,-1,-1,-1,-1,-1,-1,-1,-1],"loss_changes":[4.6511177E1,0E0,2.6809729E1,3.3692886E1,4.832582E1,1.149945E1,8.5862255E0,2.9395248E1,2.2661022E1,7.3463182E0,8.096174E0,7.01355E-1,0E0,1.3196999E1,1.5971756E1,0E0,1.8304287E1,0E0,0E0,0E0,0E0,0E0,0E0,0E0,0E0,0E0,0E0,0E0,0E0],"parents":[2147483647,0,0,2,2,3,3,4,4,5,5,6,6,7,7,8,8,9,9,10,10,11,11,13,13,14,14,16,16],"right_children":[2,-1,4,6,8,10,12,14,16,18,20,22,-1,24,26,-1,28,-1,-1,-1,-1,-1,-1,-1,-1,-1,-1,-1,-1],"split_conditions":[-3.57042E0,1.4054804E-1,9.943734E-1,4.3077044E0,1.3226531E-1,2.05638E0,3.0954698E-1,-3.6914504E-1,-8.48319E-1,1.6851102E0,8.7417006E-1,2.4065673E0,3.6213174E-3,6.399068E-1,-3.5594037E-1,9.250184E-2,3.1846457E0,-4.8008594E-3,2.7398352E-2,4.3365587E-2,-6.862438E-3,4.5663364E-2,9.377706E-2,1.04826145E-1,2.054321E-2,8.127671E-2,1.6678503E-2,-2.6352836E-2,4.0369038E-2],"split_indices":[48,0,136,191,0,39,136,85,234,52,101,95,0,118,20,0,41,0,0,0,0,0,0,0,0,0,0,0,0],"split_type":[0,0,0,0,0,0,0,0,0,0,0,0,0,0,0,0,0,0,0,0,0,0,0,0,0,0,0,0,0],"sum_hessian":[1.311E3,5E0,1.306E3,1.097E3,2.09E2,1.078E3,1.9E1,1.22E2,8.7E1,1.045E3,3.3E1,1.4E1,5E0,2.6E1,9.6E1,4E0,8.3E1,1.028E3,1.7E1,2.1E1,1.2E1,5E0,9E0,1.9E1,7E0,1E1,8.6E1,7.2E1,1.1E1],"tree_param":{"num_deleted":"0","num_feature":"255","num_nodes":"29","size_leaf_vector":"1"}},{"base_weights":[5.142962E-3,-1.537713E-2,2.0360365E0,-4.186426E-2,6.100274E-1,1.7611682E-1,6.543069E-1,-3.29493E-2,-1.5817162E0,4.1554788E-1,8.933016E-2,6.410644E-2,5.9400423E-5,-4.0405516E-2,1.1140813E-1,-1.3138777E-1,-5.762399E-3,1.3018306E0,2.2052708E-1,-2.952855E-3,2.8646166E-2,2.6392022E-2,8.203284E-2,2.7693182E-2,-1.7153447E-2],"categories":[],"categories_nodes":[],"categories_segments":[],"categories_sizes":[],"default_left":[0,0,0,1,1,0,0,0,0,0,0,0,0,0,0,0,0,0,1,0,0,0,0,0,0],"id":22,"left_children":[1,3,5,7,9,-1,11,13,15,17,-1,-1,-1,19,-1,-1,-1,21,23,-1,-1,-1,-1,-1,-1],"loss_changes":[5.4159683E1,2.120527E1,2.3975292E1,1.6685242E1,1.0935999E1,0E0,3.1504838E0,2.052395E1,1.0160738E1,7.51148E0,0E0,0E0,0E0,1.3961584E1,0E0,0E0,0E0,1.0151291E0,7.5379114E0,0E0,0E0,0E0,0E0,0E0,0E0],"parents":[2147483647,0,0,1,1,2,2,3,3,4,4,6,6,7,7,8,8,9,9,13,13,17,17,18,18],"right_children":[2,4,6,8,10,-1,12,14,16,18,-1,-1,-1,20,-1,-1,-1,22,24,-1,-1,-1,-1,-1,-1],"split_conditions":[6.5538073E0,2.2633982E0,3.1085994E0,3.4234247E0,7.808754E-1,1.7611682E-1,6.9091344E-1,5.2592535E0,1.5058675E0,-1.875E-1,8.933016E-2,6.410644E-2,5.9400423E-5,2.0898235E0,1.1140813E-1,-1.3138777E-1,-5.762399E-3,1.723356E-1,-1.958496E-1,-2.952855E-3,2.8646166E-2,2.6392022E-2,8.203284E-2,2.7693182E-2,-1.7153447E-2],"split_indices":[29,224,186,193,222,0,28,136,2,104,0,0,0,18,0,0,0,12,93,0,0,0,0,0,0],"split_type":[0,0,0,0,0,0,0,0,0,0,0,0,0,0,0,0,0,0,0,0,0,0,0,0,0],"sum_hessian":[1.293E3,1.281E3,1.2E1,1.23E3,5.1E1,5E0,7E0,1.224E3,6E0,4.5E1,6E0,3E0,4E0,1.221E3,3E0,3E0,3E0,7E0,3.8E1,1.186E3,3.5E1,3E0,4E0,2.4E1,1.4E1],"tree_param":{"num_deleted":"0","num_feature":"255","num_nodes":"25","size_leaf_vector":"1"}},{"base_weights":[1.0848644E-3,1.849312E0,-1.578283E-2,3.297354E-2,1.4562874E-1,-2.6040923E-2,1.8816569E0,-1.8939111E-2,-1.1513095E-1,3.7922215E-2,1.2547277E-1,-4.780356E-2,3.3850145E-1,-3.7143247E-3,2.524907E-2,4.1656792E-2,-3.4456756E-2],"categories":[],"categories_nodes":[],"categories_segments":[],"categories_sizes":[],"default_left":[0,0,1,0,0,0,0,0,0,0,0,0,1,0,0,0,0],"id":23,"left_children":[1,3,5,-1,-1,7,9,11,-1,-1,-1,13,15,-1,-1,-1,-1],"loss_changes":[4.136397E1,1.2903404E1,2.5341963E1,0E0,0E0,2.079091E1,2.705986E0,1.3399632E1,0E0,0E0,0E0,1.762024E1,4.9894066E1,0E0,0E0,0E0,0E0],"parents":[2147483647,0,0,1,1,2,2,5,5,6,6,7,7,11,11,12,12],"right_children":[2,4,6,-1,-1,8,10,12,-1,-1,-1,14,16,-1,-1,-1,-1],"split_conditions":[-2.8443327E0,5.2592535E0,3.9951172E0,3.297354E-2,1.4562874E-1,6.0028687E0,2.954165E-1,1.5526154E0,-1.1513095E-1,3.7922215E-2,1.2547277E-1,3.4327278E0,5.691582E-1,-3.7143247E-3,2.524907E-2,4.1656792E-2,-3.4456756E-2],"split_indices":[0,136,0,0,0,83,12,136,0,0,0,191,96,0,0,0,0],"split_type":[0,0,0,0,0,0,0,0,0,0,0,0,0,0,0,0,0],"sum_hessian":[1.319E3,1.1E1,1.308E3,6E0,5E0,1.302E3,6E0,1.299E3,3E0,3E0,3E0,1.203E3,9.6E1,1.149E3,5.4E1,6.5E1,3.1E1],"tree_param":{"num_deleted":"0","num_feature":"255","num_nodes":"17","size_leaf_vector":"1"}},{"base_weights":[1.43523E-2,1.0368129E0,-1.1920574E-2,-1.4898509E-1,1.3095453E0,-3.1033242E-2,4.7759926E-1,3.128758E-2,-4.5573775E-2,1.5003528E-1,9.6895415E-1,7.6073155E-2,-3.740027E-2,1.8620248E0,1.9337967E-1,5.492665E-1,1.8954433E0,-5.0341986E-2,6.709603E-1,2.237179E-2,1.5698776E-1,-8.915357E-2,8.164631E-1,5.5423867E-2,4.177173E-3,1.16267376E-1,4.8333924E-2,-1.5211828E-3,-2.0836374E-2,5.782128E-2,-2.6012031E-2,-2.8957922E-2,1.6946139E-2,-9.08634E-3,5.7204634E-2],"categories":[],"categories_nodes":[],"categories_segments":[],"categories_sizes":[],"default_left":[0,0,1,0,0,0,0,0,0,0,0,0,0,0,0,0,0,0,0,0,0,0,0,0,0,0,0,0,0,0,0,0,0,0,0],"id":24,"left_children":[1,3,5,7,9,11,13,-1,-1,-1,15,-1,17,19,21,23,25,27,29,-1,-1,31,33,-1,-1,-1,-1,-1,-1,-1,-1,-1,-1,-1,-1],"loss_changes":[3.538594E1,1.098354E1,1.1955239E1,4.7340345E0,1.224733E1,1.210633E1,1.8321465E1,0E0,0E0,0E0,8.046494E0,0E0,1.1247618E1,1.2696148E1,7.363234E0,4.4760647E0,2.178936E-1,8.765632E0,1.33875475E1,0E0,0E0,6.303338E0,4.555625E0,0E0,0E0,0E0,0E0,0E0,0E0,0E0,0E0,0E0,0E0,0E0,0E0],"parents":[2147483647,0,0,1,1,2,2,3,3,4,4,5,5,6,6,10,10,12,12,13,13,14,14,15,15,16,16,17,17,18,18,21,21,22,22],"right_children":[2,4,6,8,10,12,14,-1,-1,-1,16,-1,18,20,22,24,26,28,30,-1,-1,32,34,-1,-1,-1,-1,-1,-1,-1,-1,-1,-1,-1,-1],"split_conditions":[-2.7122316E0,-2.285694E-1,1.6027073E0,-1.0454789E0,4.8994538E-1,-5.987061E0,2.105098E-1,3.128758E-2,-4.5573775E-2,1.5003528E-1,8.09017E-1,7.6073155E-2,2.8947394E0,-2.2469391E-1,1E0,6.91687E-1,2.4518559E-2,1.7127434E0,4.758604E-1,2.237179E-2,1.5698776E-1,1.1474092E0,-1.3300797E-1,5.5423867E-2,4.177173E-3,1.16267376E-1,4.8333924E-2,-1.5211828E-3,-2.0836374E-2,5.782128E-2,-2.6012031E-2,-2.8957922E-2,1.6946139E-2,-9.08634E-3,5.7204634E-2],"split_indices":[48,130,244,6,55,188,147,0,0,0,57,0,41,27,56,28,12,220,247,0,0,96,137,0,0,0,0,0,0,0,0,0,0,0,0],"split_type":[0,0,0,0,0,0,0,0,0,0,0,0,0,0,0,0,0,0,0,0,0,0,0,0,0,0,0,0,0,0,0,0,0,0,0],"sum_hessian":[1.312E3,3.2E1,1.28E3,6E0,2.6E1,1.233E3,4.7E1,3E0,3E0,3E0,2.3E1,4E0,1.229E3,7E0,4E1,1.7E1,6E0,1.208E3,2.1E1,4E0,3E0,2.8E1,1.2E1,7E0,1E1,3E0,3E0,1.147E3,6.1E1,1.5E1,6E0,1.3E1,1.5E1,3E0,9E0],"tree_param":{"num_deleted":"0","num_feature":"255","num_nodes":"35","size_leaf_vector":"1"}},{"base_weights":[9.95356E-3,1.6437156E-1,-2.2450495E-3,-1.9397743E-2,6.72584E-1,-1.3788683E-2,-7.26937E-2,1.0388553E0,-4.0845695E-1,-2.8023826E-2,5.864331E-1,4.0751255E-1,1.4259164E0,-3.4177154E-2,4.0643257E-3,3.4060102E-2,-1.9417845E-3,4.8578583E-2,-1.3550052E-2,-4.5002713E-3,5.212676E-2,8.669797E-2,2.215192E-2],"categories":[],"categories_nodes":[],"categories_segments":[],"categories_sizes":[],"default_left":[0,0,0,1,0,0,0,0,0,0,0,0,0,0,0,0,0,0,0,0,0,0,0],"id":25,"left_children":[1,-1,3,5,7,9,-1,11,13,15,17,19,21,-1,-1,-1,-1,-1,-1,-1,-1,-1,-1],"loss_changes":[5.3909996E1,0E0,1.541211E1,1.0325253E1,1.3553862E1,1.1068109E1,0E0,5.344782E0,1.3282831E0,9.708317E0,1.024028E1,3.6643734E0,3.5556202E0,0E0,0E0,0E0,0E0,0E0,0E0,0E0,0E0,0E0,0E0],"parents":[2147483647,0,0,2,2,3,3,4,4,5,5,7,7,8,8,9,9,10,10,11,11,12,12],"right_children":[2,-1,4,6,8,10,-1,12,14,16,18,20,22,-1,-1,-1,-1,-1,-1,-1,-1,-1,-1],"split_conditions":[-6.232537E0,1.6437156E-1,2.8947394E0,2.5223958E0,7.226882E-1,9.982844E0,-7.26937E-2,-1.0604789E-1,3.6091118E0,-3.3117375E0,5.5383253E-1,1E0,6.0388786E-1,-3.4177154E-2,4.0643257E-3,3.4060102E-2,-1.9417845E-3,4.8578583E-2,-1.3550052E-2,-4.5002713E-3,5.212676E-2,8.669797E-2,2.215192E-2],"split_indices":[253,0,41,200,247,188,0,209,88,41,209,183,12,0,0,0,0,0,0,0,0,0,0],"split_type":[0,0,0,0,0,0,0,0,0,0,0,0,0,0,0,0,0,0,0,0,0,0,0],"sum_hessian":[1.339E3,4E0,1.335E3,1.303E3,3.2E1,1.299E3,4E0,2.4E1,8E0,1.27E3,2.9E1,1E1,1.4E1,5E0,3E0,1.8E1,1.252E3,2E1,9E0,6E0,4E0,1E1,4E0],"tree_param":{"num_deleted":"0","num_feature":"255","num_nodes":"23","size_leaf_vector":"1"}},{"base_weights":[1.3904316E-2,1.5848722E0,-7.105747E-4,1.5291606E-1,7.4279803E-1,-3.0550485E-2,4.535634E-1,5.6973793E-2,-6.459135E-4,-5.387229E-2,3.1080267E-1,8.086651E-1,-3.4180295E-1,-6.596144E-2,1.2967087E0,8.789176E-1,-8.899037E-2,1.0797375E0,-2.4432264E-1,-1.268015E0,3.5353938E-1,-7.4500977E-3,2.0343638E-3,1.0592856E-1,-2.2036405E-2,2.168647E-2,6.739411E-2,6.825366E-2,-1.3117765E-2,3.6725126E-2,9.654113E-2,-4.736307E-2,1.0652721E-2,-1.6887018E-2,-9.8514356E-2,-4.8276545E-3,6.465175E-2],"categories":[],"categories_nodes":[],"categories_segments":[],"categories_sizes":[],"default_left":[0,0,0,0,0,0,0,0,0,0,0,0,0,0,0,0,0,0,0,0,0,0,0,0,0,0,0,0,0,0,0,0,0,0,0,0,0],"id":26,"left_children":[1,3,5,-1,7,9,11,-1,-1,13,15,17,19,21,23,25,27,29,31,33,35,-1,-1,-1,-1,-1,-1,-1,-1,-1,-1,-1,-1,-1,-1,-1,-1],"loss_changes":[2.9892126E1,1.2237215E1,1.737681E1,0E0,2.8253589E0,9.591982E0,2.2635534E1,0E0,0E0,1.8412395E1,1.7646091E1,1.6046326E1,1.66406E1,9.944653E0,1.5380842E1,5.9181023E0,1.1843707E1,1.1243542E1,4.133335E0,6.290119E0,6.587393E0,0E0,0E0,0E0,0E0,0E0,0E0,0E0,0E0,0E0,0E0,0E0,0E0,0E0,0E0,0E0,0E0],"parents":[2147483647,0,0,1,1,2,2,4,4,5,5,6,6,9,9,10,10,11,11,12,12,13,13,14,14,15,15,16,16,17,17,18,18,19,19,20,20],"right_children":[2,4,6,-1,8,10,12,-1,-1,14,16,18,20,22,24,26,28,30,32,34,36,-1,-1,-1,-1,-1,-1,-1,-1,-1,-1,-1,-1,-1,-1,-1,-1],"split_conditions":[-2.330787E0,6.642734E-1,2.3369215E0,1.5291606E-1,-5.037922E-1,3.1562095E0,7.1655476E-1,5.6973793E-2,-6.459135E-4,2.5612662E0,3.0954698E-1,5.2029753E0,6.999165E-2,3.4546006E-2,5.7575756E-1,1.168383E0,-9.568347E-3,2.1646502E0,-2.6779872E-1,2.1211784E0,3.8474355E0,-7.4500977E-3,2.0343638E-3,1.0592856E-1,-2.2036405E-2,2.168647E-2,6.739411E-2,6.825366E-2,-1.3117765E-2,3.6725126E-2,9.654113E-2,-4.736307E-2,1.0652721E-2,-1.6887018E-2,-9.8514356E-2,-4.8276545E-3,6.465175E-2],"split_indices":[200,140,233,0,43,94,96,0,0,136,136,79,116,136,210,116,116,136,16,17,83,0,0,0,0,0,0,0,0,0,0,0,0,0,0,0,0],"split_type":[0,0,0,0,0,0,0,0,0,0,0,0,0,0,0,0,0,0,0,0,0,0,0,0,0,0,0,0,0,0,0,0,0,0,0,0,0],"sum_hessian":[1.294E3,1.1E1,1.283E3,3E0,8E0,1.205E3,7.8E1,5E0,3E0,1.129E3,7.6E1,5.4E1,2.4E1,1.12E3,9E0,3.1E1,4.5E1,4.3E1,1.1E1,1E1,1.4E1,6.3E2,4.9E2,6E0,3E0,1.7E1,1.4E1,4E0,4.1E1,3.2E1,1.1E1,4E0,7E0,5E0,5E0,1E1,4E0],"tree_param":{"num_deleted":"0","num_feature":"255","num_nodes":"37","size_leaf_vector":"1"}},{"base_weights":[1.6594639E-2,1.5945243E0,2.2915232E-3,1.5401901E-1,7.4586326E-1,-7.1251234E-3,1.8000318E0,9.273332E-3,4.8924193E-2,-5.6687184E-4,-1.0747428E-1,1.117535E-1,4.4499286E-2,-3.4974292E-2,2.4736106E-1,-2.3723394E-3,3.0475292E-2,2.2409849E-2,-6.259256E-3],"categories":[],"categories_nodes":[],"categories_segments":[],"categories_sizes":[],"default_left":[0,0,1,0,0,0,0,0,0,0,0,0,0,0,1,0,0,0,0],"id":27,"left_children":[1,3,5,-1,7,9,11,-1,-1,13,-1,-1,-1,15,17,-1,-1,-1,-1],"loss_changes":[3.0147247E1,1.2451689E1,2.2741125E1,0E0,8.753667E-1,1.8414259E1,4.6964645E-1,0E0,0E0,1.1273344E1,0E0,0E0,0E0,9.321227E0,1.2134533E1,0E0,0E0,0E0,0E0],"parents":[2147483647,0,0,1,1,2,2,4,4,5,5,6,6,9,9,13,13,14,14],"right_children":[2,4,6,-1,8,10,12,-1,-1,14,-1,-1,-1,16,18,-1,-1,-1,-1],"split_conditions":[-2.8443327E0,-5.102686E0,9.213946E0,1.5401901E-1,-3.8074973E0,2.6901488E0,-7.4804407E-3,9.273332E-3,4.8924193E-2,1.4622854E0,-1.0747428E-1,1.117535E-1,4.4499286E-2,1.6027073E0,3.9119378E-1,-2.3723394E-3,3.0475292E-2,2.2409849E-2,-6.259256E-3],"split_indices":[0,10,191,0,2,34,3,0,0,189,0,0,0,244,78,0,0,0,0],"split_type":[0,0,0,0,0,0,0,0,0,0,0,0,0,0,0,0,0,0,0],"sum_hessian":[1.342E3,1.1E1,1.331E3,3E0,8E0,1.325E3,6E0,3E0,5E0,1.322E3,3E0,3E0,3E0,1.162E3,1.6E2,1.141E3,2.1E1,1.04E2,5.6E1],"tree_param":{"num_deleted":"0","num_feature":"255","num_nodes":"19","size_leaf_vector":"1"}},{"base_weights":[-8.151862E-3,1.8933382E0,-2.1520361E-2,3.160627E-2,1.6434114E-1,-1.4901068E0,-1.34004345E-2,-6.585743E-3,-1.225486E-1,7.800943E-1,-2.7323835E-2,1.0967106E0,-2.4787165E-2,-4.193799E-2,4.979377E-1,6.804757E-2,5.874732E-3,-1.6549208E-3,-6.861155E-2,4.28228E-2,-2.1907588E-2],"categories":[],"categories_nodes":[],"categories_segments":[],"categories_sizes":[],"default_left":[0,0,0,0,0,0,0,0,0,0,1,0,0,0,0,0,0,0,0,0,0],"id":28,"left_children":[1,3,5,-1,-1,7,9,-1,-1,11,13,15,-1,17,19,-1,-1,-1,-1,-1,-1],"loss_changes":[3.277255E1,1.3347748E1,1.5176916E1,0E0,0E0,8.555522E0,1.4098712E1,0E0,0E0,9.4907055E0,9.647362E0,4.3497276E0,0E0,1.4242617E1,1.1827665E1,0E0,0E0,0E0,0E0,0E0,0E0],"parents":[2147483647,0,0,1,1,2,2,5,5,6,6,9,9,10,10,11,11,13,13,14,14],"right_children":[2,4,6,-1,-1,8,10,-1,-1,12,14,16,-1,18,20,-1,-1,-1,-1,-1,-1],"split_conditions":[-2.7075858E0,5.63007E-1,-1.8982093E0,3.160627E-2,1.6434114E-1,-9.065421E-1,-2.7122316E0,-6.585743E-3,-1.225486E-1,7.3333335E-1,2.3382955E0,1.1375018E0,-2.4787165E-2,2.8382392E0,7.81267E-1,6.804757E-2,5.874732E-3,-1.6549208E-3,-6.861155E-2,4.28228E-2,-2.1907588E-2],"split_indices":[150,109,8,0,0,16,48,0,0,151,141,141,0,33,247,0,0,0,0,0,0],"split_type":[0,0,0,0,0,0,0,0,0,0,0,0,0,0,0,0,0,0,0,0,0],"sum_hessian":[1.294E3,8E0,1.286E3,5E0,3E0,6E0,1.28E3,3E0,3E0,2.1E1,1.259E3,1.7E1,4E0,1.226E3,3.3E1,1.3E1,4E0,1.219E3,7E0,2.4E1,9E0],"tree_param":{"num_deleted":"0","num_feature":"255","num_nodes":"21","size_leaf_vector":"1"}},{"base_weights":[-3.40892E-3,1.7006755E0,-1.6571311E-2,1.4853069E-1,7.177571E-1,-1.3219733E0,-8.417036E-3,4.9788106E-2,1.1765642E-2,7.8038377E-4,-1.0738217E-1,-7.035415E-2,1.7335075E-1,1.098212E0,-7.8896925E-2,1.0742288E0,1.3849576E-1,-1.390701E-2,1.1125056E-1,4.516339E-2,-4.2541604E-3,7.992515E-2,-1.7447265E-2,8.760531E-3,-3.3205673E-2],"categories":[],"categories_nodes":[],"categories_segments":[],"categories_sizes":[],"default_left":[0,0,0,0,0,0,0,0,0,0,0,0,0,0,0,0,1,0,0,0,0,0,0,0,0],"id":29,"left_children":[1,3,5,-1,7,9,11,-1,-1,-1,-1,13,15,17,19,21,23,-1,-1,-1,-1,-1,-1,-1,-1],"loss_changes":[2.9265276E1,9.9814415E0,1.3715114E1,0E0,5.814307E-1,9.081928E0,1.4581228E1,0E0,0E0,0E0,0E0,9.6380825E0,1.0060584E1,1.1669661E1,5.8340263E0,9.636347E0,9.438194E0,0E0,0E0,0E0,0E0,0E0,0E0,0E0,0E0],"parents":[2147483647,0,0,1,1,2,2,4,4,5,5,6,6,11,11,12,12,13,13,14,14,15,15,16,16],"right_children":[2,4,6,-1,8,10,12,-1,-1,-1,-1,14,16,18,20,22,24,-1,-1,-1,-1,-1,-1,-1,-1],"split_conditions":[-2.8443327E0,-6.232537E0,-1.8982093E0,1.4853069E-1,5.363194E-1,-1.0051196E0,6.6887164E-1,4.9788106E-2,1.1765642E-2,7.8038377E-4,-1.0738217E-1,-1.3912444E0,-1.5135463E0,2.803926E-1,-7.3829496E-1,5.14719E0,1.0582134E0,-1.390701E-2,1.1125056E-1,4.516339E-2,-4.2541604E-3,7.992515E-2,-1.7447265E-2,8.760531E-3,-3.3205673E-2],"split_indices":[0,253,8,0,12,0,221,0,0,0,0,48,143,33,232,41,203,0,0,0,0,0,0,0,0],"split_type":[0,0,0,0,0,0,0,0,0,0,0,0,0,0,0,0,0,0,0,0,0,0,0,0,0],"sum_hessian":[1.31E3,9E0,1.301E3,3E0,6E0,7E0,1.294E3,3E0,3E0,3E0,4E0,9.66E2,3.28E2,6E0,9.6E2,1.1E1,3.17E2,3E0,3E0,5E0,9.55E2,8E0,3E0,3.04E2,1.3E1],"tree_param":{"num_deleted":"0","num_feature":"255","num_nodes":"25","size_leaf_vector":"1"}},{"base_weights":[1.4695842E-2,-1.0243897E-2,7.893001E-1,3.7863618E-1,-4.1377697E-2,1.1064532E0,-6.14251E-2,1.1475855E0,2.049083E-1,-5.6299232E-2,5.9255064E-1,3.958694E-1,1.8714663E0,5.4521537E-1,1.9159406E0,1.2886937E-1,7.772055E-2,-6.083104E-2,6.1670203E-2,6.0987677E-2,1.4597523E-1,1.0923551E0,-3.9985186E-1,1.7180982E-1,1.5170224E-1,3.7372746E-2,-0E0,4.397845E-2,1.22416355E-1,-1.0506734E-3,2.167378E-2,-5.413696E-2,-2.766299E-3,-7.0804353E-3,4.422492E-2,7.367422E-2,1.6015168E-2,-4.3482102E-2,2.4862196E-2,-4.4522233E-2,5.036257E-2],"categories":[],"categories_nodes":[],"categories_segments":[],"categories_sizes":[],"default_left":[1,0,0,1,1,0,0,0,0,0,0,0,0,0,0,0,0,0,0,0,0,0,0,0,0,0,0,0,0,0,0,0,0,0,0,0,0,0,0,0,0],"id":30,"left_children":[1,3,5,7,9,11,-1,13,15,17,19,21,23,25,27,29,-1,31,-1,-1,33,35,37,39,-1,-1,-1,-1,-1,-1,-1,-1,-1,-1,-1,-1,-1,-1,-1,-1,-1],"loss_changes":[2.5393131E1,1.5358231E1,2.7585114E1,1.2186869E1,1.1113195E1,1.8602222E1,0E0,6.577465E0,7.6353045E0,6.6850047E0,7.2478952E0,1.1590201E1,3.2749874E1,1.1996527E0,1.3759899E0,3.4744985E0,0E0,6.284552E0,0E0,0E0,3.8101275E0,2.5854235E0,4.684132E0,8.008195E0,0E0,0E0,0E0,0E0,0E0,0E0,0E0,0E0,0E0,0E0,0E0,0E0,0E0,0E0,0E0,0E0,0E0],"parents":[2147483647,0,0,1,1,2,2,3,3,4,4,5,5,7,7,8,8,9,9,10,10,11,11,12,12,13,13,14,14,15,15,17,17,20,20,21,21,22,22,23,23],"right_children":[2,4,6,8,10,12,-1,14,16,18,20,22,24,26,28,30,-1,32,-1,-1,34,36,38,40,-1,-1,-1,-1,-1,-1,-1,-1,-1,-1,-1,-1,-1,-1,-1,-1,-1],"split_conditions":[2.7657537E0,-1.2892469E0,2E0,-1.4785577E0,7.804087E0,0E0,-6.14251E-2,-1.3952956E-1,2.2215593E0,1.25E0,3.0954698E-1,-2.8670222E-1,-3.6878557E0,-5.840258E-1,-7.263463E-1,6.067133E-1,7.772055E-2,-1.9719523E0,6.1670203E-2,6.0987677E-2,1.2806871E0,2.1919365E0,8.650883E-1,8.665792E-1,1.5170224E-1,3.7372746E-2,-0E0,4.397845E-2,1.22416355E-1,-1.0506734E-3,2.167378E-2,-5.413696E-2,-2.766299E-3,-7.0804353E-3,4.422492E-2,7.367422E-2,1.6015168E-2,-4.3482102E-2,2.4862196E-2,-4.4522233E-2,5.036257E-2],"split_indices":[136,150,246,147,94,229,0,194,0,251,136,52,94,206,2,136,0,147,0,0,34,19,1,140,0,0,0,0,0,0,0,0,0,0,0,0,0,0,0,0,0],"split_type":[0,0,0,0,0,0,0,0,0,0,0,0,0,0,0,0,0,0,0,0,0,0,0,0,0,0,0,0,0,0,0,0,0,0,0,0,0,0,0,0,0],"sum_hessian":[1.309E3,1.269E3,4E1,9.3E1,1.176E3,3.5E1,5E0,1.6E1,7.7E1,1.15E3,2.6E1,1.9E1,1.6E1,1E1,6E0,7.4E1,3E0,1.147E3,3E0,1E1,1.6E1,1E1,9E0,7E0,9E0,7E0,3E0,3E0,3E0,5E1,2.4E1,5E0,1.142E3,1.2E1,4E0,6E0,4E0,6E0,3E0,3E0,4E0],"tree_param":{"num_deleted":"0","num_feature":"255","num_nodes":"41","size_leaf_vector":"1"}},{"base_weights":[-3.8005172E-3,5.528731E-1,-3.0238258E-2,3.1903055E-1,1.3660707E0,-4.748907E-2,4.370502E-1,4.193125E-1,-3.0362844E-2,4.1187936E-1,1.1969904E-1,-5.353222E-2,7.0766464E-2,8.5452205E-1,-3.3694126E-2,6.236392E-1,1.6513366E-2,-1.5924884E-2,4.6690255E-2,-4.5535423E-2,-9.184954E-1,1.5992783E-2,1.1929756E0,1.687844E-1,-5.059744E-1,-2.3705643E-3,3.533689E-2,-1.795554E-2,2.2476317E-2,-3.051386E-3,3.289325E-2,2.828874E-2,-7.791593E-2,-1.8379776E-2,1.6983245E-2,1.4972371E-2,7.185904E-2,-8.075681E-4,3.763148E-2,-4.1375425E-2,-1.647341E-3],"categories":[],"categories_nodes":[],"categories_segments":[],"categories_sizes":[],"default_left":[0,0,1,0,0,1,0,0,0,0,0,0,0,0,0,0,0,0,0,1,0,0,0,0,0,0,0,0,0,0,0,0,0,0,0,0,0,0,0,0,0],"id":31,"left_children":[1,3,5,7,9,11,13,15,-1,17,-1,19,-1,21,23,25,27,-1,-1,29,31,33,35,37,39,-1,-1,-1,-1,-1,-1,-1,-1,-1,-1,-1,-1,-1,-1,-1,-1],"loss_changes":[1.947945E1,1.0805283E1,1.0195218E1,4.694553E0,1.1484079E1,1.0750946E1,8.954388E0,3.547001E0,0E0,3.408566E0,0E0,8.293516E0,0E0,6.671303E0,2.2229052E0,1.7165766E0,2.7728734E0,0E0,0E0,1.3155284E1,1.1427288E1,1.1153209E0,3.1054478E0,1.813385E0,9.51352E-1,0E0,0E0,0E0,0E0,0E0,0E0,0E0,0E0,0E0,0E0,0E0,0E0,0E0,0E0,0E0,0E0],"parents":[2147483647,0,0,1,1,2,2,3,3,4,4,5,5,6,6,7,7,9,9,11,11,13,13,14,14,15,15,16,16,19,19,20,20,21,21,22,22,23,23,24,24],"right_children":[2,4,6,8,10,12,14,16,-1,18,-1,20,-1,22,24,26,28,-1,-1,30,32,34,36,38,40,-1,-1,-1,-1,-1,-1,-1,-1,-1,-1,-1,-1,-1,-1,-1,-1],"split_conditions":[-1.6024417E0,2.3316417E0,2.3226724E0,2.7742702E-1,-1.1102324E0,1.6152813E1,4.3804374E-1,-9.3844555E-2,-3.0362844E-2,4.375404E-1,1.1969904E-1,6.570777E0,7.0766464E-2,4.0610142E-2,2.1909475E0,-1.524952E0,7.5904304E-1,-1.5924884E-2,4.6690255E-2,2.7657537E0,-1.4406438E0,-7.8892505E-1,-3.4836188E-1,4.1338754E0,-1.76523E-1,-2.3705643E-3,3.533689E-2,-1.795554E-2,2.2476317E-2,-3.051386E-3,3.289325E-2,2.828874E-2,-7.791593E-2,-1.8379776E-2,1.6983245E-2,1.4972371E-2,7.185904E-2,-8.075681E-4,3.763148E-2,-4.1375425E-2,-1.647341E-3],"split_indices":[141,136,141,98,14,216,8,209,0,118,0,31,0,27,189,116,79,0,0,136,97,50,206,2,52,0,0,0,0,0,0,0,0,0,0,0,0,0,0,0,0],"split_type":[0,0,0,0,0,0,0,0,0,0,0,0,0,0,0,0,0,0,0,0,0,0,0,0,0,0,0,0,0,0,0,0,0,0,0,0,0,0,0,0,0],"sum_hessian":[1.325E3,5.9E1,1.266E3,4.7E1,1.2E1,1.222E3,4.4E1,4.3E1,4E0,7E0,5E0,1.218E3,4E0,2.3E1,2.1E1,2.8E1,1.5E1,3E0,4E0,1.208E3,1E1,7E0,1.6E1,1.5E1,6E0,3E0,2.5E1,8E0,7E0,1.183E3,2.5E1,3E0,7E0,3E0,4E0,4E0,1.2E1,1.2E1,3E0,3E0,3E0],"tree_param":{"num_deleted":"0","num_feature":"255","num_nodes":"41","size_leaf_vector":"1"}},{"base_weights":[-2.9345675E-4,-3.4694504E-2,5.798598E-1,4.1444805E-1,-5.488897E-2,1.5338761E0,3.2579023E-1,2.2604425E-1,1.6059524E0,-2.9521886E-1,-2.710845E-2,8.655442E-1,1.3387156E-1,-2.735914E-1,7.4746877E-1,-1.9223301E-1,4.7280914E-1,1.7807564E-2,1.2146328E-1,-1.2600538E-1,-8.8222903E-1,-5.246966E-2,3.1051293E-1,1.1861764E0,-0E0,-1.0457618E0,6.4174E-1,1.1722547E0,9.627065E-2,2.6181007E-2,-1.8848917E-2,3.1466573E-2,-1.2075106E-2,-4.025359E-2,-3.1213157E-3,-1.6013207E-2,-7.27547E-2,-4.993576E-3,6.7734867E-3,4.255107E-2,2.4053378E-3,3.2328166E-2,7.6957434E-2,2.9806625E-3,-6.808691E-2,-1.8189916E-2,5.1422633E-2,7.9579994E-2,3.18625E-2,2.867929E-2,-4.765384E-2],"categories":[],"categories_nodes":[],"categories_segments":[],"categories_sizes":[],"default_left":[0,0,0,0,0,0,0,0,0,0,0,0,0,0,0,0,0,0,0,0,0,0,0,0,0,0,0,0,0,0,0,0,0,0,0,0,0,0,0,0,0,0,0,0,0,0,0,0,0,0,0],"id":32,"left_children":[1,3,5,7,9,11,13,15,17,19,21,23,-1,25,27,29,31,-1,-1,33,35,37,39,41,-1,43,45,47,49,-1,-1,-1,-1,-1,-1,-1,-1,-1,-1,-1,-1,-1,-1,-1,-1,-1,-1,-1,-1,-1,-1],"loss_changes":[2.6030592E1,1.1179413E1,1.7008528E1,1.1351435E1,7.8513756E0,8.792377E0,1.5163925E1,4.9701056E0,6.0591145E0,1.1906275E1,9.075287E0,3.0152807E0,0E0,1.8381308E1,9.441984E0,2.5632386E0,3.544938E0,0E0,0E0,4.0077353E0,8.048559E0,8.811744E0,1.0364771E1,3.100195E-1,0E0,5.101203E0,5.1068673E0,3.4742546E0,8.021764E0,0E0,0E0,0E0,0E0,0E0,0E0,0E0,0E0,0E0,0E0,0E0,0E0,0E0,0E0,0E0,0E0,0E0,0E0,0E0,0E0,0E0,0E0],"parents":[2147483647,0,0,1,1,2,2,3,3,4,4,5,5,6,6,7,7,8,8,9,9,10,10,11,11,13,13,14,14,15,15,16,16,19,19,20,20,21,21,22,22,23,23,25,25,26,26,27,27,28,28],"right_children":[2,4,6,8,10,12,14,16,18,20,22,24,-1,26,28,30,32,-1,-1,34,36,38,40,42,-1,44,46,48,50,-1,-1,-1,-1,-1,-1,-1,-1,-1,-1,-1,-1,-1,-1,-1,-1,-1,-1,-1,-1,-1,-1],"split_conditions":[2.0650222E0,-1.5659479E0,-8.263491E-1,9.6094304E-1,-4.468709E-1,-7.159184E-1,-3.522683E-1,6.126256E-1,-1.2693317E-1,2.4263977E-1,1.5510352E0,-1.8394198E-1,1.3387156E-1,5.089264E-1,1.0868338E0,-8.111383E-1,6.2205845E-1,1.7807564E-2,1.2146328E-1,-1.6235971E0,5E-1,8.75E-1,1.3624526E0,2.3316417E0,-0E0,-2.3989558E0,0E0,-3.5914323E-1,2.503979E-1,2.6181007E-2,-1.8848917E-2,3.1466573E-2,-1.2075106E-2,-4.025359E-2,-3.1213157E-3,-1.6013207E-2,-7.27547E-2,-4.993576E-3,6.7734867E-3,4.255107E-2,2.4053378E-3,3.2328166E-2,7.6957434E-2,2.9806625E-3,-6.808691E-2,-1.8189916E-2,5.1422633E-2,7.9579994E-2,3.18625E-2,2.867929E-2,-4.765384E-2],"split_indices":[20,141,68,85,137,199,46,189,55,136,30,69,0,139,4,199,94,0,0,39,56,251,82,136,0,2,56,85,7,0,0,0,0,0,0,0,0,0,0,0,0,0,0,0,0,0,0,0,0,0,0],"split_type":[0,0,0,0,0,0,0,0,0,0,0,0,0,0,0,0,0,0,0,0,0,0,0,0,0,0,0,0,0,0,0,0,0,0,0,0,0,0,0,0,0,0,0,0,0,0,0,0,0,0,0],"sum_hessian":[1.305E3,1.233E3,7.2E1,5.2E1,1.181E3,1.4E1,5.8E1,4.6E1,6E0,1.21E2,1.06E3,1E1,4E0,2.4E1,3.4E1,1.7E1,2.9E1,3E0,3E0,9.5E1,2.6E1,9.87E2,7.3E1,7E0,3E0,1.3E1,1.1E1,2E1,1.4E1,3E0,1.4E1,2.4E1,5E0,7E0,8.8E1,1.4E1,1.2E1,7.89E2,1.98E2,2.3E1,5E1,4E0,3E0,3E0,1E1,3E0,8E0,1E1,1E1,1E1,4E0],"tree_param":{"num_deleted":"0","num_feature":"255","num_nodes":"51","size_leaf_vector":"1"}},{"base_weights":[-2.1499524E-2,1.3949399E0,-3.3453215E-2,1.3379739E-1,5.6756836E-1,-2.4411429E-2,-1.6987439E0,4.057795E-2,4.7843996E-3,-3.1301294E-2,8.75918E-2,-1.3071385E-1,-1.6676256E-2,-4.4853058E-2,4.4298437E-1,-2.936177E-3,2.6238624E-2,-1.5671836E-2,3.749085E-2],"categories":[],"categories_nodes":[],"categories_segments":[],"categories_sizes":[],"default_left":[0,0,1,0,0,1,0,0,0,1,0,0,0,1,0,0,0,0,0],"id":33,"left_children":[1,3,5,-1,7,9,11,-1,-1,13,-1,-1,-1,15,17,-1,-1,-1,-1],"loss_changes":[2.226033E1,9.815428E0,1.951115E1,0E0,7.5269365E-1,1.584127E1,7.582611E0,0E0,0E0,8.335686E0,0E0,0E0,0E0,9.978951E0,8.634066E0,0E0,0E0,0E0,0E0],"parents":[2147483647,0,0,1,1,2,2,4,4,5,5,6,6,9,9,13,13,14,14],"right_children":[2,4,6,-1,8,10,12,-1,-1,14,-1,-1,-1,16,18,-1,-1,-1,-1],"split_conditions":[-2.8443327E0,-5.102686E0,5.2592535E0,1.3379739E-1,-5.037922E-1,9.213946E0,-2.510802E-1,4.057795E-2,4.7843996E-3,2.3226724E0,8.75918E-2,-1.3071385E-1,-1.6676256E-2,2.5612662E0,-1.0530572E-1,-2.936177E-3,2.6238624E-2,-1.5671836E-2,3.749085E-2],"split_indices":[0,10,136,0,43,191,118,0,0,141,0,0,0,136,99,0,0,0,0],"split_type":[0,0,0,0,0,0,0,0,0,0,0,0,0,0,0,0,0,0,0],"sum_hessian":[1.319E3,1E1,1.309E3,3E0,7E0,1.303E3,6E0,4E0,3E0,1.299E3,4E0,3E0,3E0,1.264E3,3.5E1,1.235E3,2.9E1,1E1,2.5E1],"tree_param":{"num_deleted":"0","num_feature":"255","num_nodes":"19","size_leaf_vector":"1"}},{"base_weights":[1.31429965E-2,-1.20349E-4,1.4517171E0,-9.504977E-2,1.038639E-1,1.3828126E-1,4.3656012E-1,-2.0415902E-1,4.9471113E-1,3.4640208E-1,-1.9560152E-1,-6.5778317E-3,5.3128302E-2,-2.6852384E-1,3.767094E-2,2.6330125E-1,9.537626E-1,3.6878765E-1,-8.061876E-2,1.0168674E-1,-2.2779767E-1,-1.02960365E-2,-2.365475E-2,-5.316205E-4,4.2006508E-2,-1.0650986E-2,1.7258797E-2,1.5514724E-2,5.499881E-2,3.1165266E-2,1.0645268E-2,2.5304645E-2,-1.471363E-2],"categories":[],"categories_nodes":[],"categories_segments":[],"categories_sizes":[],"default_left":[1,0,0,0,1,0,0,0,0,1,0,0,0,0,0,0,0,1,0,0,0,0,0,0,0,0,0,0,0,0,0,0,0],"id":34,"left_children":[1,3,5,7,9,-1,11,13,15,17,19,-1,-1,21,23,25,27,29,-1,-1,31,-1,-1,-1,-1,-1,-1,-1,-1,-1,-1,-1,-1],"loss_changes":[2.5064217E1,1.2792149E1,1.4478289E1,4.3700146E1,4.4969288E1,0E0,3.0780442E0,8.952145E0,1.0887442E1,1.5466396E1,2.0164646E1,0E0,0E0,5.636154E0,4.78202E0,2.8946462E0,2.8105888E0,1.3233429E1,0E0,0E0,1.3494929E1,0E0,0E0,0E0,0E0,0E0,0E0,0E0,0E0,0E0,0E0,0E0,0E0],"parents":[2147483647,0,0,1,1,2,2,3,3,4,4,6,6,7,7,8,8,9,9,10,10,13,13,14,14,15,15,16,16,17,17,20,20],"right_children":[2,4,6,8,10,-1,12,14,16,18,20,-1,-1,22,24,26,28,30,-1,-1,32,-1,-1,-1,-1,-1,-1,-1,-1,-1,-1,-1,-1],"split_conditions":[6.749131E0,3.4546006E-2,3.1980743E0,5.270755E-1,2.1677564E-1,1.3828126E-1,-1.6365667E-1,1.3947949E-1,8.106021E-1,1.3721298E0,-1.305299E0,-6.5778317E-3,5.3128302E-2,3.954425E-2,2.0741713E0,-4.9812973E-1,9.20538E-2,-1.17471464E-1,-8.061876E-2,1.0168674E-1,-7.738995E-1,-1.02960365E-2,-2.365475E-2,-5.316205E-4,4.2006508E-2,-1.0650986E-2,1.7258797E-2,1.5514724E-2,5.499881E-2,3.1165266E-2,1.0645268E-2,2.5304645E-2,-1.471363E-2],"split_indices":[80,136,134,52,94,0,0,94,0,193,187,0,0,216,132,189,113,133,0,0,47,0,0,0,0,0,0,0,0,0,0,0,0],"split_type":[0,0,0,0,0,0,0,0,0,0,0,0,0,0,0,0,0,0,0,0,0,0,0,0,0,0,0,0,0,0,0,0,0],"sum_hessian":[1.305E3,1.294E3,1.1E1,6.77E2,6.17E2,4E0,7E0,5.72E2,1.05E2,3.41E2,2.76E2,4E0,3E0,4.52E2,1.2E2,7.1E1,3.4E1,3.38E2,3E0,3E0,2.73E2,3.48E2,1.04E2,1.14E2,6E0,1E1,6.1E1,7E0,2.7E1,1.27E2,2.11E2,2.2E1,2.51E2],"tree_param":{"num_deleted":"0","num_feature":"255","num_nodes":"33","size_leaf_vector":"1"}},{"base_weights":[2.5698045E-2,1.0088118E-1,1.6691891E-2,-5.3483117E-2,1.2883443E-1,-2.2704318E-2,-3.7861705E-1,5.310071E-1,7.4652E-2,-4.184999E-2,4.9136594E-1,-7.7335656E-2,-3.0286703E-1,2.3035651E-1,1.731134E0,1.8478328E-1,-1.303091E-1,-3.7386206E-3,7.4647525E-3,6.878599E-2,-1.5058254E-2,-3.1809874E-2,-4.5974697E-3,2.1485407E-2,-7.1181743E-3,1.3138215E-1,3.5055365E-2,-4.027997E-2,1.0585948E-2,-5.5158723E-2,-4.5581963E-3],"categories":[],"categories_nodes":[],"categories_segments":[],"categories_sizes":[],"default_left":[0,0,0,0,0,0,0,0,0,0,0,0,0,1,0,0,0,0,0,0,0,0,0,0,0,0,0,0,0,0,0],"id":35,"left_children":[1,-1,3,5,7,9,11,13,15,17,19,-1,21,23,25,27,29,-1,-1,-1,-1,-1,-1,-1,-1,-1,-1,-1,-1,-1,-1],"loss_changes":[2.3909575E1,0E0,1.0567563E1,8.207237E0,1.1165581E1,7.4064875E0,5.6289062E0,2.1415028E1,1.0345219E1,4.591277E0,1.9445477E1,0E0,4.649446E0,3.8050258E0,8.906002E0,8.060804E0,5.873273E0,0E0,0E0,0E0,0E0,0E0,0E0,0E0,0E0,0E0,0E0,0E0,0E0,0E0,0E0],"parents":[2147483647,0,0,2,2,3,3,4,4,5,5,6,6,7,7,8,8,9,9,10,10,12,12,13,13,14,14,15,15,16,16],"right_children":[2,-1,4,6,8,10,12,14,16,18,20,-1,22,24,26,28,30,-1,-1,-1,-1,-1,-1,-1,-1,-1,-1,-1,-1,-1,-1],"split_conditions":[-4.3283534E0,1.0088118E-1,1.5384302E-1,4.3295795E-1,-9.461599E-1,1.5526154E0,-7.097947E-1,2.3316417E0,1.5820475E-1,7.230054E-1,2.5576118E-1,-7.7335656E-2,1.1597043E-1,2.6666668E-1,7.993673E-2,-1.6931726E0,-2.8802365E-1,-3.7386206E-3,7.4647525E-3,6.878599E-2,-1.5058254E-2,-3.1809874E-2,-4.5974697E-3,2.1485407E-2,-7.1181743E-3,1.3138215E-1,3.5055365E-2,-4.027997E-2,1.0585948E-2,-5.5158723E-2,-4.5581963E-3],"split_indices":[4,0,82,12,139,136,134,136,46,85,83,0,140,103,137,3,20,0,0,0,0,0,0,0,0,0,0,0,0,0,0],"split_type":[0,0,0,0,0,0,0,0,0,0,0,0,0,0,0,0,0,0,0,0,0,0,0,0,0,0,0,0,0,0,0],"sum_hessian":[1.345E3,5E0,1.34E3,8.24E2,5.16E2,7.54E2,7E1,6E1,4.56E2,7.28E2,2.6E1,3E0,6.7E1,4.9E1,1.1E1,2.97E2,1.59E2,6.22E2,1.06E2,1.2E1,1.4E1,2.5E1,4.2E1,3.2E1,1.7E1,5E0,6E0,7E0,2.9E2,5E0,1.54E2],"tree_param":{"num_deleted":"0","num_feature":"255","num_nodes":"31","size_leaf_vector":"1"}},{"base_weights":[1.0521339E-2,6.742114E-2,4.2613936E-3,-2.8334244E-3,1.1629286E0,3.786814E-3,-1.08107604E-1,9.477062E-2,-9.2041E-4,2.5954548E-1,-2.30643E-2,5.9638E-3,5.3280104E-2,-1.704054E-3,2.3899307E-2],"categories":[],"categories_nodes":[],"categories_segments":[],"categories_sizes":[],"default_left":[0,0,1,0,0,0,0,0,0,0,0,0,0,0,0],"id":36,"left_children":[1,-1,3,5,7,9,-1,-1,-1,11,13,-1,-1,-1,-1],"loss_changes":[1.0788609E1,0E0,1.0805998E1,1.8707724E1,7.145072E0,8.888586E0,0E0,0E0,0E0,1.3661425E1,6.4192157E0,0E0,0E0,0E0,0E0],"parents":[2147483647,0,0,2,2,3,3,4,4,5,5,9,9,10,10],"right_children":[2,-1,4,6,8,10,-1,-1,-1,12,14,-1,-1,-1,-1],"split_conditions":[-1.2436861E0,6.742114E-2,9.213946E0,8.621709E0,2.6346495E0,-1.233177E0,-1.08107604E-1,9.477062E-2,-9.2041E-4,-3.952472E-1,2.1113076E0,5.9638E-3,5.3280104E-2,-1.704054E-3,2.3899307E-2],"split_indices":[197,0,191,83,5,150,0,0,0,50,84,0,0,0,0],"split_type":[0,0,0,0,0,0,0,0,0,0,0,0,0,0,0],"sum_hessian":[1.304E3,5E0,1.299E3,1.292E3,7E0,1.289E3,3E0,4E0,3E0,1.22E2,1.167E3,1.05E2,1.7E1,1.143E3,2.4E1],"tree_param":{"num_deleted":"0","num_feature":"255","num_nodes":"15","size_leaf_vector":"1"}},{"base_weights":[-4.273282E-3,1.2628595E0,-1.9918328E-2,5.5416E-1,1.345583E-1,4.4290558E-1,-3.5397064E-2,-5.0435625E-3,1.0507354E0,6.963927E-1,-1.0666817E-1,-2.418454E-2,-5.247134E-1,6.706514E-2,2.3624199E-2,1.0057459E0,2.3059294E-1,4.5727575E-1,-5.992856E-1,-5.610969E-1,-1.3893146E-2,-1.9184534E-2,-8.448095E-1,7.5262226E-2,2.9368041E-2,-2.4371525E-2,2.5237152E-2,3.5015337E-2,3.7462946E-3,-1.2228309E-2,-3.71602E-2,-5.8330994E-2,9.821958E-3,2.4257518E-2,-1.1805443E-3,1.2545623E-2,-1.7388348E-2,-6.344052E-2,-9.835365E-3],"categories":[],"categories_nodes":[],"categories_segments":[],"categories_sizes":[],"default_left":[0,0,1,0,0,0,0,0,0,0,0,0,0,0,0,1,1,0,1,0,0,0,0,0,0,0,0,0,0,0,0,0,0,0,0,0,0,0,0],"id":37,"left_children":[1,3,5,7,-1,9,11,-1,13,15,17,19,21,-1,-1,23,25,27,29,31,33,35,37,-1,-1,-1,-1,-1,-1,-1,-1,-1,-1,-1,-1,-1,-1,-1,-1],"loss_changes":[2.600953E1,1.4379972E1,9.302362E0,4.1042438E0,0E0,5.984269E0,6.85086E0,0E0,3.6102486E-1,3.8232498E0,4.1775603E0,6.7532663E0,4.4282928E0,0E0,0E0,2.4593258E0,2.8067589E0,5.204656E-1,1.2786555E-1,1.0876415E1,5.8429847E0,1.1619339E0,4.2753935E0,0E0,0E0,0E0,0E0,0E0,0E0,0E0,0E0,0E0,0E0,0E0,0E0,0E0,0E0,0E0,0E0],"parents":[2147483647,0,0,1,1,2,2,3,3,5,5,6,6,8,8,9,9,10,10,11,11,12,12,15,15,16,16,17,17,18,18,19,19,20,20,21,21,22,22],"right_children":[2,4,6,8,-1,10,12,-1,14,16,18,20,22,-1,-1,24,26,28,30,32,34,36,38,-1,-1,-1,-1,-1,-1,-1,-1,-1,-1,-1,-1,-1,-1,-1,-1],"split_conditions":[-1.9907037E0,9.375721E-1,-4.8227916E0,-1.2923411E0,1.345583E-1,8.264341E-1,1.0748429E0,-5.0435625E-3,6.816403E-1,2E0,-8.2154113E-1,-1.7264991E0,-5.922723E-1,6.706514E-2,2.3624199E-2,-1.1874841E0,1.625839E0,-4.6160683E-1,-5.3864247E-1,5.1019307E-2,-1.3164301E0,-2.3829195E-1,3.2948397E-2,7.5262226E-2,2.9368041E-2,-2.4371525E-2,2.5237152E-2,3.5015337E-2,3.7462946E-3,-1.2228309E-2,-3.71602E-2,-5.8330994E-2,9.821958E-3,2.4257518E-2,-1.1805443E-3,1.2545623E-2,-1.7388348E-2,-6.344052E-2,-9.835365E-3],"split_indices":[247,203,188,1,0,1,107,0,2,213,99,9,1,0,0,201,17,91,6,41,44,14,137,0,0,0,0,0,0,0,0,0,0,0,0,0,0,0,0],"split_type":[0,0,0,0,0,0,0,0,0,0,0,0,0,0,0,0,0,0,0,0,0,0,0,0,0,0,0,0,0,0,0,0,0,0,0,0,0,0,0],"sum_hessian":[1.316E3,1.5E1,1.301E3,1.1E1,4E0,4.1E1,1.26E3,5E0,6E0,2.8E1,1.3E1,1.233E3,2.7E1,3E0,3E0,1.6E1,1.2E1,6E0,7E0,2.2E1,1.211E3,1.1E1,1.6E1,6E0,1E1,3E0,9E0,3E0,3E0,3E0,4E0,1.2E1,1E1,2.2E1,1.189E3,6E0,5E0,9E0,7E0],"tree_param":{"num_deleted":"0","num_feature":"255","num_nodes":"39","size_leaf_vector":"1"}},{"base_weights":[-7.147875E-3,1.262771E0,-1.6972791E-2,1.8806247E0,-5.4582856E-3,-1.0960085E0,-7.6954183E-3,1.29644E-1,3.366065E-2,2.830108E-3,-1.5478128E0,1.2140133E0,-1.7289644E-2,-1.00695886E-1,-2.7661432E-2,2.045474E-2,8.328883E-2,2.598107E-1,-4.2807966E-2,4.623871E-3,5.167523E-2,4.3336535E-3,-4.602828E-3],"categories":[],"categories_nodes":[],"categories_segments":[],"categories_sizes":[],"default_left":[0,0,0,0,0,0,0,0,0,0,0,0,0,0,0,0,0,0,1,0,0,0,0],"id":38,"left_children":[1,3,5,7,-1,9,11,-1,-1,-1,13,15,17,-1,-1,-1,-1,19,21,-1,-1,-1,-1],"loss_changes":[1.6253998E1,8.859008E0,1.2915018E1,3.9477272E0,0E0,5.9650307E0,1.5045302E1,0E0,0E0,0E0,2.3377724E0,2.7473783E0,9.061689E0,0E0,0E0,0E0,0E0,1.3774015E1,7.507585E0,0E0,0E0,0E0,0E0],"parents":[2147483647,0,0,1,1,2,2,3,3,5,5,6,6,10,10,11,11,12,12,17,17,18,18],"right_children":[2,4,6,8,-1,10,12,-1,-1,-1,14,16,18,-1,-1,-1,-1,20,22,-1,-1,-1,-1],"split_conditions":[-2.7075858E0,-5.037922E-1,-7.86402E0,-2.1228096E0,-5.4582856E-3,-8.883149E-1,-2.902448E0,1.29644E-1,3.366065E-2,2.830108E-3,-1.6951535E0,-1.0679572E0,-1.1894193E0,-1.00695886E-1,-2.7661432E-2,2.045474E-2,8.328883E-2,-4.663421E-1,-3.7601644E-1,4.623871E-3,5.167523E-2,4.3336535E-3,-4.602828E-3],"split_indices":[150,43,90,3,0,193,11,0,0,0,2,194,150,0,0,0,0,50,205,0,0,0,0],"split_type":[0,0,0,0,0,0,0,0,0,0,0,0,0,0,0,0,0,0,0,0,0,0,0],"sum_hessian":[1.31E3,9E0,1.301E3,6E0,3E0,1E1,1.291E3,3E0,3E0,3E0,7E0,9E0,1.282E3,4E0,3E0,4E0,5E0,1.07E2,1.175E3,8.9E1,1.8E1,3.23E2,8.52E2],"tree_param":{"num_deleted":"0","num_feature":"255","num_nodes":"23","size_leaf_vector":"1"}},{"base_weights":[4.7293273E-3,1.431527E0,-3.2547833E-3,2.228622E-3,1.2177999E-1,6.269005E-3,-1.1843553E0,-2.0253602E-2,3.6047965E-1,-1.1490227E-1,1.8447189E-2,-2.5786025E-2,6.1314818E-2,4.6616575E-1,-7.1573037E-1,-6.9848723E-3,1.54614E-3,-4.3043904E-2,2.7487656E-2,-5.602015E-2,-1.1442311E-2],"categories":[],"categories_nodes":[],"categories_segments":[],"categories_sizes":[],"default_left":[0,0,1,0,0,0,0,0,0,0,0,0,0,0,0,0,0,0,0,0,0],"id":39,"left_children":[1,3,5,-1,-1,7,9,11,13,-1,-1,15,-1,17,19,-1,-1,-1,-1,-1,-1],"loss_changes":[1.4330166E1,9.391644E0,1.4062189E1,0E0,0E0,1.1596668E1,1.8339699E1,7.8079977E0,1.009037E1,0E0,0E0,7.38581E0,0E0,9.205162E0,1.1849046E0,0E0,0E0,0E0,0E0,0E0,0E0],"parents":[2147483647,0,0,1,1,2,2,5,5,6,6,7,7,8,8,11,11,13,13,14,14],"right_children":[2,4,6,-1,-1,8,10,12,14,-1,-1,16,-1,18,20,-1,-1,-1,-1,-1,-1],"split_conditions":[-1.1696566E0,-1.1081545E0,5.2592535E0,2.228622E-3,1.2177999E-1,1.7373375E0,1.6800933E0,3.0994134E0,4.296259E0,-1.1490227E-1,1.8447189E-2,-3.3333334E-1,6.1314818E-2,-8.502628E-1,-5.5562526E-2,-6.9848723E-3,1.54614E-3,-4.3043904E-2,2.7487656E-2,-5.602015E-2,-1.1442311E-2],"split_indices":[98,15,136,0,0,20,224,116,226,0,0,151,0,207,101,0,0,0,0,0,0],"split_type":[0,0,0,0,0,0,0,0,0,0,0,0,0,0,0,0,0,0,0,0,0],"sum_hessian":[1.244E3,6E0,1.238E3,3E0,3E0,1.229E3,9E0,1.144E3,8.5E1,5E0,4E0,1.14E3,4E0,7.8E1,7E0,3.79E2,7.61E2,4E0,7.4E1,3E0,4E0],"tree_param":{"num_deleted":"0","num_feature":"255","num_nodes":"21","size_leaf_vector":"1"}},{"base_weights":[1.9825267E-2,-1.4571304E-2,4.9212572E-1,-2.2088261E-2,8.877098E-2,7.3633444E-1,-1.8561158E-1,-3.6460232E-2,3.3770427E-1,-1.4404586E-1,9.402705E-1,4.2304777E-2,-6.803848E-2,-2.0870173E-2,-5.327795E-1,4.7829086E-1,-4.4538204E-2,3.5167792E-1,-3.9883498E-2,1.4987777E0,4.5878905E-1,4.3264207E-1,-3.427875E-1,-2.1634065E-3,1.656508E-2,6.180976E-3,-4.424856E-2,1.7719837E-3,4.573463E-2,-9.09827E-4,3.7555076E-2,4.3629553E-2,1.21717826E-1,9.236046E-3,5.8844317E-2,3.351308E-2,-0E0,-3.926096E-2,3.9595363E-4],"categories":[],"categories_nodes":[],"categories_segments":[],"categories_sizes":[],"default_left":[0,0,0,1,0,0,0,1,0,0,0,0,0,0,0,0,0,1,0,0,1,0,0,0,0,0,0,0,0,0,0,0,0,0,0,0,0,0,0],"id":40,"left_children":[1,3,5,7,-1,9,11,13,15,17,19,21,-1,23,25,27,-1,29,-1,31,33,35,37,-1,-1,-1,-1,-1,-1,-1,-1,-1,-1,-1,-1,-1,-1,-1,-1],"loss_changes":[2.1060379E1,1.6090956E1,1.4756569E1,6.197643E0,0E0,1.188525E1,6.6175184E0,8.885972E0,8.329282E0,4.537343E0,1.33688965E1,3.3139231E0,0E0,8.843674E0,8.2767725E0,7.9895334E0,0E0,1.2688507E0,0E0,1.1605431E1,5.5506706E0,1.0857835E0,1.7907492E0,0E0,0E0,0E0,0E0,0E0,0E0,0E0,0E0,0E0,0E0,0E0,0E0,0E0,0E0,0E0,0E0],"parents":[2147483647,0,0,1,1,2,2,3,3,5,5,6,6,7,7,8,8,9,9,10,10,11,11,13,13,14,14,15,15,17,17,19,19,20,20,21,21,22,22],"right_children":[2,4,6,8,-1,10,12,14,16,18,20,22,-1,24,26,28,-1,30,-1,32,34,36,38,-1,-1,-1,-1,-1,-1,-1,-1,-1,-1,-1,-1,-1,-1,-1,-1],"split_conditions":[2.3369215E0,4.1387086E0,1.3616517E0,1.492516E0,8.877098E-2,-5E-1,4.1915126E-2,1.7834377E0,1.2910118E0,7.1512395E-1,7.0403564E-1,1.8523153E0,-6.803848E-2,1.4357666E0,-7.043214E-1,3.0443975E-1,-4.4538204E-2,-3.9883375E-1,-3.9883498E-2,2.3316417E0,4.4180158E-1,8.6305565E-1,2.5336862E-1,-2.1634065E-3,1.656508E-2,6.180976E-3,-4.424856E-2,1.7719837E-3,4.573463E-2,-9.09827E-4,3.7555076E-2,4.3629553E-2,1.21717826E-1,9.236046E-3,5.8844317E-2,3.351308E-2,-0E0,-3.926096E-2,3.9595363E-4],"split_indices":[233,136,40,193,0,56,92,82,26,236,142,94,0,136,7,55,0,3,0,136,68,5,141,0,0,0,0,0,0,0,0,0,0,0,0,0,0,0,0],"split_type":[0,0,0,0,0,0,0,0,0,0,0,0,0,0,0,0,0,0,0,0,0,0,0,0,0,0,0,0,0,0,0,0,0,0,0,0,0,0,0],"sum_hessian":[1.292E3,1.205E3,8.7E1,1.201E3,4E0,6.4E1,2.3E1,1.156E3,4.5E1,1.2E1,5.2E1,2E1,3E0,1.122E3,3.4E1,4.1E1,4E0,7E0,5E0,2.3E1,2.9E1,1E1,1E1,1.056E3,6.6E1,1.2E1,2.2E1,2.1E1,2E1,4E0,3E0,1.5E1,8E0,2.2E1,7E0,6E0,4E0,4E0,6E0],"tree_param":{"num_deleted":"0","num_feature":"255","num_nodes":"39","size_leaf_vector":"1"}},{"base_weights":[4.5573604E-3,-6.099563E-3,9.918117E-1,5.9325225E-3,-4.668935E-1,1.5733254E0,-1.7478906E-2,-2.2322664E-2,2.4542798E-1,-1.2412573E-1,-9.769881E-1,1.19484186E-1,3.0706966E-2,-4.894303E-2,5.606537E-1,1.3116883E-1,1.3126299E-1,3.2879442E-1,-3.8121396E-1,-6.655703E-3,-1.3261417E0,-2.1633215E-3,-6.1810892E-2,5.4081973E-2,9.565401E-3,2.664472E-2,-2.1356868E-2,1.894911E-3,2.3787625E-2,8.284623E-3,-3.132729E-2,-3.152555E-2,-7.761026E-2],"categories":[],"categories_nodes":[],"categories_segments":[],"categories_sizes":[],"default_left":[0,1,0,0,0,0,0,0,0,0,0,0,0,0,0,0,1,0,0,0,0,0,0,0,0,0,0,0,0,0,0,0,0],"id":41,"left_children":[1,3,5,7,9,11,-1,13,15,17,19,-1,-1,21,23,-1,25,27,29,-1,31,-1,-1,-1,-1,-1,-1,-1,-1,-1,-1,-1,-1],"loss_changes":[1.3792563E1,7.18994E0,1.1592888E1,8.527127E0,5.538471E0,6.0624123E0,0E0,1.7419676E1,3.548682E1,2.5758324E0,3.507887E0,0E0,0E0,7.070468E0,9.094547E0,0E0,2.8944897E1,2.7260107E-1,2.028329E0,0E0,2.1835709E-1,0E0,0E0,0E0,0E0,0E0,0E0,0E0,0E0,0E0,0E0,0E0,0E0],"parents":[2147483647,0,0,1,1,2,2,3,3,4,4,5,5,7,7,8,8,9,9,10,10,13,13,14,14,16,16,17,17,18,18,20,20],"right_children":[2,4,6,8,10,12,-1,14,16,18,20,-1,-1,22,24,-1,26,28,30,-1,32,-1,-1,-1,-1,-1,-1,-1,-1,-1,-1,-1,-1],"split_conditions":[6.5538073E0,1.0412457E0,1E0,1.3318202E0,5E-1,-6.252453E-1,-1.7478906E-2,3.5068479E0,-3.8663235E-1,-8.190316E-1,-5.068383E-1,1.19484186E-1,3.0706966E-2,1.2874653E0,-5.177878E-2,1.3116883E-1,-1.3746156E-1,9.1574794E-1,-7.6684976E-1,-6.655703E-3,-5.2260226E-1,-2.1633215E-3,-6.1810892E-2,5.4081973E-2,9.565401E-3,2.664472E-2,-2.1356868E-2,1.894911E-3,2.3787625E-2,8.284623E-3,-3.132729E-2,-3.152555E-2,-7.761026E-2],"split_indices":[29,77,123,136,56,16,0,191,29,37,69,0,0,136,136,0,193,47,41,0,116,0,0,0,0,0,0,0,0,0,0,0,0],"split_type":[0,0,0,0,0,0,0,0,0,0,0,0,0,0,0,0,0,0,0,0,0,0,0,0,0,0,0,0,0,0,0,0,0],"sum_hessian":[1.3E3,1.287E3,1.3E1,1.255E3,3.2E1,9E0,4E0,1.123E3,1.32E2,2E1,1.2E1,4E0,5E0,1.075E3,4.8E1,5E0,1.27E2,7E0,1.3E1,4E0,8E0,1.071E3,4E0,1.9E1,2.9E1,7.4E1,5.3E1,3E0,4E0,4E0,9E0,3E0,5E0],"tree_param":{"num_deleted":"0","num_feature":"255","num_nodes":"33","size_leaf_vector":"1"}},{"base_weights":[2.0351515E-3,1.0783583E0,-6.948467E-3,1.2658691E-1,2.0437339E-1,-3.1829912E-2,2.6318717E-1,-1.05348835E-2,3.4855943E-2,-8.613495E-1,-2.4742423E-2,8.6824733E-1,1.17971055E-1,-2.5171182E-1,-8.439391E-2,-4.0042467E-2,3.6288637E-1,1.1889532E0,-5.7504782E-3,3.691418E-1,-3.6874554E-1,1.2864727E-3,-2.4561258E-2,-2.5620766E-3,2.4050767E-2,4.581493E-3,4.4631205E-2,7.483625E-2,2.0493973E-2,3.190492E-2,-1.633429E-4,-5.818815E-2,-1.1921535E-2],"categories":[],"categories_nodes":[],"categories_segments":[],"categories_sizes":[],"default_left":[0,0,0,0,0,0,0,0,0,0,1,0,1,0,0,0,0,0,0,0,0,0,0,0,0,0,0,0,0,0,0,0,0],"id":42,"left_children":[1,3,5,-1,7,9,11,-1,-1,13,15,17,19,21,-1,23,25,27,-1,29,31,-1,-1,-1,-1,-1,-1,-1,-1,-1,-1,-1,-1],"loss_changes":[1.284907E1,1.3181525E1,8.770065E0,0E0,1.8317186E0,6.933375E0,9.464043E0,0E0,0E0,4.420012E0,7.0338945E0,6.8661957E0,1.1138566E1,5.243447E-1,0E0,6.663154E0,6.2860484E0,3.0322933E0,0E0,6.0752745E0,2.793984E0,0E0,0E0,0E0,0E0,0E0,0E0,0E0,0E0,0E0,0E0,0E0,0E0],"parents":[2147483647,0,0,1,1,2,2,4,4,5,5,6,6,9,9,10,10,11,11,12,12,13,13,15,15,16,16,17,17,19,19,20,20],"right_children":[2,4,6,-1,8,10,12,-1,-1,14,16,18,20,22,-1,24,26,28,-1,30,32,-1,-1,-1,-1,-1,-1,-1,-1,-1,-1,-1,-1],"split_conditions":[-5.102686E0,4.1771138E-1,2.071518E0,1.2658691E-1,-1.6365667E-1,-2.1125076E0,4.9130625E-1,-1.05348835E-2,3.4855943E-2,-1.2589816E-2,1.492516E0,2.6346495E0,4.594963E0,-1.7119662E0,-8.439391E-2,1.5349963E0,1.9258063E-1,6.371846E-1,-5.7504782E-3,8.035086E-1,-5.2561592E-2,1.2864727E-3,-2.4561258E-2,-2.5620766E-3,2.4050767E-2,4.581493E-3,4.4631205E-2,7.483625E-2,2.0493973E-2,3.190492E-2,-1.633429E-4,-5.818815E-2,-1.1921535E-2],"split_indices":[10,148,186,0,0,244,247,0,0,93,193,5,188,1,0,244,47,54,0,88,101,0,0,0,0,0,0,0,0,0,0,0,0],"split_type":[0,0,0,0,0,0,0,0,0,0,0,0,0,0,0,0,0,0,0,0,0,0,0,0,0,0,0,0,0,0,0,0,0],"sum_hessian":[1.316E3,1E1,1.306E3,3E0,7E0,1.197E3,1.09E2,4E0,3E0,9E0,1.188E3,2E1,8.9E1,6E0,3E0,1.144E3,4.4E1,1.5E1,5E0,5.9E1,3E1,3E0,3E0,1.121E3,2.3E1,3E1,1.4E1,1E1,5E0,3.4E1,2.5E1,3E0,2.7E1],"tree_param":{"num_deleted":"0","num_feature":"255","num_nodes":"33","size_leaf_vector":"1"}},{"base_weights":[9.4182073E-4,1.1575722E0,-6.035302E-3,1.2908612E-2,8.127888E-2,-4.7254238E-1,8.927612E-3,-3.4188694E-1,-7.853168E-2,-1.6470162E-2,2.5598732E-1,-5.133823E-2,-5.958139E-1,-4.3356787E-2,3.3433253E-1,-2.8963622E-1,4.05245E-1,1.415957E-2,-1.176064E-2,-0E0,-3.5262264E-2,6.5318264E-2,-2.422771E-3,3.095018E-2,-2.3281706E-2,-4.502553E-3,-4.6162244E-2,2.4813097E-2,-2.4919411E-2],"categories":[],"categories_nodes":[],"categories_segments":[],"categories_sizes":[],"default_left":[0,0,0,0,0,0,0,0,0,0,0,0,0,0,0,0,1,0,0,0,0,0,0,0,0,0,0,0,0],"id":43,"left_children":[1,3,5,-1,-1,7,9,11,-1,13,15,17,19,21,23,25,27,-1,-1,-1,-1,-1,-1,-1,-1,-1,-1,-1,-1],"loss_changes":[1.0766406E1,2.7593393E0,9.20874E0,0E0,0E0,5.154105E0,8.00967E0,2.7082658E0,0E0,1.0869812E1,9.820118E0,1.2305309E0,1.3554225E0,7.3216057E0,1.897721E1,3.103462E0,7.9782324E0,0E0,0E0,0E0,0E0,0E0,0E0,0E0,0E0,0E0,0E0,0E0,0E0],"parents":[2147483647,0,0,1,1,2,2,5,5,6,6,7,7,9,9,10,10,11,11,12,12,13,13,14,14,15,15,16,16],"right_children":[2,4,6,-1,-1,8,10,12,-1,14,16,18,20,22,24,26,28,-1,-1,-1,-1,-1,-1,-1,-1,-1,-1,-1,-1],"split_conditions":[-1.7521988E0,3.8158965E-1,-1.3967733E0,1.2908612E-2,8.127888E-2,1.1144294E0,1.492516E0,-1.64904E0,-7.853168E-2,1.5526154E0,-1.5980828E-1,-4.8845428E-1,-7.41814E-1,-8.8583976E-1,3.9193165E-1,6.076799E-1,3.0165524E0,1.415957E-2,-1.176064E-2,-0E0,-3.5262264E-2,6.5318264E-2,-2.422771E-3,3.095018E-2,-2.3281706E-2,-4.502553E-3,-4.6162244E-2,2.4813097E-2,-2.4919411E-2],"split_indices":[7,21,204,0,0,193,193,50,0,136,96,25,193,111,96,116,136,0,0,0,0,0,0,0,0,0,0,0,0],"split_type":[0,0,0,0,0,0,0,0,0,0,0,0,0,0,0,0,0,0,0,0,0,0,0,0,0,0,0,0,0],"sum_hessian":[1.318E3,7E0,1.311E3,3E0,4E0,4E1,1.271E3,3.7E1,3E0,1.153E3,1.18E2,1.8E1,1.9E1,1.072E3,8.1E1,2.5E1,9.3E1,6E0,1.2E1,3E0,1.6E1,3E0,1.069E3,6E1,2.1E1,2E1,5E0,8.5E1,8E0],"tree_param":{"num_deleted":"0","num_feature":"255","num_nodes":"29","size_leaf_vector":"1"}},{"base_weights":[1.4780695E-2,7.005388E-1,-1.5440265E-3,1.5661328E0,3.6465666E-1,1.0594249E-2,-6.565418E-1,9.83754E-2,3.239403E-2,1.1098613E0,-1.00109875E-1,-1.4400751E-3,7.45548E-1,-2.5254512E-1,-1.2458094E0,1.7320659E-2,9.762841E-2,3.5335702E-1,-6.8312305E-1,-6.6772313E-3,6.231199E-2,1.2086264E0,3.41603E-2,8.870382E-2,-3.9793458E-2,-1.8451516E-2,-8.030137E-2,1.7659202E-3,2.9036213E-2,-5.4914214E-2,-3.6090536E-3,3.0228501E-2,-7.210703E-4,3.1019662E-2,7.629398E-2,2.6361022E-2,-2.2286594E-2,-1.3489015E-2,2.6057202E-2],"categories":[],"categories_nodes":[],"categories_segments":[],"categories_sizes":[],"default_left":[0,0,0,0,0,0,0,0,0,0,0,0,0,0,0,0,0,0,0,0,0,0,0,0,0,0,0,0,0,0,0,0,0,0,0,0,0,0,0],"id":44,"left_children":[1,3,5,7,9,11,13,-1,-1,15,17,19,21,23,25,-1,-1,27,29,31,-1,33,35,37,-1,-1,-1,-1,-1,-1,-1,-1,-1,-1,-1,-1,-1,-1,-1],"loss_changes":[1.4445118E1,7.9579477E0,1.0049482E1,1.41226E0,8.178043E0,1.0980964E1,5.010972E0,0E0,0E0,4.883973E0,4.2400208E0,7.8169975E0,6.4229994E0,2.9224443E0,2.0523062E0,0E0,0E0,5.6868947E-1,1.5791545E0,5.677366E0,0E0,1.0781536E0,2.3726892E0,1.7159604E0,0E0,0E0,0E0,0E0,0E0,0E0,0E0,0E0,0E0,0E0,0E0,0E0,0E0,0E0,0E0],"parents":[2147483647,0,0,1,1,2,2,3,3,4,4,5,5,6,6,9,9,10,10,11,11,12,12,13,13,14,14,17,17,18,18,19,19,21,21,22,22,23,23],"right_children":[2,4,6,8,10,12,14,-1,-1,16,18,20,22,24,26,-1,-1,28,30,32,-1,34,36,38,-1,-1,-1,-1,-1,-1,-1,-1,-1,-1,-1,-1,-1,-1,-1],"split_conditions":[-2.9204679E0,-3.014868E-1,2.9816747E0,1.5305518E-1,-2.1406911E-1,2.0650222E0,2.7657537E0,9.83754E-2,3.239403E-2,-2.419017E-2,-1.3241179E0,1.25E0,1.3343158E0,-8.702411E-3,9.959642E-2,1.7320659E-2,9.762841E-2,5E-1,-1.9345576E0,-6.985744E-1,6.231199E-2,2.7158213E-1,2.493749E-1,-7.8346586E-1,-3.9793458E-2,-1.8451516E-2,-8.030137E-2,1.7659202E-3,2.9036213E-2,-5.4914214E-2,-3.6090536E-3,3.0228501E-2,-7.210703E-4,3.1019662E-2,7.629398E-2,2.6361022E-2,-2.2286594E-2,-1.3489015E-2,2.6057202E-2],"split_indices":[48,85,32,6,26,20,136,0,0,52,141,251,248,70,117,0,0,57,3,232,0,111,128,50,0,0,0,0,0,0,0,0,0,0,0,0,0,0,0],"split_type":[0,0,0,0,0,0,0,0,0,0,0,0,0,0,0,0,0,0,0,0,0,0,0,0,0,0,0,0,0,0,0,0,0,0,0,0,0,0,0],"sum_hessian":[1.283E3,2.9E1,1.254E3,7E0,2.2E1,1.232E3,2.2E1,4E0,3E0,8E0,1.4E1,1.213E3,1.9E1,1.4E1,8E0,5E0,3E0,8E0,6E0,1.209E3,4E0,1.1E1,8E0,9E0,5E0,3E0,5E0,4E0,4E0,3E0,3E0,1.4E1,1.195E3,5E0,6E0,4E0,4E0,5E0,4E0],"tree_param":{"num_deleted":"0","num_feature":"255","num_nodes":"39","size_leaf_vector":"1"}}]},"name":"gbtree"},"learner_model_param":{"base_score":"1.9682962E-1","boost_from_average":"1","num_class":"0","num_feature":"255","num_target":"1"},"objective":{"name":"reg:squarederror","reg_loss_param":{"scale_pos_weight":"1"}}},"version":[3,0,4]}