{"learner":{"attributes":{"best_iteration":"241","best_score":"1.4739953758740667"},"feature_names":[],"feature_types":[],"gradient_booster":{"model":{"gbtree_model_param":{"num_parallel_tree":"1","num_trees":"1460"},"iteration_indptr":[0,5,10,15,20,25,30,35,40,45,50,55,60,65,70,75,80,85,90,95,100,105,110,115,120,125,130,135,140,145,150,155,160,165,170,175,180,185,190,195,200,205,210,215,220,225,230,235,240,245,250,255,260,265,270,275,280,285,290,295,300,305,310,315,320,325,330,335,340,345,350,355,360,365,370,375,380,385,390,395,400,405,410,415,420,425,430,435,440,445,450,455,460,465,470,475,480,485,490,495,500,505,510,515,520,525,530,535,540,545,550,555,560,565,570,575,580,585,590,595,600,605,610,615,620,625,630,635,640,645,650,655,660,665,670,675,680,685,690,695,700,705,710,715,720,725,730,735,740,745,750,755,760,765,770,775,780,785,790,795,800,805,810,815,820,825,830,835,840,845,850,855,860,865,870,875,880,885,890,895,900,905,910,915,920,925,930,935,940,945,950,955,960,965,970,975,980,985,990,995,1000,1005,1010,1015,1020,1025,1030,1035,1040,1045,1050,1055,1060,1065,1070,1075,1080,1085,1090,1095,1100,1105,1110,1115,1120,1125,1130,1135,1140,1145,1150,1155,1160,1165,1170,1175,1180,1185,1190,1195,1200,1205,1210,1215,1220,1225,1230,1235,1240,1245,1250,1255,1260,1265,1270,1275,1280,1285,1290,1295,1300,1305,1310,1315,1320,1325,1330,1335,1340,1345,1350,1355,1360,1365,1370,1375,1380,1385,1390,1395,1400,1405,1410,1415,1420,1425,1430,1435,1440,1445,1450,1455,1460],"tree_info":[0,1,2,3,4,0,1,2,3,4,0,1,2,3,4,0,1,2,3,4,0,1,2,3,4,0,1,2,3,4,0,1,2,3,4,0,1,2,3,4,0,1,2,3,4,0,1,2,3,4,0,1,2,3,4,0,1,2,3,4,0,1,2,3,4,0,1,2,3,4,0,1,2,3,4,0,1,2,3,4,0,1,2,3,4,0,1,2,3,4,0,1,2,3,4,0,1,2,3,4,0,1,2,3,4,0,1,2,3,4,0,1,2,3,4,0,1,2,3,4,0,1,2,3,4,0,1,2,3,4,0,1,2,3,4,0,1,2,3,4,0,1,2,3,4,0,1,2,3,4,0,1,2,3,4,0,1,2,3,4,0,1,2,3,4,0,1,2,3,4,0,1,2,3,4,0,1,2,3,4,0,1,2,3,4,0,1,2,3,4,0,1,2,3,4,0,1,2,3,4,0,1,2,3,4,0,1,2,3,4,0,1,2,3,4,0,1,2,3,4,0,1,2,3,4,0,1,2,3,4,0,1,2,3,4,0,1,2,3,4,0,1,2,3,4,0,1,2,3,4,0,1,2,3,4,0,1,2,3,4,0,1,2,3,4,0,1,2,3,4,0,1,2,3,4,0,1,2,3,4,0,1,2,3,4,0,1,2,3,4,0,1,2,3,4,0,1,2,3,4,0,1,2,3,4,0,1,2,3,4,0,1,2,3,4,0,1,2,3,4,0,1,2,3,4,0,1,2,3,4,0,1,2,3,4,0,1,2,3,4,0,1,2,3,4,0,1,2,3,4,0,1,2,3,4,0,1,2,3,4,0,1,2,3,4,0,1,2,3,4,0,1,2,3,4,0,1,2,3,4,0,1,2,3,4,0,1,2,3,4,0,1,2,3,4,0,1,2,3,4,0,1,2,3,4,0,1,2,3,4,0,1,2,3,4,0,1,2,3,4,0,1,2,3,4,0,1,2,3,4,0,1,2,3,4,0,1,2,3,4,0,1,2,3,4,0,1,2,3,4,0,1,2,3,4,0,1,2,3,4,0,1,2,3,4,0,1,2,3,4,0,1,2,3,4,0,1,2,3,4,0,1,2,3,4,0,1,2,3,4,0,1,2,3,4,0,1,2,3,4,0,1,2,3,4,0,1,2,3,4,0,1,2,3,4,0,1,2,3,4,0,1,2,3,4,0,1,2,3,4,0,1,2,3,4,0,1,2,3,4,0,1,2,3,4,0,1,2,3,4,0,1,2,3,4,0,1,2,3,4,0,1,2,3,4,0,1,2,3,4,0,1,2,3,4,0,1,2,3,4,0,1,2,3,4,0,1,2,3,4,0,1,2,3,4,0,1,2,3,4,0,1,2,3,4,0,1,2,3,4,0,1,2,3,4,0,1,2,3,4,0,1,2,3,4,0,1,2,3,4,0,1,2,3,4,0,1,2,3,4,0,1,2,3,4,0,1,2,3,4,0,1,2,3,4,0,1,2,3,4,0,1,2,3,4,0,1,2,3,4,0,1,2,3,4,0,1,2,3,4,0,1,2,3,4,0,1,2,3,4,0,1,2,3,4,0,1,2,3,4,0,1,2,3,4,0,1,2,3,4,0,1,2,3,4,0,1,2,3,4,0,1,2,3,4,0,1,2,3,4,0,1,2,3,4,0,1,2,3,4,0,1,2,3,4,0,1,2,3,4,0,1,2,3,4,0,1,2,3,4,0,1,2,3,4,0,1,2,3,4,0,1,2,3,4,0,1,2,3,4,0,1,2,3,4,0,1,2,3,4,0,1,2,3,4,0,1,2,3,4,0,1,2,3,4,0,1,2,3,4,0,1,2,3,4,0,1,2,3,4,0,1,2,3,4,0,1,2,3,4,0,1,2,3,4,0,1,2,3,4,0,1,2,3,4,0,1,2,3,4,0,1,2,3,4,0,1,2,3,4,0,1,2,3,4,0,1,2,3,4,0,1,2,3,4,0,1,2,3,4,0,1,2,3,4,0,1,2,3,4,0,1,2,3,4,0,1,2,3,4,0,1,2,3,4,0,1,2,3,4,0,1,2,3,4,0,1,2,3,4,0,1,2,3,4,0,1,2,3,4,0,1,2,3,4,0,1,2,3,4,0,1,2,3,4,0,1,2,3,4,0,1,2,3,4,0,1,2,3,4,0,1,2,3,4,0,1,2,3,4,0,1,2,3,4,0,1,2,3,4,0,1,2,3,4,0,1,2,3,4,0,1,2,3,4,0,1,2,3,4,0,1,2,3,4,0,1,2,3,4,0,1,2,3,4,0,1,2,3,4,0,1,2,3,4,0,1,2,3,4,0,1,2,3,4,0,1,2,3,4,0,1,2,3,4,0,1,2,3,4,0,1,2,3,4,0,1,2,3,4,0,1,2,3,4,0,1,2,3,4,0,1,2,3,4,0,1,2,3,4,0,1,2,3,4,0,1,2,3,4,0,1,2,3,4,0,1,2,3,4,0,1,2,3,4,0,1,2,3,4,0,1,2,3,4,0,1,2,3,4,0,1,2,3,4,0,1,2,3,4,0,1,2,3,4,0,1,2,3,4,0,1,2,3,4,0,1,2,3,4,0,1,2,3,4,0,1,2,3,4,0,1,2,3,4,0,1,2,3,4,0,1,2,3,4,0,1,2,3,4,0,1,2,3,4,0,1,2,3,4,0,1,2,3,4,0,1,2,3,4,0,1,2,3,4,0,1,2,3,4,0,1,2,3,4,0,1,2,3,4,0,1,2,3,4,0,1,2,3,4,0,1,2,3,4,0,1,2,3,4,0,1,2,3,4,0,1,2,3,4,0,1,2,3,4,0,1,2,3,4,0,1,2,3,4,0,1,2,3,4,0,1,2,3,4,0,1,2,3,4,0,1,2,3,4,0,1,2,3,4,0,1,2,3,4,0,1,2,3,4,0,1,2,3,4,0,1,2,3,4,0,1,2,3,4,0,1,2,3,4,0,1,2,3,4,0,1,2,3,4,0,1,2,3,4,0,1,2,3,4,0,1,2,3,4,0,1,2,3,4,0,1,2,3,4,0,1,2,3,4,0,1,2,3,4,0,1,2,3,4,0,1,2,3,4,0,1,2,3,4,0,1,2,3,4,0,1,2,3,4,0,1,2,3,4,0,1,2,3,4,0,1,2,3,4,0,1,2,3,4,0,1,2,3,4,0,1,2,3,4,0,1,2,3,4,0,1,2,3,4,0,1,2,3,4,0,1,2,3,4,0,1,2,3,4,0,1,2,3,4,0,1,2,3,4,0,1,2,3,4],"trees":[{"base_weights":[-2.2947183E-1,-2.93288E-1,5.74141E-1,-3.8991746E-1,-4.4438798E-2,-5.9808604E-4,9.0108395E-1,-4.7651306E-1,-2.1069933E-1,5.806654E-2,-4.551122E-1,1.2162161E-3,1.4712918E-2,-1.618705E-1,-5.163878E-1,-3.3941036E-1,2.0171148E-1,-3.768844E-2,6.5555554E-3,-5.5860803E-3,-1.7973855E-3,-5.27027E-3,1.0700388E-3,-5.382006E-3,-1.6339868E-4,-6.7567563E-4,-4.8319325E-3,7.679738E-3,-1.1565835E-3,1.6298342E-3,-3.9473684E-3],"categories":[],"categories_nodes":[],"categories_segments":[],"categories_sizes":[],"default_left":[0,0,0,0,0,0,0,0,0,0,0,0,0,0,0,0,0,0,0,0,0,0,0,0,0,0,0,0,0,0,0],"id":0,"left_children":[1,3,5,7,9,-1,11,13,15,17,19,-1,-1,21,23,25,27,29,-1,-1,-1,-1,-1,-1,-1,-1,-1,-1,-1,-1,-1],"loss_changes":[1.5404321E1,6.588484E0,4.7227287E0,2.915533E0,3.3816295E0,0E0,6.2219324E0,1.515234E0,3.6344688E0,3.7320771E0,2.8290248E-1,0E0,0E0,1.7360592E0,1.2136707E0,1.927568E0,3.0941849E0,4.079825E0,0E0,0E0,0E0,0E0,0E0,0E0,0E0,0E0,0E0,0E0,0E0,0E0,0E0],"parents":[2147483647,0,0,1,1,2,2,3,3,4,4,6,6,7,7,8,8,9,9,10,10,13,13,14,14,15,15,16,16,17,17],"right_children":[2,4,6,8,10,-1,12,14,16,18,20,-1,-1,22,24,26,28,30,-1,-1,-1,-1,-1,-1,-1,-1,-1,-1,-1,-1,-1],"split_conditions":[3.5838512E-1,2.2071421E-1,4.483456E2,3.760357E-1,8.152321E-2,-5.9808604E-4,1.3711375E-2,9.896628E-1,7.598664E-2,1.1968205E0,2.8512297E-2,1.2162161E-3,1.4712918E-2,8.694695E-8,8.979298E-1,2.1585776E-3,1.0182666E0,6.234898E-1,6.5555554E-3,-5.5860803E-3,-1.7973855E-3,-5.27027E-3,1.0700388E-3,-5.382006E-3,-1.6339868E-4,-6.7567563E-4,-4.8319325E-3,7.679738E-3,-1.1565835E-3,1.6298342E-3,-3.9473684E-3],"split_indices":[105,108,1,177,207,0,113,15,207,59,5,0,0,192,67,85,14,97,0,0,0,0,0,0,0,0,0,0,0,0,0],"split_type":[0,0,0,0,0,0,0,0,0,0,0,0,0,0,0,0,0,0,0,0,0,0,0,0,0,0,0,0,0,0,0],"sum_hessian":[2.9664E2,2.7552002E2,2.112E1,1.9776001E2,7.776E1,7.3600006E0,1.3760001E1,1.3184001E2,6.5920006E1,6.2720005E1,1.5040001E1,6.4000006E0,7.3600006E0,1.5680001E1,1.1616001E2,5.0560005E1,1.5360001E1,5.4720005E1,8.000001E0,9.920001E0,5.1200004E0,6.4000006E0,9.280001E0,1.1104001E2,5.1200004E0,1.8240002E1,3.2320004E1,5.1200004E0,1.0240001E1,3.52E1,1.952E1],"tree_param":{"num_deleted":"0","num_feature":"220","num_nodes":"31","size_leaf_vector":"1"}},{"base_weights":[2.4901077E-2,8.0449826E-1,-6.7232833E-3,-1.6339868E-4,1.4751552E-2,2.1107857E-1,-9.571513E-2,8.114754E-1,1.0316563E-1,7.188841E-3,-1.350093E-1,1.9230768E-3,1.3198757E-2,-0E0,8.732057E-3,3.0289328E-1,-1.910569E-1,1.3685428E-3,-5.670926E-3,-1.7912772E-3,8.852139E-3,-3.6813918E-4,-3.530397E-3],"categories":[],"categories_nodes":[],"categories_segments":[],"categories_sizes":[],"default_left":[0,0,0,0,0,0,0,0,0,0,0,0,0,0,0,0,0,0,0,0,0,0,0],"id":1,"left_children":[1,3,5,-1,-1,7,9,11,13,-1,15,-1,-1,17,-1,19,21,-1,-1,-1,-1,-1,-1],"loss_changes":[7.3128304E0,6.533774E0,5.486187E0,0E0,0E0,5.1350565E0,6.4929643E0,3.435337E0,5.6212926E0,0E0,4.791415E0,0E0,0E0,4.998023E0,0E0,6.438056E0,4.2503853E0,0E0,0E0,0E0,0E0,0E0,0E0],"parents":[2147483647,0,0,1,1,2,2,5,5,6,6,7,7,8,8,10,10,13,13,15,15,16,16],"right_children":[2,4,6,-1,-1,8,10,12,14,-1,16,-1,-1,18,-1,20,22,-1,-1,-1,-1,-1,-1],"split_conditions":[6.102797E5,1.8294846E-1,1.520117E-1,-1.6339868E-4,1.4751552E-2,3.3252186E-1,1.1170754E1,1.5814015E-1,1.225965E-2,7.188841E-3,-8.891893E-3,1.9230768E-3,1.3198757E-2,3.0761506E-2,8.732057E-3,-4.855499E-2,2.8535566E-1,1.3685428E-3,-5.670926E-3,-1.7912772E-3,8.852139E-3,-3.6813918E-4,-3.530397E-3],"split_indices":[175,211,211,0,0,208,32,102,85,0,12,0,0,149,0,120,196,0,0,0,0,0,0],"split_type":[0,0,0,0,0,0,0,0,0,0,0,0,0,0,0,0,0,0,0,0,0,0,0],"sum_hessian":[2.9216003E2,1.056E1,2.816E2,5.1200004E0,5.4400005E0,8.096001E1,2.0064001E2,1.1200001E1,6.976E1,8.320001E0,1.9232E2,5.76E0,5.4400005E0,6.2400005E1,7.3600006E0,2.112E1,1.7120001E2,5.0880005E1,1.152E1,1.1840001E1,9.280001E0,8.864001E1,8.2560005E1],"tree_param":{"num_deleted":"0","num_feature":"220","num_nodes":"23","size_leaf_vector":"1"}},{"base_weights":[3.9782813E-1,5.887441E-1,7.192766E-3,4.7476107E-1,1.1114352E0,-3.6295792E-1,1.6705403E-1,9.235171E-1,3.3306834E-1,2.7777776E-3,1.2448559E0,-0E0,-5.3822934E-3,-5.4721027E-3,2.7594182E-1,-5.9808604E-4,1.1615186E0,-6.0975607E-2,4.417711E-1,1.4635316E0,6.1158794E-3,-3.0276814E-1,4.0632504E-1,2.751196E-3,1.4207419E-2,4.333333E-3,-2.867203E-3,5.892388E-3,-4.6374364E-4,1.9552527E-2,8.910034E-3,-5.124223E-3,-1.6339868E-4,7.1428565E-4,7.5123147E-3],"categories":[],"categories_nodes":[],"categories_segments":[],"categories_sizes":[],"default_left":[0,0,0,0,0,0,0,0,0,0,0,0,0,0,0,0,0,0,0,0,0,0,0,0,0,0,0,0,0,0,0,0,0,0,0],"id":2,"left_children":[1,3,5,7,9,11,13,15,17,-1,19,-1,-1,-1,21,-1,23,25,27,29,-1,31,33,-1,-1,-1,-1,-1,-1,-1,-1,-1,-1,-1,-1],"loss_changes":[2.177575E1,1.1021973E1,5.7997365E0,9.946442E0,3.3148117E0,1.8754044E0,5.4778795E0,9.175869E0,5.453491E0,0E0,2.9354897E0,0E0,0E0,0E0,4.6998587E0,0E0,6.5809555E0,3.220647E0,7.2024384E0,3.84021E0,0E0,6.329391E-1,5.6348515E0,0E0,0E0,0E0,0E0,0E0,0E0,0E0,0E0,0E0,0E0,0E0,0E0],"parents":[2147483647,0,0,1,1,2,2,3,3,4,4,5,5,6,6,7,7,8,8,10,10,14,14,16,16,17,17,18,18,19,19,21,21,22,22],"right_children":[2,4,6,8,10,12,14,16,18,-1,20,-1,-1,-1,22,-1,24,26,28,30,-1,32,34,-1,-1,-1,-1,-1,-1,-1,-1,-1,-1,-1,-1],"split_conditions":[2.2071421E-1,2.1043081E10,5.259193E2,1.5172082E1,4.5E-1,2.2944447E-7,2.3845099E-1,5.0461495E-1,7.394034E-2,2.7777776E-3,6.5689564E-1,-0E0,-5.3822934E-3,-5.4721027E-3,4.773531E-2,-5.9808604E-4,-2.6607453E-3,-5.5416813E-3,-4.681691E-3,4.1198105E-1,6.1158794E-3,4.814466E-3,5.9392935E-1,2.751196E-3,1.4207419E-2,4.333333E-3,-2.867203E-3,5.892388E-3,-4.6374364E-4,1.9552527E-2,8.910034E-3,-5.124223E-3,-1.6339868E-4,7.1428565E-4,7.5123147E-3],"split_indices":[108,176,1,30,126,182,108,110,163,0,67,0,0,0,201,0,12,161,147,82,0,6,81,0,0,0,0,0,0,0,0,0,0,0,0],"split_type":[0,0,0,0,0,0,0,0,0,0,0,0,0,0,0,0,0,0,0,0,0,0,0,0,0,0,0,0,0,0,0,0,0,0,0],"sum_hessian":[2.9184003E2,1.9552002E2,9.632001E1,1.6224E2,3.3280003E1,2.8480001E1,6.7840004E1,3.7440002E1,1.2480001E2,5.1200004E0,2.8160002E1,9.6E0,1.8880001E1,8.320001E0,5.9520004E1,7.3600006E0,3.0080002E1,2.6880001E1,9.7920006E1,1.9840002E1,8.320001E0,1.056E1,4.8960003E1,7.3600006E0,2.2720001E1,8.000001E0,1.8880001E1,7.5200005E1,2.2720001E1,9.280001E0,1.056E1,5.4400005E0,5.1200004E0,2.5600002E1,2.3360003E1],"tree_param":{"num_deleted":"0","num_feature":"220","num_nodes":"35","size_leaf_vector":"1"}},{"base_weights":[1.5639557E-2,9.353606E-2,-3.7191725E-1,-2.2588831E-1,1.5269685E-1,-5.2209944E-1,6.6312994E-3,-2.6636224E-2,-5.7365433E-3,2.7327368E-1,-9.18598E-2,-4.658385E-4,-6.0143042E-3,-5.2259886E-3,4.333333E-3,4.622641E-3,-3.417266E-1,8.576548E-2,4.896907E-1,5.449827E-1,-2.142857E-1,-5.4444443E-3,-8.0645154E-4,7.879376E-3,-1.8884368E-4,7.152347E-3,-0E0,9.313725E-3,7.763975E-4,-4.76E-3,-2.4861877E-4],"categories":[],"categories_nodes":[],"categories_segments":[],"categories_sizes":[],"default_left":[0,0,0,0,0,0,0,0,0,0,0,0,0,0,0,0,0,0,0,0,0,0,0,0,0,0,0,0,0,0,0],"id":3,"left_children":[1,3,5,7,9,11,13,15,-1,17,19,-1,-1,-1,-1,-1,21,23,25,27,29,-1,-1,-1,-1,-1,-1,-1,-1,-1,-1],"loss_changes":[9.079444E0,4.7749567E0,2.9134898E0,2.6548395E0,6.3194413E0,1.2727575E0,3.6229527E0,4.1942906E0,0E0,5.7066374E0,5.600588E0,0E0,0E0,0E0,0E0,0E0,7.7638733E-1,5.832216E0,7.2850723E0,1.9142523E0,2.9224896E0,0E0,0E0,0E0,0E0,0E0,0E0,0E0,0E0,0E0,0E0],"parents":[2147483647,0,0,1,1,2,2,3,3,4,4,5,5,6,6,7,7,9,9,10,10,16,16,17,17,18,18,19,19,20,20],"right_children":[2,4,6,8,10,12,14,16,-1,18,20,-1,-1,-1,-1,-1,22,24,26,28,30,-1,-1,-1,-1,-1,-1,-1,-1,-1,-1],"split_conditions":[2.639311E-1,1.4233848E1,1.3028848E-1,9.320905E-3,1.0344522E0,4.3938342E2,8.58573E0,9.9160445E-1,-5.7365433E-3,1.0874484E0,1.2173807E7,-4.658385E-4,-6.0143042E-3,-5.2259886E-3,4.333333E-3,4.622641E-3,5.525684E1,-1.9625282E-2,3.4786203E0,5.1791447E1,1.0600249E0,-5.4444443E-3,-8.0645154E-4,7.879376E-3,-1.8884368E-4,7.152347E-3,-0E0,9.313725E-3,7.763975E-4,-4.76E-3,-2.4861877E-4],"split_indices":[105,30,120,83,111,24,206,63,0,216,58,0,0,0,0,0,33,168,37,34,110,0,0,0,0,0,0,0,0,0,0],"split_type":[0,0,0,0,0,0,0,0,0,0,0,0,0,0,0,0,0,0,0,0,0,0,0,0,0,0,0,0,0,0,0],"sum_hessian":[2.9952002E2,2.5024002E2,4.9280003E1,3.84E1,2.1184001E2,3.52E1,1.4080001E1,2.5280003E1,1.3120001E1,1.4208002E2,6.976E1,5.4400005E0,2.9760002E1,6.0800004E0,8.000001E0,9.6E0,1.5680001E1,7.712E1,6.496001E1,1.056E1,5.9200005E1,8.000001E0,7.6800003E0,9.280001E0,6.7840004E1,4.4160004E1,2.0800001E1,5.1200004E0,5.4400005E0,2.4000002E1,3.52E1],"tree_param":{"num_deleted":"0","num_feature":"220","num_nodes":"31","size_leaf_vector":"1"}},{"base_weights":[-2.2683857E-1,-4.0536466E-1,1.4829616E-1,-5.240873E-1,-2.654584E-1,-2.1688836E-2,5.8320946E-1,-1.2162161E-3,-5.4765713E-1,-3.2144478E-1,4.8816563E-3,-1.4037853E-1,1.0798816E-2,8.6016095E-1,-1.6169152E-3,-5.9068006E-1,-3.5847297E-1,2.9661015E-3,-3.7213272E-1,5.0623053E-1,-3.0062062E-1,4.4378696E-4,1.1827195E0,-2.8606963E-3,-6.149806E-3,-5.1298696E-3,1.4124293E-4,2.2796351E-4,-4.426934E-3,9.974092E-3,-1.7973855E-3,8.8075874E-4,-4.4708992E-3,1.5909089E-2,4.8816563E-3],"categories":[],"categories_nodes":[],"categories_segments":[],"categories_sizes":[],"default_left":[0,0,0,0,0,0,0,0,0,0,0,0,0,0,0,0,0,0,0,0,0,0,0,0,0,0,0,0,0,0,0,0,0,0,0],"id":4,"left_children":[1,3,5,7,9,11,13,-1,15,17,-1,19,-1,21,-1,23,25,-1,27,29,31,-1,33,-1,-1,-1,-1,-1,-1,-1,-1,-1,-1,-1,-1],"loss_changes":[1.9719141E1,3.088646E0,7.097947E0,8.7464523E-1,4.0979185E0,9.099971E0,5.762562E0,0E0,5.062885E-1,2.8760424E0,0E0,6.7007484E0,0E0,5.055979E0,0E0,3.2170296E-1,1.2937679E0,0E0,2.3360176E0,4.587266E0,3.0106993E0,0E0,3.0186195E0,0E0,0E0,0E0,0E0,0E0,0E0,0E0,0E0,0E0,0E0,0E0,0E0],"parents":[2147483647,0,0,1,1,2,2,3,3,4,4,5,5,6,6,8,8,9,9,11,11,13,13,15,15,16,16,18,18,19,19,20,20,22,22],"right_children":[2,4,6,8,10,12,14,-1,16,18,-1,20,-1,22,-1,24,26,-1,28,30,32,-1,34,-1,-1,-1,-1,-1,-1,-1,-1,-1,-1,-1,-1],"split_conditions":[2.3302935E-1,4.885413E-10,1.6079238E-1,5.3403E-1,5.2597575E-2,1.6428302E-9,6.415966E-2,-1.2162161E-3,4E0,1.4038095E-1,4.8816563E-3,8.241652E-3,1.0798816E-2,-3.4628816E-2,-1.6169152E-3,1.1693962E-1,1.7448281E-1,2.9661015E-3,2.1901399E-1,5.370319E8,-2.1880154E-1,4.4378696E-4,-3.26563E-4,-2.8606963E-3,-6.149806E-3,-5.1298696E-3,1.4124293E-4,2.2796351E-4,-4.426934E-3,9.974092E-3,-1.7973855E-3,8.8075874E-4,-4.4708992E-3,1.5909089E-2,4.8816563E-3],"split_indices":[108,172,145,74,201,172,198,0,87,56,0,113,0,134,0,107,108,0,78,61,67,0,115,0,0,0,0,0,0,0,0,0,0,0,0],"split_type":[0,0,0,0,0,0,0,0,0,0,0,0,0,0,0,0,0,0,0,0,0,0,0,0,0,0,0,0,0,0,0,0,0,0,0],"sum_hessian":[2.9216003E2,1.9808002E2,9.408001E1,1.0528001E2,9.28E1,6.816E1,2.5920002E1,6.4000006E0,9.8880005E1,8.704001E1,5.76E0,6.2400005E1,5.76E0,1.8880001E1,7.0400004E0,7.840001E1,2.0480001E1,6.0800004E0,8.096001E1,1.1840001E1,5.0560005E1,5.76E0,1.3120001E1,7.0400004E0,7.136001E1,1.4400001E1,6.0800004E0,1.2160001E1,6.88E1,6.7200003E0,5.1200004E0,1.3760001E1,3.6800003E1,7.3600006E0,5.76E0],"tree_param":{"num_deleted":"0","num_feature":"220","num_nodes":"35","size_leaf_vector":"1"}},{"base_weights":[-2.2572052E-1,-3.2853127E-1,2.461848E-1,-2.7434038E-2,-3.9207375E-1,1.3497879E-1,1.0803218E-2,3.3094007E-1,-2.4773122E-1,-4.1441372E-1,2.208516E-3,8.776209E-3,-2.7469002E-2,-1.7773993E-3,9.981273E-3,-4.2218745E-1,4.42967E-3,-0E0,-4.4299018E-1,-2.5729394E-1,4.7486952E-1,-5.792014E-3,-5.8628496E-4,-4.2567407E-3,6.047009E-3,-7.620178E-4,-4.697627E-3,3.3099419E-3,-5.3963126E-3,-0E0,9.242611E-3],"categories":[],"categories_nodes":[],"categories_segments":[],"categories_sizes":[],"default_left":[0,0,0,0,0,0,0,0,0,0,0,0,0,0,0,0,0,0,0,0,0,0,0,0,0,0,0,0,0,0,0],"id":5,"left_children":[1,3,5,7,9,11,-1,13,15,17,-1,-1,19,-1,-1,21,-1,23,25,27,29,-1,-1,-1,-1,-1,-1,-1,-1,-1,-1],"loss_changes":[1.4770463E1,4.7126656E0,4.7909193E0,3.6068678E0,2.9222603E0,6.064422E0,0E0,6.1282825E0,3.614335E0,2.3568382E0,0E0,0E0,4.8757987E0,0E0,0E0,1.2351174E0,0E0,3.8081598E0,1.7343063E0,5.043577E0,2.8236954E0,0E0,0E0,0E0,0E0,0E0,0E0,0E0,0E0,0E0,0E0],"parents":[2147483647,0,0,1,1,2,2,3,3,4,4,5,5,7,7,8,8,9,9,12,12,15,15,17,17,18,18,19,19,20,20],"right_children":[2,4,6,8,10,12,-1,14,16,18,-1,-1,20,-1,-1,22,-1,24,26,28,30,-1,-1,-1,-1,-1,-1,-1,-1,-1,-1],"split_conditions":[2.5913316E-1,7.2E1,6.048494E-1,2.1103222E1,1.7314355E-1,2.580332E-1,1.0803218E-2,2E1,5.8733956E5,-1.4925952E-2,2.208516E-3,8.776209E-3,3.7103152E-1,-1.7773993E-3,9.981273E-3,1E0,4.42967E-3,-1.8390063E-2,-9.058265E-1,2.1673174E7,1.5897086E-1,-5.792014E-3,-5.8628496E-4,-4.2567407E-3,6.047009E-3,-7.620178E-4,-4.697627E-3,3.3099419E-3,-5.3963126E-3,-0E0,9.242611E-3],"split_indices":[105,100,66,32,43,106,0,100,190,11,0,0,108,0,0,131,0,11,133,57,148,0,0,0,0,0,0,0,0,0,0],"split_type":[0,0,0,0,0,0,0,0,0,0,0,0,0,0,0,0,0,0,0,0,0,0,0,0,0,0,0,0,0,0,0],"sum_hessian":[3.016026E2,2.480725E2,5.35301E1,4.3753113E1,2.0431938E2,4.8363983E1,5.166118E0,1.6292574E1,2.7460539E1,1.9760413E2,6.7152658E0,8.000806E0,4.036318E1,9.575609E0,6.7169647E0,2.2349138E1,5.111401E0,1.278675E1,1.8481737E2,2.8164509E1,1.219867E1,1.5001907E1,7.34723E0,7.667294E0,5.1194553E0,1.30881815E1,1.7172919E2,8.962791E0,1.9201717E1,6.4091463E0,5.7895236E0],"tree_param":{"num_deleted":"0","num_feature":"220","num_nodes":"31","size_leaf_vector":"1"}},{"base_weights":[1.3715985E-2,9.939661E-2,-1.5408657E-1,1.8039599E-1,-2.6696512E-1,2.0586485E-1,-2.710774E-1,8.962209E-2,6.5798485E-1,-4.0389845E-1,4.4105826E-3,-4.8483342E-2,8.5770255E-3,5.4887004E-2,-3.825261E-1,4.7127104E-1,-5.53981E-2,1.1277249E0,1.545761E-1,1.1450724E-3,-5.17233E-1,2.8549445E-1,-5.3492174E-3,-4.5209876E-3,5.216827E-3,-4.522977E-1,1.5603346E-3,8.163961E-4,8.7711E-3,1.3521066E-3,-3.5265014E-3,1.7444756E-2,4.7910986E-3,-2.9963958E-3,7.6609687E-3,-5.8903373E-3,-1.7916778E-3,6.9825477E-3,-1.7948275E-3,-5.968505E-3,-2.8446182E-3],"categories":[],"categories_nodes":[],"categories_segments":[],"categories_sizes":[],"default_left":[0,0,0,0,0,0,0,0,0,0,0,0,0,0,0,0,0,0,0,0,0,0,0,0,0,0,0,0,0,0,0,0,0,0,0,0,0,0,0,0,0],"id":6,"left_children":[1,3,5,7,9,11,13,15,17,19,-1,21,-1,23,25,27,29,31,33,-1,35,37,-1,-1,-1,39,-1,-1,-1,-1,-1,-1,-1,-1,-1,-1,-1,-1,-1,-1,-1],"loss_changes":[4.230584E0,5.8362265E0,4.240879E0,6.837012E0,3.620879E0,4.2173543E0,2.7975874E0,7.6194997E0,5.6912003E0,1.8872132E0,0E0,3.199772E0,0E0,4.9499254E0,2.228467E0,5.820134E0,5.711484E0,4.0823517E0,4.0250034E0,0E0,4.3196058E-1,2.395787E0,0E0,0E0,0E0,9.688158E-1,0E0,0E0,0E0,0E0,0E0,0E0,0E0,0E0,0E0,0E0,0E0,0E0,0E0,0E0,0E0],"parents":[2147483647,0,0,1,1,2,2,3,3,4,4,5,5,6,6,7,7,8,8,9,9,11,11,13,13,14,14,15,15,16,16,17,17,18,18,20,20,21,21,25,25],"right_children":[2,4,6,8,10,12,14,16,18,20,-1,22,-1,24,26,28,30,32,34,-1,36,38,-1,-1,-1,40,-1,-1,-1,-1,-1,-1,-1,-1,-1,-1,-1,-1,-1,-1,-1],"split_conditions":[3.2330202E-3,2.474178E6,1.7985454E-1,8.515708E1,1.2028731E9,3.8018823E0,4.481897E-1,4.9753094E-1,5.349051E-7,-6.1766873E-4,4.4105826E-3,1.5667744E-1,8.5770255E-3,0E0,1.1620372E1,1E0,1.087766E-1,1.2266892E6,4.3719965E-1,1.1450724E-3,3.895479E-1,7.5219005E-1,-5.3492174E-3,-4.5209876E-3,5.216827E-3,1.4922604E-1,1.5603346E-3,8.163961E-4,8.7711E-3,1.3521066E-3,-3.5265014E-3,1.7444756E-2,4.7910986E-3,-2.9963958E-3,7.6609687E-3,-5.8903373E-3,-1.7916778E-3,6.9825477E-3,-1.7948275E-3,-5.968505E-3,-2.8446182E-3],"split_indices":[167,175,104,36,61,38,56,208,182,171,0,107,0,186,38,153,166,175,137,0,133,170,0,0,0,138,0,0,0,0,0,0,0,0,0,0,0,0,0,0,0],"split_type":[0,0,0,0,0,0,0,0,0,0,0,0,0,0,0,0,0,0,0,0,0,0,0,0,0,0,0,0,0,0,0,0,0,0,0,0,0,0,0,0,0],"sum_hessian":[2.9256693E2,1.9433986E2,9.822707E1,1.5979182E2,3.4548023E1,2.3698448E1,7.4528625E1,1.354452E2,2.4346628E1,2.9427464E1,5.120559E0,1.7602236E1,6.096214E0,1.8889877E1,5.5638744E1,3.6865723E1,9.857948E1,1.1850181E1,1.2496448E1,5.119156E0,2.4308308E1,1.0559698E1,7.042537E0,8.9675255E0,9.922351E0,4.956353E1,6.0752144E0,1.9546957E1,1.7318766E1,6.0191334E1,3.8388145E1,5.1292243E0,6.7209563E0,7.3692875E0,5.12716E0,1.9193657E1,5.1146507E0,5.4421067E0,5.117591E0,2.4935358E1,2.4628174E1],"tree_param":{"num_deleted":"0","num_feature":"220","num_nodes":"41","size_leaf_vector":"1"}},{"base_weights":[4.3699527E-1,6.7548925E-1,-1.269894E-2,5.7141244E-1,1.1451741E0,8.050652E-3,-8.151462E-2,7.181593E-2,6.833118E-1,7.9123443E-1,1.6578919E0,-3.736879E-1,5.1777165E-2,-3.9719665E-1,3.5369766E-1,5.006085E-1,1.1295695E0,4.210753E-1,1.3376199E-2,2.1109072E-2,9.234274E-3,-5.9011388E-3,6.4368144E-4,1.0772043E-2,-6.032617E-2,-1.8106835E-3,-5.1916675E-3,-1.0829725E-4,8.70257E-3,7.154751E-4,6.9339564E-3,4.293351E-3,1.3033912E-2,-1.824184E-3,7.7093192E-3,-2.1778918E-3,6.2794783E-3],"categories":[],"categories_nodes":[],"categories_segments":[],"categories_sizes":[],"default_left":[0,0,0,0,0,0,0,0,0,0,0,0,0,0,0,0,0,0,0,0,0,0,0,0,0,0,0,0,0,0,0,0,0,0,0,0,0],"id":7,"left_children":[1,3,5,7,9,-1,11,13,15,17,19,21,23,25,27,29,31,33,-1,-1,-1,-1,-1,-1,35,-1,-1,-1,-1,-1,-1,-1,-1,-1,-1,-1,-1],"loss_changes":[3.2021606E1,8.696838E0,5.8495436E0,8.9119E0,4.643593E0,0E0,3.829475E0,4.2160425E0,1.0015995E1,3.7592382E0,2.0478287E0,3.0056844E0,7.8985333E0,1.5026629E-1,3.849613E0,7.7697506E0,3.810238E0,3.3301117E0,0E0,0E0,0E0,0E0,0E0,0E0,6.7600126E0,0E0,0E0,0E0,0E0,0E0,0E0,0E0,0E0,0E0,0E0,0E0,0E0],"parents":[2147483647,0,0,1,1,2,2,3,3,4,4,6,6,7,7,8,8,9,9,10,10,11,11,12,12,13,13,14,14,15,15,16,16,17,17,24,24],"right_children":[2,4,6,8,10,-1,12,14,16,18,20,22,24,26,28,30,32,34,-1,-1,-1,-1,-1,-1,36,-1,-1,-1,-1,-1,-1,-1,-1,-1,-1,-1,-1],"split_conditions":[2.250594E-2,7.8190845E2,2.0581455E5,7.747437E-1,1.5117033E1,8.050652E-3,2.8751662E-1,3.400712E-1,1.0530237E0,1.2592876E-2,7.9443256E2,1.1257586E0,-4.4978288E-1,1.2574598E-1,5.8490604E1,4.781371E-1,1.0325532E0,7.439827E-1,1.3376199E-2,2.1109072E-2,9.234274E-3,-5.9011388E-3,6.4368144E-4,1.0772043E-2,6.411898E-1,-1.8106835E-3,-5.1916675E-3,-1.0829725E-4,8.70257E-3,7.154751E-4,6.9339564E-3,4.293351E-3,1.3033912E-2,-1.824184E-3,7.7093192E-3,-2.1778918E-3,6.2794783E-3],"split_indices":[112,26,189,205,206,0,104,78,63,198,24,59,139,101,34,139,203,111,0,0,0,0,0,0,136,0,0,0,0,0,0,0,0,0,0,0,0],"split_type":[0,0,0,0,0,0,0,0,0,0,0,0,0,0,0,0,0,0,0,0,0,0,0,0,0,0,0,0,0,0,0,0,0,0,0,0,0],"sum_hessian":[2.9687344E2,1.9380812E2,1.0306531E2,1.6064133E2,3.3166798E1,7.056623E0,9.600869E1,2.9860191E1,1.3078113E2,2.1241562E1,1.1925237E1,2.974809E1,6.62606E1,1.0922612E1,1.8937578E1,9.44557E1,3.632543E1,1.3827523E1,7.4140387E0,6.1324987E0,5.7927384E0,1.9831366E1,9.916725E0,5.769456E0,6.049114E1,5.132442E0,5.7901697E0,1.1563121E1,7.374458E0,2.986932E1,6.458638E1,8.028437E0,2.8296995E1,5.1451063E0,8.682416E0,4.9903175E1,1.0587963E1],"tree_param":{"num_deleted":"0","num_feature":"220","num_nodes":"37","size_leaf_vector":"1"}},{"base_weights":[-4.452491E-3,6.589896E-2,-3.1652E-1,1.160244E-2,3.501737E-2,-4.7475165E-1,5.2508727E-2,-1.567516E-1,1.4373471E-1,-5.701602E-3,-0E0,-3.1145135E-1,7.658209E-3,-3.9504334E-1,-0E0,2.5090322E-1,-1.6813391E-1,-5.1780157E-3,-1.6208354E-4,-4.926291E-3,7.783542E-4,1.6246908E-3,-3.8838424E-3,3.8528E-3,-1.311811E-3,4.3382146E-3,-3.1866836E-3],"categories":[],"categories_nodes":[],"categories_segments":[],"categories_sizes":[],"default_left":[0,0,0,0,0,0,0,0,0,0,0,0,0,0,0,0,0,0,0,0,0,0,0,0,0,0,0],"id":8,"left_children":[1,3,5,-1,7,9,11,13,15,-1,-1,17,-1,19,21,23,25,-1,-1,-1,-1,-1,-1,-1,-1,-1,-1],"loss_changes":[6.4751205E0,7.9350176E0,3.2382207E0,0E0,4.9015293E0,1.743742E0,4.69958E0,3.1614084E0,5.0720243E0,0E0,0E0,6.619773E-1,0E0,1.6310377E0,3.3626585E0,5.8500037E0,3.6412501E0,0E0,0E0,0E0,0E0,0E0,0E0,0E0,0E0,0E0,0E0],"parents":[2147483647,0,0,1,1,2,2,4,4,5,5,6,6,7,7,8,8,11,11,13,13,14,14,15,15,16,16],"right_children":[2,4,6,-1,8,10,12,14,16,-1,-1,18,-1,20,22,24,26,-1,-1,-1,-1,-1,-1,-1,-1,-1,-1],"split_conditions":[2.639311E-1,9.50392E-1,1.3028848E-1,1.160244E-2,1.7496958E1,2.474178E6,3.4267104E-1,-3.1753534E-3,1.1423658E-1,-5.701602E-3,-0E0,8.572391E-2,7.658209E-3,7.018634E-1,6.2083196E-2,2.4832495E-2,6.9718415E-1,-5.1780157E-3,-1.6208354E-4,-4.926291E-3,7.783542E-4,1.6246908E-3,-3.8838424E-3,3.8528E-3,-1.311811E-3,4.3382146E-3,-3.1866836E-3],"split_indices":[105,70,120,0,30,175,101,194,145,0,0,22,0,136,214,199,60,0,0,0,0,0,0,0,0,0,0],"split_type":[0,0,0,0,0,0,0,0,0,0,0,0,0,0,0,0,0,0,0,0,0,0,0,0,0,0,0],"sum_hessian":[2.918433E2,2.3853676E2,5.330654E1,5.4540415E0,2.3308272E2,3.7298313E1,1.6008228E1,8.383776E1,1.4924496E2,3.0917315E1,6.380999E0,1.0880003E1,5.1282253E0,3.2615196E1,5.122257E1,1.1145978E2,3.7785183E1,5.7610145E0,5.118988E0,2.7176596E1,5.4386015E0,3.649058E1,1.4731986E1,8.264676E1,2.8813015E1,7.049511E0,3.0735672E1],"tree_param":{"num_deleted":"0","num_feature":"220","num_nodes":"27","size_leaf_vector":"1"}},{"base_weights":[-2.471244E-1,9.3233633E-1,-2.9907593E-1,1.6246153E-2,1.5534916E-3,-4.210087E-1,-2.2171617E-2,-5.418688E-1,-2.7368432E-1,-9.7690076E-2,7.909202E-3,-1.5963292E-3,-5.6636095E-1,3.5169616E-3,-3.2919142E-1,-2.2037706E-1,5.249748E-1,-1.413042E-3,-5.946699E-3,7.515425E-4,-3.939458E-3,-3.3309662E-3,3.1833143E-3,1.0902424E-2,3.559626E-4],"categories":[],"categories_nodes":[],"categories_segments":[],"categories_sizes":[],"default_left":[0,0,0,0,0,0,0,0,0,0,0,0,0,0,0,0,0,0,0,0,0,0,0,0,0],"id":9,"left_children":[1,3,5,-1,-1,7,9,11,13,15,-1,-1,17,-1,19,21,23,-1,-1,-1,-1,-1,-1,-1,-1],"loss_changes":[1.8187063E1,6.312275E0,9.459579E0,0E0,0E0,3.247818E0,5.3774214E0,8.2840157E-1,3.2520447E0,6.2743487E0,0E0,0E0,1.0322456E0,0E0,2.2531738E0,4.268239E0,3.5823126E0,0E0,0E0,0E0,0E0,0E0,0E0,0E0,0E0],"parents":[2147483647,0,0,1,1,2,2,5,5,6,6,7,7,8,8,9,9,12,12,14,14,15,15,16,16],"right_children":[2,4,6,-1,-1,8,10,12,14,16,-1,-1,18,-1,20,22,24,-1,-1,-1,-1,-1,-1,-1,-1],"split_conditions":[-4.5644733E-1,1.7199038E-1,2.2745037E-2,1.6246153E-2,1.5534916E-3,4.885413E-10,3.3329093E-1,9.4878983E-1,9.603195E-3,1.3615005E0,7.909202E-3,-1.5963292E-3,1.0082369E0,3.5169616E-3,-8.944272E-2,3.304967E0,7.373678E-1,-1.413042E-3,-5.946699E-3,7.515425E-4,-3.939458E-3,-3.3309662E-3,3.1833143E-3,1.0902424E-2,3.559626E-4],"split_indices":[165,79,112,0,0,172,145,19,149,208,0,0,14,0,198,203,110,0,0,0,0,0,0,0,0],"split_type":[0,0,0,0,0,0,0,0,0,0,0,0,0,0,0,0,0,0,0,0,0,0,0,0,0],"sum_hessian":[2.9229434E2,1.1535334E1,2.80759E2,5.4552255E0,6.0801086E0,1.943131E2,8.644591E1,1.04899864E2,8.941324E1,8.001692E1,6.4289827E0,7.0153756E0,9.788449E1,6.7072444E0,8.270599E1,6.7519806E1,1.2497113E1,6.7067823E0,9.1177704E1,1.1181369E1,7.152463E1,5.630569E1,1.1214118E1,5.134381E0,7.3627324E0],"tree_param":{"num_deleted":"0","num_feature":"220","num_nodes":"25","size_leaf_vector":"1"}},{"base_weights":[-2.1471697E-1,-2.6601824E-1,8.546338E-1,-3.563542E-1,2.666628E-2,1.88237E-3,1.2964572E-2,3.5860976E-3,-3.8441354E-1,-1.1267056E-1,7.48843E-1,-4.7360176E-1,-1.1895475E-1,4.453559E-1,-2.941062E-1,1.086913E-2,2.7281775E-3,1.2191513E-3,-5.00216E-3,2.5740426E-3,-4.35417E-3,-3.5786566E-3,9.799631E-3,-4.4538546E-3,4.3434193E-3],"categories":[],"categories_nodes":[],"categories_segments":[],"categories_sizes":[],"default_left":[0,0,0,0,0,0,0,0,0,0,0,0,0,0,0,0,0,0,0,0,0,0,0,0,0],"id":10,"left_children":[1,3,5,7,9,-1,-1,-1,11,13,15,17,19,21,23,-1,-1,-1,-1,-1,-1,-1,-1,-1,-1],"loss_changes":[1.6603508E1,7.6234303E0,3.6890583E0,4.542509E0,7.02008E0,0E0,0E0,0E0,4.898014E0,5.988241E0,1.384767E0,2.6012344E0,6.6653194E0,6.6366463E0,5.0992336E0,0E0,0E0,0E0,0E0,0E0,0E0,0E0,0E0,0E0,0E0],"parents":[2147483647,0,0,1,1,2,2,3,3,4,4,8,8,9,9,10,10,11,11,12,12,13,13,14,14],"right_children":[2,4,6,8,10,-1,-1,-1,12,14,16,18,20,22,24,-1,-1,-1,-1,-1,-1,-1,-1,-1,-1],"split_conditions":[1.7528886E-1,2.4323143E-1,8.8953394E-1,-2.9867737E-2,3.0810843E1,1.88237E-3,1.2964572E-2,3.5860976E-3,2.9192865E-1,-3.1851906E-2,1.4599529E10,-1.5719684E-2,8.2614356E-1,-7.609103E-2,5.2431144E-2,1.086913E-2,2.7281775E-3,1.2191513E-3,-5.00216E-3,2.5740426E-3,-4.35417E-3,-3.5786566E-3,9.799631E-3,-4.4538546E-3,4.3434193E-3],"split_indices":[148,107,163,20,30,0,0,0,67,134,176,11,110,121,201,0,0,0,0,0,0,0,0,0,0],"split_type":[0,0,0,0,0,0,0,0,0,0,0,0,0,0,0,0,0,0,0,0,0,0,0,0,0],"sum_hessian":[2.985863E2,2.857237E2,1.2862625E1,2.1843018E2,6.729351E1,5.786818E0,7.075807E0,7.669277E0,2.107609E2,5.700121E1,1.0292304E1,1.5688893E2,5.387198E1,1.3493769E1,4.350744E1,5.144986E0,5.1473174E0,6.3976536E0,1.5049127E2,2.4548187E1,2.9323792E1,5.4495826E0,8.044187E0,3.646127E1,7.0461726E0],"tree_param":{"num_deleted":"0","num_feature":"220","num_nodes":"25","size_leaf_vector":"1"}},{"base_weights":[-8.97381E-3,3.1231308E-1,-6.213568E-2,-5.7228785E-3,6.551384E-1,3.9998703E-2,-2.986623E-1,3.4289378E-1,-3.829515E-1,1.1574573E-2,2.8342026E-4,-1.0738442E-2,7.246044E-1,-0E0,-4.509491E-1,8.503421E-3,-2.026811E-3,-5.0728084E-3,-1.7928305E-3,7.5261258E-3,-5.2088074E-2,-1.8030722E-3,1.4160463E-2,4.2670187E-1,-3.720659E-1,-5.542097E-1,-8.779374E-2,-2.4055983E-3,9.6083793E-4,1.00082625E-2,-1.20366E-3,-1.5039883E-4,-5.4954886E-3,-1.79304E-3,-6.030144E-3,2.548193E-3,-5.0577293E-3],"categories":[],"categories_nodes":[],"categories_segments":[],"categories_sizes":[],"default_left":[0,0,0,0,0,0,0,0,0,0,0,0,0,0,0,0,0,0,0,0,0,0,0,0,0,0,0,0,0,0,0,0,0,0,0,0,0],"id":11,"left_children":[1,3,5,7,9,11,13,15,17,-1,-1,19,21,23,25,-1,-1,-1,-1,-1,27,-1,-1,29,31,33,35,-1,-1,-1,-1,-1,-1,-1,-1,-1,-1],"loss_changes":[4.949027E0,4.54797E0,6.0771375E0,3.0484726E0,6.1238623E0,6.164362E0,3.4484081E0,3.5322978E0,1.2525678E-1,0E0,0E0,5.14415E0,8.036327E0,4.3816237E0,1.7700014E0,0E0,0E0,0E0,0E0,0E0,4.410416E0,0E0,0E0,4.2465916E0,8.6940765E-1,5.215864E-1,1.9467198E0,0E0,0E0,0E0,0E0,0E0,0E0,0E0,0E0,0E0,0E0],"parents":[2147483647,0,0,1,1,2,2,3,3,4,4,5,5,6,6,7,7,8,8,11,11,12,12,13,13,14,14,20,20,23,23,24,24,25,25,26,26],"right_children":[2,4,6,8,10,12,14,16,18,-1,-1,20,22,24,26,-1,-1,-1,-1,-1,28,-1,-1,30,32,34,36,-1,-1,-1,-1,-1,-1,-1,-1,-1,-1],"split_conditions":[1.4780227E1,-4.746176E-3,1.52129E-2,6.8041617E-10,1E0,1.0281699E-2,2.5416778E-2,8.915012E-1,2.2117262E0,1.1574573E-2,2.8342026E-4,-1.8992218E-5,3.342182E-7,3.7414637E-1,1.1917326E0,8.503421E-3,-2.026811E-3,-5.0728084E-3,-1.7928305E-3,7.5261258E-3,1.3657411E6,-1.8030722E-3,1.4160463E-2,8.5536886E9,2.793504E-1,-3.4717992E-2,5.1601868E-2,-2.4055983E-3,9.6083793E-4,1.00082625E-2,-1.20366E-3,-1.5039883E-4,-5.4954886E-3,-1.79304E-3,-6.030144E-3,2.548193E-3,-5.0577293E-3],"split_indices":[32,147,118,173,154,118,207,74,77,0,0,192,182,219,216,0,0,0,0,0,181,0,0,176,211,199,201,0,0,0,0,0,0,0,0,0,0],"split_type":[0,0,0,0,0,0,0,0,0,0,0,0,0,0,0,0,0,0,0,0,0,0,0,0,0,0,0,0,0,0,0,0,0,0,0,0,0],"sum_hessian":[2.8908063E2,4.00827E1,2.4899792E2,2.1151892E1,1.8930805E1,1.7418942E2,7.48085E1,1.090237E1,1.0249522E1,9.9503565E0,8.98045E0,1.6295113E2,1.1238304E1,2.5598478E1,4.9210022E1,5.4540987E0,5.4482718E0,5.133851E0,5.1156707E0,7.3651066E0,1.5558601E2,5.125286E0,6.113018E0,1.18566475E1,1.3741832E1,3.769131E1,1.1518712E1,6.850295E1,8.708306E1,5.4697423E0,6.3869047E0,5.1102304E0,8.631601E0,5.1158085E0,3.25755E1,6.413084E0,5.105628E0],"tree_param":{"num_deleted":"0","num_feature":"220","num_nodes":"37","size_leaf_vector":"1"}},{"base_weights":[3.860684E-1,6.171406E-1,-5.1260263E-2,1.8706871E-2,6.8444866E-1,7.9197034E-2,-3.9351973E-1,-3.6363307E-1,7.2703594E-3,8.3364266E-1,4.191456E-1,-1.4072181E-1,3.8690412E-1,1.5444454E-3,-5.4948246E-3,-5.4616076E-3,-1.8983489E-4,-1.4486484E-3,8.99153E-1,-3.926978E-1,5.856762E-1,-2.681232E-1,5.265315E-3,1.2191637E-2,1.5389203E-1,7.938373E-3,1.5343969E-2,-5.150332E-3,-1.836722E-3,7.1176793E-3,-1.8348375E-3,-4.152494E-3,3.9173737E-3,3.70479E-3,-4.022287E-3],"categories":[],"categories_nodes":[],"categories_segments":[],"categories_sizes":[],"default_left":[0,0,0,0,0,0,0,0,0,0,0,0,0,0,0,0,0,0,0,0,0,0,0,0,0,0,0,0,0,0,0,0,0,0,0],"id":12,"left_children":[1,3,5,7,9,11,13,15,-1,17,19,21,23,-1,-1,-1,-1,-1,25,27,29,31,-1,-1,33,-1,-1,-1,-1,-1,-1,-1,-1,-1,-1],"loss_changes":[3.0286037E1,7.8014145E0,4.709834E0,5.9795074E0,6.4828568E0,5.220556E0,2.611539E0,8.2596636E-1,0E0,7.337433E0,9.107619E0,3.9282987E0,5.904886E0,0E0,0E0,0E0,0E0,0E0,5.5408936E0,1.3341069E-1,5.505251E0,3.8979504E0,0E0,0E0,3.3179936E0,0E0,0E0,0E0,0E0,0E0,0E0,0E0,0E0,0E0,0E0],"parents":[2147483647,0,0,1,1,2,2,3,3,4,4,5,5,6,6,7,7,9,9,10,10,11,11,12,12,18,18,19,19,20,20,21,21,24,24],"right_children":[2,4,6,8,10,12,14,16,-1,18,20,22,24,-1,-1,-1,-1,-1,26,28,30,32,-1,-1,34,-1,-1,-1,-1,-1,-1,-1,-1,-1,-1],"split_conditions":[2.1679969E-1,7.8800403E8,1.5374175E-1,1.0275035E0,2.476084E1,3.9611036E-1,3.213469E-1,1.9202584E-2,7.2703594E-3,4.5948488E-1,-3.0339023E-1,1.0595251E0,5.993138E2,1.5444454E-3,-5.4948246E-3,-5.4616076E-3,-1.8983489E-4,-1.4486484E-3,4.797909E-2,3.660491E-3,9.774035E0,5.340946E-1,5.265315E-3,1.2191637E-2,5.2687635E0,7.938373E-3,1.5343969E-2,-5.150332E-3,-1.836722E-3,7.1176793E-3,-1.8348375E-3,-4.152494E-3,3.9173737E-3,3.70479E-3,-4.022287E-3],"split_indices":[108,178,145,19,30,177,217,112,0,205,67,18,40,0,0,0,0,0,115,20,130,212,0,0,76,0,0,0,0,0,0,0,0,0,0],"split_type":[0,0,0,0,0,0,0,0,0,0,0,0,0,0,0,0,0,0,0,0,0,0,0,0,0,0,0,0,0,0,0,0,0,0,0],"sum_hessian":[2.9782697E2,1.9474608E2,1.0308087E2,1.996869E1,1.7477739E2,7.497823E1,2.8102642E1,1.3192912E1,6.7757792E0,1.1025563E2,6.452176E1,4.385364E1,3.112459E1,6.086545E0,2.2016096E1,8.053118E0,5.139794E0,6.746558E0,1.0350907E2,1.0648972E1,5.3872787E1,3.7451004E1,6.4026365E0,5.7884336E0,2.5336157E1,9.085371E1,1.2655362E1,5.492197E0,5.156775E0,4.6460876E1,7.41191E0,3.1050142E1,6.4008636E0,1.8604193E1,6.731963E0],"tree_param":{"num_deleted":"0","num_feature":"220","num_nodes":"35","size_leaf_vector":"1"}},{"base_weights":[2.338039E-2,9.389797E-2,-2.9297483E-1,3.6639264E-1,2.7499367E-2,-4.9970523E-1,-2.481401E-2,5.8324408E-2,9.284577E-1,5.8781767E-1,-1.6597876E-2,-5.9465934E-3,-1.5577197E-4,-4.6030693E-3,2.7575195E-1,-2.319817E-1,6.870048E-3,1.4888058E-2,-7.526415E-4,3.6200497E-4,1.1408852E-2,-1.956805E-1,1.751748E-1,7.984217E-3,-1.9235016E-3,-4.4543752E-3,1.8554572E-3,3.937471E-3,-2.509735E-3,1.3801461E-2,5.717713E-4],"categories":[],"categories_nodes":[],"categories_segments":[],"categories_sizes":[],"default_left":[0,0,0,0,0,0,0,0,0,0,0,0,0,0,0,0,0,0,0,0,0,0,0,0,0,0,0,0,0,0,0],"id":13,"left_children":[1,3,5,7,9,11,13,15,17,19,21,-1,-1,-1,23,25,-1,-1,-1,-1,-1,27,29,-1,-1,-1,-1,-1,-1,-1,-1],"loss_changes":[6.5626025E0,4.316259E0,2.9034038E0,7.967968E0,4.8946905E0,1.3075104E0,3.361616E0,5.949664E0,9.490017E0,4.248909E0,6.284807E0,0E0,0E0,0E0,3.8907752E0,2.0846848E0,0E0,0E0,0E0,0E0,0E0,3.175042E0,1.2306072E1,0E0,0E0,0E0,0E0,0E0,0E0,0E0,0E0],"parents":[2147483647,0,0,1,1,2,2,3,3,4,4,5,5,6,6,7,7,8,8,9,9,10,10,14,14,15,15,21,21,22,22],"right_children":[2,4,6,8,10,12,14,16,18,20,22,-1,-1,-1,24,26,-1,-1,-1,-1,-1,28,30,-1,-1,-1,-1,-1,-1,-1,-1],"split_conditions":[2.639311E-1,3.877536E1,9.772569E-1,2.875282E-1,1.4073668E-2,1.6266711E-1,1.709037E1,5.5212464E-2,8.4170073E-1,1.0573312E0,4.227538E-3,-5.9465934E-3,-1.5577197E-4,-4.6030693E-3,1E0,9.810124E-1,6.870048E-3,1.4888058E-2,-7.526415E-4,3.6200497E-4,1.1408852E-2,1.5343349E-7,4.7750894E-2,7.984217E-3,-1.9235016E-3,-4.4543752E-3,1.8554572E-3,3.937471E-3,-2.509735E-3,1.3801461E-2,5.717713E-4],"split_indices":[105,68,216,79,112,148,45,207,74,216,65,0,0,0,123,18,0,0,0,0,0,182,65,0,0,0,0,0,0,0,0],"split_type":[0,0,0,0,0,0,0,0,0,0,0,0,0,0,0,0,0,0,0,0,0,0,0,0,0,0,0,0,0,0,0],"sum_hessian":[2.9283282E2,2.4028996E2,5.2542866E1,4.5899185E1,1.9439078E2,2.8971676E1,2.357119E1,3.0476614E1,1.542257E1,1.3448325E1,1.8094246E2,2.3857529E1,5.114146E0,9.544014E0,1.4027176E1,2.1171965E1,9.304651E0,9.65103E0,5.7715406E0,7.3569407E0,6.0913844E0,9.382611E1,8.711634E1,6.394843E0,7.6323323E0,1.4123933E1,7.048031E0,7.366715E0,8.64594E1,6.7404284E0,8.0375916E1],"tree_param":{"num_deleted":"0","num_feature":"220","num_nodes":"31","size_leaf_vector":"1"}},{"base_weights":[-2.3870091E-1,-4.2804813E-1,1.550472E-1,9.5328376E-2,-4.5944E-1,3.4323177E-1,-3.1121653E-1,-5.0462186E-3,6.359156E-3,1.181219E-3,-4.7681585E-1,6.445775E-1,-0E0,-4.4271547E-1,3.6393353E-4,-5.491396E-1,-3.3957848E-1,3.6926413E-1,1.2462362E-2,7.4818297E-3,-2.4611591E-1,-5.761686E-3,-4.716432E-4,-2.7948758E-3,-5.7838396E-3,-1.5959668E-5,-4.340608E-3,7.4291048E-3,-7.678874E-5,-5.1317858E-3,1.3270894E-3],"categories":[],"categories_nodes":[],"categories_segments":[],"categories_sizes":[],"default_left":[0,0,0,0,0,0,0,0,0,0,0,0,0,0,0,0,0,0,0,0,0,0,0,0,0,0,0,0,0,0,0],"id":14,"left_children":[1,3,5,7,9,11,13,-1,-1,-1,15,17,19,21,-1,23,25,27,-1,-1,29,-1,-1,-1,-1,-1,-1,-1,-1,-1,-1],"loss_changes":[2.1892479E1,3.3312836E0,8.490257E0,4.175623E0,1.9691734E0,7.127822E0,1.3290796E0,0E0,0E0,0E0,1.5304642E0,5.4454517E0,6.2498245E0,9.915676E-1,0E0,6.755867E-1,2.059752E0,3.834686E0,0E0,0E0,2.7018886E0,0E0,0E0,0E0,0E0,0E0,0E0,0E0,0E0,0E0,0E0],"parents":[2147483647,0,0,1,1,2,2,3,3,4,4,5,5,6,6,10,10,11,11,12,12,13,13,15,15,16,16,17,17,20,20],"right_children":[2,4,6,8,10,12,14,-1,-1,-1,16,18,20,22,-1,24,26,28,-1,-1,30,-1,-1,-1,-1,-1,-1,-1,-1,-1,-1],"split_conditions":[2.2969695E-2,3.7440147E-2,2.3228058E7,4.722617E-10,5.286661E2,8.1371285E-2,1.681508E-2,-5.0462186E-3,6.359156E-3,1.181219E-3,1.0479322E-1,-3.1737253E-1,2.4462618E9,6.208748E-2,3.6393353E-4,-6.1404584E-3,1.1372554E-1,3.6473415E1,1.2462362E-2,7.4818297E-3,5.4611843E-2,-5.761686E-3,-4.716432E-4,-2.7948758E-3,-5.7838396E-3,-1.5959668E-5,-4.340608E-3,7.4291048E-3,-7.678874E-5,-5.1317858E-3,1.3270894E-3],"split_indices":[112,43,64,172,3,188,83,0,0,0,144,37,179,122,0,167,101,34,0,0,67,0,0,0,0,0,0,0,0,0,0],"split_type":[0,0,0,0,0,0,0,0,0,0,0,0,0,0,0,0,0,0,0,0,0,0,0,0,0,0,0,0,0,0,0],"sum_hessian":[2.9138522E2,1.9687703E2,9.450819E1,1.0844881E1,1.8603214E2,6.767345E1,2.6834743E1,5.084068E0,5.760813E0,5.095868E0,1.8093628E2,3.5627758E1,3.204569E1,1.9479742E1,7.355001E0,1.1604879E2,6.488749E1,2.566407E1,9.963688E0,7.3884892E0,2.46572E1,1.4035079E1,5.444663E0,1.2721811E1,1.0332697E2,1.4629631E1,5.025786E1,1.2534049E1,1.3130021E1,1.440871E1,1.0248489E1],"tree_param":{"num_deleted":"0","num_feature":"220","num_nodes":"31","size_leaf_vector":"1"}},{"base_weights":[-2.4466866E-1,-3.115745E-1,3.4014288E-1,3.6283063E-3,-3.3611503E-1,7.5046027E-1,-1.6090204E-1,6.225053E-2,-3.7615728E-1,-1.4034784E-4,1.2581297E-2,-5.2684536E-3,1.8159538E-3,-2.0901695E-1,8.478639E-3,3.4600077E-3,-3.962899E-1,2.9677013E-3,-4.8670787E-3,2.6387027E-3,-4.1688955E-3],"categories":[],"categories_nodes":[],"categories_segments":[],"categories_sizes":[],"default_left":[0,0,0,0,0,0,0,0,0,0,0,0,0,0,0,0,0,0,0,0,0],"id":15,"left_children":[1,3,5,-1,7,9,11,13,15,-1,-1,-1,-1,17,-1,-1,19,-1,-1,-1,-1],"loss_changes":[1.1628078E1,4.504881E0,6.4631586E0,0E0,4.1438847E0,6.7746067E0,1.9443046E0,5.365012E0,3.5341034E0,0E0,0E0,0E0,0E0,2.7730136E0,0E0,0E0,3.220108E0,0E0,0E0,0E0,0E0],"parents":[2147483647,0,0,1,1,2,2,4,4,5,5,6,6,7,7,8,8,13,13,16,16],"right_children":[2,4,6,-1,8,10,12,14,16,-1,-1,-1,-1,18,-1,-1,20,-1,-1,-1,-1],"split_conditions":[2.1052936E-2,-4.6378475E-1,1.8E1,3.6283063E-3,-1.4925952E-2,1.8345408E-1,3.96538E-7,-1.0485994E-2,1.7851529E-3,-1.4034784E-4,1.2581297E-2,-5.2684536E-3,1.8159538E-3,-2.0454062E-2,8.478639E-3,3.4600077E-3,8.568636E6,2.9677013E-3,-4.8670787E-3,2.6387027E-3,-4.1688955E-3],"split_indices":[174,212,88,0,11,212,182,6,207,0,0,0,0,193,0,0,57,0,0,0,0],"split_type":[0,0,0,0,0,0,0,0,0,0,0,0,0,0,0,0,0,0,0,0,0],"sum_hessian":[2.9355017E2,2.6398676E2,2.9563402E1,8.641716E0,2.5534505E2,1.6089294E1,1.3474106E1,2.3043344E1,2.3230171E2,6.730009E0,9.359286E0,6.395028E0,7.079078E0,1.7579802E1,5.463543E0,5.7268333E0,2.2657487E2,6.0788846E0,1.1500917E1,6.3518577E0,2.2022302E2],"tree_param":{"num_deleted":"0","num_feature":"220","num_nodes":"21","size_leaf_vector":"1"}},{"base_weights":[3.2295797E-2,5.7723904E-1,-1.9256696E-2,7.808104E-2,1.3277426E-2,6.7050683E-1,-5.182214E-2,9.253216E-3,-3.8271368E-1,1.0701383E-3,1.068214E-2,1.1031137E-1,-2.2870672E-1,-5.070302E-3,-1.7915111E-3,4.487233E-2,8.817644E-3,-2.909404E-1,1.7090315E-1,4.677222E-3,-7.0323294E-4,-1.1465693E-3,-4.6211737E-3,8.56434E-3,-2.825289E-3],"categories":[],"categories_nodes":[],"categories_segments":[],"categories_sizes":[],"default_left":[0,0,0,0,0,0,0,0,0,0,0,0,0,0,0,0,0,0,0,0,0,0,0,0,0],"id":16,"left_children":[1,3,5,7,-1,9,11,-1,13,-1,-1,15,17,-1,-1,19,-1,21,23,-1,-1,-1,-1,-1,-1],"loss_changes":[8.25168E0,9.263396E0,5.9695463E0,6.80498E0,0E0,2.4504995E0,7.3787255E0,0E0,1.2507844E-1,0E0,0E0,6.6298065E0,3.1218443E0,0E0,0E0,6.1441894E0,0E0,3.119769E0,5.581891E0,0E0,0E0,0E0,0E0,0E0,0E0],"parents":[2147483647,0,0,1,1,2,2,3,3,5,5,6,6,8,8,11,11,12,12,15,15,17,17,18,18],"right_children":[2,4,6,8,-1,10,12,-1,14,-1,-1,16,18,-1,-1,20,-1,22,24,-1,-1,-1,-1,-1,-1],"split_conditions":[-8.660254E-1,1.8654497E-1,1.1170754E1,1.01452844E6,1.3277426E-2,2.8768718E-1,3.0300668E-1,9.253216E-3,1.6380414E6,1.0701383E-3,1.068214E-2,6.6454216E1,9.3764084E1,-5.070302E-3,-1.7915111E-3,8.232731E-1,8.817644E-3,-2.0740097E-4,5.1471043E-2,4.677222E-3,-7.0323294E-4,-1.1465693E-3,-4.6211737E-3,8.56434E-3,-2.825289E-3],"split_indices":[98,144,32,175,0,177,211,0,175,0,0,68,35,0,0,216,0,5,207,0,0,0,0,0,0],"split_type":[0,0,0,0,0,0,0,0,0,0,0,0,0,0,0,0,0,0,0,0,0,0,0,0,0],"sum_hessian":[2.9034348E2,2.437946E1,2.6596402E2,1.5384529E1,8.994929E0,1.0969095E1,2.5499493E2,5.14098E0,1.0243549E1,5.1677155E0,5.80138E0,1.3294643E2,1.220485E2,5.1291323E0,5.1144176E0,1.23645874E2,9.300554E0,1.0605421E2,1.5994289E1,2.600326E1,9.764262E1,5.3358227E1,5.2695984E1,6.1014466E0,9.892842E0],"tree_param":{"num_deleted":"0","num_feature":"220","num_nodes":"25","size_leaf_vector":"1"}},{"base_weights":[4.4982278E-1,6.662705E-1,1.5264779E-2,5.6721336E-1,1.2771553E0,8.057232E-3,-5.9373863E-2,8.807545E-2,6.31898E-1,7.8388494E-1,1.5913979E0,-5.806378E-3,5.4294944E-2,-3.3928365E-1,6.569719E-3,-3.4696E-3,6.697897E-1,1.3397713E-2,6.4193545E-4,9.670798E-3,1.9087613E-2,1.9146928E-1,-5.0872476E-3,-2.2592295E-4,-5.3369557E-3,-1.4816211E-3,7.1164165E-3,-1.1444289E-3,4.4808323E-3],"categories":[],"categories_nodes":[],"categories_segments":[],"categories_sizes":[],"default_left":[0,0,0,0,0,0,0,0,0,0,0,0,0,0,0,0,0,0,0,0,0,0,0,0,0,0,0,0,0],"id":17,"left_children":[1,3,5,7,9,-1,11,13,15,17,19,-1,21,23,-1,-1,25,-1,-1,-1,-1,27,-1,-1,-1,-1,-1,-1,-1],"loss_changes":[2.7657978E1,1.0991646E1,5.976325E0,5.1771317E0,2.6226883E0,0E0,5.5041995E0,5.5315495E0,5.845211E0,4.7372518E0,8.569641E-1,0E0,5.9241695E0,7.2981906E-1,0E0,0E0,5.1354675E0,0E0,0E0,0E0,0E0,4.941081E0,0E0,0E0,0E0,0E0,0E0,0E0,0E0],"parents":[2147483647,0,0,1,1,2,2,3,3,4,4,6,6,7,7,8,8,9,9,10,10,12,12,13,13,16,16,21,21],"right_children":[2,4,6,8,10,-1,12,14,16,18,20,-1,22,24,-1,-1,26,-1,-1,-1,-1,28,-1,-1,-1,-1,-1,-1,-1],"split_conditions":[2.250594E-2,7.9730396E2,2.2803242E5,3.3E1,1.785651E-1,8.057232E-3,1.1942792E0,3.271148E-1,-1.9301359E-2,1.3348229E-1,3.448276E-1,-5.806378E-3,8.4477864E-2,1.6745877E-1,6.569719E-3,-3.4696E-3,4E-1,1.3397713E-2,6.4193545E-4,9.670798E-3,1.9087613E-2,5.623469E-1,-5.0872476E-3,-2.2592295E-4,-5.3369557E-3,-1.4816211E-3,7.1164165E-3,-1.1444289E-3,4.4808323E-3],"split_indices":[112,46,189,100,103,0,114,80,5,108,78,0,109,102,0,0,126,0,0,0,0,81,0,0,0,0,0,0,0],"split_type":[0,0,0,0,0,0,0,0,0,0,0,0,0,0,0,0,0,0,0,0,0,0,0,0,0,0,0,0,0],"sum_hessian":[2.938817E2,1.9566179E2,9.8219925E1,1.7016167E2,2.5500118E1,7.7447004E0,9.047523E1,2.0704565E1,1.494571E2,1.1407064E1,1.4093054E1,1.5619358E1,7.4855865E1,1.1953125E1,8.75144E0,5.167557E0,1.4428955E2,5.871446E0,5.535619E0,6.2197924E0,7.8732615E0,6.0864384E1,1.3991484E1,5.166929E0,6.786196E0,6.783526E0,1.3750603E2,2.7840168E1,3.3024216E1],"tree_param":{"num_deleted":"0","num_feature":"220","num_nodes":"29","size_leaf_vector":"1"}},{"base_weights":[1.5968448E-2,1.4120588E-1,-1.995537E-1,4.4001266E-2,3.919967E-1,-3.9421436E-1,2.8969446E-2,4.8342958E-1,-5.508031E-2,6.231334E-1,-2.367455E-1,6.3928045E-2,-5.2309775E-1,7.597988E-3,-1.2222983E-1,9.280474E-1,5.5312016E-3,-1.5891778E-1,3.140754E-1,1.5326908E-1,9.1049826E-1,1.1554944E-3,-4.4598426E-3,-5.2691675E-3,6.57607E-3,-5.8243806E-3,-1.7618231E-4,4.698038E-3,-2.6655513E-1,2.1748142E-3,1.6192622E-2,5.3880834E-3,-4.108928E-3,-2.1903997E-3,5.200889E-3,7.2811334E-3,3.0567817E-4,-2.7465937E-3,8.483622E-3,1.2330842E-2,-7.223571E-4,4.398506E-3,-4.034563E-3],"categories":[],"categories_nodes":[],"categories_segments":[],"categories_sizes":[],"default_left":[0,0,0,0,0,0,0,0,0,0,0,0,0,0,0,0,0,0,0,0,0,0,0,0,0,0,0,0,0,0,0,0,0,0,0,0,0,0,0,0,0,0,0],"id":18,"left_children":[1,3,5,7,9,11,13,15,17,19,21,23,25,-1,27,29,31,33,35,37,39,-1,-1,-1,-1,-1,-1,-1,41,-1,-1,-1,-1,-1,-1,-1,-1,-1,-1,-1,-1,-1,-1],"loss_changes":[8.08602E0,4.5668516E0,4.937615E0,6.087445E0,7.831894E0,3.6022053E0,5.820546E0,5.366403E0,4.3851156E0,5.001156E0,1.1718783E0,5.207135E0,1.3347778E0,0E0,3.797709E0,5.951908E0,3.2343707E0,3.7358224E0,2.841332E0,5.073961E0,7.743433E0,0E0,0E0,0E0,0E0,0E0,0E0,0E0,3.609013E0,0E0,0E0,0E0,0E0,0E0,0E0,0E0,0E0,0E0,0E0,0E0,0E0,0E0,0E0],"parents":[2147483647,0,0,1,1,2,2,3,3,4,4,5,5,6,6,7,7,8,8,9,9,10,10,11,11,12,12,14,14,15,15,16,16,17,17,18,18,19,19,20,20,28,28],"right_children":[2,4,6,8,10,12,14,16,18,20,22,24,26,-1,28,30,32,34,36,38,40,-1,-1,-1,-1,-1,-1,-1,42,-1,-1,-1,-1,-1,-1,-1,-1,-1,-1,-1,-1,-1,-1],"split_conditions":[1.3468864E1,3.1205565E-1,9.68923E-1,-3.483633E-1,1.1052512E0,2.2116357E-1,-6.936104E-2,1.7402406E-1,1.2290471E1,4.416153E9,1.7914663E1,-3.238876E-2,1.1465828E0,7.597988E-3,7.496748E-1,4.419683E-2,2.7305384E5,8.2469136E-1,1E0,2.219525E-2,3.4674292E0,1.1554944E-3,-4.4598426E-3,-5.2691675E-3,6.57607E-3,-5.8243806E-3,-1.7618231E-4,4.698038E-3,5.2219146E-1,2.1748142E-3,1.6192622E-2,5.3880834E-3,-4.108928E-3,-2.1903997E-3,5.200889E-3,7.2811334E-3,3.0567817E-4,-2.7465937E-3,8.483622E-3,1.2330842E-2,-7.223571E-4,4.398506E-3,-4.034563E-3],"split_indices":[73,65,216,67,63,107,122,103,73,179,30,133,217,0,59,188,189,133,135,72,139,0,0,0,0,0,0,0,208,0,0,0,0,0,0,0,0,0,0,0,0,0,0],"split_type":[0,0,0,0,0,0,0,0,0,0,0,0,0,0,0,0,0,0,0,0,0,0,0,0,0,0,0,0,0,0,0,0,0,0,0,0,0,0,0,0,0,0,0],"sum_hessian":[2.9774942E2,1.8883081E2,1.08918594E2,1.372197E2,5.1611115E1,5.866181E1,5.0256783E1,2.4719315E1,1.1250038E2,3.7860794E1,1.3750324E1,1.281969E1,4.5842125E1,8.038503E0,4.221828E1,1.2209186E1,1.2510129E1,8.845877E1,2.4041609E1,1.5081953E1,2.277884E1,5.1124086E0,8.637916E0,6.397122E0,6.4225683E0,4.071262E1,5.1295023E0,7.696909E0,3.452137E1,6.7399035E0,5.469282E0,5.461859E0,7.0482697E0,8.2020966E1,6.4378033E0,8.990629E0,1.505098E1,9.620293E0,5.4616604E0,1.7034283E1,5.7445555E0,5.1263256E0,2.9395046E1],"tree_param":{"num_deleted":"0","num_feature":"220","num_nodes":"43","size_leaf_vector":"1"}},{"base_weights":[-2.2407241E-1,-4.2297217E-1,1.6411123E-1,1.970479E-3,-4.4347385E-1,8.800722E-1,5.5073436E-2,-2.2427665E-2,-4.6692532E-1,1.3505097E-2,2.9048997E-3,-3.360838E-2,9.779585E-3,-5.0487444E-3,4.470225E-3,-2.2277562E-1,-5.159095E-1,-1.2780626E-1,8.5009495E-3,1.6265182E-3,-4.8259646E-3,-5.387635E-3,-7.556134E-4,-1.9694625E-3,4.753893E-3],"categories":[],"categories_nodes":[],"categories_segments":[],"categories_sizes":[],"default_left":[0,0,0,0,0,0,0,0,0,0,0,0,0,0,0,0,0,0,0,0,0,0,0,0,0],"id":19,"left_children":[1,3,5,-1,7,9,11,13,15,-1,-1,17,-1,-1,-1,19,21,23,-1,-1,-1,-1,-1,-1,-1],"loss_changes":[2.263446E1,2.5713196E0,7.6218486E0,0E0,1.794384E0,3.0371466E0,7.2881603E0,2.7637093E0,1.9347343E0,0E0,0E0,6.753491E0,0E0,0E0,0E0,3.2922497E0,1.375103E0,3.1474051E0,0E0,0E0,0E0,0E0,0E0,0E0,0E0],"parents":[2147483647,0,0,1,1,2,2,4,4,5,5,6,6,7,7,8,8,11,11,15,15,16,16,17,17],"right_children":[2,4,6,-1,8,10,12,14,16,-1,-1,18,-1,-1,-1,20,22,24,-1,-1,-1,-1,-1,-1,-1],"split_conditions":[2.2745037E-2,5.2968427E2,-4.5644733E-1,1.970479E-3,1.6756082E-2,-8.048539E-3,1.5683355E0,2.1252882E-1,2.8015205E-1,1.3505097E-2,2.9048997E-3,3.385837E-1,9.779585E-3,-5.0487444E-3,4.470225E-3,5.9329104E-1,1.3378052E-3,7.1079195E-1,8.5009495E-3,1.6265182E-3,-4.8259646E-3,-5.387635E-3,-7.556134E-4,-1.9694625E-3,4.753893E-3],"split_indices":[112,0,165,0,163,6,208,129,66,0,0,145,0,0,0,38,210,196,0,0,0,0,0,0,0],"split_type":[0,0,0,0,0,0,0,0,0,0,0,0,0,0,0,0,0,0,0,0,0,0,0,0,0],"sum_hessian":[2.9092163E2,1.9247049E2,9.845113E1,5.7288027E0,1.8674168E2,1.1956213E1,8.649493E1,1.01805935E1,1.7656108E2,5.837857E0,6.118356E0,7.969236E1,6.802566E0,5.0886354E0,5.0919576E0,3.0772467E1,1.4578862E2,7.2891106E1,6.801254E0,1.23867E1,1.8385767E1,1.3816716E2,7.621465E0,6.614828E1,6.742823E0],"tree_param":{"num_deleted":"0","num_feature":"220","num_nodes":"25","size_leaf_vector":"1"}},{"base_weights":[-2.6078123E-1,-3.460751E-1,1.13034055E-1,3.8496815E-2,-3.7986785E-1,-1.2185712E-1,4.8889995E-1,-2.4106316E-1,6.972452E-3,1.8792908E-3,-4.028544E-1,1.4312038E-1,-4.5470873E-1,1.7901355E-1,1.2343877E-2,2.3968532E-3,-5.4776887E-3,-4.3753776E-1,-2.9221248E-2,-3.4978527E-3,5.7295287E-1,-5.5876076E-3,-1.7726906E-3,7.1124104E-3,-1.8360676E-3,2.4071236E-3,-4.5829182E-3,-3.3754893E-3,4.845814E-3,9.235935E-3,1.1197665E-3],"categories":[],"categories_nodes":[],"categories_segments":[],"categories_sizes":[],"default_left":[0,0,0,0,0,0,0,0,0,0,0,0,0,0,0,0,0,0,0,0,0,0,0,0,0,0,0,0,0,0,0],"id":20,"left_children":[1,3,5,7,9,11,13,15,-1,-1,17,19,21,23,-1,-1,-1,25,27,-1,29,-1,-1,-1,-1,-1,-1,-1,-1,-1,-1],"loss_changes":[9.617645E0,3.2258816E0,5.059098E0,3.9734905E0,3.034584E0,3.2034712E0,4.71585E0,2.36936E0,0E0,0E0,2.7498703E0,4.504199E0,2.898662E-1,3.4240985E0,0E0,0E0,0E0,2.9200172E0,3.2746415E0,0E0,1.6166534E0,0E0,0E0,0E0,0E0,0E0,0E0,0E0,0E0,0E0,0E0],"parents":[2147483647,0,0,1,1,2,2,3,3,4,4,5,5,6,6,7,7,10,10,11,11,12,12,13,13,17,17,18,18,20,20],"right_children":[2,4,6,8,10,12,14,16,-1,-1,18,20,22,24,-1,-1,-1,26,28,-1,30,-1,-1,-1,-1,-1,-1,-1,-1,-1,-1],"split_conditions":[1.3350089E-1,-5.800445E0,1.8327826E1,1.4916202E1,8.698057E6,4.3434156E-7,1.0702211E1,-1.1069666E0,6.972452E-3,1.8792908E-3,5.56618E0,2.5646932E-7,7.8663373E0,2.1122007E1,1.2343877E-2,2.3968532E-3,-5.4776887E-3,2.333217E-11,3.868718E-1,-3.4978527E-3,1.0346158E0,-5.5876076E-3,-1.7726906E-3,7.1124104E-3,-1.8360676E-3,2.4071236E-3,-4.5829182E-3,-3.3754893E-3,4.845814E-3,9.235935E-3,1.1197665E-3],"split_indices":[43,129,71,71,57,182,132,38,0,0,132,182,164,71,0,0,0,172,177,0,70,0,0,0,0,0,0,0,0,0,0],"split_type":[0,0,0,0,0,0,0,0,0,0,0,0,0,0,0,0,0,0,0,0,0,0,0,0,0,0,0,0,0,0,0],"sum_hessian":[2.9868567E2,2.4347371E2,5.5211956E1,1.9415934E1,2.2405777E2,3.423014E1,2.0981815E1,1.3969715E1,5.4462185E0,8.269315E0,2.1578845E2,1.9208313E1,1.5021827E1,1.5791735E1,5.190081E0,5.3991866E0,8.570528E0,1.9705746E2,1.8730986E1,8.926046E0,1.0282266E1,9.925065E0,5.096762E0,6.121469E0,9.670266E0,5.3930807E0,1.9166438E2,1.2042232E1,6.688754E0,5.14684E0,5.135425E0],"tree_param":{"num_deleted":"0","num_feature":"220","num_nodes":"31","size_leaf_vector":"1"}},{"base_weights":[-1.482742E-3,4.269308E-1,-4.4547237E-2,1.2410577E-2,1.7364047E-1,2.5501248E-1,-1.1869902E-1,-1.05165996E-1,9.200437E-3,-1.24771155E-1,7.5542384E-1,1.3638173E-1,-2.1098174E-1,-5.3564934E-3,2.5344468E-3,6.312366E-3,-3.237674E-1,-1.0022413E-3,1.0657134E0,3.3008942E-1,-2.4212071E-1,-4.5447618E-1,-1.1377772E-1,1.8536983E-3,-5.3215157E-3,1.6025573E-2,4.601666E-3,7.5213617E-4,9.708383E-3,-5.706368E-3,3.4752144E-3,1.134369E-3,-5.320632E-3,-1.5922503E-3,6.350113E-3],"categories":[],"categories_nodes":[],"categories_segments":[],"categories_sizes":[],"default_left":[0,0,0,0,0,0,0,0,0,0,0,0,0,0,0,0,0,0,0,0,0,0,0,0,0,0,0,0,0,0,0,0,0,0,0],"id":21,"left_children":[1,3,5,-1,7,9,11,13,-1,15,17,19,21,-1,-1,-1,23,-1,25,27,29,31,33,-1,-1,-1,-1,-1,-1,-1,-1,-1,-1,-1,-1],"loss_changes":[5.475044E0,5.2279105E0,6.0522833E0,0E0,4.7383966E0,1.0413133E1,5.1856003E0,2.75034E0,0E0,4.9012294E0,6.4531193E0,4.373104E0,3.7096634E0,0E0,0E0,0E0,2.8538697E0,0E0,4.7279797E0,6.232535E0,4.13037E0,2.102579E0,4.0323963E0,0E0,0E0,0E0,0E0,0E0,0E0,0E0,0E0,0E0,0E0,0E0,0E0],"parents":[2147483647,0,0,1,1,2,2,4,4,5,5,6,6,7,7,9,9,10,10,11,11,12,12,16,16,18,18,19,19,20,20,21,21,22,22],"right_children":[2,4,6,-1,8,10,12,14,-1,16,18,20,22,-1,-1,-1,24,-1,26,28,30,32,34,-1,-1,-1,-1,-1,-1,-1,-1,-1,-1,-1,-1],"split_conditions":[-8.660254E-1,-2.827752E-2,1.0472712E7,1.2410577E-2,8.03306E-4,1.5360534E0,1.520117E-1,7.325107E2,9.200437E-3,-2.0177533E-6,-1.540507E0,2.5562378E-2,5.5483216E-3,-5.3564934E-3,2.5344468E-3,6.312366E-3,-4.4676666E-3,-1.0022413E-3,1.6091757E-1,1.110223E-16,7.574021E-3,2.1718621E-1,1.3187098E6,1.8536983E-3,-5.3215157E-3,1.6025573E-2,4.601666E-3,7.5213617E-4,9.708383E-3,-5.706368E-3,3.4752144E-3,1.134369E-3,-5.320632E-3,-1.5922503E-3,6.350113E-3],"split_indices":[98,115,4,0,210,37,211,0,0,192,129,149,113,0,0,0,11,0,107,186,85,211,190,0,0,0,0,0,0,0,0,0,0,0,0],"split_type":[0,0,0,0,0,0,0,0,0,0,0,0,0,0,0,0,0,0,0,0,0,0,0,0,0,0,0,0,0,0,0,0,0,0,0],"sum_hessian":[2.9680154E2,2.6083385E1,2.7071817E2,5.170332E0,2.0913054E1,5.2964317E1,2.1775386E2,1.5753662E1,5.1593904E0,3.0424606E1,2.2539711E1,5.7434994E1,1.6031886E2,7.0617595E0,8.691902E0,5.782324E0,2.4642282E1,6.0928674E0,1.6446844E1,3.8251152E1,1.918384E1,4.43981E1,1.1592076E2,7.049372E0,1.759291E1,7.757698E0,8.689145E0,2.8276741E1,9.974414E0,1.2449494E1,6.734345E0,5.1260505E0,3.9272053E1,1.1015582E2,5.764937E0],"tree_param":{"num_deleted":"0","num_feature":"220","num_nodes":"35","size_leaf_vector":"1"}},{"base_weights":[4.3421015E-1,6.355754E-1,2.1275759E-2,1.1918472E0,5.4584616E-1,-4.4979322E-1,1.515464E-1,1.5348753E0,4.4034333E-3,3.6383373E-1,8.3523786E-1,-5.7944283E-3,-1.3694348E-4,4.6224177E-2,1.0389962E-2,7.32979E-3,1.8046843E-2,2.8383857E-1,1.1017924E-2,1.0715675E0,4.1341177E-1,6.501113E-1,-1.058817E-1,7.043743E-4,5.8551827E-3,1.6604533E-2,6.5668705E-3,-2.8183088E-3,6.902595E-3,1.2736521E-2,3.2092305E-4,1.5470679E-3,-3.6166501E-3],"categories":[],"categories_nodes":[],"categories_segments":[],"categories_sizes":[],"default_left":[0,0,0,0,0,0,0,0,0,0,0,0,0,0,0,0,0,0,0,0,0,0,0,0,0,0,0,0,0,0,0,0,0],"id":22,"left_children":[1,3,5,7,9,11,13,15,-1,17,19,-1,-1,21,-1,-1,-1,23,-1,25,27,29,31,-1,-1,-1,-1,-1,-1,-1,-1,-1,-1],"loss_changes":[2.4549023E1,9.103592E0,6.0698557E0,5.9908295E0,8.703037E0,1.1414647E0,7.125449E0,2.272194E0,0E0,5.9452667E0,5.9798965E0,0E0,0E0,6.6257377E0,0E0,0E0,0E0,6.281322E0,0E0,8.80933E0,5.1338897E0,5.4222317E0,3.8942933E0,0E0,0E0,0E0,0E0,0E0,0E0,0E0,0E0,0E0,0E0],"parents":[2147483647,0,0,1,1,2,2,3,3,4,4,5,5,6,6,7,7,9,9,10,10,13,13,17,17,19,19,20,20,21,21,22,22],"right_children":[2,4,6,8,10,12,14,16,-1,18,20,-1,-1,22,-1,-1,-1,24,-1,26,28,30,32,-1,-1,-1,-1,-1,-1,-1,-1,-1,-1],"split_conditions":[2.250594E-2,-1.0727624E0,2.738659E-1,-5.405247E1,3.2579187E-1,1.0634651E0,9.3174803E-1,-8.615152E1,4.4034333E-3,2.0169413E-1,2.8164932E-1,-5.7944283E-3,-1.3694348E-4,-2.8334428E-2,1.0389962E-2,7.32979E-3,1.8046843E-2,1.029343E0,1.1017924E-2,1.9878319E1,3.3923805E-1,3.8764575E0,1.5257647E1,7.043743E-4,5.8551827E-3,1.6604533E-2,6.5668705E-3,-2.8183088E-3,6.902595E-3,1.2736521E-2,3.2092305E-4,1.5470679E-3,-3.6166501E-3],"split_indices":[112,138,103,39,80,63,138,39,0,106,79,0,0,199,0,0,0,63,0,30,79,77,71,0,0,0,0,0,0,0,0,0,0],"split_type":[0,0,0,0,0,0,0,0,0,0,0,0,0,0,0,0,0,0,0,0,0,0,0,0,0,0,0,0,0,0,0,0,0],"sum_hessian":[2.9518817E2,1.979013E2,9.728685E1,2.5627525E1,1.7227379E2,2.0377998E1,7.690885E1,1.6788742E1,8.838783E0,1.0735549E2,6.49183E1,1.527795E1,5.1000485E0,6.979087E1,7.1179852E0,5.255681E0,1.153306E1,9.822769E1,9.1278E0,4.0468365E1,2.4449932E1,1.3515463E1,5.6275406E1,5.844795E1,3.9779743E1,1.5386014E1,2.508235E1,6.8552523E0,1.7594679E1,6.1190605E0,7.3964024E0,2.7877947E1,2.8397457E1],"tree_param":{"num_deleted":"0","num_feature":"220","num_nodes":"33","size_leaf_vector":"1"}},{"base_weights":[3.1402867E-2,1.0053828E-1,-2.9119083E-1,5.7340515E-1,4.629567E-2,-5.016435E-1,-6.5666815E-4,1.1718923E-1,1.0448415E0,1.2390117E-1,-3.2478288E-1,-5.9425402E-3,-1.3577468E-4,-5.5189393E-3,3.814108E-1,-2.993572E-3,6.2683956E-3,2.7425434E-3,1.5469649E-2,-1.54182E-1,2.1386129E-1,2.7351459E-3,-4.2651662E-1,9.31285E-3,-2.557201E-3,-2.8214662E-3,5.7486594E-3,2.7575782E-3,-3.6097753E-3,-4.9550757E-3,-1.5057728E-4],"categories":[],"categories_nodes":[],"categories_segments":[],"categories_sizes":[],"default_left":[0,0,0,0,0,0,0,0,0,0,0,0,0,0,0,0,0,0,0,0,0,0,0,0,0,0,0,0,0,0,0],"id":23,"left_children":[1,3,5,7,9,11,13,15,17,19,21,-1,-1,-1,23,-1,-1,-1,-1,25,27,-1,29,-1,-1,-1,-1,-1,-1,-1,-1],"loss_changes":[6.7535396E0,6.3236637E0,3.2122774E0,5.234644E0,6.5153093E0,1.3208599E0,5.2016506E0,3.22794E0,4.1455584E0,4.7290173E0,2.5096626E0,0E0,0E0,0E0,5.3623476E0,0E0,0E0,0E0,0E0,4.436945E0,5.1557417E0,0E0,9.043789E-1,0E0,0E0,0E0,0E0,0E0,0E0,0E0,0E0],"parents":[2147483647,0,0,1,1,2,2,3,3,4,4,5,5,6,6,7,7,8,8,9,9,10,10,14,14,19,19,20,20,22,22],"right_children":[2,4,6,8,10,12,14,16,18,20,22,-1,-1,-1,24,-1,-1,-1,-1,26,28,-1,30,-1,-1,-1,-1,-1,-1,-1,-1],"split_conditions":[2.639311E-1,-7.557926E-2,9.962345E-1,8.501902E-1,8.066344E2,1.662759E-1,1.648943E1,8.28144E-1,-3.8076904E-1,5.659532E2,1.24627516E-1,-5.9425402E-3,-1.3577468E-4,-5.5189393E-3,5.1828556E-2,-2.993572E-3,6.2683956E-3,2.7425434E-3,1.5469649E-2,2.4662636E-1,1.6205584E1,2.7351459E-3,3.5285234E-2,9.31285E-3,-2.557201E-3,-2.8214662E-3,5.7486594E-3,2.7575782E-3,-3.6097753E-3,-4.9550757E-3,-1.5057728E-4],"split_indices":[105,122,216,110,40,148,45,217,136,41,103,0,0,0,122,0,0,0,0,105,73,0,109,0,0,0,0,0,0,0,0],"split_type":[0,0,0,0,0,0,0,0,0,0,0,0,0,0,0,0,0,0,0,0,0,0,0,0,0,0,0,0,0,0,0],"sum_hessian":[3.013555E2,2.4899205E2,5.236343E1,2.4448084E1,2.2454398E2,2.9745806E1,2.2617626E1,1.316694E1,1.1281144E1,1.8648006E2,3.806391E1,2.4646646E1,5.0991592E0,9.184174E0,1.3433452E1,7.3643403E0,5.802599E0,5.1393495E0,6.1417947E0,4.513476E1,1.4134529E2,5.143489E0,3.292042E1,7.0469055E0,6.3865466E0,3.9033627E1,6.1011376E0,1.28232E2,1.3113303E1,2.7810087E1,5.110336E0],"tree_param":{"num_deleted":"0","num_feature":"220","num_nodes":"31","size_leaf_vector":"1"}},{"base_weights":[-2.3411062E-1,5.3344417E-1,-3.1951407E-1,8.291578E-1,-4.024471E-3,-4.499555E-1,-1.3569283E-1,-5.179877E-4,1.1132648E0,4.901353E-2,-5.03157E-1,-1.8413173E-1,6.2576705E-3,1.615067E-2,6.342852E-3,7.6802936E-3,-3.6442152E-3,-2.4192862E-1,-5.420336E-1,-1.3101279E-2,-3.4936675E-1,-5.064297E-3,3.9493823E-3,-1.5369438E-3,-5.634903E-3,2.4945862E-3,-3.4590536E-3,-4.2187525E-3,2.3297064E-3],"categories":[],"categories_nodes":[],"categories_segments":[],"categories_sizes":[],"default_left":[0,0,0,0,0,0,0,0,0,0,0,0,0,0,0,0,0,0,0,0,0,0,0,0,0,0,0,0,0],"id":24,"left_children":[1,3,5,7,-1,9,11,-1,13,15,17,19,-1,-1,-1,-1,-1,21,23,25,27,-1,-1,-1,-1,-1,-1,-1,-1],"loss_changes":[1.9458889E1,8.6103735E0,6.2542305E0,5.924469E0,0E0,4.177702E0,4.205233E0,0E0,2.9649868E0,4.969193E0,1.2132607E0,2.9626E0,0E0,0E0,0E0,0E0,0E0,3.628728E0,8.483162E-1,4.7759953E0,2.385394E0,0E0,0E0,0E0,0E0,0E0,0E0,0E0,0E0],"parents":[2147483647,0,0,1,1,2,2,3,3,5,5,6,6,8,8,9,9,10,10,11,11,17,17,18,18,19,19,20,20],"right_children":[2,4,6,8,-1,10,12,-1,14,16,18,20,-1,-1,-1,-1,-1,22,24,26,28,-1,-1,-1,-1,-1,-1,-1,-1],"split_conditions":[5.1339166E2,8.572391E-2,5.9084904E-10,1.4688245E1,-4.024471E-3,-3.7063558E0,4.397221E-2,-5.179877E-4,4.559921E-3,2.9850521E1,-7.962577E-3,9.448297E-1,6.2576705E-3,1.615067E-2,6.342852E-3,7.6802936E-3,-3.6442152E-3,2.4607742E-1,-3.5988066E-1,1.0297676E0,1.285792E1,-5.064297E-3,3.9493823E-3,-1.5369438E-3,-5.634903E-3,2.4945862E-3,-3.4590536E-3,-4.2187525E-3,2.3297064E-3],"split_indices":[23,22,172,30,0,29,72,0,167,32,169,38,0,0,0,0,0,102,144,59,38,0,0,0,0,0,0,0,0],"split_type":[0,0,0,0,0,0,0,0,0,0,0,0,0,0,0,0,0,0,0,0,0,0,0,0,0,0,0,0,0],"sum_hessian":[2.9357367E2,2.8751892E1,2.6482178E2,2.2016294E1,6.735597E0,1.5373679E2,1.11084984E2,5.4823537E0,1.653394E1,1.463899E1,1.3909781E2,1.0527746E2,5.8075213E0,6.8142915E0,9.719649E0,5.1195836E0,9.519406E0,1.9288094E1,1.1980971E2,5.2559246E1,5.2718212E1,1.3883769E1,5.4043245E0,6.9446115E0,1.128651E2,2.9352259E1,2.3206987E1,4.727868E1,5.4395328E0],"tree_param":{"num_deleted":"0","num_feature":"220","num_nodes":"29","size_leaf_vector":"1"}},{"base_weights":[-2.2017765E-1,-2.8638557E-1,5.157933E-1,-3.8117552E-1,-8.966492E-2,-1.8005704E-3,8.232715E-1,-4.2409432E-1,8.4853806E-2,-3.3274478E-1,1.6556554E-1,-2.0800687E-4,1.182895E0,4.720402E-2,-4.5510566E-1,9.35563E-3,-3.792766E-1,-4.887516E-1,1.0541149E-1,-4.5431997E-3,3.4046042E-1,4.6929833E-3,1.732075E-2,4.4471137E-3,-3.4171194E-3,1.254092E-3,-4.754982E-3,-5.0478894E-3,-1.7448127E-3,-5.656481E-3,-1.0675313E-4,5.3057373E-3,-3.6473682E-3,5.4903915E-3,-2.4862583E-3],"categories":[],"categories_nodes":[],"categories_segments":[],"categories_sizes":[],"default_left":[0,0,0,0,0,0,0,0,0,0,0,0,0,0,0,0,0,0,0,0,0,0,0,0,0,0,0,0,0,0,0,0,0,0,0],"id":25,"left_children":[1,3,5,7,9,-1,11,13,15,17,19,-1,21,23,25,-1,27,29,31,-1,33,-1,-1,-1,-1,-1,-1,-1,-1,-1,-1,-1,-1,-1,-1],"loss_changes":[1.47189865E1,5.057085E0,5.5513363E0,3.7762527E0,5.733267E0,0E0,5.4785957E0,2.5475178E0,6.831822E0,3.3211455E0,5.0198984E0,0E0,3.838745E0,1.8944949E0,1.986805E0,0E0,1.3080215E-1,1.2305727E0,2.8219116E0,0E0,4.5628877E0,0E0,0E0,0E0,0E0,0E0,0E0,0E0,0E0,0E0,0E0,0E0,0E0,0E0,0E0],"parents":[2147483647,0,0,1,1,2,2,3,3,4,4,6,6,7,7,8,8,9,9,10,10,12,12,13,13,14,14,16,16,17,17,18,18,20,20],"right_children":[2,4,6,8,10,-1,12,14,16,18,20,-1,22,24,26,-1,28,30,32,-1,34,-1,-1,-1,-1,-1,-1,-1,-1,-1,-1,-1,-1,-1,-1],"split_conditions":[3.3292285E-1,1.6693786E0,1.6572159E1,1.592719E0,3.5525793E-1,-1.8005704E-3,4.483456E2,-1.4654863E-2,7.132011E-3,1.0400202E-6,2.5819177E5,-2.0800687E-4,-5.0027063E-3,1.1031842E-3,8.393603E0,9.35563E-3,-9.920701E-3,5.248366E-2,1.4634226E6,-4.5431997E-3,1.2787079E0,4.6929833E-3,1.732075E-2,4.4471137E-3,-3.4171194E-3,1.254092E-3,-4.754982E-3,-5.0478894E-3,-1.7448127E-3,-5.656481E-3,-1.0675313E-4,5.3057373E-3,-3.6473682E-3,5.4903915E-3,-2.4862583E-3],"split_indices":[107,205,30,60,66,0,1,11,83,192,189,0,194,210,45,0,122,201,175,0,208,0,0,0,0,0,0,0,0,0,0,0,0,0,0],"split_type":[0,0,0,0,0,0,0,0,0,0,0,0,0,0,0,0,0,0,0,0,0,0,0,0,0,0,0,0,0,0,0,0,0,0,0],"sum_hessian":[2.985092E2,2.7455682E2,2.3952364E1,1.843039E2,9.025293E1,7.3677278E0,1.6584637E1,1.6904071E2,1.5263186E1,4.6271935E1,4.3980995E1,5.153334E0,1.1431303E1,1.0204824E1,1.5883588E2,5.1053195E0,1.01578665E1,3.420566E1,1.2066272E1,9.200813E0,3.4780178E1,5.85719E0,5.5741124E0,5.1028795E0,5.1019444E0,5.049116E0,1.5378677E2,5.0870457E0,5.0708213E0,2.9128176E1,5.0774865E0,6.380481E0,5.6857905E0,2.5861198E1,8.918981E0],"tree_param":{"num_deleted":"0","num_feature":"220","num_nodes":"35","size_leaf_vector":"1"}},{"base_weights":[1.595103E-2,4.5830452E-1,-3.5508133E-2,7.9933894E-1,-1.4476493E-1,-1.17114216E-1,2.2601424E-1,1.3257421E-2,3.7273937E-1,-5.181679E-3,2.7418616E-3,9.9735536E-2,-2.442185E-1,-3.604305E-3,3.362991E-1,-1.2177146E-3,9.238855E-3,9.861678E-3,5.0787735E-3,-4.6273404E-1,-1.3657399E-1,7.0586425E-1,5.283432E-3,2.3581982E-3,-2.8045967E-3,-5.470436E-3,-0E0,-1.9325764E-3,4.358219E-3,-1.0242867E-3,9.759196E-3,-1.7615249E-3,6.90961E-3],"categories":[],"categories_nodes":[],"categories_segments":[],"categories_sizes":[],"default_left":[0,0,0,0,0,0,0,0,0,0,0,0,0,0,0,0,0,0,0,0,0,0,0,0,0,0,0,0,0,0,0,0,0],"id":26,"left_children":[1,3,5,7,9,11,13,-1,15,-1,-1,17,19,-1,21,-1,-1,-1,23,25,27,29,31,-1,-1,-1,-1,-1,-1,-1,-1,-1,-1],"loss_changes":[6.751811E0,6.5395107E0,5.652458E0,3.8289156E0,2.0293715E0,5.6135306E0,4.184737E0,0E0,3.612473E0,0E0,0E0,6.2024035E0,2.8899503E0,0E0,6.479216E0,0E0,0E0,0E0,4.608867E0,1.6243916E0,2.9004166E0,5.68015E0,3.8322816E0,0E0,0E0,0E0,0E0,0E0,0E0,0E0,0E0,0E0,0E0],"parents":[2147483647,0,0,1,1,2,2,3,3,4,4,5,5,6,6,8,8,11,11,12,12,14,14,18,18,19,19,20,20,21,21,22,22],"right_children":[2,4,6,8,10,12,14,-1,16,-1,-1,18,20,-1,22,-1,-1,-1,24,26,28,30,32,-1,-1,-1,-1,-1,-1,-1,-1,-1,-1],"split_conditions":[-8.891893E-3,1.2516445E0,4.5473325E-1,3.306288E-1,1.3266624E0,1.4119159E7,-2.164399E-1,1.3257421E-2,7.3847213E0,-5.181679E-3,2.7418616E-3,3.275143E-1,3.142785E-1,-3.604305E-3,3.5418606E-1,-1.2177146E-3,9.238855E-3,9.861678E-3,2.7342543E-3,2.3483549E-1,1.0266182E0,-3.8851166E0,7.7305164E2,2.3581982E-3,-2.8045967E-3,-5.470436E-3,-0E0,-1.9325764E-3,4.358219E-3,-1.0242867E-3,9.759196E-3,-1.7615249E-3,6.90961E-3],"split_indices":[12,59,136,66,74,57,144,0,75,0,0,63,177,0,177,0,0,0,20,120,16,129,3,0,0,0,0,0,0,0,0,0,0],"split_type":[0,0,0,0,0,0,0,0,0,0,0,0,0,0,0,0,0,0,0,0,0,0,0,0,0,0,0,0,0,0,0,0,0],"sum_hessian":[2.930393E2,2.9915619E1,2.631237E2,1.9007364E1,1.0908255E1,2.0125739E2,6.1866287E1,7.4599905E0,1.1547374E1,5.7686434E0,5.139611E0,7.41612E1,1.2709618E2,9.2902155E0,5.2576073E1,6.4013968E0,5.145977E0,6.1445475E0,6.8016655E1,4.0551003E1,8.654518E1,2.4163742E1,2.841233E1,3.7907932E1,3.0108723E1,3.415846E1,6.39254E0,7.950862E1,7.036566E0,6.1141434E0,1.8049599E1,2.2939583E1,5.472747E0],"tree_param":{"num_deleted":"0","num_feature":"220","num_nodes":"33","size_leaf_vector":"1"}},{"base_weights":[4.440159E-1,6.528215E-1,3.4941882E-2,1.2991173E0,5.6312007E-1,-2.9351225E-2,1.0654262E-2,8.765451E-1,1.8084802E-2,-1.0876269E-2,6.6221404E-1,9.219052E-3,-9.27499E-2,1.2826614E-2,9.3098474E-4,6.3051432E-3,-2.5160813E-1,5.857467E-1,1.2026026E0,7.622883E-3,-1.5972327E-1,1.395818E-3,-4.3759663E-3,1.8712996E-3,7.504262E-3,1.5462549E-2,3.656856E-3,4.964675E-4,-3.4960445E-3],"categories":[],"categories_nodes":[],"categories_segments":[],"categories_sizes":[],"default_left":[0,0,0,0,0,0,0,0,0,0,0,0,0,0,0,0,0,0,0,0,0,0,0,0,0,0,0,0,0],"id":27,"left_children":[1,3,5,7,9,11,-1,13,-1,15,17,-1,19,-1,-1,-1,21,23,25,-1,27,-1,-1,-1,-1,-1,-1,-1,-1],"loss_changes":[2.5837105E1,1.0720612E1,7.012028E0,3.2187576E0,1.0207535E1,5.948225E0,0E0,4.492779E0,0E0,4.3001947E0,5.402588E0,0E0,5.4119935E0,0E0,0E0,0E0,1.5830902E0,8.652256E0,4.34709E0,0E0,3.5292368E0,0E0,0E0,0E0,0E0,0E0,0E0,0E0,0E0],"parents":[2147483647,0,0,1,1,2,2,3,3,4,4,5,5,7,7,9,9,10,10,12,12,16,16,17,17,18,18,20,20],"right_children":[2,4,6,8,10,12,-1,14,-1,16,18,-1,20,-1,-1,-1,22,24,26,-1,28,-1,-1,-1,-1,-1,-1,-1,-1],"split_conditions":[2.250594E-2,-1.1400318E0,1.6188837E0,1.7776142E-10,7.6599056E-1,-5.370078E-1,1.0654262E-2,1.442044E6,1.8084802E-2,1.3461044E-1,2.0342387E-1,9.219052E-3,2.0581455E5,1.2826614E-2,9.3098474E-4,6.3051432E-3,2.981861E-7,9.7458535E-1,4.338494E-2,7.622883E-3,3.520836E-1,1.395818E-3,-4.3759663E-3,1.8712996E-3,7.504262E-3,1.5462549E-2,3.656856E-3,4.964675E-4,-3.4960445E-3],"split_indices":[112,138,138,172,216,65,0,190,0,103,106,0,189,0,0,0,182,63,65,0,219,0,0,0,0,0,0,0,0],"split_type":[0,0,0,0,0,0,0,0,0,0,0,0,0,0,0,0,0,0,0,0,0,0,0,0,0,0,0,0,0],"sum_hessian":[3.025544E2,1.9975314E2,1.0280127E2,2.2566294E1,1.7718686E2,9.7587166E1,5.214101E0,1.3928372E1,8.637921E0,2.6068378E1,1.5111848E2,5.152875E0,9.2434296E1,8.669504E0,5.2588677E0,6.558848E0,1.950953E1,1.343731E2,1.6745394E1,5.8516836E0,8.658261E1,6.193846E0,1.3315683E1,4.008603E1,9.4287056E1,1.1185423E1,5.559971E0,4.1278885E1,4.5303726E1],"tree_param":{"num_deleted":"0","num_feature":"220","num_nodes":"29","size_leaf_vector":"1"}},{"base_weights":[4.9444098E-2,1.7643102E-1,-1.3685887E-1,2.451287E-1,-4.1945454E-1,-2.1635702E-1,2.700162E-1,-1.8954536E-1,3.5277468E-1,-5.6865173E-3,-1.4276148E-4,1.2155346E-1,-3.100232E-1,-1.4251028E-1,8.128544E-3,3.4810381E-3,-3.5318962E-1,1.1324737E0,2.5281012E-1,-3.1966805E-1,6.1197896E-3,2.3017246E-3,-3.843294E-1,-5.165561E-3,2.7494794E-3,-5.2867476E-3,9.407313E-4,1.774997E-2,1.8469106E-3,-3.2455942E-3,3.4340743E-3,-5.2301553E-3,-1.5064175E-4,-0E0,-4.342695E-3],"categories":[],"categories_nodes":[],"categories_segments":[],"categories_sizes":[],"default_left":[0,0,0,0,0,0,0,0,0,0,0,0,0,0,0,0,0,0,0,0,0,0,0,0,0,0,0,0,0,0,0,0,0,0,0],"id":28,"left_children":[1,3,5,7,9,11,13,15,17,-1,-1,19,21,23,-1,-1,25,27,29,31,-1,-1,33,-1,-1,-1,-1,-1,-1,-1,-1,-1,-1,-1,-1],"loss_changes":[6.91884E0,7.2066474E0,3.8796632E0,7.418149E0,1.0338452E0,3.2129703E0,4.5666246E0,2.9021146E0,9.409818E0,0E0,0E0,5.0136323E0,3.2587314E0,2.01955E0,0E0,0E0,2.0437152E0,7.9639454E0,6.036756E0,6.939417E-1,0E0,0E0,1.3394909E0,0E0,0E0,0E0,0E0,0E0,0E0,0E0,0E0,0E0,0E0,0E0,0E0],"parents":[2147483647,0,0,1,1,2,2,3,3,4,4,5,5,6,6,7,7,8,8,11,11,12,12,13,13,16,16,17,17,18,18,19,19,22,22],"right_children":[2,4,6,8,10,12,14,16,18,-1,-1,20,22,24,-1,-1,26,28,30,32,-1,-1,34,-1,-1,-1,-1,-1,-1,-1,-1,-1,-1,-1,-1],"split_conditions":[1.5062561E0,7.8863837E2,5.2505888E-2,-4.900416E7,3.3151147E0,1.708169E0,1.5961949E-3,-9.1639515E-3,1.5798331E1,-5.6865173E-3,-1.4276148E-4,5.9654284E-3,1.1536304E-3,7.9525515E-2,8.128544E-3,3.4810381E-3,2.54E2,4.7409744E-3,-6.590588E-1,3.1816115E0,6.1197896E-3,2.3017246E-3,-3.754694E-1,-5.165561E-3,2.7494794E-3,-5.2867476E-3,9.407313E-4,1.774997E-2,1.8469106E-3,-3.2455942E-3,3.4340743E-3,-5.2301553E-3,-1.5064175E-4,-0E0,-4.342695E-3],"split_indices":[205,48,201,61,77,77,10,168,31,0,0,85,85,43,0,0,100,194,133,76,0,0,67,0,0,0,0,0,0,0,0,0,0,0,0],"split_type":[0,0,0,0,0,0,0,0,0,0,0,0,0,0,0,0,0,0,0,0,0,0,0,0,0,0,0,0,0,0,0,0,0,0,0],"sum_hessian":[2.9026404E2,1.7296097E2,1.1730307E2,1.5576033E2,1.720065E1,9.872709E1,1.8575983E1,3.0581709E1,1.2517862E2,1.2096236E1,5.1044126E0,2.1130661E1,7.759643E1,1.0869233E1,7.7067494E0,6.730509E0,2.38512E1,1.2937805E1,1.12240814E2,1.1199276E1,9.931384E0,8.966665E0,6.862976E1,5.7338333E0,5.1353993E0,1.7159979E1,6.6912203E0,7.127566E0,5.810239E0,1.4723415E1,9.7517395E1,6.0890303E0,5.1102457E0,7.991079E0,6.063868E1],"tree_param":{"num_deleted":"0","num_feature":"220","num_nodes":"35","size_leaf_vector":"1"}},{"base_weights":[-2.5225094E-1,5.141363E-1,-3.174844E-1,1.652419E-1,1.2608865E-2,2.1336064E-1,-3.7468594E-1,6.4016986E-3,-3.2205076E-3,7.2617894E-3,-1.1534506E-1,3.216286E-3,-3.999801E-1,-4.618381E-3,3.7608098E-3,3.4348786E-2,-4.2988807E-1,-3.9973566E-3,4.004577E-3,1.2099702E-3,-4.5815553E-3],"categories":[],"categories_nodes":[],"categories_segments":[],"categories_sizes":[],"default_left":[0,0,0,0,0,0,0,0,0,0,0,0,0,0,0,0,0,0,0,0,0],"id":29,"left_children":[1,3,5,7,-1,9,11,-1,-1,-1,13,-1,15,-1,-1,17,19,-1,-1,-1,-1],"loss_changes":[1.4796143E1,5.706937E0,8.320009E0,4.192984E0,0E0,4.6644826E0,4.4519844E0,0E0,0E0,0E0,3.0911303E0,0E0,3.1331558E0,0E0,0E0,2.6997643E0,3.546749E0,0E0,0E0,0E0,0E0],"parents":[2147483647,0,0,1,1,2,2,3,3,5,5,6,6,10,10,12,12,15,15,16,16],"right_children":[2,4,6,8,-1,10,12,-1,-1,-1,14,-1,16,-1,-1,18,20,-1,-1,-1,-1],"split_conditions":[-1.0573678E1,6.154613E5,4.838615E2,-1.1974072E-1,1.2608865E-2,8.1371285E-2,5.1671462E8,6.4016986E-3,-3.2205076E-3,7.2617894E-3,7.37886E-7,3.216286E-3,-9.264237E-1,-4.618381E-3,3.7608098E-3,1.7560658E-1,3.7440147E-2,-3.9973566E-3,4.004577E-3,1.2099702E-3,-4.5815553E-3],"split_indices":[28,189,41,144,0,188,178,0,0,0,192,0,137,0,0,79,43,0,0,0,0],"split_type":[0,0,0,0,0,0,0,0,0,0,0,0,0,0,0,0,0,0,0,0,0],"sum_hessian":[2.920862E2,2.2251598E1,2.6983463E2,1.6089502E1,6.1620955E0,2.5812231E1,2.4402238E2,8.093174E0,7.996328E0,9.728961E0,1.608327E1,8.004351E0,2.3601804E2,9.587233E0,6.496037E0,1.4980238E1,2.210378E2,6.6868486E0,8.293388E0,1.0455699E1,2.1058209E2],"tree_param":{"num_deleted":"0","num_feature":"220","num_nodes":"21","size_leaf_vector":"1"}},{"base_weights":[-2.540124E-1,-3.0891144E-1,5.4462564E-1,6.076896E-3,-3.2876095E-1,2.1848655E-1,1.1221011E-2,-3.972497E-1,-1.0107273E-1,7.7272966E-3,-3.8352252E-3,2.99515E-3,-4.201417E-1,3.7616593E-1,-2.3680761E-1,-4.437199E-3,1.9919109E-3,-2.3830745E-3,8.574562E-3,-4.41667E-3,8.4938173E-4],"categories":[],"categories_nodes":[],"categories_segments":[],"categories_sizes":[],"default_left":[0,0,0,0,0,0,0,0,0,0,0,0,0,0,0,0,0,0,0,0,0],"id":30,"left_children":[1,3,5,-1,7,9,-1,11,13,-1,-1,-1,15,17,19,-1,-1,-1,-1,-1,-1],"loss_changes":[1.3068996E1,5.203865E0,3.2377272E0,0E0,4.1432705E0,4.8815966E0,0E0,3.4557648E0,4.2502933E0,0E0,0E0,0E0,3.0618744E0,4.5531573E0,3.4319494E0,0E0,0E0,0E0,0E0,0E0,0E0],"parents":[2147483647,0,0,1,1,2,2,4,4,5,5,7,7,8,8,12,12,13,13,14,14],"right_children":[2,4,6,-1,8,10,-1,12,14,-1,-1,-1,16,18,20,-1,-1,-1,-1,-1,-1],"split_conditions":[3.5552797E-1,1.6209538E-5,6.0783855E1,6.076896E-3,2.349142E-1,3.729206E1,1.1221011E-2,-2.9867737E-2,4.8541233E-2,7.7272966E-3,-3.8352252E-3,2.99515E-3,8.040854E1,6.7028105E-2,5.1955443E-2,-4.437199E-3,1.9919109E-3,-2.3830745E-3,8.574562E-3,-4.41667E-3,8.4938173E-4],"split_indices":[107,210,68,0,107,36,0,20,201,0,0,0,34,145,201,0,0,0,0,0,0],"split_type":[0,0,0,0,0,0,0,0,0,0,0,0,0,0,0,0,0,0,0,0,0],"sum_hessian":[2.9377673E2,2.7557208E2,1.820464E1,5.106652E0,2.7046542E2,1.2625621E1,5.5790176E0,2.0701215E2,6.3453285E1,6.512435E0,6.113186E0,6.061637E0,2.0095052E2,1.3495514E1,4.995777E1,1.9400952E2,6.940992E0,6.058097E0,7.4374166E0,3.048542E1,1.9472351E1],"tree_param":{"num_deleted":"0","num_feature":"220","num_nodes":"21","size_leaf_vector":"1"}},{"base_weights":[-5.442586E-3,7.750679E-2,-2.1257977E-1,5.781396E-1,3.1631626E-2,4.7564823E-3,-2.7774432E-1,3.0724326E-4,9.540248E-3,-2.4317073E-2,4.1804004E-1,1.7535478E-2,-3.684901E-1,4.807638E-1,-7.812931E-2,6.7119396E-1,-3.6832618E-3,7.6506846E-3,-2.9548922E-1,-4.3384504E-1,2.776117E-3,-1.0115071E-3,1.0381593E-2,-1.1633587E-3,5.7936194E-3,1.03606405E-2,-1.3866209E-4,1.1732028E-3,-5.4590222E-3,1.172169E-3,-4.9288133E-3],"categories":[],"categories_nodes":[],"categories_segments":[],"categories_sizes":[],"default_left":[0,0,0,0,0,0,0,0,0,0,0,0,0,0,0,0,0,0,0,0,0,0,0,0,0,0,0,0,0,0,0],"id":31,"left_children":[1,3,5,7,9,-1,11,-1,-1,13,15,17,19,21,23,25,-1,-1,27,29,-1,-1,-1,-1,-1,-1,-1,-1,-1,-1,-1],"loss_changes":[5.2070904E0,4.870972E0,4.0038333E0,3.5455604E0,4.344993E0,0E0,2.185989E0,0E0,0E0,4.7340803E0,5.336089E0,4.8379955E0,2.7338533E0,5.628744E0,4.003615E0,5.034031E0,0E0,0E0,1.5931771E0,1.9302006E0,0E0,0E0,0E0,0E0,0E0,0E0,0E0,0E0,0E0,0E0,0E0],"parents":[2147483647,0,0,1,1,2,2,3,3,4,4,6,6,9,9,10,10,11,11,12,12,13,13,14,14,15,15,18,18,19,19],"right_children":[2,4,6,8,10,-1,12,-1,-1,14,16,18,20,22,24,26,-1,-1,28,30,-1,-1,-1,-1,-1,-1,-1,-1,-1,-1,-1],"split_conditions":[2.4078552E7,-8.891893E-3,1.8914628E-1,-7.3916195E-3,1.8090759E-1,4.7564823E-3,-2.8592445E-2,3.0724326E-4,9.540248E-3,4.6509907E-10,2.0045602E-1,3.0637174E9,9.2529686E1,1.0773147E1,-2.0020923E-3,9.11787E1,-3.6832618E-3,7.6506846E-3,1.0234542E0,1.009893E0,2.776117E-3,-1.0115071E-3,1.0381593E-2,-1.1633587E-3,5.7936194E-3,1.03606405E-2,-1.3866209E-4,1.1732028E-3,-5.4590222E-3,1.172169E-3,-4.9288133E-3],"split_indices":[4,12,56,120,128,0,193,0,0,173,67,179,206,45,84,36,0,0,14,14,0,0,0,0,0,0,0,0,0,0,0],"split_type":[0,0,0,0,0,0,0,0,0,0,0,0,0,0,0,0,0,0,0,0,0,0,0,0,0,0,0,0,0,0,0],"sum_hessian":[3.003116E2,2.1454057E2,8.577106E1,1.6852123E1,1.9768845E2,6.741173E0,7.9029884E1,7.409368E0,9.442755E0,1.7327757E2,2.4410866E1,1.8508715E1,6.052117E1,1.5740938E1,1.5753664E2,1.8673088E1,5.737776E0,5.130924E0,1.337779E1,5.5400547E1,5.120623E0,8.013775E0,7.727163E0,1.498066E2,7.7300496E0,1.1944779E1,6.7283096E0,5.1009507E0,8.27684E0,5.1015754E0,5.0298973E1],"tree_param":{"num_deleted":"0","num_feature":"220","num_nodes":"31","size_leaf_vector":"1"}},{"base_weights":[4.0894774E-1,6.136243E-1,9.564005E-3,5.245585E-1,1.0830075E0,1.619743E-1,-3.4412602E-1,5.7810193E-1,-8.8426985E-2,6.751027E-1,1.489706E0,-8.072065E-2,4.4344288E-1,-5.463269E-3,1.3548445E-3,2.0028464E-1,6.9299275E-1,-5.3815744E-3,4.184775E-3,1.7374977E-3,1.268146E-2,9.3622655E-3,1.7979376E-2,4.556579E-3,-2.4883638E-1,1.2376003E-2,1.9743894E-1,7.0035798E-3,-1.3155795E-3,-5.577639E-4,7.6874844E-3,2.5492867E-3,-3.93846E-3,-4.3993047E-3,5.0433897E-3],"categories":[],"categories_nodes":[],"categories_segments":[],"categories_sizes":[],"default_left":[0,0,0,0,0,0,0,0,0,0,0,0,0,0,0,0,0,0,0,0,0,0,0,0,0,0,0,0,0,0,0,0,0,0,0],"id":32,"left_children":[1,3,5,7,9,11,13,15,17,19,21,23,25,-1,-1,27,29,-1,-1,-1,-1,-1,-1,-1,31,-1,33,-1,-1,-1,-1,-1,-1,-1,-1],"loss_changes":[2.4545551E1,7.5863266E0,5.6009717E0,5.656597E0,3.854782E0,5.0590262E0,3.1410697E0,6.542553E0,3.5010564E0,4.7585626E0,4.9533272E-1,3.6867747E0,6.2832108E0,0E0,0E0,6.4517794E0,6.864151E0,0E0,0E0,0E0,0E0,0E0,0E0,0E0,2.388708E0,0E0,5.579511E0,0E0,0E0,0E0,0E0,0E0,0E0,0E0,0E0],"parents":[2147483647,0,0,1,1,2,2,3,3,4,4,5,5,6,6,7,7,8,8,9,9,10,10,11,11,12,12,15,15,16,16,24,24,26,26],"right_children":[2,4,6,8,10,12,14,16,18,20,22,24,26,-1,-1,28,30,-1,-1,-1,-1,-1,-1,-1,32,-1,34,-1,-1,-1,-1,-1,-1,-1,-1],"split_conditions":[2.1679969E-1,8.117521E2,1.5374175E-1,1.1829702E-3,1.657976E-1,8.271645E-3,7.506083E-11,-2.6626447E-1,4.4829354E0,1.8837261E-1,-1.5615898E-3,3.6587756E-2,-2.220446E-17,-5.463269E-3,1.3548445E-3,1.77E2,4.5948488E-1,-5.3815744E-3,4.184775E-3,1.7374977E-3,1.268146E-2,9.3622655E-3,1.7979376E-2,4.556579E-3,-3.126722E-2,1.2376003E-2,-5.3494344E-3,7.0035798E-3,-1.3155795E-3,-5.577639E-4,7.6874844E-3,2.5492867E-3,-3.93846E-3,-4.3993047E-3,5.0433897E-3],"split_indices":[108,40,145,210,102,7,215,67,203,65,20,214,186,0,0,100,205,0,0,0,0,0,0,0,6,0,120,0,0,0,0,0,0,0,0],"split_type":[0,0,0,0,0,0,0,0,0,0,0,0,0,0,0,0,0,0,0,0,0,0,0,0,0,0,0,0,0,0,0,0,0,0,0],"sum_hessian":[3.0010577E2,1.9789932E2,1.0220646E2,1.6829568E2,2.9603642E1,7.2003746E1,3.0202707E1,1.5497856E2,1.3317126E1,1.6230675E1,1.3372967E1,3.8857224E1,3.3146523E1,2.129448E1,8.908229E0,3.698089E1,1.17997665E2,7.128381E0,6.1887455E0,9.587282E0,6.643393E0,6.3436913E0,7.029276E0,8.722525E0,3.01347E1,6.7898874E0,2.6356634E1,1.4428525E1,2.2552364E1,1.0744347E1,1.0725332E2,6.4119363E0,2.3722765E1,8.31947E0,1.8037165E1],"tree_param":{"num_deleted":"0","num_feature":"220","num_nodes":"35","size_leaf_vector":"1"}},{"base_weights":[4.495057E-2,1.63267E-1,-1.7337021E-1,3.0418053E-1,-9.0072595E-2,-2.9234633E-1,2.5904608E-1,3.9939964E-1,-2.0054784E-1,-4.5186976E-1,6.525977E-2,-4.0507928E-1,4.1892357E-2,1.0811357E-2,-3.0865267E-2,1.1190506E0,3.061539E-1,-4.3191692E-1,2.5269955E-3,-1.702968E-4,-5.808582E-3,-2.549603E-1,3.4292865E-1,2.9388812E-4,-4.7975063E-1,3.99612E-1,-3.6638041E-3,-3.2884282E-1,5.362479E-3,5.2700643E-3,1.5428757E-2,-4.3083582E-4,4.497424E-3,-5.447796E-3,-1.7827664E-3,1.8328722E-3,-4.5902557E-3,5.8975336E-3,-2.1299336E-3,-1.3263521E-3,-5.405729E-3,9.2199445E-3,-2.00075E-3,-5.282224E-3,-1.7022864E-4],"categories":[],"categories_nodes":[],"categories_segments":[],"categories_sizes":[],"default_left":[0,0,0,0,0,0,0,0,0,0,0,0,0,0,0,0,0,0,0,0,0,0,0,0,0,0,0,0,0,0,0,0,0,0,0,0,0,0,0,0,0,0,0,0,0],"id":33,"left_children":[1,3,5,7,9,11,13,15,17,19,21,23,25,-1,27,29,31,33,-1,-1,-1,35,37,-1,39,41,-1,43,-1,-1,-1,-1,-1,-1,-1,-1,-1,-1,-1,-1,-1,-1,-1,-1,-1],"loss_changes":[7.7931724E0,7.0382767E0,5.5249257E0,6.169572E0,4.029974E0,3.2057319E0,5.6651645E0,6.6782207E0,2.2813816E0,1.1359563E0,4.5421352E0,2.0991192E0,3.331213E0,0E0,3.2017376E0,1.9270878E0,4.874298E0,2.3465729E-1,0E0,0E0,0E0,2.2247732E0,3.9193957E0,0E0,9.9919415E-1,4.084661E0,0E0,7.1687245E-1,0E0,0E0,0E0,0E0,0E0,0E0,0E0,0E0,0E0,0E0,0E0,0E0,0E0,0E0,0E0,0E0,0E0],"parents":[2147483647,0,0,1,1,2,2,3,3,4,4,5,5,6,6,7,7,8,8,9,9,10,10,11,11,12,12,14,14,15,15,16,16,17,17,21,21,22,22,24,24,25,25,27,27],"right_children":[2,4,6,8,10,12,14,16,18,20,22,24,26,-1,28,30,32,34,-1,-1,-1,36,38,-1,40,42,-1,44,-1,-1,-1,-1,-1,-1,-1,-1,-1,-1,-1,-1,-1,-1,-1,-1,-1],"split_conditions":[1.3590779E1,1.0544273E0,1.1470033E0,7.7714154E2,1.236043E6,8.821193E-1,-1.9064542E-2,1.5556232E1,3.3151147E0,6.75E-1,8.709543E-1,7.204197E-3,2.8964704E-1,1.0811357E-2,3.497599E-2,8.886469E-2,4.640963E1,-9.305203E-1,2.5269955E-3,-1.702968E-4,-5.808582E-3,3.108791E-1,1.0042423E0,2.9388812E-4,6.1231537E-10,6.094664E-1,-3.6638041E-3,4.931554E-10,5.362479E-3,5.2700643E-3,1.5428757E-2,-4.3083582E-4,4.497424E-3,-5.447796E-3,-1.7827664E-3,1.8328722E-3,-4.5902557E-3,5.8975336E-3,-2.1299336E-3,-1.3263521E-3,-5.405729E-3,9.2199445E-3,-2.00075E-3,-5.282224E-3,-1.7022864E-4],"split_indices":[73,63,216,25,175,142,7,31,77,140,208,113,219,0,115,43,33,27,0,0,0,66,15,0,173,163,0,172,0,0,0,0,0,0,0,0,0,0,0,0,0,0,0,0,0],"split_type":[0,0,0,0,0,0,0,0,0,0,0,0,0,0,0,0,0,0,0,0,0,0,0,0,0,0,0,0,0,0,0,0,0,0,0,0,0,0,0,0,0,0,0,0,0],"sum_hessian":[2.996425E2,1.9478903E2,1.04853455E2,1.25292435E2,6.94966E1,8.266421E1,2.2189253E1,1.05749214E2,1.9543222E1,2.049493E1,4.9001667E1,6.1880287E1,2.0783916E1,5.163387E0,1.7025866E1,1.0745352E1,9.500386E1,1.311573E1,6.4274917E0,5.1250114E0,1.5369918E1,2.262786E1,2.6373808E1,8.96801E0,5.2912277E1,1.1219651E1,9.564264E0,1.1552387E1,5.4734783E0,5.517424E0,5.227927E0,2.7681107E1,6.732276E1,8.009589E0,5.106141E0,7.065621E0,1.5562238E1,1.8346943E1,8.026865E0,8.608436E0,4.4303844E1,5.7981896E0,5.421462E0,6.427748E0,5.124639E0],"tree_param":{"num_deleted":"0","num_feature":"220","num_nodes":"45","size_leaf_vector":"1"}},{"base_weights":[-2.211621E-1,-4.032979E-1,1.8796773E-1,-4.354079E-1,6.1034925E-2,9.181566E-1,3.312515E-2,1.2037759E-3,-4.5168683E-1,-4.1120034E-3,6.4300066E-3,2.5618346E-3,1.3282944E-2,1.0428353E-2,-6.421563E-2,-3.4868646E-2,-4.7556114E-1,3.0888084E-1,-2.534698E-1,4.5165443E-3,-5.088558E-3,-6.914594E-5,-4.8873406E-3,6.9155376E-3,-2.6290673E-3,1.1361316E-3,-4.211099E-3],"categories":[],"categories_nodes":[],"categories_segments":[],"categories_sizes":[],"default_left":[0,0,0,0,0,0,0,0,0,0,0,0,0,0,0,0,0,0,0,0,0,0,0,0,0,0,0],"id":34,"left_children":[1,3,5,7,9,11,13,-1,15,-1,-1,-1,-1,-1,17,19,21,23,25,-1,-1,-1,-1,-1,-1,-1,-1],"loss_changes":[2.212526E1,3.1210327E0,1.0228142E1,1.8255234E0,4.1179066E0,3.8102455E0,7.7035975E0,0E0,1.7934227E0,0E0,0E0,0E0,0E0,0E0,5.0726323E0,2.8731189E0,1.037159E0,5.4986677E0,3.0143447E0,0E0,0E0,0E0,0E0,0E0,0E0,0E0,0E0],"parents":[2147483647,0,0,1,1,2,2,3,3,4,4,5,5,6,6,8,8,14,14,15,15,16,16,17,17,18,18],"right_children":[2,4,6,8,10,12,14,-1,16,-1,-1,-1,-1,-1,18,20,22,24,26,-1,-1,-1,-1,-1,-1,-1,-1],"split_conditions":[2.3302935E-1,5.2601E-2,8.6114003E8,-9.089216E0,4.6217072E-10,3.2202688E5,4.3200998E2,1.2037759E-3,1.6756082E-2,-4.1120034E-3,6.4300066E-3,2.5618346E-3,1.3282944E-2,1.0428353E-2,2.8689775E-1,-4.290319E-4,9.5677245E-1,1.0405462E0,5.1905225E2,4.5165443E-3,-5.088558E-3,-6.914594E-5,-4.8873406E-3,6.9155376E-3,-2.6290673E-3,1.1361316E-3,-4.211099E-3],"split_indices":[108,201,178,38,172,189,69,0,163,0,0,0,0,0,104,51,70,110,1,0,0,0,0,0,0,0,0],"split_type":[0,0,0,0,0,0,0,0,0,0,0,0,0,0,0,0,0,0,0,0,0,0,0,0,0,0,0],"sum_hessian":[2.9460855E2,2.0403516E2,9.057339E1,1.9109782E2,1.2937335E1,1.4871E1,7.5702385E1,5.0811844E0,1.8601663E2,7.2091103E0,5.728225E0,6.4037046E0,8.467296E0,5.892624E0,6.980976E1,1.0437582E1,1.7557906E2,2.3103312E1,4.670645E1,5.069819E0,5.3677635E0,5.0495596E0,1.705295E2,1.3819765E1,9.2835455E0,1.4556884E1,3.2149567E1],"tree_param":{"num_deleted":"0","num_feature":"220","num_nodes":"27","size_leaf_vector":"1"}},{"base_weights":[-2.4678877E-1,-3.694404E-1,9.503931E-2,3.0338396E-3,-3.8982284E-1,9.6284715E-4,7.94569E-3,-4.8844603E-1,-2.3151493E-1,-1.2221748E-1,6.0673296E-1,-5.3375006E-1,-2.4624293E-1,4.097587E-3,-3.144491E-1,-2.4406755E-1,3.439779E-1,-1.7437332E-4,1.0512752E-2,-6.9789245E-4,-5.658618E-3,3.7124287E-3,-5.17948E-3,-3.692671E-3,1.9554766E-3,-3.312454E-3,3.341357E-3,-3.398573E-3,8.436184E-3],"categories":[],"categories_nodes":[],"categories_segments":[],"categories_sizes":[],"default_left":[0,0,0,0,0,0,0,0,0,0,0,0,0,0,0,0,0,0,0,0,0,0,0,0,0,0,0,0,0],"id":35,"left_children":[1,3,5,-1,7,9,-1,11,13,15,17,19,21,-1,23,25,27,-1,-1,-1,-1,-1,-1,-1,-1,-1,-1,-1,-1],"loss_changes":[1.2863934E1,3.2142582E0,5.2638855E0,0E0,3.2355309E0,5.548007E0,0E0,1.2576447E0,4.7137294E0,3.545761E0,3.6154208E0,1.5570831E0,4.111452E0,0E0,2.2478323E0,2.59078E0,4.747772E0,0E0,0E0,0E0,0E0,0E0,0E0,0E0,0E0,0E0,0E0,0E0,0E0],"parents":[2147483647,0,0,1,1,2,2,4,4,5,5,7,7,8,8,9,9,10,10,11,11,12,12,14,14,15,15,16,16],"right_children":[2,4,6,-1,8,10,-1,12,14,16,18,20,22,-1,24,26,28,-1,-1,-1,-1,-1,-1,-1,-1,-1,-1,-1,-1],"split_conditions":[2.4406517E-1,2.2298529E-5,1.0746244E0,3.0338396E-3,1.3359511E-1,5.2402638E-2,7.94569E-3,2.369747E-2,5E0,1.1091111E-1,8.726877E-1,-9.7349055E-2,1.6486552E-2,4.097587E-3,1.2561654E0,9.732224E0,1.9976166E1,-1.7437332E-4,1.0512752E-2,-6.9789245E-4,-5.658618E-3,3.7124287E-3,-5.17948E-3,-3.692671E-3,1.9554766E-3,-3.312454E-3,3.341357E-3,-3.398573E-3,8.436184E-3],"split_indices":[107,210,70,0,67,201,0,168,91,198,59,120,149,0,63,77,30,0,0,0,0,0,0,0,0,0,0,0,0],"split_type":[0,0,0,0,0,0,0,0,0,0,0,0,0,0,0,0,0,0,0,0,0,0,0,0,0,0,0,0,0],"sum_hessian":[3.0433444E2,2.24127E2,8.020744E1,6.037525E0,2.1808948E2,7.170809E1,8.499353E0,1.3270154E2,8.538794E1,6.0116806E1,1.1591287E1,1.10429184E2,2.2272354E1,9.18901E0,7.619893E1,4.8207676E1,1.190913E1,5.127592E0,6.4636946E0,7.5552974E0,1.02873886E2,6.5812345E0,1.5691119E1,6.922966E1,6.9692645E0,4.2412975E1,5.7947E0,5.0783195E0,6.830811E0],"tree_param":{"num_deleted":"0","num_feature":"220","num_nodes":"29","size_leaf_vector":"1"}},{"base_weights":[-9.645761E-3,6.767614E-2,-2.7355415E-1,3.6779767E-1,-3.4625843E-2,-5.8552315E-3,-1.4607173E-1,1.2203133E-2,2.2994998E-1,-1.00784406E-1,4.8993504E-1,5.3073647E-3,-2.6040515E-1,-2.6446292E-2,6.4306414E-1,-3.4268085E-2,-4.1097745E-1,1.1929906E-2,3.756198E-2,-4.05292E-1,8.370221E-2,4.134762E-3,-3.0357947E-3,1.0713334E-2,-6.5634487E-4,-5.087896E-3,2.6526814E-4,-5.3862194E-3,-1.0962059E-4,4.8172963E-3,-3.805345E-3,1.5595948E-4,-5.488592E-3,6.0586175E-3,-2.9742466E-3],"categories":[],"categories_nodes":[],"categories_segments":[],"categories_sizes":[],"default_left":[0,0,0,0,0,0,0,0,0,0,0,0,0,0,0,0,0,0,0,0,0,0,0,0,0,0,0,0,0,0,0,0,0,0,0],"id":36,"left_children":[1,3,5,7,9,-1,11,-1,13,15,17,-1,19,21,23,25,27,-1,29,31,33,-1,-1,-1,-1,-1,-1,-1,-1,-1,-1,-1,-1,-1,-1],"loss_changes":[6.0966787E0,7.11071E0,2.5360785E0,6.487724E0,5.988886E0,0E0,3.9540765E0,0E0,5.583732E0,3.1183066E0,5.9687047E0,0E0,2.2239726E0,4.123256E0,6.2692738E0,3.7584348E0,1.3091192E0,0E0,2.581514E0,1.9250126E0,2.887428E0,0E0,0E0,0E0,0E0,0E0,0E0,0E0,0E0,0E0,0E0,0E0,0E0,0E0,0E0],"parents":[2147483647,0,0,1,1,2,2,3,3,4,4,6,6,8,8,9,9,10,10,12,12,13,13,14,14,15,15,16,16,18,18,19,19,20,20],"right_children":[2,4,6,8,10,-1,12,-1,14,16,18,-1,20,22,24,26,28,-1,30,32,34,-1,-1,-1,-1,-1,-1,-1,-1,-1,-1,-1,-1,-1,-1],"split_conditions":[2.8867238E7,4.9753094E-1,-2.5263363E-2,-4.769119E-1,8.930684E-10,-5.8552315E-3,-3.8370393E-2,1.2203133E-2,1.8772669E1,2.7703607E-1,9.733595E-10,5.3073647E-3,8.131255E2,-2.4492937E-16,8.570516E-2,3.282279E-2,2.8752556E-1,1.1929906E-2,9.3341184E-1,-8.8153645E-2,1.0975342E1,4.134762E-3,-3.0357947E-3,1.0713334E-2,-6.5634487E-4,-5.087896E-3,2.6526814E-4,-5.3862194E-3,-1.0962059E-4,4.8172963E-3,-3.805345E-3,1.5595948E-4,-5.488592E-3,6.0586175E-3,-2.9742466E-3],"split_indices":[4,208,198,65,173,0,193,0,206,102,173,0,40,98,165,163,107,0,59,144,73,0,0,0,0,0,0,0,0,0,0,0,0,0,0],"split_type":[0,0,0,0,0,0,0,0,0,0,0,0,0,0,0,0,0,0,0,0,0,0,0,0,0,0,0,0,0,0,0,0,0,0,0],"sum_hessian":[2.9585425E2,2.2909645E2,6.67578E1,5.7828445E1,1.71268E2,1.8096205E1,4.866159E1,6.8551126E0,5.097333E1,1.5297325E2,1.8294758E1,6.379695E0,4.2281895E1,3.1880718E1,1.9092613E1,1.2714231E2,2.583094E1,6.4352202E0,1.1859538E1,2.983333E1,1.2448565E1,1.1991902E1,1.9888815E1,1.1669876E1,7.422737E0,1.37892475E1,1.13353065E2,1.9130062E1,6.700877E0,5.792654E0,6.066884E0,7.6375594E0,2.219577E1,5.114377E0,7.334187E0],"tree_param":{"num_deleted":"0","num_feature":"220","num_nodes":"35","size_leaf_vector":"1"}},{"base_weights":[3.8447934E-1,5.605038E-1,3.4894418E-2,2.2467045E-1,6.886886E-1,-4.457651E-1,1.5598847E-1,9.653287E-2,1.0876337E-2,3.183689E-3,7.698983E-1,-1.08951856E-4,-5.7768147E-3,3.4699598E-1,-1.6260883E-1,8.862403E-3,-2.3376245E-2,-2.9229058E-3,5.168885E-3,-3.7625356E-4,8.163336E-1,-4.1026943E-3,4.7423467E-1,-3.271573E-1,4.7496352E-3,5.899009E-3,-1.9822358E-3,1.0114463E-2,5.4897335E-3,2.8540678E-3,1.1035951E-2,-4.4623464E-3,1.2262237E-3],"categories":[],"categories_nodes":[],"categories_segments":[],"categories_sizes":[],"default_left":[0,0,0,0,0,0,0,0,0,0,0,0,0,0,0,0,0,0,0,0,0,0,0,0,0,0,0,0,0,0,0,0,0],"id":37,"left_children":[1,3,5,7,9,11,13,15,-1,17,19,-1,-1,21,23,-1,25,-1,-1,-1,27,-1,29,31,-1,-1,-1,-1,-1,-1,-1,-1,-1],"loss_changes":[1.876329E1,8.510075E0,6.082413E0,6.177847E0,8.076492E0,1.138504E0,5.1757565E0,4.9934497E0,0E0,2.7012365E0,5.01548E0,0E0,0E0,5.2998943E0,3.4875062E0,0E0,4.974399E0,0E0,0E0,0E0,5.7522125E0,0E0,4.9989443E0,1.4835908E0,0E0,0E0,0E0,0E0,0E0,0E0,0E0,0E0,0E0],"parents":[2147483647,0,0,1,1,2,2,3,3,4,4,5,5,6,6,7,7,9,9,10,10,13,13,14,14,16,16,20,20,22,22,23,23],"right_children":[2,4,6,8,10,12,14,16,-1,18,20,-1,-1,22,24,-1,26,-1,-1,-1,28,-1,30,32,-1,-1,-1,-1,-1,-1,-1,-1,-1],"split_conditions":[2.250594E-2,-7.6037463E-7,2.738659E-1,1.2810743E0,4.5948488E-1,-5.821793E-2,4.5784093E-2,-1.6320696E0,1.0876337E-2,9.6323496E-1,-1.6106775E1,-1.08951856E-4,-5.7768147E-3,-5.25914E-1,6.9781953E-1,8.862403E-3,-4.2119514E-2,-2.9229058E-3,5.168885E-3,-3.7625356E-4,2.476084E1,-4.1026943E-3,3.9611036E-1,3.588791E-2,4.7496352E-3,5.899009E-3,-1.9822358E-3,1.0114463E-2,5.4897335E-3,2.8540678E-3,1.1035951E-2,-4.4623464E-3,1.2262237E-3],"split_indices":[112,192,103,111,205,115,149,142,0,137,130,0,0,136,138,0,115,0,0,0,30,0,177,6,0,0,0,0,0,0,0,0,0],"split_type":[0,0,0,0,0,0,0,0,0,0,0,0,0,0,0,0,0,0,0,0,0,0,0,0,0,0,0,0,0,0,0,0,0],"sum_hessian":[3.052037E2,2.024007E2,1.0280303E2,5.6889034E1,1.4551166E2,1.9981874E1,8.282116E1,5.0602966E1,6.2860684E0,1.5652956E1,1.298587E2,5.079071E0,1.4902803E1,5.1919052E1,3.0902105E1,5.938134E0,4.4664833E1,1.0087276E1,5.56568E0,6.954482E0,1.2290421E2,7.035672E0,4.488338E1,2.5074455E1,5.827649E0,9.255484E0,3.5409348E1,6.9227E1,5.3677216E1,3.5765106E1,9.118275E0,2.0007708E1,5.0667477E0],"tree_param":{"num_deleted":"0","num_feature":"220","num_nodes":"33","size_leaf_vector":"1"}},{"base_weights":[-4.315557E-3,6.483435E-2,-3.371221E-1,3.6325533E-2,8.512729E-3,-4.1316274E-1,2.808426E-3,9.777111E-2,-2.5121823E-1,-5.127726E-1,-1.2105994E-1,4.9768898E-1,4.293882E-2,1.4327703E-2,-5.394579E-3,-1.6908755E-3,-5.628601E-3,2.800947E-3,-4.145253E-3,8.866644E-3,-1.3969671E-3,-5.5923127E-4,3.2877955E-3,-2.5132117E-3,5.110773E-3],"categories":[],"categories_nodes":[],"categories_segments":[],"categories_sizes":[],"default_left":[0,0,0,0,0,0,0,0,0,0,0,0,0,0,0,0,0,0,0,0,0,0,0,0,0],"id":38,"left_children":[1,3,5,7,-1,9,-1,11,13,15,17,19,21,23,-1,-1,-1,-1,-1,-1,-1,-1,-1,-1,-1],"loss_changes":[6.8941026E0,5.4149265E0,2.55297E0,4.2387815E0,0E0,1.2268229E0,0E0,4.271774E0,3.2858174E0,4.185238E-1,1.70505E0,6.047035E0,5.0094934E0,3.153623E0,0E0,0E0,0E0,0E0,0E0,0E0,0E0,0E0,0E0,0E0,0E0],"parents":[2147483647,0,0,1,1,2,2,3,3,5,5,7,7,8,8,9,9,10,10,11,11,12,12,13,13],"right_children":[2,4,6,8,-1,10,-1,12,14,16,18,20,22,24,-1,-1,-1,-1,-1,-1,-1,-1,-1,-1,-1],"split_conditions":[2.639311E-1,7.581261E-2,7.6537604E2,8.066344E2,8.512729E-3,2.2550147E-2,2.808426E-3,5.289156E-4,7.7957576E-3,9.69806E-1,3.0019116E-1,2E0,3.2618064E-1,5.4404706E-1,-5.394579E-3,-1.6908755E-3,-5.628601E-3,2.800947E-3,-4.145253E-3,8.866644E-3,-1.3969671E-3,-5.5923127E-4,3.2877955E-3,-2.5132117E-3,5.110773E-3],"split_indices":[105,109,40,40,0,116,0,85,67,16,211,127,65,82,0,0,0,0,0,0,0,0,0,0,0],"split_type":[0,0,0,0,0,0,0,0,0,0,0,0,0,0,0,0,0,0,0,0,0,0,0,0,0],"sum_hessian":[2.9643427E2,2.4585559E2,5.0578682E1,2.3838727E2,7.468319E0,4.547608E1,5.102602E0,1.972454E2,4.1141857E1,3.309319E1,1.2382891E1,2.2589458E1,1.7465596E2,2.1727953E1,1.9413904E1,5.0199814E0,2.807321E1,5.10685E0,7.2760406E0,1.3882948E1,8.7065115E0,1.3011009E2,4.4545856E1,1.4347852E1,7.380101E0],"tree_param":{"num_deleted":"0","num_feature":"220","num_nodes":"25","size_leaf_vector":"1"}},{"base_weights":[-2.0420069E-1,-4.0165257E-1,1.9694884E-1,1.483215E-1,-4.4324905E-1,7.304164E-1,8.305489E-2,-4.0286225E-3,7.855772E-3,2.8399827E-3,-4.6753144E-1,2.0694796E-3,1.2288688E-2,4.3874678E-1,-9.2604175E-2,-3.6186245E-4,-4.9045277E-1,7.522046E-1,-1.4313359E-3,3.4778044E-1,-2.3362799E-1,-5.2784113E-3,-2.4088381E-3,1.7246375E-3,1.1444747E-2,7.782043E-3,-9.936522E-4,1.9431817E-3,-4.225038E-3],"categories":[],"categories_nodes":[],"categories_segments":[],"categories_sizes":[],"default_left":[0,0,0,0,0,0,0,0,0,0,0,0,0,0,0,0,0,0,0,0,0,0,0,0,0,0,0,0,0],"id":39,"left_children":[1,3,5,7,9,11,13,-1,-1,-1,15,-1,-1,17,19,-1,21,23,-1,25,27,-1,-1,-1,-1,-1,-1,-1,-1],"loss_changes":[2.2008698E1,4.347164E0,5.4321785E0,5.1489186E0,3.209919E0,3.7398663E0,4.879054E0,0E0,0E0,0E0,1.5918503E0,0E0,0E0,4.8706856E0,3.3058088E0,0E0,1.2827988E0,3.5428638E0,0E0,2.6218548E0,3.3572135E0,0E0,0E0,0E0,0E0,0E0,0E0,0E0,0E0],"parents":[2147483647,0,0,1,1,2,2,3,3,4,4,5,5,6,6,10,10,13,13,14,14,16,16,17,17,19,19,20,20],"right_children":[2,4,6,8,10,12,14,-1,-1,-1,16,-1,-1,18,20,-1,22,24,-1,26,28,-1,-1,-1,-1,-1,-1,-1,-1],"split_conditions":[2.2969695E-2,3.7440147E-2,7.911605E-3,4.950039E-10,5.2757684E2,7.588548E-3,5.1336926E2,-4.0286225E-3,7.855772E-3,2.8399827E-3,-7.205401E-1,2.0694796E-3,1.2288688E-2,6.1765634E-2,1E0,-3.6186245E-4,1.2338655E0,9.136406E-1,-1.4313359E-3,5.2873904E-1,-1.9754118E-1,-5.2784113E-3,-2.4088381E-3,1.7246375E-3,1.1444747E-2,7.782043E-3,-9.936522E-4,1.9431817E-3,-4.225038E-3],"split_indices":[112,43,113,172,3,113,3,0,0,0,137,0,0,198,87,0,208,59,0,217,67,0,0,0,0,0,0,0,0],"split_type":[0,0,0,0,0,0,0,0,0,0,0,0,0,0,0,0,0,0,0,0,0,0,0,0,0,0,0,0,0],"sum_hessian":[2.756034E2,1.8486035E2,9.0743034E1,1.2649069E1,1.7221127E2,1.4858096E1,7.588494E1,6.8956685E0,5.753401E0,5.0856094E0,1.6712567E2,8.035314E0,6.8227825E0,2.4779837E1,5.1105103E1,8.783057E0,1.583426E2,1.6025873E1,8.753964E0,1.1868215E1,3.923689E1,1.3639354E2,2.1949074E1,7.1513643E0,8.874509E0,5.7838855E0,6.0843296E0,1.1843704E1,2.7393185E1],"tree_param":{"num_deleted":"0","num_feature":"220","num_nodes":"29","size_leaf_vector":"1"}},{"base_weights":[-2.2984879E-1,-3.7720236E-1,2.1708806E-1,-1.0253816E-1,-4.3139043E-1,1.2746587E-1,1.04385195E-2,-2.540726E-1,5.808755E-3,1.9624436E-3,-4.5974642E-1,-1.27532305E-2,7.187954E-1,-4.0037748E-1,3.0748623E-3,4.999651E-3,-5.080012E-3,-5.1976204E-1,-2.2380008E-1,-2.2038355E-1,5.688141E-1,-2.019285E-4,1.2178823E-2,-5.7616592E-3,-9.25358E-4,-2.4671894E-3,-5.7006394E-3,3.6977148E-3,-3.6757344E-3,3.4648186E-4,-4.9014003E-3,1.0073876E-2,-1.8346519E-3],"categories":[],"categories_nodes":[],"categories_segments":[],"categories_sizes":[],"default_left":[0,0,0,0,0,0,0,0,0,0,0,0,0,0,0,0,0,0,0,0,0,0,0,0,0,0,0,0,0,0,0,0,0],"id":40,"left_children":[1,3,5,7,9,11,-1,13,-1,15,17,19,21,23,-1,-1,-1,25,27,29,31,-1,-1,-1,-1,-1,-1,-1,-1,-1,-1,-1,-1],"loss_changes":[1.9357162E1,3.1836166E0,5.1570663E0,4.0443506E0,2.301777E0,5.6423483E0,0E0,2.7510095E0,0E0,3.3134296E0,2.2515488E0,6.740772E0,4.9438133E0,1.2792616E0,0E0,0E0,0E0,1.6510887E0,3.2990222E0,2.9129148E0,5.098048E0,0E0,0E0,0E0,0E0,0E0,0E0,0E0,0E0,0E0,0E0,0E0,0E0],"parents":[2147483647,0,0,1,1,2,2,3,3,4,4,5,5,7,7,9,9,10,10,11,11,12,12,13,13,17,17,18,18,19,19,20,20],"right_children":[2,4,6,8,10,12,-1,14,-1,16,18,20,22,24,-1,-1,-1,26,28,30,32,-1,-1,-1,-1,-1,-1,-1,-1,-1,-1,-1,-1],"split_conditions":[2.4323143E-1,7E1,3.261309E-2,5.978489E5,-1.5105814E-2,5.2402638E-2,1.04385195E-2,9.473581E-3,5.808755E-3,1.1932313E0,1.657917E-2,1.01481356E-1,2.0833333E-1,-4.945215E-3,3.0748623E-3,4.999651E-3,-5.080012E-3,-1.029053E1,1.0096651E0,8.2550937E-4,1.8086636E7,-2.019285E-4,1.2178823E-2,-5.7616592E-3,-9.25358E-4,-2.4671894E-3,-5.7006394E-3,3.6977148E-3,-3.6757344E-3,3.4648186E-4,-4.9014003E-3,1.0073876E-2,-1.8346519E-3],"split_indices":[107,100,174,190,194,201,0,11,0,110,7,10,79,84,0,0,0,164,16,210,184,0,0,0,0,0,0,0,0,0,0,0,0],"split_type":[0,0,0,0,0,0,0,0,0,0,0,0,0,0,0,0,0,0,0,0,0,0,0,0,0,0,0,0,0,0,0,0,0],"sum_hessian":[2.914374E2,2.1946147E2,7.197594E1,3.694341E1,1.8251807E2,6.608714E1,5.8887963E0,3.0872543E1,6.070865E0,1.1049973E1,1.714681E2,5.4074127E1,1.2013013E1,2.486062E1,6.0119243E0,5.6996775E0,5.350295E0,1.354007E2,3.60674E1,4.0432114E1,1.3642014E1,5.148663E0,6.86435E0,1.5062774E1,9.797846E0,2.2291784E1,1.1310891E2,6.590584E0,2.9476816E1,2.1040743E1,1.9391373E1,8.487612E0,5.1544013E0],"tree_param":{"num_deleted":"0","num_feature":"220","num_nodes":"33","size_leaf_vector":"1"}},{"base_weights":[4.3728673E-3,3.372535E-1,-5.4876346E-2,9.032754E-3,1.5229318E-1,5.5202717E-1,-8.611256E-2,8.408167E-3,-0E0,9.76071E-3,-1.8271558E-4,4.3682805E-3,-2.97145E-1,3.2377568E-1,-2.454537E-1,-5.375407E-2,8.2323134E-1,-3.6872733E-1,3.1146172E-3,8.460085E-3,-1.4278613E-3,-4.7202013E-3,1.1707082E-3,3.979674E-3,-1.3365604E-3,-1.8716091E-4,1.5342969E-2,-5.1069367E-3,-1.1127951E-3],"categories":[],"categories_nodes":[],"categories_segments":[],"categories_sizes":[],"default_left":[0,0,0,0,0,0,0,0,0,0,0,0,0,0,0,0,0,0,0,0,0,0,0,0,0,0,0,0,0],"id":41,"left_children":[1,3,5,-1,7,9,11,-1,13,-1,-1,15,17,19,21,23,25,27,-1,-1,-1,-1,-1,-1,-1,-1,-1,-1,-1],"loss_changes":[5.8898597E0,4.4846134E0,4.7801256E0,0E0,3.7681751E0,3.0925736E0,4.6281843E0,0E0,2.4487443E0,0E0,0E0,8.173225E0,3.2835364E0,3.405625E0,1.5436622E0,5.7581387E0,6.997917E0,2.2773714E0,0E0,0E0,0E0,0E0,0E0,0E0,0E0,0E0,0E0,0E0,0E0],"parents":[2147483647,0,0,1,1,2,2,4,4,5,5,6,6,8,8,11,11,12,12,13,13,14,14,15,15,16,16,17,17],"right_children":[2,4,6,-1,8,10,12,-1,14,-1,-1,16,18,20,22,24,26,28,-1,-1,-1,-1,-1,-1,-1,-1,-1,-1,-1],"split_conditions":[1.5022879E1,1.2213273E7,6.102797E5,9.032754E-3,-3.394958E-1,6.4437735E-1,1.5098344E-2,8.408167E-3,-8.3805494E-2,9.76071E-3,-1.8271558E-4,1.0656115E-2,1.6680858E0,1.1723194E-2,9.235759E-1,-6.0944997E-2,3.342182E-7,2.8737646E-1,3.1146172E-3,8.460085E-3,-1.4278613E-3,-4.7202013E-3,1.1707082E-3,3.979674E-3,-1.3365604E-3,-1.8716091E-4,1.5342969E-2,-5.1069367E-3,-1.1127951E-3],"split_indices":[32,58,181,0,67,78,9,0,145,0,0,9,137,121,111,199,182,104,0,0,0,0,0,0,0,0,0,0,0],"split_type":[0,0,0,0,0,0,0,0,0,0,0,0,0,0,0,0,0,0,0,0,0,0,0,0,0,0,0,0,0],"sum_hessian":[2.952602E2,4.415866E1,2.5110152E2,9.78623E0,3.4372433E1,1.1318318E1,2.397832E2,5.490454E0,2.8881977E1,6.184036E0,5.134283E0,1.6818065E2,7.1602554E1,1.2192911E1,1.6689066E1,1.5779285E2,1.0387796E1,6.4566864E1,7.0356884E0,5.4706E0,6.7223115E0,1.0254273E1,6.4347925E0,2.2929564E1,1.348633E2,5.137596E0,5.2502E0,4.073304E1,2.3833828E1],"tree_param":{"num_deleted":"0","num_feature":"220","num_nodes":"29","size_leaf_vector":"1"}},{"base_weights":[3.844616E-1,5.915139E-1,-2.1385228E-2,2.3948266E-1,7.0897067E-1,8.399868E-3,-8.542414E-2,-6.156477E-3,8.4180534E-1,-1.2955208E-3,7.604602E-1,-2.8939146E-1,1.5030976E-1,2.1863815E-1,-4.917754E-3,1.2198168E-2,8.998399E-4,-1.9338588E-3,7.9909354E-1,2.863783E-3,-4.058285E-1,-6.112187E-3,7.1431473E-3,-1.1692414E-3,9.479542E-3,3.9080903E-3,9.126681E-3,3.875621E-4,-4.759211E-3,3.5024239E-3,-3.0053663E-3],"categories":[],"categories_nodes":[],"categories_segments":[],"categories_sizes":[],"default_left":[0,0,0,0,0,0,0,0,0,0,0,0,0,0,0,0,0,0,0,0,0,0,0,0,0,0,0,0,0,0,0],"id":42,"left_children":[1,3,5,7,9,-1,11,13,15,-1,17,19,21,23,-1,-1,-1,-1,25,-1,27,29,-1,-1,-1,-1,-1,-1,-1,-1,-1],"loss_changes":[2.5702187E1,8.095398E0,5.7248096E0,7.8275957E0,6.675827E0,0E0,4.7540274E0,4.286203E0,4.100999E0,0E0,5.4628754E0,3.6771402E0,4.110667E0,6.690749E0,0E0,0E0,0E0,0E0,5.8731995E0,0E0,1.4517083E0,3.946952E0,0E0,0E0,0E0,0E0,0E0,0E0,0E0,0E0,0E0],"parents":[2147483647,0,0,1,1,2,2,3,3,4,4,6,6,7,7,8,8,10,10,11,11,12,12,13,13,18,18,20,20,21,21],"right_children":[2,4,6,8,10,-1,12,14,16,-1,18,20,22,24,-1,-1,-1,-1,26,-1,28,30,-1,-1,-1,-1,-1,-1,-1,-1,-1],"split_conditions":[2.1679969E-1,4.781371E-1,-5.370078E-1,1.058618E0,4.5948488E-1,8.399868E-3,2.1409903E0,1.110223E-16,3.6770222E-1,-1.2955208E-3,-1.3367233E-2,2.4700467E9,1.2110859E0,6.74283E1,-4.917754E-3,1.2198168E-2,8.998399E-4,-1.9338588E-3,-5.6741495E0,2.863783E-3,7.918957E-2,7.80614E-1,7.1431473E-3,-1.1692414E-3,9.479542E-3,3.9080903E-3,9.126681E-3,3.875621E-4,-4.759211E-3,3.5024239E-3,-3.0053663E-3],"split_indices":[108,139,65,63,205,0,164,186,78,0,167,179,111,35,0,0,0,0,28,0,43,170,0,0,0,0,0,0,0,0,0],"split_type":[0,0,0,0,0,0,0,0,0,0,0,0,0,0,0,0,0,0,0,0,0,0,0,0,0,0,0,0,0,0,0],"sum_hessian":[3.0403473E2,2.0118462E2,1.02850105E2,5.1305775E1,1.4987883E2,6.1707296E0,9.6679375E1,3.702855E1,1.4277223E1,8.470811E0,1.4140802E2,5.1937424E1,4.474195E1,2.5546734E1,1.1481817E1,8.9977255E0,5.2794967E0,5.247784E0,1.3616025E2,8.346494E0,4.359093E1,3.5662987E1,9.078963E0,1.7977673E1,7.5690603E0,3.0791306E1,1.05368935E2,5.8031273E0,3.7787804E1,1.5895161E1,1.9767826E1],"tree_param":{"num_deleted":"0","num_feature":"220","num_nodes":"31","size_leaf_vector":"1"}},{"base_weights":[2.8153315E-2,1.6326922E-1,-1.7517716E-1,-2.7666035E-1,2.5307035E-1,-3.871398E-1,2.3081461E-2,2.9112196E-3,-4.325479E-1,1.0585831E0,